{"learner":{"attributes":{"scikit_learn":"{\"_estimator_type\": \"regressor\"}"},"feature_names":[],"feature_types":[],"gradient_booster":{"model":{"gbtree_model_param":{"num_parallel_tree":"1","num_trees":"150"},"iteration_indptr":[0,1,2,3,4,5,6,7,8,9,10,11,12,13,14,15,16,17,18,19,20,21,22,23,24,25,26,27,28,29,30,31,32,33,34,35,36,37,38,39,40,41,42,43,44,45,46,47,48,49,50,51,52,53,54,55,56,57,58,59,60,61,62,63,64,65,66,67,68,69,70,71,72,73,74,75,76,77,78,79,80,81,82,83,84,85,86,87,88,89,90,91,92,93,94,95,96,97,98,99,100,101,102,103,104,105,106,107,108,109,110,111,112,113,114,115,116,117,118,119,120,121,122,123,124,125,126,127,128,129,130,131,132,133,134,135,136,137,138,139,140,141,142,143,144,145,146,147,148,149,150],"tree_info":[0,0,0,0,0,0,0,0,0,0,0,0,0,0,0,0,0,0,0,0,0,0,0,0,0,0,0,0,0,0,0,0,0,0,0,0,0,0,0,0,0,0,0,0,0,0,0,0,0,0,0,0,0,0,0,0,0,0,0,0,0,0,0,0,0,0,0,0,0,0,0,0,0,0,0,0,0,0,0,0,0,0,0,0,0,0,0,0,0,0,0,0,0,0,0,0,0,0,0,0,0,0,0,0,0,0,0,0,0,0,0,0,0,0,0,0,0,0,0,0,0,0,0,0,0,0,0,0,0,0,0,0,0,0,0,0,0,0,0,0,0,0,0,0,0,0,0,0,0,0],"trees":[{"base_weights":[-1.7751464E-4,-3.2840036E-2,4.3548476E-2,-6.087123E-2,-1.4477975E-2,2.474645E-2,6.89505E-2,-1.2190376E-3,-5.2535825E-4,-2.495157E-4,-4.492597E-5,1.5112039E-4,3.5515084E-4,4.8951723E-4,8.333367E-4],"categories":[],"categories_nodes":[],"categories_segments":[],"categories_sizes":[],"default_left":[0,0,0,0,0,0,0,0,0,0,0,0,0,0,0],"id":0,"left_children":[1,3,5,7,9,11,13,-1,-1,-1,-1,-1,-1,-1,-1],"loss_changes":[7.605885E1,1.5689552E1,1.08739395E1,6.131439E0,1.9263034E0,1.3572321E0,2.7817726E0,0E0,0E0,0E0,0E0,0E0,0E0,0E0,0E0],"parents":[2147483647,0,0,1,1,2,2,3,3,4,4,5,5,6,6],"right_children":[2,4,6,8,10,12,14,-1,-1,-1,-1,-1,-1,-1,-1],"split_conditions":[3.5000002E-1,2.8333336E-1,4.1111112E-1,2.1111113E-1,3.166667E-1,3.7777779E-1,4.0000004E-1,-1.2190376E-3,-5.2535825E-4,-2.495157E-4,-4.492597E-5,1.5112039E-4,3.5515084E-4,4.8951723E-4,8.333367E-4],"split_indices":[24,24,24,12,24,24,9,0,0,0,0,0,0,0,0],"split_type":[0,0,0,0,0,0,0,0,0,0,0,0,0,0,0],"sum_hessian":[5.3253E4,3.0483E4,2.277E4,1.2064E4,1.8419E4,1.3086E4,9.684E3,1.448E3,1.0616E4,8.989E3,9.43E3,6.908E3,6.178E3,4.053E3,5.631E3],"tree_param":{"num_deleted":"0","num_feature":"30","num_nodes":"15","size_leaf_vector":"1"}},{"base_weights":[4.4440014E-5,-3.702016E-2,4.3905918E-2,-6.402224E-2,-1.7980991E-2,2.3286844E-2,7.528714E-2,-1.1589449E-3,-5.567642E-4,-2.9758803E-4,-8.8195426E-5,1.1795032E-4,3.4465353E-4,6.2751723E-4,9.238394E-4],"categories":[],"categories_nodes":[],"categories_segments":[],"categories_sizes":[],"default_left":[0,0,0,0,0,0,0,0,0,0,0,0,0,0,0],"id":1,"left_children":[1,3,5,7,9,11,13,-1,-1,-1,-1,-1,-1,-1,-1],"loss_changes":[8.640639E1,1.4808449E1,1.5749432E1,5.1504555E0,1.8228464E0,1.8869476E0,2.0627708E0,0E0,0E0,0E0,0E0,0E0,0E0,0E0,0E0],"parents":[2147483647,0,0,1,1,2,2,3,3,4,4,5,5,6,6],"right_children":[2,4,6,8,10,12,14,-1,-1,-1,-1,-1,-1,-1,-1],"split_conditions":[3.4444445E-1,2.8333336E-1,4.1111112E-1,2.1666667E-1,3.1111112E-1,3.7222224E-1,4.2222226E-1,-1.1589449E-3,-5.567642E-4,-2.9758803E-4,-8.8195426E-5,1.1795032E-4,3.4465353E-4,6.2751723E-4,9.238394E-4],"split_indices":[27,27,27,12,27,27,9,0,0,0,0,0,0,0,0],"split_type":[0,0,0,0,0,0,0,0,0,0,0,0,0,0,0],"sum_hessian":[5.3148E4,2.8806E4,2.4342E4,1.1911E4,1.6895E4,1.4691E4,9.651E3,1.649E3,1.0262E4,7.391E3,9.504E3,7.245E3,7.446E3,5.571E3,4.08E3],"tree_param":{"num_deleted":"0","num_feature":"30","num_nodes":"15","size_leaf_vector":"1"}},{"base_weights":[2.4292468E-4,-3.646858E-2,4.374575E-2,-6.519621E-2,-1.9363567E-2,2.155881E-2,7.259596E-2,-1.2876859E-3,-5.802795E-4,-3.153163E-4,-8.200671E-5,1.210133E-4,3.2012325E-4,5.641023E-4,8.704403E-4],"categories":[],"categories_nodes":[],"categories_segments":[],"categories_sizes":[],"default_left":[0,0,0,0,0,0,0,0,0,0,0,0,0,0,0],"id":2,"left_children":[1,3,5,7,9,11,13,-1,-1,-1,-1,-1,-1,-1,-1],"loss_changes":[8.486587E1,1.4160007E1,1.5565617E1,4.8936157E0,2.453526E0,1.3588924E0,2.4673767E0,0E0,0E0,0E0,0E0,0E0,0E0,0E0,0E0],"parents":[2147483647,0,0,1,1,2,2,3,3,4,4,5,5,6,6],"right_children":[2,4,6,8,10,12,14,-1,-1,-1,-1,-1,-1,-1,-1],"split_conditions":[3.4444445E-1,2.777778E-1,4.0555555E-1,2.0000002E-1,3.1111112E-1,3.7222224E-1,4.4444448E-1,-1.2876859E-3,-5.802795E-4,-3.153163E-4,-8.200671E-5,1.210133E-4,3.2012325E-4,5.641023E-4,8.704403E-4],"split_indices":[27,27,27,15,27,27,27,0,0,0,0,0,0,0,0],"split_type":[0,0,0,0,0,0,0,0,0,0,0,0,0,0,0],"sum_hessian":[5.3137E4,2.8818E4,2.4319E4,1.0754E4,1.8064E4,1.3748E4,1.0571E4,1.088E3,9.666E3,8.642E3,9.422E3,7.219E3,6.529E3,4.988E3,5.583E3],"tree_param":{"num_deleted":"0","num_feature":"30","num_nodes":"15","size_leaf_vector":"1"}},{"base_weights":[-1.2666582E-4,-2.8350592E-2,3.416626E-2,-6.348023E-2,-1.8358609E-2,1.7362172E-2,5.3270947E-2,-1.1940241E-3,-4.974444E-4,-3.1008554E-4,-8.2858816E-5,7.8207016E-4,1.5803895E-4,3.7722487E-4,7.1318966E-4],"categories":[],"categories_nodes":[],"categories_segments":[],"categories_sizes":[],"default_left":[0,0,0,0,0,0,0,0,0,0,0,0,0,0,0],"id":3,"left_children":[1,3,5,7,9,11,13,-1,-1,-1,-1,-1,-1,-1,-1],"loss_changes":[5.1834866E1,1.0310595E1,7.7611046E0,4.990778E0,2.9142084E0,1.2185333E0,3.1722374E0,0E0,0E0,0E0,0E0,0E0,0E0,0E0,0E0],"parents":[2147483647,0,0,1,1,2,2,3,3,4,4,5,5,6,6],"right_children":[2,4,6,8,10,12,14,-1,-1,-1,-1,-1,-1,-1,-1],"split_conditions":[3.4444445E-1,2.5555557E-1,4.0000004E-1,2.1111113E-1,3E-1,6.0606055E-2,4.1111112E-1,-1.1940241E-3,-4.974444E-4,-3.1008554E-4,-8.2858816E-5,7.8207016E-4,1.5803895E-4,3.7722487E-4,7.1318966E-4],"split_indices":[18,18,18,0,18,28,0,0,0,0,0,0,0,0,0],"split_type":[0,0,0,0,0,0,0,0,0,0,0,0,0,0,0],"sum_hessian":[5.3553E4,2.9376E4,2.4177E4,6.504E3,2.2872E4,1.2864E4,1.1313E4,1.281E3,5.223E3,1.0138E4,1.2734E4,3.2E2,1.2544E4,6.079E3,5.234E3],"tree_param":{"num_deleted":"0","num_feature":"30","num_nodes":"15","size_leaf_vector":"1"}},{"base_weights":[-2.5664494E-4,-3.6387127E-2,4.271248E-2,-6.260403E-2,-1.8023908E-2,2.570282E-2,7.718162E-2,-1.1514587E-3,-5.43647E-4,-2.9408824E-4,-9.0763824E-5,1.4060683E-4,3.866524E-4,-6.176881E-5,8.014761E-4],"categories":[],"categories_nodes":[],"categories_segments":[],"categories_sizes":[],"default_left":[0,0,0,0,0,0,0,0,0,0,0,0,0,0,0],"id":4,"left_children":[1,3,5,7,9,11,13,-1,-1,-1,-1,-1,-1,-1,-1],"loss_changes":[8.2656395E1,1.3922695E1,1.4256451E1,5.150997E0,1.7324877E0,2.4570303E0,1.987072E0,0E0,0E0,0E0,0E0,0E0,0E0,0E0,0E0],"parents":[2147483647,0,0,1,1,2,2,3,3,4,4,5,5,6,6],"right_children":[2,4,6,8,10,12,14,-1,-1,-1,-1,-1,-1,-1,-1],"split_conditions":[3.4444445E-1,2.8333336E-1,4.2222226E-1,2.1666667E-1,3.1111112E-1,3.7777779E-1,3.277778E-1,-1.1514587E-3,-5.43647E-4,-2.9408824E-4,-9.0763824E-5,1.4060683E-4,3.866524E-4,-6.176881E-5,8.014761E-4],"split_indices":[27,27,27,12,27,27,24,0,0,0,0,0,0,0,0],"split_type":[0,0,0,0,0,0,0,0,0,0,0,0,0,0,0],"sum_hessian":[5.3239E4,2.8921E4,2.4318E4,1.1912E4,1.7009E4,1.6284E4,8.034E3,1.613E3,1.0299E4,7.484E3,9.525E3,8.58E3,7.704E3,2.76E2,7.758E3],"tree_param":{"num_deleted":"0","num_feature":"30","num_nodes":"15","size_leaf_vector":"1"}},{"base_weights":[-1.4152292E-4,-3.0869754E-2,4.117222E-2,-5.645675E-2,-1.4243583E-2,2.6088493E-2,6.8744E-2,-1.1360915E-3,-4.8714E-4,-2.3956304E-4,-4.922629E-5,1.0581741E-3,2.469626E-4,4.7007392E-4,8.2194066E-4],"categories":[],"categories_nodes":[],"categories_segments":[],"categories_sizes":[],"default_left":[0,0,0,0,0,0,0,0,0,0,0,0,0,0,0],"id":5,"left_children":[1,3,5,7,9,11,13,-1,-1,-1,-1,-1,-1,-1,-1],"loss_changes":[6.768457E1,1.300622E1,9.4558525E0,5.3232536E0,1.677799E0,1.6292162E0,2.3469963E0,0E0,0E0,0E0,0E0,0E0,0E0,0E0,0E0],"parents":[2147483647,0,0,1,1,2,2,3,3,4,4,5,5,6,6],"right_children":[2,4,6,8,10,12,14,-1,-1,-1,-1,-1,-1,-1,-1],"split_conditions":[3.5000002E-1,2.8333336E-1,4.2222226E-1,2.1111113E-1,3.166667E-1,4.545454E-2,3.7222224E-1,-1.1360915E-3,-4.8714E-4,-2.3956304E-4,-4.922629E-5,1.0581741E-3,2.469626E-4,4.7007392E-4,8.2194066E-4],"split_indices":[24,24,24,12,24,28,0,0,0,0,0,0,0,0,0],"split_type":[0,0,0,0,0,0,0,0,0,0,0,0,0,0,0],"sum_hessian":[5.3314E4,3.0574E4,2.274E4,1.2041E4,1.8533E4,1.47E4,8.04E3,1.435E3,1.0606E4,9.075E3,9.458E3,2.51E2,1.4449E4,3.075E3,4.965E3],"tree_param":{"num_deleted":"0","num_feature":"30","num_nodes":"15","size_leaf_vector":"1"}},{"base_weights":[-4.1553852E-4,-2.7785175E-2,2.8934944E-2,-7.023411E-2,-2.0293104E-2,1.3400565E-2,4.8838776E-2,-1.2368225E-3,-5.167365E-4,-3.1552196E-4,-1.05286235E-4,1.0658592E-3,1.19135984E-4,2.2025936E-4,5.9877185E-4],"categories":[],"categories_nodes":[],"categories_segments":[],"categories_sizes":[],"default_left":[0,0,0,0,0,0,0,0,0,0,0,0,0,0,0],"id":6,"left_children":[1,3,5,7,9,11,13,-1,-1,-1,-1,-1,-1,-1,-1],"loss_changes":[4.266953E1,8.739962E0,7.924288E0,4.0837173E0,2.568286E0,1.9936295E0,3.3239174E0,0E0,0E0,0E0,0E0,0E0,0E0,0E0,0E0],"parents":[2147483647,0,0,1,1,2,2,3,3,4,4,5,5,6,6],"right_children":[2,4,6,8,10,12,14,-1,-1,-1,-1,-1,-1,-1,-1],"split_conditions":[3.388889E-1,2.3888889E-1,4.0000004E-1,2.0555556E-1,2.9444447E-1,4.545454E-2,3.6666667E-1,-1.2368225E-3,-5.167365E-4,-3.1552196E-4,-1.05286235E-4,1.0658592E-3,1.19135984E-4,2.2025936E-4,5.9877185E-4],"split_indices":[15,15,15,0,15,28,0,0,0,0,0,0,0,0,0],"split_type":[0,0,0,0,0,0,0,0,0,0,0,0,0,0,0],"sum_hessian":[5.3115E4,2.7485E4,2.563E4,4.122E3,2.3363E4,1.4396E4,1.1234E4,1.061E3,3.061E3,1.085E4,1.2513E4,2.25E2,1.4171E4,3.277E3,7.957E3],"tree_param":{"num_deleted":"0","num_feature":"30","num_nodes":"15","size_leaf_vector":"1"}},{"base_weights":[-1.1319822E-4,-3.3315424E-2,4.4107385E-2,-6.0900614E-2,-1.516208E-2,2.79049E-2,7.8270264E-2,-1.2684418E-3,-5.442694E-4,-2.445706E-4,-2.7767082E-5,1.8103358E-4,4.280886E-4,-2.3615036E-4,8.1087445E-4],"categories":[],"categories_nodes":[],"categories_segments":[],"categories_sizes":[],"default_left":[0,0,0,0,0,0,0,0,0,0,0,0,0,0,0],"id":7,"left_children":[1,3,5,7,9,11,13,-1,-1,-1,-1,-1,-1,-1,-1],"loss_changes":[7.8015434E1,1.5196743E1,1.2610958E1,5.135071E0,2.1072364E0,2.2573566E0,2.1058464E0,0E0,0E0,0E0,0E0,0E0,0E0,0E0,0E0],"parents":[2147483647,0,0,1,1,2,2,3,3,4,4,5,5,6,6],"right_children":[2,4,6,8,10,12,14,-1,-1,-1,-1,-1,-1,-1,-1],"split_conditions":[3.5000002E-1,2.8333336E-1,4.2777783E-1,2.0000002E-1,3.2222223E-1,3.888889E-1,3.1111112E-1,-1.2684418E-3,-5.442694E-4,-2.445706E-4,-2.7767082E-5,1.8103358E-4,4.280886E-4,-2.3615036E-4,8.1087445E-4],"split_indices":[27,27,27,15,27,27,24,0,0,0,0,0,0,0,0],"split_type":[0,0,0,0,0,0,0,0,0,0,0,0,0,0,0],"sum_hessian":[5.3134E4,3.0348E4,2.2786E4,1.2044E4,1.8304E4,1.5457E4,7.329E3,1.075E3,1.0969E4,1.0456E4,7.848E3,9.326E3,6.131E3,1.97E2,7.132E3],"tree_param":{"num_deleted":"0","num_feature":"30","num_nodes":"15","size_leaf_vector":"1"}},{"base_weights":[-5.6964833E-5,-3.4654364E-2,4.0971577E-2,-6.237544E-2,-1.83489E-2,2.4373127E-2,7.424742E-2,-1.256737E-3,-5.6210713E-4,-3.002122E-4,-7.791023E-5,1.470079E-4,3.8484752E-4,5.932302E-4,8.9792826E-4],"categories":[],"categories_nodes":[],"categories_segments":[],"categories_sizes":[],"default_left":[0,0,0,0,0,0,0,0,0,0,0,0,0,0,0],"id":8,"left_children":[1,3,5,7,9,11,13,-1,-1,-1,-1,-1,-1,-1,-1],"loss_changes":[7.553199E1,1.3047337E1,1.3443497E1,4.1647415E0,2.2399316E0,2.2164803E0,1.8741531E0,0E0,0E0,0E0,0E0,0E0,0E0,0E0,0E0],"parents":[2147483647,0,0,1,1,2,2,3,3,4,4,5,5,6,6],"right_children":[2,4,6,8,10,12,14,-1,-1,-1,-1,-1,-1,-1,-1],"split_conditions":[3.4444445E-1,2.777778E-1,4.2222226E-1,1.9444445E-1,3.1111112E-1,3.8333336E-1,4.0555555E-1,-1.256737E-3,-5.6210713E-4,-3.002122E-4,-7.791023E-5,1.470079E-4,3.8484752E-4,5.932302E-4,8.9792826E-4],"split_indices":[27,27,27,15,27,27,6,0,0,0,0,0,0,0,0],"split_type":[0,0,0,0,0,0,0,0,0,0,0,0,0,0,0],"sum_hessian":[5.3209E4,2.8867E4,2.4342E4,1.069E4,1.8177E4,1.6242E4,8.1E3,9.47E2,9.743E3,8.632E3,9.545E3,9.638E3,6.604E3,4.135E3,3.965E3],"tree_param":{"num_deleted":"0","num_feature":"30","num_nodes":"15","size_leaf_vector":"1"}},{"base_weights":[-2.0878202E-4,-3.1376958E-2,3.717168E-2,-5.716932E-2,-1.6337667E-2,1.9136313E-2,6.1263364E-2,-1.0423075E-3,-4.7641702E-4,-2.8234514E-4,-8.78254E-5,9.702362E-5,2.9273637E-4,4.1533422E-4,7.2860543E-4],"categories":[],"categories_nodes":[],"categories_segments":[],"categories_sizes":[],"default_left":[0,0,0,0,0,0,0,0,0,0,0,0,0,0,0],"id":9,"left_children":[1,3,5,7,9,11,13,-1,-1,-1,-1,-1,-1,-1,-1],"loss_changes":[6.2081333E1,1.1270241E1,1.0525951E1,4.7936325E0,1.6496296E0,1.3249311E0,2.3702087E0,0E0,0E0,0E0,0E0,0E0,0E0,0E0,0E0],"parents":[2147483647,0,0,1,1,2,2,3,3,4,4,5,5,6,6],"right_children":[2,4,6,8,10,12,14,-1,-1,-1,-1,-1,-1,-1,-1],"split_conditions":[3.4444445E-1,2.777778E-1,4.0555555E-1,2.2222224E-1,3.0555558E-1,3.7222224E-1,3.6666667E-1,-1.0423075E-3,-4.7641702E-4,-2.8234514E-4,-8.78254E-5,9.702362E-5,2.9273637E-4,4.1533422E-4,7.2860543E-4],"split_indices":[24,24,24,3,24,24,0,0,0,0,0,0,0,0,0],"split_type":[0,0,0,0,0,0,0,0,0,0,0,0,0,0,0],"sum_hessian":[5.3283E4,2.9056E4,2.4227E4,1.0701E4,1.8355E4,1.3856E4,1.0371E4,1.8E3,8.901E3,7.128E3,1.1227E4,7.178E3,6.678E3,3.841E3,6.53E3],"tree_param":{"num_deleted":"0","num_feature":"30","num_nodes":"15","size_leaf_vector":"1"}},{"base_weights":[-8.300091E-5,-3.2475628E-2,4.2671166E-2,-5.8770355E-2,-1.5293479E-2,2.3034554E-2,6.926988E-2,-1.0992208E-3,-5.117094E-4,-2.4059557E-4,-3.7089463E-5,1.5353836E-4,3.5421245E-4,1.3860874E-3,6.611307E-4],"categories":[],"categories_nodes":[],"categories_segments":[],"categories_sizes":[],"default_left":[0,0,0,0,0,0,0,0,0,0,0,0,0,0,0],"id":10,"left_children":[1,3,5,7,9,11,13,-1,-1,-1,-1,-1,-1,-1,-1],"loss_changes":[7.399488E1,1.3732918E1,1.2027695E1,4.6641006E0,1.8670259E0,1.26014E0,2.1317978E0,0E0,0E0,0E0,0E0,0E0,0E0,0E0,0E0],"parents":[2147483647,0,0,1,1,2,2,3,3,4,4,5,5,6,6],"right_children":[2,4,6,8,10,12,14,-1,-1,-1,-1,-1,-1,-1,-1],"split_conditions":[3.5000002E-1,2.8333336E-1,4.1111112E-1,2.1666667E-1,3.2222223E-1,3.8333336E-1,6.0606055E-2,-1.0992208E-3,-5.117094E-4,-2.4059557E-4,-3.7089463E-5,1.5353836E-4,3.5421245E-4,1.3860874E-3,6.611307E-4],"split_indices":[27,27,27,6,27,27,28,0,0,0,0,0,0,0,0],"split_type":[0,0,0,0,0,0,0,0,0,0,0,0,0,0,0],"sum_hessian":[5.3427E4,3.0397E4,2.303E4,1.2012E4,1.8385E4,1.325E4,9.78E3,1.552E3,1.046E4,1.0465E4,7.92E3,8.18E3,5.07E3,4.24E2,9.356E3],"tree_param":{"num_deleted":"0","num_feature":"30","num_nodes":"15","size_leaf_vector":"1"}},{"base_weights":[-4.162292E-4,-3.403348E-2,3.933466E-2,-6.0048588E-2,-1.8754758E-2,1.9354813E-2,6.538408E-2,-1.1799519E-3,-5.3776073E-4,-2.9093635E-4,-9.435602E-5,1.104759E-4,2.86133E-4,5.3994067E-4,8.3393557E-4],"categories":[],"categories_nodes":[],"categories_segments":[],"categories_sizes":[],"default_left":[0,0,0,0,0,0,0,0,0,0,0,0,0,0,0],"id":11,"left_children":[1,3,5,7,9,11,13,-1,-1,-1,-1,-1,-1,-1,-1],"loss_changes":[7.124299E1,1.1480015E1,1.2712612E1,3.878067E0,1.753192E0,1.0630736E0,2.1704712E0,0E0,0E0,0E0,0E0,0E0,0E0,0E0,0E0],"parents":[2147483647,0,0,1,1,2,2,3,3,4,4,5,5,6,6],"right_children":[2,4,6,8,10,12,14,-1,-1,-1,-1,-1,-1,-1,-1],"split_conditions":[3.4444445E-1,2.777778E-1,4.0555555E-1,2.0000002E-1,3.1111112E-1,3.7222224E-1,4.6111113E-1,-1.1799519E-3,-5.3776073E-4,-2.9093635E-4,-9.435602E-5,1.104759E-4,2.86133E-4,5.3994067E-4,8.3393557E-4],"split_indices":[27,27,27,15,27,27,27,0,0,0,0,0,0,0,0],"split_type":[0,0,0,0,0,0,0,0,0,0,0,0,0,0,0],"sum_hessian":[5.3311E4,2.8884E4,2.4427E4,1.0686E4,1.8198E4,1.3825E4,1.0602E4,1.042E3,9.644E3,8.626E3,9.572E3,7.288E3,6.537E3,6.497E3,4.105E3],"tree_param":{"num_deleted":"0","num_feature":"30","num_nodes":"15","size_leaf_vector":"1"}},{"base_weights":[-3.407051E-4,-3.5894386E-2,3.6765285E-2,-6.1557475E-2,-1.933026E-2,1.7633481E-2,6.470264E-2,-1.1362635E-3,-5.424874E-4,-2.8238568E-4,-9.766575E-5,8.519117E-5,2.986954E-4,5.0161645E-4,7.7855476E-4],"categories":[],"categories_nodes":[],"categories_segments":[],"categories_sizes":[],"default_left":[0,0,0,0,0,0,0,0,0,0,0,0,0,0,0],"id":12,"left_children":[1,3,5,7,9,11,13,-1,-1,-1,-1,-1,-1,-1,-1],"loss_changes":[7.008804E1,1.1531837E1,1.3893513E1,4.043728E0,1.4046106E0,1.7206707E0,2.016899E0,0E0,0E0,0E0,0E0,0E0,0E0,0E0,0E0],"parents":[2147483647,0,0,1,1,2,2,3,3,4,4,5,5,6,6],"right_children":[2,4,6,8,10,12,14,-1,-1,-1,-1,-1,-1,-1,-1],"split_conditions":[3.388889E-1,2.777778E-1,4.0555555E-1,2.1111113E-1,3.1111112E-1,3.7222224E-1,4.4444448E-1,-1.1362635E-3,-5.424874E-4,-2.8238568E-4,-9.766575E-5,8.519117E-5,2.986954E-4,5.0161645E-4,7.7855476E-4],"split_indices":[27,27,27,0,27,27,27,0,0,0,0,0,0,0,0],"split_type":[0,0,0,0,0,0,0,0,0,0,0,0,0,0,0],"sum_hessian":[5.3125E4,2.713E4,2.5995E4,1.0641E4,1.6489E4,1.543E4,1.0565E4,1.308E3,9.333E3,8.536E3,7.953E3,8.844E3,6.586E3,5.02E3,5.545E3],"tree_param":{"num_deleted":"0","num_feature":"30","num_nodes":"15","size_leaf_vector":"1"}},{"base_weights":[-1.04097235E-4,-3.3487737E-2,3.9221603E-2,-5.7095114E-2,-1.6774878E-2,1.9347336E-2,6.5065116E-2,-1.043912E-3,-4.9767183E-4,-2.6830228E-4,-8.987303E-5,1.0343104E-4,2.9261364E-4,1.3409152E-3,6.183064E-4],"categories":[],"categories_nodes":[],"categories_segments":[],"categories_sizes":[],"default_left":[0,0,0,0,0,0,0,0,0,0,0,0,0,0,0],"id":13,"left_children":[1,3,5,7,9,11,13,-1,-1,-1,-1,-1,-1,-1,-1],"loss_changes":[6.9928154E1,1.136554E1,1.2559853E1,4.1333466E0,1.3207164E0,1.2339191E0,2.3652344E0,0E0,0E0,0E0,0E0,0E0,0E0,0E0,0E0],"parents":[2147483647,0,0,1,1,2,2,3,3,4,4,5,5,6,6],"right_children":[2,4,6,8,10,12,14,-1,-1,-1,-1,-1,-1,-1,-1],"split_conditions":[3.4444445E-1,2.8333336E-1,4.0555555E-1,2.1666667E-1,3.1111112E-1,3.7222224E-1,6.0606055E-2,-1.043912E-3,-4.9767183E-4,-2.6830228E-4,-8.987303E-5,1.0343104E-4,2.9261364E-4,1.3409152E-3,6.183064E-4],"split_indices":[27,27,27,12,27,27,28,0,0,0,0,0,0,0,0],"split_type":[0,0,0,0,0,0,0,0,0,0,0,0,0,0,0],"sum_hessian":[5.3263E4,2.8808E4,2.4455E4,1.194E4,1.6868E4,1.3825E4,1.063E4,1.6E3,1.034E4,7.361E3,9.507E3,7.246E3,6.579E3,4.74E2,1.0156E4],"tree_param":{"num_deleted":"0","num_feature":"30","num_nodes":"15","size_leaf_vector":"1"}},{"base_weights":[1.3831207E-4,-3.3122357E-2,3.938606E-2,-5.7137076E-2,-1.5914878E-2,2.3293627E-2,7.150461E-2,-1.2018715E-3,-5.136348E-4,-2.3244081E-4,-3.7242447E-5,1.4183494E-4,3.658809E-4,1.4052803E-3,6.7747844E-4],"categories":[],"categories_nodes":[],"categories_segments":[],"categories_sizes":[],"default_left":[0,0,0,0,0,0,0,0,0,0,0,0,0,0,0],"id":14,"left_children":[1,3,5,7,9,11,13,-1,-1,-1,-1,-1,-1,-1,-1],"loss_changes":[6.919828E1,1.1855978E1,1.2566437E1,4.3537636E0,1.4935374E0,1.9616547E0,2.0949974E0,0E0,0E0,0E0,0E0,0E0,0E0,0E0,0E0],"parents":[2147483647,0,0,1,1,2,2,3,3,4,4,5,5,6,6],"right_children":[2,4,6,8,10,12,14,-1,-1,-1,-1,-1,-1,-1,-1],"split_conditions":[3.4444445E-1,2.8333336E-1,4.2222226E-1,1.9444445E-1,3.2222223E-1,3.8333336E-1,6.0606055E-2,-1.2018715E-3,-5.136348E-4,-2.3244081E-4,-3.7242447E-5,1.4183494E-4,3.658809E-4,1.4052803E-3,6.7747844E-4],"split_indices":[27,27,27,21,27,27,28,0,0,0,0,0,0,0,0],"split_type":[0,0,0,0,0,0,0,0,0,0,0,0,0,0,0],"sum_hessian":[5.3007E4,2.8692E4,2.4315E4,1.1976E4,1.6716E4,1.62E4,8.115E3,1.003E3,1.0973E4,1.0439E4,6.277E3,9.614E3,6.586E3,4.17E2,7.698E3],"tree_param":{"num_deleted":"0","num_feature":"30","num_nodes":"15","size_leaf_vector":"1"}},{"base_weights":[1.7124022E-4,-3.052074E-2,4.1053943E-2,-5.5800047E-2,-1.4152047E-2,2.5879133E-2,7.28185E-2,-1.1814953E-3,-5.04598E-4,-2.2660657E-4,-2.7449549E-5,1.6720722E-4,3.9422067E-4,2.164196E-4,7.724347E-4],"categories":[],"categories_nodes":[],"categories_segments":[],"categories_sizes":[],"default_left":[0,0,0,0,0,0,0,0,0,0,0,0,0,0,0],"id":15,"left_children":[1,3,5,7,9,11,13,-1,-1,-1,-1,-1,-1,-1,-1],"loss_changes":[6.672246E1,1.2567226E1,1.0989162E1,3.968605E0,1.7894051E0,1.9133997E0,1.6675224E0,0E0,0E0,0E0,0E0,0E0,0E0,0E0,0E0],"parents":[2147483647,0,0,1,1,2,2,3,3,4,4,5,5,6,6],"right_children":[2,4,6,8,10,12,14,-1,-1,-1,-1,-1,-1,-1,-1],"split_conditions":[3.5000002E-1,2.8333336E-1,4.2777783E-1,1.9444445E-1,3.2222223E-1,3.888889E-1,3.4444445E-1,-1.1814953E-3,-5.04598E-4,-2.2660657E-4,-2.7449549E-5,1.6720722E-4,3.9422067E-4,2.164196E-4,7.724347E-4],"split_indices":[27,27,27,15,27,27,21,0,0,0,0,0,0,0,0],"split_type":[0,0,0,0,0,0,0,0,0,0,0,0,0,0,0],"sum_hessian":[5.3173E4,3.0372E4,2.2801E4,1.1936E4,1.8436E4,1.5431E4,7.37E3,9.4E2,1.0996E4,1.0559E4,7.877E3,9.207E3,6.224E3,5.87E2,6.783E3],"tree_param":{"num_deleted":"0","num_feature":"30","num_nodes":"15","size_leaf_vector":"1"}},{"base_weights":[1.1015192E-4,-3.2317188E-2,3.8098373E-2,-5.5642445E-2,-1.5583831E-2,1.8626092E-2,6.339973E-2,-1.117162E-3,-4.9319223E-4,-2.2127379E-4,-4.429178E-5,1.04434585E-4,2.763157E-4,4.804948E-4,7.7016494E-4],"categories":[],"categories_nodes":[],"categories_segments":[],"categories_sizes":[],"default_left":[0,0,0,0,0,0,0,0,0,0,0,0,0,0,0],"id":16,"left_children":[1,3,5,7,9,11,13,-1,-1,-1,-1,-1,-1,-1,-1],"loss_changes":[6.612238E1,1.1301725E1,1.2177258E1,4.283325E0,1.2307491E0,1.0291405E0,2.2432709E0,0E0,0E0,0E0,0E0,0E0,0E0,0E0,0E0],"parents":[2147483647,0,0,1,1,2,2,3,3,4,4,5,5,6,6],"right_children":[2,4,6,8,10,12,14,-1,-1,-1,-1,-1,-1,-1,-1],"split_conditions":[3.4444445E-1,2.8333336E-1,4.0555555E-1,2.0555556E-1,3.2222223E-1,3.7222224E-1,4.4444448E-1,-1.117162E-3,-4.9319223E-4,-2.2127379E-4,-4.429178E-5,1.04434585E-4,2.763157E-4,4.804948E-4,7.7016494E-4],"split_indices":[27,27,27,9,27,27,27,0,0,0,0,0,0,0,0],"split_type":[0,0,0,0,0,0,0,0,0,0,0,0,0,0,0],"sum_hessian":[5.3675E4,2.8957E4,2.4718E4,1.2095E4,1.6862E4,1.3969E4,1.0749E4,1.224E3,1.0871E4,1.0627E4,6.235E3,7.32E3,6.649E3,5.055E3,5.694E3],"tree_param":{"num_deleted":"0","num_feature":"30","num_nodes":"15","size_leaf_vector":"1"}},{"base_weights":[3.0458352E-4,-2.9932937E-2,4.0320452E-2,-5.2476678E-2,-1.218792E-2,2.4382733E-2,6.919108E-2,-1.1599123E-3,-4.6923908E-4,-2.0372185E-4,-2.6823329E-5,1.3580146E-4,3.406879E-4,5.2925275E-4,8.35758E-4],"categories":[],"categories_nodes":[],"categories_segments":[],"categories_sizes":[],"default_left":[0,0,0,0,0,0,0,0,0,0,0,0,0,0,0],"id":17,"left_children":[1,3,5,7,9,11,13,-1,-1,-1,-1,-1,-1,-1,-1],"loss_changes":[6.471218E1,1.2185749E1,1.0590092E1,4.72649E0,1.326138E0,1.5515804E0,1.9111633E0,0E0,0E0,0E0,0E0,0E0,0E0,0E0,0E0],"parents":[2147483647,0,0,1,1,2,2,3,3,4,4,5,5,6,6],"right_children":[2,4,6,8,10,12,14,-1,-1,-1,-1,-1,-1,-1,-1],"split_conditions":[3.5000002E-1,2.888889E-1,4.2222226E-1,2.0000002E-1,3.2222223E-1,3.7777779E-1,4.0555555E-1,-1.1599123E-3,-4.6923908E-4,-2.0372185E-4,-2.6823329E-5,1.3580146E-4,3.406879E-4,5.2925275E-4,8.35758E-4],"split_indices":[27,27,27,6,27,27,9,0,0,0,0,0,0,0,0],"split_type":[0,0,0,0,0,0,0,0,0,0,0,0,0,0,0],"sum_hessian":[5.348E4,3.0462E4,2.3018E4,1.3416E4,1.7046E4,1.4832E4,8.186E3,1.077E3,1.2339E4,9.159E3,7.887E3,7.013E3,7.819E3,3.844E3,4.342E3],"tree_param":{"num_deleted":"0","num_feature":"30","num_nodes":"15","size_leaf_vector":"1"}},{"base_weights":[-1.6343691E-4,-3.17618E-2,3.7164263E-2,-6.2273405E-2,-1.9477265E-2,1.9665932E-2,6.389068E-2,-1.1366401E-3,-5.415643E-4,-2.9465609E-4,-8.049675E-5,1.133446E-4,3.1191978E-4,5.2253803E-4,7.960034E-4],"categories":[],"categories_nodes":[],"categories_segments":[],"categories_sizes":[],"default_left":[0,0,0,0,0,0,0,0,0,0,0,0,0,0,0],"id":18,"left_children":[1,3,5,7,9,11,13,-1,-1,-1,-1,-1,-1,-1,-1],"loss_changes":[6.257689E1,1.0768143E1,1.1373356E1,3.4339676E0,2.3380895E0,1.4112716E0,1.7550354E0,0E0,0E0,0E0,0E0,0E0,0E0,0E0,0E0],"parents":[2147483647,0,0,1,1,2,2,3,3,4,4,5,5,6,6],"right_children":[2,4,6,8,10,12,14,-1,-1,-1,-1,-1,-1,-1,-1],"split_conditions":[3.4444445E-1,2.6666668E-1,4.1111112E-1,2.0555556E-1,3.1111112E-1,3.7777779E-1,4.6111113E-1,-1.1366401E-3,-5.415643E-4,-2.9465609E-4,-8.049675E-5,1.133446E-4,3.1191978E-4,5.2253803E-4,7.960034E-4],"split_indices":[27,27,27,9,27,27,27,0,0,0,0,0,0,0,0],"split_type":[0,0,0,0,0,0,0,0,0,0,0,0,0,0,0],"sum_hessian":[5.3052E4,2.8731E4,2.4321E4,8.246E3,2.0485E4,1.4699E4,9.622E3,1.123E3,7.123E3,1.093E4,9.555E3,8.533E3,6.166E3,5.53E3,4.092E3],"tree_param":{"num_deleted":"0","num_feature":"30","num_nodes":"15","size_leaf_vector":"1"}},{"base_weights":[3.3532066E-4,-3.1270567E-2,3.7411597E-2,-5.368329E-2,-1.5489754E-2,1.9835617E-2,6.4335376E-2,-1.1401685E-3,-4.7886884E-4,-2.2411693E-4,-3.966064E-5,1.3041879E-4,3.3001287E-4,4.845133E-4,7.5933285E-4],"categories":[],"categories_nodes":[],"categories_segments":[],"categories_sizes":[],"default_left":[0,0,0,0,0,0,0,0,0,0,0,0,0,0,0],"id":19,"left_children":[1,3,5,7,9,11,13,-1,-1,-1,-1,-1,-1,-1,-1],"loss_changes":[6.2322533E1,1.0153635E1,1.1580105E1,4.142891E0,1.3438935E0,1.3241477E0,1.7770119E0,0E0,0E0,0E0,0E0,0E0,0E0,0E0,0E0],"parents":[2147483647,0,0,1,1,2,2,3,3,4,4,5,5,6,6],"right_children":[2,4,6,8,10,12,14,-1,-1,-1,-1,-1,-1,-1,-1],"split_conditions":[3.4444445E-1,2.8333336E-1,4.1111112E-1,2.0000002E-1,3.2222223E-1,3.8333336E-1,4.4444448E-1,-1.1401685E-3,-4.7886884E-4,-2.2411693E-4,-3.966064E-5,1.3041879E-4,3.3001287E-4,4.845133E-4,7.5933285E-4],"split_indices":[27,27,27,15,27,27,27,0,0,0,0,0,0,0,0],"split_type":[0,0,0,0,0,0,0,0,0,0,0,0,0,0,0],"sum_hessian":[5.3182E4,2.8709E4,2.4473E4,1.1861E4,1.6848E4,1.4808E4,9.665E3,1.038E3,1.0823E4,1.0525E4,6.323E3,9.769E3,5.039E3,4.081E3,5.584E3],"tree_param":{"num_deleted":"0","num_feature":"30","num_nodes":"15","size_leaf_vector":"1"}},{"base_weights":[9.018116E-5,-2.972716E-2,3.9448548E-2,-5.3918194E-2,-1.3952626E-2,2.2920307E-2,6.5325364E-2,-1.0385249E-3,-4.6728994E-4,-2.5388759E-4,-6.1945204E-5,1.4850922E-4,3.4189454E-4,-2.6902803E-6,6.8095804E-4],"categories":[],"categories_nodes":[],"categories_segments":[],"categories_sizes":[],"default_left":[0,0,0,0,0,0,0,0,0,0,0,0,0,0,0],"id":20,"left_children":[1,3,5,7,9,11,13,-1,-1,-1,-1,-1,-1,-1,-1],"loss_changes":[6.240298E1,1.1544243E1,9.80135E0,4.2818184E0,1.6247108E0,1.271493E0,1.6233673E0,0E0,0E0,0E0,0E0,0E0,0E0,0E0,0E0],"parents":[2147483647,0,0,1,1,2,2,3,3,4,4,5,5,6,6],"right_children":[2,4,6,8,10,12,14,-1,-1,-1,-1,-1,-1,-1,-1],"split_conditions":[3.5000002E-1,2.8333336E-1,4.166667E-1,2.1111113E-1,3.1111112E-1,3.8333336E-1,3.0555558E-1,-1.0385249E-3,-4.6728994E-4,-2.5388759E-4,-6.1945204E-5,1.4850922E-4,3.4189454E-4,-2.6902803E-6,6.8095804E-4],"split_indices":[27,27,27,18,27,27,21,0,0,0,0,0,0,0,0],"split_type":[0,0,0,0,0,0,0,0,0,0,0,0,0,0,0],"sum_hessian":[5.3172E4,3.0253E4,2.2919E4,1.194E4,1.8313E4,1.3987E4,8.932E3,1.501E3,1.0439E4,7.401E3,1.0912E4,8.152E3,5.835E3,3.62E2,8.57E3],"tree_param":{"num_deleted":"0","num_feature":"30","num_nodes":"15","size_leaf_vector":"1"}},{"base_weights":[-1.3108608E-4,-3.2769933E-2,3.4055706E-2,-6.0076695E-2,-2.076098E-2,1.6772887E-2,6.255564E-2,-9.805424E-4,-4.9932447E-4,-2.925119E-4,-9.2473165E-5,7.80327E-5,2.7225964E-4,4.911648E-4,7.7034166E-4],"categories":[],"categories_nodes":[],"categories_segments":[],"categories_sizes":[],"default_left":[0,0,0,0,0,0,0,0,0,0,0,0,0,0,0],"id":21,"left_children":[1,3,5,7,9,11,13,-1,-1,-1,-1,-1,-1,-1,-1],"loss_changes":[5.9249912E1,8.906855E0,1.2773476E1,3.191555E0,1.8442392E0,1.5136375E0,1.9011497E0,0E0,0E0,0E0,0E0,0E0,0E0,0E0,0E0],"parents":[2147483647,0,0,1,1,2,2,3,3,4,4,5,5,6,6],"right_children":[2,4,6,8,10,12,14,-1,-1,-1,-1,-1,-1,-1,-1],"split_conditions":[3.388889E-1,2.6666668E-1,4.1111112E-1,2.1666667E-1,3.1111112E-1,3.7222224E-1,4.0000004E-1,-9.805424E-4,-4.9932447E-4,-2.925119E-4,-9.2473165E-5,7.80327E-5,2.7225964E-4,4.911648E-4,7.7034166E-4],"split_indices":[27,27,27,21,27,27,3,0,0,0,0,0,0,0,0],"split_type":[0,0,0,0,0,0,0,0,0,0,0,0,0,0,0],"sum_hessian":[5.3098E4,2.7164E4,2.5934E4,8.296E3,1.8868E4,1.6145E4,9.789E3,1.747E3,6.549E3,1.0859E4,8.009E3,8.69E3,7.455E3,5.079E3,4.71E3],"tree_param":{"num_deleted":"0","num_feature":"30","num_nodes":"15","size_leaf_vector":"1"}},{"base_weights":[-1.760603E-4,-3.0249631E-2,2.5000878E-2,-6.676747E-2,-2.3193665E-2,1.0199222E-2,4.7727868E-2,-1.0631147E-3,-4.954002E-4,-3.198914E-4,-1.3116062E-4,3.3055618E-5,1.7884362E-4,3.284987E-4,6.126839E-4],"categories":[],"categories_nodes":[],"categories_segments":[],"categories_sizes":[],"default_left":[0,0,0,0,0,0,0,0,0,0,0,0,0,0,0],"id":22,"left_children":[1,3,5,7,9,11,13,-1,-1,-1,-1,-1,-1,-1,-1],"loss_changes":[4.034151E1,6.254387E0,9.755367E0,2.672697E0,1.8032608E0,9.304594E-1,2.3022385E0,0E0,0E0,0E0,0E0,0E0,0E0,0E0,0E0],"parents":[2147483647,0,0,1,1,2,2,3,3,4,4,5,5,6,6],"right_children":[2,4,6,8,10,12,14,-1,-1,-1,-1,-1,-1,-1,-1],"split_conditions":[3.277778E-1,2.3888889E-1,4.0000004E-1,2.1666667E-1,2.9444447E-1,3.6111113E-1,4.0000004E-1,-1.0631147E-3,-4.954002E-4,-3.198914E-4,-1.3116062E-4,3.3055618E-5,1.7884362E-4,3.284987E-4,6.126839E-4],"split_indices":[21,21,21,0,21,21,3,0,0,0,0,0,0,0,0],"split_type":[0,0,0,0,0,0,0,0,0,0,0,0,0,0,0],"sum_hessian":[5.3278E4,2.4278E4,2.9E4,3.93E3,2.0348E4,1.7563E4,1.1437E4,1.191E3,2.739E3,1.0864E4,9.484E3,9.259E3,8.304E3,5.451E3,5.986E3],"tree_param":{"num_deleted":"0","num_feature":"30","num_nodes":"15","size_leaf_vector":"1"}},{"base_weights":[-3.0729405E-4,-3.4359213E-2,3.15998E-2,-6.039097E-2,-2.1742513E-2,1.4703231E-2,5.844933E-2,-1.1298552E-3,-5.232954E-4,-2.8487566E-4,-1.0467947E-4,7.013893E-5,2.6804704E-4,4.8195478E-4,7.329089E-4],"categories":[],"categories_nodes":[],"categories_segments":[],"categories_sizes":[],"default_left":[0,0,0,0,0,0,0,0,0,0,0,0,0,0,0],"id":23,"left_children":[1,3,5,7,9,11,13,-1,-1,-1,-1,-1,-1,-1,-1],"loss_changes":[5.777018E1,8.44636E0,1.2452246E1,3.5538807E0,1.3173008E0,1.5676508E0,1.609909E0,0E0,0E0,0E0,0E0,0E0,0E0,0E0,0E0],"parents":[2147483647,0,0,1,1,2,2,3,3,4,4,5,5,6,6],"right_children":[2,4,6,8,10,12,14,-1,-1,-1,-1,-1,-1,-1,-1],"split_conditions":[3.3333334E-1,2.6666668E-1,4.0555555E-1,2.0555556E-1,3.1111112E-1,3.7222224E-1,4.1111112E-1,-1.1298552E-3,-5.232954E-4,-2.8487566E-4,-1.0467947E-4,7.013893E-5,2.6804704E-4,4.8195478E-4,7.329089E-4],"split_indices":[27,27,27,0,27,27,0,0,0,0,0,0,0,0,0],"split_type":[0,0,0,0,0,0,0,0,0,0,0,0,0,0,0],"sum_hessian":[5.3169E4,2.572E4,2.7449E4,8.395E3,1.7325E4,1.6848E4,1.0601E4,1.114E3,7.281E3,1.0839E4,6.486E3,1.0303E4,6.545E3,6.272E3,4.329E3],"tree_param":{"num_deleted":"0","num_feature":"30","num_nodes":"15","size_leaf_vector":"1"}},{"base_weights":[3.2992315E-4,-3.001605E-2,3.5744607E-2,-5.831422E-2,-1.8544296E-2,2.1354452E-2,6.4606436E-2,-1.1341572E-3,-5.172209E-4,-2.7752187E-4,-7.7775425E-5,1.2504496E-4,3.4255142E-4,4.8529188E-4,7.686277E-4],"categories":[],"categories_nodes":[],"categories_segments":[],"categories_sizes":[],"default_left":[0,0,0,0,0,0,0,0,0,0,0,0,0,0,0],"id":24,"left_children":[1,3,5,7,9,11,13,-1,-1,-1,-1,-1,-1,-1,-1],"loss_changes":[5.7486404E1,9.350525E0,1.0250532E1,3.0122623E0,2.0320368E0,1.8803029E0,1.6144295E0,0E0,0E0,0E0,0E0,0E0,0E0,0E0,0E0],"parents":[2147483647,0,0,1,1,2,2,3,3,4,4,5,5,6,6],"right_children":[2,4,6,8,10,12,14,-1,-1,-1,-1,-1,-1,-1,-1],"split_conditions":[3.4444445E-1,2.6666668E-1,4.2222226E-1,1.9444445E-1,3.1111112E-1,3.8333336E-1,3.7777779E-1,-1.1341572E-3,-5.172209E-4,-2.7752187E-4,-7.7775425E-5,1.2504496E-4,3.4255142E-4,4.8529188E-4,7.686277E-4],"split_indices":[27,27,27,15,27,27,0,0,0,0,0,0,0,0,0],"split_type":[0,0,0,0,0,0,0,0,0,0,0,0,0,0,0],"sum_hessian":[5.3489E4,2.8806E4,2.4683E4,8.308E3,2.0498E4,1.6472E4,8.211E3,8.86E2,7.422E3,1.1048E4,9.45E3,9.771E3,6.701E3,3.554E3,4.657E3],"tree_param":{"num_deleted":"0","num_feature":"30","num_nodes":"15","size_leaf_vector":"1"}},{"base_weights":[1.140091E-4,-2.971438E-2,3.4777205E-2,-5.8244247E-2,-1.819345E-2,1.6848193E-2,5.7806842E-2,-9.98334E-4,-4.8182468E-4,-2.7365357E-4,-7.5776436E-5,8.383604E-4,1.5802804E-4,1.2202626E-3,5.486071E-4],"categories":[],"categories_nodes":[],"categories_segments":[],"categories_sizes":[],"default_left":[0,0,0,0,0,0,0,0,0,0,0,0,0,0,0],"id":25,"left_children":[1,3,5,7,9,11,13,-1,-1,-1,-1,-1,-1,-1,-1],"loss_changes":[5.516729E1,9.425133E0,1.0188538E1,3.447073E0,1.9890032E0,9.704597E-1,2.037037E0,0E0,0E0,0E0,0E0,0E0,0E0,0E0,0E0],"parents":[2147483647,0,0,1,1,2,2,3,3,4,4,5,5,6,6],"right_children":[2,4,6,8,10,12,14,-1,-1,-1,-1,-1,-1,-1,-1],"split_conditions":[3.4444445E-1,2.6666668E-1,4.0555555E-1,2.2222224E-1,3.1111112E-1,4.545454E-2,6.0606055E-2,-9.98334E-4,-4.8182468E-4,-2.7365357E-4,-7.5776436E-5,8.383604E-4,1.5802804E-4,1.2202626E-3,5.486071E-4],"split_indices":[27,27,27,3,27,28,28,0,0,0,0,0,0,0,0],"split_type":[0,0,0,0,0,0,0,0,0,0,0,0,0,0,0],"sum_hessian":[5.3354E4,2.8677E4,2.4677E4,8.248E3,2.0429E4,1.3876E4,1.0801E4,1.605E3,6.643E3,1.0959E4,9.47E3,2.12E2,1.3664E4,4.72E2,1.0329E4],"tree_param":{"num_deleted":"0","num_feature":"30","num_nodes":"15","size_leaf_vector":"1"}},{"base_weights":[-9.804817E-6,-2.6451342E-2,3.1591695E-2,-4.6159793E-2,-1.2456945E-2,1.602188E-2,5.2453164E-2,-8.8369544E-4,-3.8869228E-4,-2.3261693E-4,-6.8145535E-5,8.290603E-5,2.4488606E-4,3.4214748E-4,6.336052E-4],"categories":[],"categories_nodes":[],"categories_segments":[],"categories_sizes":[],"default_left":[0,0,0,0,0,0,0,0,0,0,0,0,0,0,0],"id":26,"left_children":[1,3,5,7,9,11,13,-1,-1,-1,-1,-1,-1,-1,-1],"loss_changes":[4.4440144E1,7.985714E0,7.868635E0,3.6964378E0,1.0322163E0,9.080348E-1,2.0575848E0,0E0,0E0,0E0,0E0,0E0,0E0,0E0,0E0],"parents":[2147483647,0,0,1,1,2,2,3,3,4,4,5,5,6,6],"right_children":[2,4,6,8,10,12,14,-1,-1,-1,-1,-1,-1,-1,-1],"split_conditions":[3.4444445E-1,2.8333336E-1,4.0555555E-1,2.1666667E-1,3.0555558E-1,3.7222224E-1,3.6666667E-1,-8.8369544E-4,-3.8869228E-4,-2.3261693E-4,-6.8145535E-5,8.290603E-5,2.4488606E-4,3.4214748E-4,6.336052E-4],"split_indices":[24,24,24,15,24,24,0,0,0,0,0,0,0,0,0],"split_type":[0,0,0,0,0,0,0,0,0,0,0,0,0,0,0],"sum_hessian":[5.3182E4,2.8955E4,2.4227E4,1.2022E4,1.6933E4,1.3874E4,1.0353E4,1.769E3,1.0253E4,5.808E3,1.1125E4,7.253E3,6.621E3,3.876E3,6.477E3],"tree_param":{"num_deleted":"0","num_feature":"30","num_nodes":"15","size_leaf_vector":"1"}},{"base_weights":[-9.2620925E-5,-2.7848221E-2,3.6681514E-2,-4.8618432E-2,-1.1396246E-2,2.4262922E-2,6.606231E-2,-1.0107734E-3,-4.3391436E-4,-2.099079E-4,-3.738633E-5,1.4903044E-4,3.7164227E-4,-8.72497E-6,7.010766E-4],"categories":[],"categories_nodes":[],"categories_segments":[],"categories_sizes":[],"default_left":[0,0,0,0,0,0,0,0,0,0,0,0,0,0,0],"id":27,"left_children":[1,3,5,7,9,11,13,-1,-1,-1,-1,-1,-1,-1,-1],"loss_changes":[5.4102596E1,1.032151E1,8.317026E0,3.6564903E0,1.2384274E0,1.9347811E0,1.8340206E0,0E0,0E0,0E0,0E0,0E0,0E0,0E0,0E0],"parents":[2147483647,0,0,1,1,2,2,3,3,4,4,5,5,6,6],"right_children":[2,4,6,8,10,12,14,-1,-1,-1,-1,-1,-1,-1,-1],"split_conditions":[3.5000002E-1,2.888889E-1,4.3333334E-1,2.0000002E-1,3.166667E-1,3.888889E-1,3.6111113E-1,-1.0107734E-3,-4.3391436E-4,-2.099079E-4,-3.738633E-5,1.4903044E-4,3.7164227E-4,-8.72497E-6,7.010766E-4],"split_indices":[27,27,27,24,27,27,24,0,0,0,0,0,0,0,0],"split_type":[0,0,0,0,0,0,0,0,0,0,0,0,0,0,0],"sum_hessian":[5.3004E4,3.0206E4,2.2798E4,1.335E4,1.6856E4,1.6026E4,6.772E3,1.208E3,1.2142E4,7.481E3,9.375E3,9.289E3,6.737E3,3.86E2,6.386E3],"tree_param":{"num_deleted":"0","num_feature":"30","num_nodes":"15","size_leaf_vector":"1"}},{"base_weights":[4.908264E-4,-2.644213E-2,3.572573E-2,-4.8504595E-2,-1.2060045E-2,1.9493097E-2,5.782259E-2,-8.92546E-4,-4.1390661E-4,-2.3353095E-4,-4.744141E-5,1.41367E-4,3.2393713E-4,1.3097712E-3,5.51625E-4],"categories":[],"categories_nodes":[],"categories_segments":[],"categories_sizes":[],"default_left":[0,0,0,0,0,0,0,0,0,0,0,0,0,0,0],"id":28,"left_children":[1,3,5,7,9,11,13,-1,-1,-1,-1,-1,-1,-1,-1],"loss_changes":[5.0525597E1,9.574385E0,8.272423E0,3.448351E0,1.5092533E0,9.185133E-1,1.8936043E0,0E0,0E0,0E0,0E0,0E0,0E0,0E0,0E0],"parents":[2147483647,0,0,1,1,2,2,3,3,4,4,5,5,6,6],"right_children":[2,4,6,8,10,12,14,-1,-1,-1,-1,-1,-1,-1,-1],"split_conditions":[3.5000002E-1,2.8333336E-1,4.1111112E-1,2.1666667E-1,3.1111112E-1,3.888889E-1,4.545454E-2,-8.92546E-4,-4.1390661E-4,-2.3353095E-4,-4.744141E-5,1.41367E-4,3.2393713E-4,1.3097712E-3,5.51625E-4],"split_indices":[27,27,27,21,27,27,28,0,0,0,0,0,0,0,0],"split_type":[0,0,0,0,0,0,0,0,0,0,0,0,0,0,0],"sum_hessian":[5.324E4,3.0175E4,2.3065E4,1.1907E4,1.8268E4,1.3298E4,9.767E3,1.768E3,1.0139E4,7.181E3,1.1087E4,9.398E3,3.9E3,3.41E2,9.426E3],"tree_param":{"num_deleted":"0","num_feature":"30","num_nodes":"15","size_leaf_vector":"1"}},{"base_weights":[7.648905E-5,-2.6962869E-2,3.578167E-2,-4.905727E-2,-1.2485007E-2,2.2689879E-2,6.328799E-2,-9.0208306E-4,-4.198448E-4,-2.3230034E-4,-5.3562828E-5,1.6089907E-4,3.6058656E-4,2.7808154E-4,6.907988E-4],"categories":[],"categories_nodes":[],"categories_segments":[],"categories_sizes":[],"default_left":[0,0,0,0,0,0,0,0,0,0,0,0,0,0,0],"id":29,"left_children":[1,3,5,7,9,11,13,-1,-1,-1,-1,-1,-1,-1,-1],"loss_changes":[5.145533E1,9.701019E0,8.269497E0,3.490593E0,1.4034636E0,1.3725986E0,1.5199776E0,0E0,0E0,0E0,0E0,0E0,0E0,0E0,0E0],"parents":[2147483647,0,0,1,1,2,2,3,3,4,4,5,5,6,6],"right_children":[2,4,6,8,10,12,14,-1,-1,-1,-1,-1,-1,-1,-1],"split_conditions":[3.5000002E-1,2.8333336E-1,4.2777783E-1,2.1666667E-1,3.1111112E-1,3.9444447E-1,3.5000002E-1,-9.0208306E-4,-4.198448E-4,-2.3230034E-4,-5.3562828E-5,1.6089907E-4,3.6058656E-4,2.7808154E-4,6.907988E-4],"split_indices":[27,27,27,18,27,27,18,0,0,0,0,0,0,0,0],"split_type":[0,0,0,0,0,0,0,0,0,0,0,0,0,0,0],"sum_hessian":[5.3295E4,3.0328E4,2.2967E4,1.2005E4,1.8323E4,1.5562E4,7.405E3,1.759E3,1.0246E4,7.307E3,1.1016E4,1.042E4,5.142E3,1.04E3,6.365E3],"tree_param":{"num_deleted":"0","num_feature":"30","num_nodes":"15","size_leaf_vector":"1"}},{"base_weights":[1.3731727E-4,-2.6575195E-2,3.5401143E-2,-5.035374E-2,-1.3629022E-2,2.1143539E-2,6.1039228E-2,-1.0155205E-3,-4.403098E-4,-2.4257402E-4,-5.2908246E-5,1.1798754E-4,2.9504538E-4,-2.6912816E-4,6.349647E-4],"categories":[],"categories_nodes":[],"categories_segments":[],"categories_sizes":[],"default_left":[0,0,0,0,0,0,0,0,0,0,0,0,0,0,0],"id":30,"left_children":[1,3,5,7,9,11,13,-1,-1,-1,-1,-1,-1,-1,-1],"loss_changes":[5.0022247E1,9.300735E0,8.365135E0,3.4434128E0,1.7337525E0,1.1489697E0,1.7693481E0,0E0,0E0,0E0,0E0,0E0,0E0,0E0,0E0],"parents":[2147483647,0,0,1,1,2,2,3,3,4,4,5,5,6,6],"right_children":[2,4,6,8,10,12,14,-1,-1,-1,-1,-1,-1,-1,-1],"split_conditions":[3.5000002E-1,2.777778E-1,4.2222226E-1,2.0555556E-1,3.1111112E-1,3.7777779E-1,3.166667E-1,-1.0155205E-3,-4.403098E-4,-2.4257402E-4,-5.2908246E-5,1.1798754E-4,2.9504538E-4,-2.6912816E-4,6.349647E-4],"split_indices":[27,27,27,0,27,27,24,0,0,0,0,0,0,0,0],"split_type":[0,0,0,0,0,0,0,0,0,0,0,0,0,0,0],"sum_hessian":[5.3101E4,3.0214E4,2.2887E4,1.065E4,1.9564E4,1.4709E4,8.178E3,1.169E3,9.481E3,8.6E3,1.0964E4,6.947E3,7.762E3,2.22E2,7.956E3],"tree_param":{"num_deleted":"0","num_feature":"30","num_nodes":"15","size_leaf_vector":"1"}},{"base_weights":[-1.76423E-4,-2.5034837E-2,3.707201E-2,-4.9816556E-2,-1.2682453E-2,2.3501523E-2,6.283959E-2,-1.0885801E-3,-4.4381485E-4,-2.1023497E-4,-2.2269405E-5,1.524661E-4,3.378839E-4,4.0502424E-4,7.2493934E-4],"categories":[],"categories_nodes":[],"categories_segments":[],"categories_sizes":[],"default_left":[0,0,0,0,0,0,0,0,0,0,0,0,0,0,0],"id":31,"left_children":[1,3,5,7,9,11,13,-1,-1,-1,-1,-1,-1,-1,-1],"loss_changes":[4.9152443E1,9.745096E0,7.4281445E0,3.3934479E0,1.8529885E0,1.1814475E0,1.57757E0,0E0,0E0,0E0,0E0,0E0,0E0,0E0,0E0],"parents":[2147483647,0,0,1,1,2,2,3,3,4,4,5,5,6,6],"right_children":[2,4,6,8,10,12,14,-1,-1,-1,-1,-1,-1,-1,-1],"split_conditions":[3.5555556E-1,2.777778E-1,4.2777783E-1,1.9444445E-1,3.2222223E-1,3.888889E-1,4.2222226E-1,-1.0885801E-3,-4.4381485E-4,-2.1023497E-4,-2.2269405E-5,1.524661E-4,3.378839E-4,4.0502424E-4,7.2493934E-4],"split_indices":[27,27,27,12,27,27,21,0,0,0,0,0,0,0,0],"split_type":[0,0,0,0,0,0,0,0,0,0,0,0,0,0,0],"sum_hessian":[5.3082E4,3.1836E4,2.1246E4,1.0589E4,2.1247E4,1.3918E4,7.328E3,8.91E2,9.698E3,1.1818E4,9.429E3,7.723E3,6.195E3,2.213E3,5.115E3],"tree_param":{"num_deleted":"0","num_feature":"30","num_nodes":"15","size_leaf_vector":"1"}},{"base_weights":[-2.9734557E-4,-2.8177813E-2,3.255783E-2,-6.0433872E-2,-1.9240674E-2,2.0407258E-2,6.3931756E-2,-9.888066E-4,-4.8927293E-4,-2.9112006E-4,-8.931818E-5,1.04845E-4,3.2363783E-4,1.3070955E-3,5.994112E-4],"categories":[],"categories_nodes":[],"categories_segments":[],"categories_sizes":[],"default_left":[0,0,0,0,0,0,0,0,0,0,0,0,0,0,0],"id":32,"left_children":[1,3,5,7,9,11,13,-1,-1,-1,-1,-1,-1,-1,-1],"loss_changes":[4.865978E1,8.282761E0,9.294531E0,2.753027E0,2.2896929E0,2.0852633E0,1.8061333E0,0E0,0E0,0E0,0E0,0E0,0E0,0E0,0E0],"parents":[2147483647,0,0,1,1,2,2,3,3,4,4,5,5,6,6],"right_children":[2,4,6,8,10,12,14,-1,-1,-1,-1,-1,-1,-1,-1],"split_conditions":[3.4444445E-1,2.5555557E-1,4.3333334E-1,2.1666667E-1,3.0555558E-1,3.8333336E-1,6.0606055E-2,-9.888066E-4,-4.8927293E-4,-2.9112006E-4,-8.931818E-5,1.04845E-4,3.2363783E-4,1.3070955E-3,5.994112E-4],"split_indices":[27,27,27,12,27,27,28,0,0,0,0,0,0,0,0],"split_type":[0,0,0,0,0,0,0,0,0,0,0,0,0,0,0],"sum_hessian":[5.3119E4,2.8735E4,2.4384E4,6.233E3,2.2502E4,1.7578E4,6.806E3,1.434E3,4.799E3,1.1494E4,1.1008E4,9.607E3,7.971E3,3.82E2,6.424E3],"tree_param":{"num_deleted":"0","num_feature":"30","num_nodes":"15","size_leaf_vector":"1"}},{"base_weights":[5.8772683E-5,-2.7769879E-2,2.6352903E-2,-6.368204E-2,-2.1143474E-2,1.1716688E-2,4.6987865E-2,-1.1067273E-3,-5.0308555E-4,-3.2040908E-4,-1.2841934E-4,7.928574E-4,1.0649336E-4,3.8916213E-4,6.7655783E-4],"categories":[],"categories_nodes":[],"categories_segments":[],"categories_sizes":[],"default_left":[0,0,0,0,0,0,0,0,0,0,0,0,0,0,0],"id":33,"left_children":[1,3,5,7,9,11,13,-1,-1,-1,-1,-1,-1,-1,-1],"loss_changes":[3.8970486E1,6.1558475E0,8.269903E0,2.5270023E0,1.9758072E0,1.1546619E0,1.892992E0,0E0,0E0,0E0,0E0,0E0,0E0,0E0,0E0],"parents":[2147483647,0,0,1,1,2,2,3,3,4,4,5,5,6,6],"right_children":[2,4,6,8,10,12,14,-1,-1,-1,-1,-1,-1,-1,-1],"split_conditions":[3.3333334E-1,2.3888889E-1,4.0000004E-1,2.0000002E-1,2.888889E-1,4.545454E-2,4.388889E-1,-1.1067273E-3,-5.0308555E-4,-3.2040908E-4,-1.2841934E-4,7.928574E-4,1.0649336E-4,3.8916213E-4,6.7655783E-4],"split_indices":[24,24,24,0,24,28,0,0,0,0,0,0,0,0,0],"split_type":[0,0,0,0,0,0,0,0,0,0,0,0,0,0,0],"sum_hessian":[5.3256E4,2.5873E4,2.7383E4,4.029E3,2.1844E4,1.6021E4,1.1362E4,8.91E2,3.138E3,9.444E3,1.24E4,2.48E2,1.5773E4,8.173E3,3.189E3],"tree_param":{"num_deleted":"0","num_feature":"30","num_nodes":"15","size_leaf_vector":"1"}},{"base_weights":[1.9890793E-4,-2.7118802E-2,3.240416E-2,-5.354695E-2,-1.644056E-2,1.7486185E-2,5.4971166E-2,-9.899522E-4,-4.58364E-4,-2.4470754E-4,-7.222188E-5,9.0705704E-5,2.5706E-4,4.3088698E-4,6.917421E-4],"categories":[],"categories_nodes":[],"categories_segments":[],"categories_sizes":[],"default_left":[0,0,0,0,0,0,0,0,0,0,0,0,0,0,0],"id":34,"left_children":[1,3,5,7,9,11,13,-1,-1,-1,-1,-1,-1,-1,-1],"loss_changes":[4.6821556E1,8.125244E0,8.221811E0,2.8991356E0,1.5180826E0,1.0170512E0,1.6374397E0,0E0,0E0,0E0,0E0,0E0,0E0,0E0,0E0],"parents":[2147483647,0,0,1,1,2,2,3,3,4,4,5,5,6,6],"right_children":[2,4,6,8,10,12,14,-1,-1,-1,-1,-1,-1,-1,-1],"split_conditions":[3.4444445E-1,2.6666668E-1,4.1111112E-1,2.1111113E-1,3.1111112E-1,3.7222224E-1,4.1111112E-1,-9.899522E-4,-4.58364E-4,-2.4470754E-4,-7.222188E-5,9.0705704E-5,2.5706E-4,4.3088698E-4,6.917421E-4],"split_indices":[27,27,27,0,27,27,6,0,0,0,0,0,0,0,0],"split_type":[0,0,0,0,0,0,0,0,0,0,0,0,0,0,0],"sum_hessian":[5.3218E4,2.8794E4,2.4424E4,8.285E3,2.0509E4,1.4705E4,9.719E3,1.2E3,7.085E3,1.096E4,9.549E3,7.267E3,7.438E3,5.294E3,4.425E3],"tree_param":{"num_deleted":"0","num_feature":"30","num_nodes":"15","size_leaf_vector":"1"}},{"base_weights":[-1.9640065E-4,-2.4415368E-2,2.8724413E-2,-5.4272838E-2,-1.5990984E-2,1.6478382E-2,5.0380528E-2,-9.363515E-4,-4.2099864E-4,-2.4995892E-4,-6.714459E-5,7.214541E-4,1.4972377E-4,3.9046083E-4,6.828185E-4],"categories":[],"categories_nodes":[],"categories_segments":[],"categories_sizes":[],"default_left":[0,0,0,0,0,0,0,0,0,0,0,0,0,0,0],"id":35,"left_children":[1,3,5,7,9,11,13,-1,-1,-1,-1,-1,-1,-1,-1],"loss_changes":[3.728541E1,7.286232E0,6.43322E0,3.0506783E0,1.8874559E0,1.298276E0,1.775362E0,0E0,0E0,0E0,0E0,0E0,0E0,0E0,0E0],"parents":[2147483647,0,0,1,1,2,2,3,3,4,4,5,5,6,6],"right_children":[2,4,6,8,10,12,14,-1,-1,-1,-1,-1,-1,-1,-1],"split_conditions":[3.4444445E-1,2.5555557E-1,4.166667E-1,2.1666667E-1,3.0555558E-1,6.0606055E-2,4.2222226E-1,-9.363515E-4,-4.2099864E-4,-2.4995892E-4,-6.714459E-5,7.214541E-4,1.4972377E-4,3.9046083E-4,6.828185E-4],"split_indices":[24,24,24,12,24,28,0,0,0,0,0,0,0,0,0],"split_type":[0,0,0,0,0,0,0,0,0,0,0,0,0,0,0],"sum_hessian":[5.323E4,2.897E4,2.426E4,6.374E3,2.2596E4,1.5498E4,8.762E3,1.504E3,4.87E3,1.1465E4,1.1131E4,4.07E2,1.5091E4,5.367E3,3.395E3],"tree_param":{"num_deleted":"0","num_feature":"30","num_nodes":"15","size_leaf_vector":"1"}},{"base_weights":[-1.8047247E-4,-2.2972805E-2,3.0507782E-2,-4.487619E-2,-1.1316659E-2,1.8140336E-2,5.055401E-2,-8.8508596E-4,-3.7034642E-4,-2.0507691E-4,-4.127166E-5,8.190574E-5,2.5026168E-4,3.6007824E-4,6.502815E-4],"categories":[],"categories_nodes":[],"categories_segments":[],"categories_sizes":[],"default_left":[0,0,0,0,0,0,0,0,0,0,0,0,0,0,0],"id":36,"left_children":[1,3,5,7,9,11,13,-1,-1,-1,-1,-1,-1,-1,-1],"loss_changes":[3.7223E1,7.795866E0,5.6219234E0,3.6255188E0,1.3169992E0,9.6088696E-1,1.8194885E0,0E0,0E0,0E0,0E0,0E0,0E0,0E0,0E0],"parents":[2147483647,0,0,1,1,2,2,3,3,4,4,5,5,6,6],"right_children":[2,4,6,8,10,12,14,-1,-1,-1,-1,-1,-1,-1,-1],"split_conditions":[3.5000002E-1,2.777778E-1,4.166667E-1,2.1666667E-1,3.1111112E-1,3.7222224E-1,4.1111112E-1,-8.8508596E-4,-3.7034642E-4,-2.0507691E-4,-4.127166E-5,8.190574E-5,2.5026168E-4,3.6007824E-4,6.502815E-4],"split_indices":[24,24,24,6,24,24,6,0,0,0,0,0,0,0,0],"split_type":[0,0,0,0,0,0,0,0,0,0,0,0,0,0,0],"sum_hessian":[5.3215E4,3.0536E4,2.2679E4,1.0605E4,1.9931E4,1.4027E4,8.652E3,1.614E3,8.991E3,8.747E3,1.1184E4,5.738E3,8.289E3,4.317E3,4.335E3],"tree_param":{"num_deleted":"0","num_feature":"30","num_nodes":"15","size_leaf_vector":"1"}},{"base_weights":[6.406928E-5,-2.2094734E-2,2.9720062E-2,-5.565007E-2,-1.4810109E-2,1.5573121E-2,4.605115E-2,-9.849727E-4,-4.3721555E-4,-2.4822276E-4,-5.0603136E-5,7.899648E-5,2.2213184E-4,2.912519E-4,5.6979165E-4],"categories":[],"categories_nodes":[],"categories_segments":[],"categories_sizes":[],"default_left":[0,0,0,0,0,0,0,0,0,0,0,0,0,0,0],"id":37,"left_children":[1,3,5,7,9,11,13,-1,-1,-1,-1,-1,-1,-1,-1],"loss_changes":[3.4993435E1,7.4491596E0,5.260641E0,2.7740498E0,2.4444861E0,6.216469E-1,1.9534454E0,0E0,0E0,0E0,0E0,0E0,0E0,0E0,0E0],"parents":[2147483647,0,0,1,1,2,2,3,3,4,4,5,5,6,6],"right_children":[2,4,6,8,10,12,14,-1,-1,-1,-1,-1,-1,-1,-1],"split_conditions":[3.5000002E-1,2.5000003E-1,4.0555555E-1,2.1111113E-1,3.0555558E-1,3.7222224E-1,3.7777779E-1,-9.849727E-4,-4.3721555E-4,-2.4822276E-4,-5.0603136E-5,7.899648E-5,2.2213184E-4,2.912519E-4,5.6979165E-4],"split_indices":[24,24,24,3,24,24,3,0,0,0,0,0,0,0,0],"split_type":[0,0,0,0,0,0,0,0,0,0,0,0,0,0,0],"sum_hessian":[5.3249E4,3.0477E4,2.2772E4,5.435E3,2.5042E4,1.2203E4,1.0569E4,1.182E3,4.253E3,1.2354E4,1.2688E4,5.662E3,6.541E3,4.148E3,6.421E3],"tree_param":{"num_deleted":"0","num_feature":"30","num_nodes":"15","size_leaf_vector":"1"}},{"base_weights":[1.0074273E-4,-2.3310952E-2,3.471061E-2,-4.5349844E-2,-1.0071359E-2,2.1865217E-2,5.8551498E-2,-9.7172614E-4,-3.997939E-4,-1.7988645E-4,-1.0152318E-5,7.176083E-4,2.0492387E-4,-1.8064427E-4,6.1271456E-4],"categories":[],"categories_nodes":[],"categories_segments":[],"categories_sizes":[],"default_left":[0,0,0,0,0,0,0,0,0,0,0,0,0,0,0],"id":38,"left_children":[1,3,5,7,9,11,13,-1,-1,-1,-1,-1,-1,-1,-1],"loss_changes":[4.3200653E1,9.279215E0,6.586979E0,3.317768E0,1.4245882E0,9.562712E-1,1.5707188E0,0E0,0E0,0E0,0E0,0E0,0E0,0E0,0E0],"parents":[2147483647,0,0,1,1,2,2,3,3,4,4,5,5,6,6],"right_children":[2,4,6,8,10,12,14,-1,-1,-1,-1,-1,-1,-1,-1],"split_conditions":[3.5555556E-1,2.8333336E-1,4.2777783E-1,2.0000002E-1,3.2222223E-1,6.0606055E-2,3.277778E-1,-9.7172614E-4,-3.997939E-4,-1.7988645E-4,-1.0152318E-5,7.176083E-4,2.0492387E-4,-1.8064427E-4,6.1271456E-4],"split_indices":[27,27,27,21,27,28,24,0,0,0,0,0,0,0,0],"split_type":[0,0,0,0,0,0,0,0,0,0,0,0,0,0,0],"sum_hessian":[5.3314E4,3.1802E4,2.1512E4,1.1934E4,1.9868E4,1.3981E4,7.531E3,1.119E3,1.0815E4,1.06E4,9.268E3,3.73E2,1.3608E4,2.58E2,7.273E3],"tree_param":{"num_deleted":"0","num_feature":"30","num_nodes":"15","size_leaf_vector":"1"}},{"base_weights":[3.618519E-5,-2.6239378E-2,3.1006038E-2,-4.521214E-2,-1.2784431E-2,1.6349064E-2,5.325867E-2,-1.0083569E-3,-4.0547518E-4,-1.841373E-4,-3.3367305E-5,6.818552E-4,1.5057242E-4,1.13767E-3,5.0386187E-4],"categories":[],"categories_nodes":[],"categories_segments":[],"categories_sizes":[],"default_left":[0,0,0,0,0,0,0,0,0,0,0,0,0,0,0],"id":39,"left_children":[1,3,5,7,9,11,13,-1,-1,-1,-1,-1,-1,-1,-1],"loss_changes":[4.33257E1,7.352434E0,7.969736E0,3.0967484E0,8.963008E-1,9.8567915E-1,1.6809082E0,0E0,0E0,0E0,0E0,0E0,0E0,0E0,0E0],"parents":[2147483647,0,0,1,1,2,2,3,3,4,4,5,5,6,6],"right_children":[2,4,6,8,10,12,14,-1,-1,-1,-1,-1,-1,-1,-1],"split_conditions":[3.4444445E-1,2.8333336E-1,4.1111112E-1,1.9444445E-1,3.2222223E-1,6.0606055E-2,6.0606055E-2,-1.0083569E-3,-4.0547518E-4,-1.841373E-4,-3.3367305E-5,6.818552E-4,1.5057242E-4,1.13767E-3,5.0386187E-4],"split_indices":[27,27,27,3,27,28,28,0,0,0,0,0,0,0,0],"split_type":[0,0,0,0,0,0,0,0,0,0,0,0,0,0,0],"sum_hessian":[5.324E4,2.8803E4,2.4437E4,1.195E4,1.6853E4,1.4734E4,9.703E3,9.23E2,1.1027E4,1.056E4,6.293E3,3.57E2,1.4377E4,4.38E2,9.265E3],"tree_param":{"num_deleted":"0","num_feature":"30","num_nodes":"15","size_leaf_vector":"1"}},{"base_weights":[3.2318104E-4,-2.1845672E-2,3.0101087E-2,-5.004588E-2,-1.2918378E-2,1.6334811E-2,4.6223175E-2,-1.0425375E-3,-4.244225E-4,-2.2274224E-4,-5.223894E-5,7.7583085E-5,2.372591E-4,3.311685E-4,6.0521264E-4],"categories":[],"categories_nodes":[],"categories_segments":[],"categories_sizes":[],"default_left":[0,0,0,0,0,0,0,0,0,0,0,0,0,0,0],"id":40,"left_children":[1,3,5,7,9,11,13,-1,-1,-1,-1,-1,-1,-1,-1],"loss_changes":[3.5107674E1,7.6742516E0,5.036419E0,3.0168304E0,1.666919E0,7.7596045E-1,1.9568386E0,0E0,0E0,0E0,0E0,0E0,0E0,0E0,0E0],"parents":[2147483647,0,0,1,1,2,2,3,3,4,4,5,5,6,6],"right_children":[2,4,6,8,10,12,14,-1,-1,-1,-1,-1,-1,-1,-1],"split_conditions":[3.5000002E-1,2.6111114E-1,4.0555555E-1,1.9444445E-1,3.0555558E-1,3.7222224E-1,4.1111112E-1,-1.0425375E-3,-4.244225E-4,-2.2274224E-4,-5.223894E-5,7.7583085E-5,2.372591E-4,3.311685E-4,6.0521264E-4],"split_indices":[24,24,24,12,24,24,6,0,0,0,0,0,0,0,0],"split_type":[0,0,0,0,0,0,0,0,0,0,0,0,0,0,0],"sum_hessian":[5.318E4,3.0485E4,2.2695E4,7.329E3,2.3156E4,1.2243E4,1.0452E4,9E2,6.429E3,1.0449E4,1.2707E4,5.668E3,6.575E3,5.455E3,4.997E3],"tree_param":{"num_deleted":"0","num_feature":"30","num_nodes":"15","size_leaf_vector":"1"}},{"base_weights":[-1.8598133E-5,-1.8769687E-2,2.2445608E-2,-4.9509954E-2,-1.2650026E-2,1.4005306E-2,4.192672E-2,-9.288376E-4,-3.666155E-4,-2.1592577E-4,-6.144061E-5,9.0496166E-4,1.2820694E-4,1.9437514E-4,5.432831E-4],"categories":[],"categories_nodes":[],"categories_segments":[],"categories_sizes":[],"default_left":[0,0,0,0,0,0,0,0,0,0,0,0,0,0,0],"id":41,"left_children":[1,3,5,7,9,11,13,-1,-1,-1,-1,-1,-1,-1,-1],"loss_changes":[2.2461578E1,5.466893E0,3.9883995E0,2.6854897E0,1.4101484E0,1.5327184E0,2.0441313E0,0E0,0E0,0E0,0E0,0E0,0E0,0E0,0E0],"parents":[2147483647,0,0,1,1,2,2,3,3,4,4,5,5,6,6],"right_children":[2,4,6,8,10,12,14,-1,-1,-1,-1,-1,-1,-1,-1],"split_conditions":[3.4444445E-1,2.4444446E-1,4.2777783E-1,2.0555556E-1,2.9444447E-1,4.545454E-2,3.888889E-1,-9.288376E-4,-3.666155E-4,-2.1592577E-4,-6.144061E-5,9.0496166E-4,1.2820694E-4,1.9437514E-4,5.432831E-4],"split_indices":[15,15,15,0,15,28,0,0,0,0,0,0,0,0,0],"split_type":[0,0,0,0,0,0,0,0,0,0,0,0,0,0,0],"sum_hessian":[5.3322E4,2.9063E4,2.4259E4,4.824E3,2.4239E4,1.6927E4,7.332E3,1.101E3,3.723E3,1.0207E4,1.4032E4,2.57E2,1.667E4,2.607E3,4.725E3],"tree_param":{"num_deleted":"0","num_feature":"30","num_nodes":"15","size_leaf_vector":"1"}},{"base_weights":[-1.63973E-4,-2.9253287E-2,2.6898963E-2,-5.8022186E-2,-2.1387411E-2,1.2274762E-2,5.006578E-2,-1.0627846E-3,-4.9534475E-4,-2.9612018E-4,-1.2014682E-4,4.873888E-5,2.065734E-4,1.193541E-3,4.7685765E-4],"categories":[],"categories_nodes":[],"categories_segments":[],"categories_sizes":[],"default_left":[0,0,0,0,0,0,0,0,0,0,0,0,0,0,0],"id":42,"left_children":[1,3,5,7,9,11,13,-1,-1,-1,-1,-1,-1,-1,-1],"loss_changes":[4.2059204E1,5.8255634E0,9.376249E0,2.2589245E0,1.5584984E0,1.0525668E0,1.7604637E0,0E0,0E0,0E0,0E0,0E0,0E0,0E0,0E0],"parents":[2147483647,0,0,1,1,2,2,3,3,4,4,5,5,6,6],"right_children":[2,4,6,8,10,12,14,-1,-1,-1,-1,-1,-1,-1,-1],"split_conditions":[3.3333334E-1,2.5000003E-1,4.0555555E-1,1.9444445E-1,3E-1,3.6666667E-1,4.545454E-2,-1.0627846E-3,-4.9534475E-4,-2.9612018E-4,-1.2014682E-4,4.873888E-5,2.065734E-4,1.193541E-3,4.7685765E-4],"split_indices":[27,27,27,3,27,27,28,0,0,0,0,0,0,0,0],"split_type":[0,0,0,0,0,0,0,0,0,0,0,0,0,0,0],"sum_hessian":[5.3424E4,2.5748E4,2.7676E4,5.527E3,2.0221E4,1.6967E4,1.0709E4,8.25E2,4.702E3,1.0769E4,9.452E3,9.012E3,7.955E3,3.54E2,1.0355E4],"tree_param":{"num_deleted":"0","num_feature":"30","num_nodes":"15","size_leaf_vector":"1"}},{"base_weights":[1.4100727E-4,-2.360964E-2,3.1581745E-2,-4.4959225E-2,-1.1956492E-2,1.5711987E-2,5.014502E-2,-9.959353E-4,-4.0014667E-4,-2.1490967E-4,-4.514836E-5,6.8983744E-4,1.4263848E-4,1.1017633E-3,4.7296996E-4],"categories":[],"categories_nodes":[],"categories_segments":[],"categories_sizes":[],"default_left":[0,0,0,0,0,0,0,0,0,0,0,0,0,0,0],"id":43,"left_children":[1,3,5,7,9,11,13,-1,-1,-1,-1,-1,-1,-1,-1],"loss_changes":[3.9798138E1,7.552973E0,6.755745E0,2.891941E0,1.393548E0,9.529891E-1,1.8019485E0,0E0,0E0,0E0,0E0,0E0,0E0,0E0,0E0],"parents":[2147483647,0,0,1,1,2,2,3,3,4,4,5,5,6,6],"right_children":[2,4,6,8,10,12,14,-1,-1,-1,-1,-1,-1,-1,-1],"split_conditions":[3.5000002E-1,2.777778E-1,4.0555555E-1,1.9444445E-1,3.1111112E-1,6.0606055E-2,6.0606055E-2,-9.959353E-4,-4.0014667E-4,-2.1490967E-4,-4.514836E-5,6.8983744E-4,1.4263848E-4,1.1017633E-3,4.7296996E-4],"split_indices":[27,27,27,3,27,28,28,0,0,0,0,0,0,0,0],"split_type":[0,0,0,0,0,0,0,0,0,0,0,0,0,0,0],"sum_hessian":[5.3294E4,3.036E4,2.2934E4,1.0719E4,1.9641E4,1.2365E4,1.0569E4,8.88E2,9.831E3,8.609E3,1.1032E4,3.26E2,1.2039E4,4.77E2,1.0092E4],"tree_param":{"num_deleted":"0","num_feature":"30","num_nodes":"15","size_leaf_vector":"1"}},{"base_weights":[-1.566359E-4,-2.0985229E-2,2.7883058E-2,-4.0804453E-2,-1.0181311E-2,1.4733766E-2,4.3410502E-2,-8.0079096E-4,-3.424722E-4,-1.7393488E-4,-2.4329418E-5,6.737374E-4,1.3330676E-4,1.1060152E-3,4.0681852E-4],"categories":[],"categories_nodes":[],"categories_segments":[],"categories_sizes":[],"default_left":[0,0,0,0,0,0,0,0,0,0,0,0,0,0,0],"id":44,"left_children":[1,3,5,7,9,11,13,-1,-1,-1,-1,-1,-1,-1,-1],"loss_changes":[3.1211592E1,6.565523E0,4.650057E0,2.783249E0,1.1090598E0,9.101474E-1,1.9103088E0,0E0,0E0,0E0,0E0,0E0,0E0,0E0,0E0],"parents":[2147483647,0,0,1,1,2,2,3,3,4,4,5,5,6,6],"right_children":[2,4,6,8,10,12,14,-1,-1,-1,-1,-1,-1,-1,-1],"split_conditions":[3.5000002E-1,2.777778E-1,4.0555555E-1,2.1666667E-1,3.166667E-1,6.0606055E-2,6.0606055E-2,-8.0079096E-4,-3.424722E-4,-1.7393488E-4,-2.4329418E-5,6.737374E-4,1.3330676E-4,1.1060152E-3,4.0681852E-4],"split_indices":[24,24,24,6,24,28,28,0,0,0,0,0,0,0,0],"split_type":[0,0,0,0,0,0,0,0,0,0,0,0,0,0,0],"sum_hessian":[5.344E4,3.0663E4,2.2777E4,1.0817E4,1.9846E4,1.2334E4,1.0443E4,1.546E3,9.271E3,1.0278E4,9.568E3,3.19E2,1.2015E4,4.06E2,1.0037E4],"tree_param":{"num_deleted":"0","num_feature":"30","num_nodes":"15","size_leaf_vector":"1"}},{"base_weights":[1.7037238E-4,-2.043098E-2,2.764425E-2,-4.8515595E-2,-1.3079821E-2,1.6028127E-2,4.582585E-2,-9.70253E-4,-4.1043697E-4,-2.0993015E-4,-3.7939528E-5,7.372963E-4,1.4535325E-4,3.0841166E-4,5.8311876E-4],"categories":[],"categories_nodes":[],"categories_segments":[],"categories_sizes":[],"default_left":[0,0,0,0,0,0,0,0,0,0,0,0,0,0,0],"id":45,"left_children":[1,3,5,7,9,11,13,-1,-1,-1,-1,-1,-1,-1,-1],"loss_changes":[3.0146238E1,6.2834263E0,4.819687E0,2.2845879E0,1.7726464E0,1.198643E0,1.6628227E0,0E0,0E0,0E0,0E0,0E0,0E0,0E0,0E0],"parents":[2147483647,0,0,1,1,2,2,3,3,4,4,5,5,6,6],"right_children":[2,4,6,8,10,12,14,-1,-1,-1,-1,-1,-1,-1,-1],"split_conditions":[3.5000002E-1,2.5555557E-1,4.166667E-1,1.9444445E-1,3.1111112E-1,6.0606055E-2,3.9444447E-1,-9.70253E-4,-4.1043697E-4,-2.0993015E-4,-3.7939528E-5,7.372963E-4,1.4535325E-4,3.0841166E-4,5.8311876E-4],"split_indices":[24,24,24,3,24,28,3,0,0,0,0,0,0,0,0],"split_type":[0,0,0,0,0,0,0,0,0,0,0,0,0,0,0],"sum_hessian":[5.326E4,3.0437E4,2.2823E4,6.313E3,2.4124E4,1.3927E4,8.896E3,8.41E2,5.472E3,1.3024E4,1.11E4,3.5E2,1.3577E4,4.045E3,4.851E3],"tree_param":{"num_deleted":"0","num_feature":"30","num_nodes":"15","size_leaf_vector":"1"}},{"base_weights":[2.0767501E-4,-2.1705274E-2,3.2914262E-2,-4.2115197E-2,-9.502548E-3,2.2439415E-2,5.8206785E-2,-9.0121414E-4,-3.6935986E-4,-1.7008903E-4,-9.457964E-6,1.3936563E-4,3.1372492E-4,3.2070908E-5,6.372068E-4],"categories":[],"categories_nodes":[],"categories_segments":[],"categories_sizes":[],"default_left":[0,0,0,0,0,0,0,0,0,0,0,0,0,0,0],"id":46,"left_children":[1,3,5,7,9,11,13,-1,-1,-1,-1,-1,-1,-1,-1],"loss_changes":[3.8225792E1,7.953972E0,5.667778E0,2.9678535E0,1.283878E0,1.1490135E0,1.9000397E0,0E0,0E0,0E0,0E0,0E0,0E0,0E0,0E0],"parents":[2147483647,0,0,1,1,2,2,3,3,4,4,5,5,6,6],"right_children":[2,4,6,8,10,12,14,-1,-1,-1,-1,-1,-1,-1,-1],"split_conditions":[3.5555556E-1,2.8333336E-1,4.388889E-1,2.0000002E-1,3.2222223E-1,3.888889E-1,3.5000002E-1,-9.0121414E-4,-3.6935986E-4,-1.7008903E-4,-9.457964E-6,1.3936563E-4,3.1372492E-4,3.2070908E-5,6.372068E-4],"split_indices":[27,27,27,21,27,27,21,0,0,0,0,0,0,0,0],"split_type":[0,0,0,0,0,0,0,0,0,0,0,0,0,0,0],"sum_hessian":[5.3334E4,3.1937E4,2.1397E4,1.1949E4,1.9988E4,1.5132E4,6.265E3,1.162E3,1.0787E4,1.0647E4,9.341E3,7.754E3,7.378E3,5.71E2,5.694E3],"tree_param":{"num_deleted":"0","num_feature":"30","num_nodes":"15","size_leaf_vector":"1"}},{"base_weights":[1.3562167E-4,-2.1454675E-2,3.2351714E-2,-4.3467812E-2,-1.0465737E-2,2.0039704E-2,5.5323955E-2,-8.9346245E-4,-3.836619E-4,-1.8311196E-4,-6.1368055E-6,1.038118E-4,2.628306E-4,1.1255743E-3,5.2206666E-4],"categories":[],"categories_nodes":[],"categories_segments":[],"categories_sizes":[],"default_left":[0,0,0,0,0,0,0,0,0,0,0,0,0,0,0],"id":47,"left_children":[1,3,5,7,9,11,13,-1,-1,-1,-1,-1,-1,-1,-1],"loss_changes":[3.7017433E1,7.70772E0,6.0388184E0,2.479889E0,1.6429484E0,8.382206E-1,1.3234806E0,0E0,0E0,0E0,0E0,0E0,0E0,0E0,0E0],"parents":[2147483647,0,0,1,1,2,2,3,3,4,4,5,5,6,6],"right_children":[2,4,6,8,10,12,14,-1,-1,-1,-1,-1,-1,-1,-1],"split_conditions":[3.5555556E-1,2.777778E-1,4.2777783E-1,2.0000002E-1,3.2222223E-1,3.7777779E-1,6.0606055E-2,-8.9346245E-4,-3.836619E-4,-1.8311196E-4,-6.1368055E-6,1.038118E-4,2.628306E-4,1.1255743E-3,5.2206666E-4],"split_indices":[27,27,27,15,27,27,28,0,0,0,0,0,0,0,0],"split_type":[0,0,0,0,0,0,0,0,0,0,0,0,0,0,0],"sum_hessian":[5.3218E4,3.1864E4,2.1354E4,1.0609E4,2.1255E4,1.3904E4,7.45E3,1.06E3,9.549E3,1.1832E4,9.423E3,5.46E3,8.444E3,3.83E2,7.067E3],"tree_param":{"num_deleted":"0","num_feature":"30","num_nodes":"15","size_leaf_vector":"1"}},{"base_weights":[3.3818145E-4,-2.5148213E-2,2.7117714E-2,-5.355484E-2,-1.8054528E-2,1.6087161E-2,5.449409E-2,-8.4127387E-4,-4.093264E-4,-2.6788653E-4,-9.646748E-5,8.377967E-5,2.7895437E-4,-1.5543631E-4,5.704148E-4],"categories":[],"categories_nodes":[],"categories_segments":[],"categories_sizes":[],"default_left":[0,0,0,0,0,0,0,0,0,0,0,0,0,0,0],"id":48,"left_children":[1,3,5,7,9,11,13,-1,-1,-1,-1,-1,-1,-1,-1],"loss_changes":[3.627492E1,5.4864902E0,7.825453E0,2.0962E0,1.6000285E0,1.6815872E0,1.3288212E0,0E0,0E0,0E0,0E0,0E0,0E0,0E0,0E0],"parents":[2147483647,0,0,1,1,2,2,3,3,4,4,5,5,6,6],"right_children":[2,4,6,8,10,12,14,-1,-1,-1,-1,-1,-1,-1,-1],"split_conditions":[3.388889E-1,2.5000003E-1,4.2777783E-1,2.2777778E-1,3E-1,3.8333336E-1,3.277778E-1,-8.4127387E-4,-4.093264E-4,-2.6788653E-4,-9.646748E-5,8.377967E-5,2.7895437E-4,-1.5543631E-4,5.704148E-4],"split_indices":[27,27,27,0,27,27,24,0,0,0,0,0,0,0,0],"split_type":[0,0,0,0,0,0,0,0,0,0,0,0,0,0,0],"sum_hessian":[5.3147E4,2.7231E4,2.5916E4,5.44E3,2.1791E4,1.8474E4,7.442E3,1.588E3,3.852E3,1.0687E4,1.1104E4,1.1178E4,7.296E3,2.61E2,7.181E3],"tree_param":{"num_deleted":"0","num_feature":"30","num_nodes":"15","size_leaf_vector":"1"}},{"base_weights":[1.4805708E-4,-2.5123788E-2,2.6668152E-2,-5.006017E-2,-1.7614871E-2,1.670251E-2,5.490658E-2,-9.0765266E-4,-4.2702537E-4,-2.6418405E-4,-9.743136E-5,6.697631E-5,2.5182503E-4,3.9796397E-4,6.841552E-4],"categories":[],"categories_nodes":[],"categories_segments":[],"categories_sizes":[],"default_left":[0,0,0,0,0,0,0,0,0,0,0,0,0,0,0],"id":49,"left_children":[1,3,5,7,9,11,13,-1,-1,-1,-1,-1,-1,-1,-1],"loss_changes":[3.5649902E1,5.0991173E0,7.3031864E0,1.8838301E0,1.4505191E0,1.6275959E0,1.3791866E0,0E0,0E0,0E0,0E0,0E0,0E0,0E0,0E0],"parents":[2147483647,0,0,1,1,2,2,3,3,4,4,5,5,6,6],"right_children":[2,4,6,8,10,12,14,-1,-1,-1,-1,-1,-1,-1,-1],"split_conditions":[3.388889E-1,2.5555557E-1,4.3333334E-1,2.0000002E-1,3E-1,3.7222224E-1,4.0000004E-1,-9.0765266E-4,-4.2702537E-4,-2.6418405E-4,-9.743136E-5,6.697631E-5,2.5182503E-4,3.9796397E-4,6.841552E-4],"split_indices":[27,27,27,15,27,27,6,0,0,0,0,0,0,0,0],"split_type":[0,0,0,0,0,0,0,0,0,0,0,0,0,0,0],"sum_hessian":[5.319E4,2.7236E4,2.5954E4,6.302E3,2.0934E4,1.9185E4,6.769E3,9.63E2,5.339E3,9.881E3,1.1053E4,8.802E3,1.0383E4,3.197E3,3.572E3],"tree_param":{"num_deleted":"0","num_feature":"30","num_nodes":"15","size_leaf_vector":"1"}},{"base_weights":[-3.4448185E-5,-2.1165727E-2,2.5059544E-2,-4.249308E-2,-1.2414077E-2,1.62731E-2,4.805002E-2,-9.502053E-4,-3.6197E-4,-2.007915E-4,-5.8828828E-5,7.3068094E-4,1.4744762E-4,3.4904873E-4,6.7980966E-4],"categories":[],"categories_nodes":[],"categories_segments":[],"categories_sizes":[],"default_left":[0,0,0,0,0,0,0,0,0,0,0,0,0,0,0],"id":50,"left_children":[1,3,5,7,9,11,13,-1,-1,-1,-1,-1,-1,-1,-1],"loss_changes":[2.821875E1,5.391592E0,4.9133816E0,2.7762365E0,1.0254037E0,1.5268106E0,1.7598066E0,0E0,0E0,0E0,0E0,0E0,0E0,0E0,0E0],"parents":[2147483647,0,0,1,1,2,2,3,3,4,4,5,5,6,6],"right_children":[2,4,6,8,10,12,14,-1,-1,-1,-1,-1,-1,-1,-1],"split_conditions":[3.4444445E-1,2.6666668E-1,4.3333334E-1,1.9444445E-1,3.0555558E-1,6.0606055E-2,4.2222226E-1,-9.502053E-4,-3.6197E-4,-2.007915E-4,-5.8828828E-5,7.3068094E-4,1.4744762E-4,3.4904873E-4,6.7980966E-4],"split_indices":[24,24,24,9,24,28,0,0,0,0,0,0,0,0,0],"split_type":[0,0,0,0,0,0,0,0,0,0,0,0,0,0,0],"sum_hessian":[5.3214E4,2.8888E4,2.4326E4,8.404E3,2.0484E4,1.7601E4,6.725E3,8.98E2,7.506E3,9.423E3,1.1061E4,4.6E2,1.7141E4,4.054E3,2.671E3],"tree_param":{"num_deleted":"0","num_feature":"30","num_nodes":"15","size_leaf_vector":"1"}},{"base_weights":[-9.104692E-5,-1.9744582E-2,2.6350474E-2,-5.5246755E-2,-1.4360364E-2,1.6718E-2,4.6324924E-2,-8.627313E-4,-4.0121475E-4,-2.4795096E-4,-5.254175E-5,8.6111843E-4,1.5505453E-4,2.7366E-4,5.864783E-4],"categories":[],"categories_nodes":[],"categories_segments":[],"categories_sizes":[],"default_left":[0,0,0,0,0,0,0,0,0,0,0,0,0,0,0],"id":51,"left_children":[1,3,5,7,9,11,13,-1,-1,-1,-1,-1,-1,-1,-1],"loss_changes":[2.758197E1,5.819003E0,4.3533144E0,1.8778925E0,2.5120258E0,1.2834487E0,1.7183723E0,0E0,0E0,0E0,0E0,0E0,0E0,0E0,0E0],"parents":[2147483647,0,0,1,1,2,2,3,3,4,4,5,5,6,6],"right_children":[2,4,6,8,10,12,14,-1,-1,-1,-1,-1,-1,-1,-1],"split_conditions":[3.5000002E-1,2.3888889E-1,4.2777783E-1,2.1666667E-1,3E-1,4.545454E-2,4.0000004E-1,-8.627313E-4,-4.0121475E-4,-2.4795096E-4,-5.254175E-5,8.6111843E-4,1.5505453E-4,2.7366E-4,5.864783E-4],"split_indices":[24,24,24,12,24,28,9,0,0,0,0,0,0,0,0],"split_type":[0,0,0,0,0,0,0,0,0,0,0,0,0,0,0],"sum_hessian":[5.3074E4,3.0445E4,2.2629E4,4.008E3,2.6437E4,1.5268E4,7.361E3,1.312E3,2.696E3,1.2319E4,1.4118E4,2.61E2,1.5007E4,2.901E3,4.46E3],"tree_param":{"num_deleted":"0","num_feature":"30","num_nodes":"15","size_leaf_vector":"1"}},{"base_weights":[3.271476E-5,-2.4839833E-2,2.595319E-2,-5.6895174E-2,-1.8113531E-2,1.1221338E-2,4.459369E-2,-7.7197625E-4,-3.7503827E-4,-2.7863652E-4,-1.0309478E-4,6.031452E-5,1.9304172E-4,3.6687482E-4,6.114051E-4],"categories":[],"categories_nodes":[],"categories_segments":[],"categories_sizes":[],"default_left":[0,0,0,0,0,0,0,0,0,0,0,0,0,0,0],"id":52,"left_children":[1,3,5,7,9,11,13,-1,-1,-1,-1,-1,-1,-1,-1],"loss_changes":[3.4311375E1,5.854826E0,7.156088E0,1.8513937E0,1.7079439E0,6.105771E-1,1.5027409E0,0E0,0E0,0E0,0E0,0E0,0E0,0E0,0E0],"parents":[2147483647,0,0,1,1,2,2,3,3,4,4,5,5,6,6],"right_children":[2,4,6,8,10,12,14,-1,-1,-1,-1,-1,-1,-1,-1],"split_conditions":[3.388889E-1,2.4444446E-1,4.0000004E-1,2.5000003E-1,2.9444447E-1,3.7222224E-1,4.666667E-1,-7.7197625E-4,-3.7503827E-4,-2.7863652E-4,-1.0309478E-4,6.031452E-5,1.9304172E-4,3.6687482E-4,6.114051E-4],"split_indices":[27,27,27,6,27,27,27,0,0,0,0,0,0,0,0],"split_type":[0,0,0,0,0,0,0,0,0,0,0,0,0,0,0],"sum_hessian":[5.3218E4,2.7158E4,2.606E4,4.709E3,2.2449E4,1.4557E4,1.1503E4,2.299E3,2.41E3,9.979E3,1.247E4,8.866E3,5.691E3,7.786E3,3.717E3],"tree_param":{"num_deleted":"0","num_feature":"30","num_nodes":"15","size_leaf_vector":"1"}},{"base_weights":[1.1735033E-4,-2.2788242E-2,2.167457E-2,-5.347665E-2,-1.72256E-2,9.438349E-3,3.9004344E-2,-7.8958576E-4,-3.5941848E-4,-2.7761952E-4,-1.1314872E-4,7.5948966E-4,8.409541E-5,1.0583993E-3,3.635279E-4],"categories":[],"categories_nodes":[],"categories_segments":[],"categories_sizes":[],"default_left":[0,0,0,0,0,0,0,0,0,0,0,0,0,0,0],"id":53,"left_children":[1,3,5,7,9,11,13,-1,-1,-1,-1,-1,-1,-1,-1],"loss_changes":[2.6312593E1,4.4095078E0,5.8208523E0,1.7683592E0,1.3618817E0,1.1004822E0,2.009529E0,0E0,0E0,0E0,0E0,0E0,0E0,0E0,0E0],"parents":[2147483647,0,0,1,1,2,2,3,3,4,4,5,5,6,6],"right_children":[2,4,6,8,10,12,14,-1,-1,-1,-1,-1,-1,-1,-1],"split_conditions":[3.3333334E-1,2.3888889E-1,4.0000004E-1,2.3333335E-1,2.8333336E-1,4.545454E-2,6.0606055E-2,-7.8958576E-4,-3.5941848E-4,-2.7761952E-4,-1.1314872E-4,7.5948966E-4,8.409541E-5,1.0583993E-3,3.635279E-4],"split_indices":[24,24,24,0,24,28,28,0,0,0,0,0,0,0,0],"split_type":[0,0,0,0,0,0,0,0,0,0,0,0,0,0,0],"sum_hessian":[5.3286E4,2.5835E4,2.7451E4,3.963E3,2.1872E4,1.6091E4,1.136E4,1.614E3,2.349E3,7.859E3,1.4013E4,2.44E2,1.5847E4,4.32E2,1.0928E4],"tree_param":{"num_deleted":"0","num_feature":"30","num_nodes":"15","size_leaf_vector":"1"}},{"base_weights":[8.6264685E-5,-2.53149E-2,2.3830445E-2,-6.255983E-2,-2.057181E-2,9.760777E-3,4.332717E-2,-8.6275366E-4,-4.4244647E-4,-2.961545E-4,-1.2872025E-4,9.1202155E-4,9.119375E-5,1.0515198E-3,4.063765E-4],"categories":[],"categories_nodes":[],"categories_segments":[],"categories_sizes":[],"default_left":[0,0,0,0,0,0,0,0,0,0,0,0,0,0,0],"id":54,"left_children":[1,3,5,7,9,11,13,-1,-1,-1,-1,-1,-1,-1,-1],"loss_changes":[3.2163708E1,4.5502567E0,7.5604506E0,1.2601538E0,1.591176E0,8.355279E-1,1.916748E0,0E0,0E0,0E0,0E0,0E0,0E0,0E0,0E0],"parents":[2147483647,0,0,1,1,2,2,3,3,4,4,5,5,6,6],"right_children":[2,4,6,8,10,12,14,-1,-1,-1,-1,-1,-1,-1,-1],"split_conditions":[3.3333334E-1,2.2777778E-1,4.0000004E-1,2.1666667E-1,2.888889E-1,3.030303E-2,6.0606055E-2,-8.6275366E-4,-4.4244647E-4,-2.961545E-4,-1.2872025E-4,9.1202155E-4,9.119375E-5,1.0515198E-3,4.063765E-4],"split_indices":[27,27,27,18,27,28,28,0,0,0,0,0,0,0,0],"split_type":[0,0,0,0,0,0,0,0,0,0,0,0,0,0,0],"sum_hessian":[5.3326E4,2.5764E4,2.7562E4,2.909E3,2.2855E4,1.601E4,1.1552E4,1.266E3,1.643E3,1.0509E4,1.2346E4,1.24E2,1.5886E4,4.8E2,1.1072E4],"tree_param":{"num_deleted":"0","num_feature":"30","num_nodes":"15","size_leaf_vector":"1"}},{"base_weights":[3.9997455E-4,-1.868957E-2,2.579057E-2,-4.232565E-2,-1.1184445E-2,1.7292818E-2,4.587806E-2,-6.848002E-4,-3.0941435E-4,-1.9619438E-4,-4.1991843E-5,7.1730977E-4,1.590451E-4,3.0214485E-4,6.079864E-4],"categories":[],"categories_nodes":[],"categories_segments":[],"categories_sizes":[],"default_left":[0,0,0,0,0,0,0,0,0,0,0,0,0,0,0],"id":55,"left_children":[1,3,5,7,9,11,13,-1,-1,-1,-1,-1,-1,-1,-1],"loss_changes":[2.5801762E1,5.389929E0,3.8989868E0,2.1782827E0,1.3589218E0,1.2123222E0,1.5852842E0,0E0,0E0,0E0,0E0,0E0,0E0,0E0,0E0],"parents":[2147483647,0,0,1,1,2,2,3,3,4,4,5,5,6,6],"right_children":[2,4,6,8,10,12,14,-1,-1,-1,-1,-1,-1,-1,-1],"split_conditions":[3.5000002E-1,2.6111114E-1,4.3333334E-1,2.3333335E-1,3.0555558E-1,6.0606055E-2,4.1111112E-1,-6.848002E-4,-3.0941435E-4,-1.9619438E-4,-4.1991843E-5,7.1730977E-4,1.590451E-4,3.0214485E-4,6.079864E-4],"split_indices":[24,24,24,9,24,28,6,0,0,0,0,0,0,0,0],"split_type":[0,0,0,0,0,0,0,0,0,0,0,0,0,0,0],"sum_hessian":[5.3231E4,3.0386E4,2.2845E4,7.322E3,2.3064E4,1.6055E4,6.79E3,2.219E3,5.103E3,1.0447E4,1.2617E4,3.98E2,1.5657E4,3.314E3,3.476E3],"tree_param":{"num_deleted":"0","num_feature":"30","num_nodes":"15","size_leaf_vector":"1"}},{"base_weights":[-3.9921964E-5,-1.8422293E-2,2.4634305E-2,-3.6566038E-2,-8.704534E-3,1.450999E-2,4.0642135E-2,-7.2092685E-4,-3.020347E-4,-1.7107799E-4,-3.949456E-5,5.797319E-4,1.3369028E-4,1.1494842E-3,3.836855E-4],"categories":[],"categories_nodes":[],"categories_segments":[],"categories_sizes":[],"default_left":[0,0,0,0,0,0,0,0,0,0,0,0,0,0,0],"id":56,"left_children":[1,3,5,7,9,11,13,-1,-1,-1,-1,-1,-1,-1,-1],"loss_changes":[2.4154457E1,5.3805103E0,3.6841965E0,2.4038E0,7.9410136E-1,6.899619E-1,1.4836254E0,0E0,0E0,0E0,0E0,0E0,0E0,0E0,0E0],"parents":[2147483647,0,0,1,1,2,2,3,3,4,4,5,5,6,6],"right_children":[2,4,6,8,10,12,14,-1,-1,-1,-1,-1,-1,-1,-1],"split_conditions":[3.5000002E-1,2.777778E-1,4.166667E-1,2.1666667E-1,3.0555558E-1,6.0606055E-2,4.545454E-2,-7.2092685E-4,-3.020347E-4,-1.7107799E-4,-3.949456E-5,5.797319E-4,1.3369028E-4,1.1494842E-3,3.836855E-4],"split_indices":[24,24,24,12,24,28,28,0,0,0,0,0,0,0,0],"split_type":[0,0,0,0,0,0,0,0,0,0,0,0,0,0,0],"sum_hessian":[5.3252E4,3.0517E4,2.2735E4,1.0643E4,1.9874E4,1.3928E4,8.807E3,1.615E3,9.028E3,7.181E3,1.2693E4,3.55E2,1.3573E4,2.6E2,8.547E3],"tree_param":{"num_deleted":"0","num_feature":"30","num_nodes":"15","size_leaf_vector":"1"}},{"base_weights":[5.9600305E-5,-2.3601089E-2,2.459688E-2,-4.357662E-2,-1.4780919E-2,1.4604375E-2,4.9543843E-2,-7.555674E-4,-3.6113497E-4,-2.1827607E-4,-7.818968E-5,6.905179E-5,2.372093E-4,-3.163106E-4,5.230915E-4],"categories":[],"categories_nodes":[],"categories_segments":[],"categories_sizes":[],"default_left":[0,0,0,0,0,0,0,0,0,0,0,0,0,0,0],"id":57,"left_children":[1,3,5,7,9,11,13,-1,-1,-1,-1,-1,-1,-1,-1],"loss_changes":[3.0676683E1,4.738801E0,6.4654207E0,1.9636889E0,9.1536283E-1,1.2998981E0,1.6667976E0,0E0,0E0,0E0,0E0,0E0,0E0,0E0,0E0],"parents":[2147483647,0,0,1,1,2,2,3,3,4,4,5,5,6,6],"right_children":[2,4,6,8,10,12,14,-1,-1,-1,-1,-1,-1,-1,-1],"split_conditions":[3.388889E-1,2.6666668E-1,4.2777783E-1,2.1666667E-1,3.0555558E-1,3.7777779E-1,3.277778E-1,-7.555674E-4,-3.6113497E-4,-2.1827607E-4,-7.818968E-5,6.905179E-5,2.372093E-4,-3.163106E-4,5.230915E-4],"split_indices":[27,27,27,15,27,27,24,0,0,0,0,0,0,0,0],"split_type":[0,0,0,0,0,0,0,0,0,0,0,0,0,0,0],"sum_hessian":[5.2837E4,2.6899E4,2.5938E4,8.238E3,1.8661E4,1.8521E4,7.417E3,1.557E3,6.681E3,9.273E3,9.388E3,1.0042E4,8.479E3,2.44E2,7.173E3],"tree_param":{"num_deleted":"0","num_feature":"30","num_nodes":"15","size_leaf_vector":"1"}},{"base_weights":[-6.157601E-5,-2.2020213E-2,2.5593257E-2,-4.796931E-2,-1.4779155E-2,1.46260755E-2,4.739219E-2,-7.826011E-4,-3.7961014E-4,-2.3598966E-4,-7.698692E-5,6.2095333E-4,1.3355444E-4,1.0374197E-3,4.4665454E-4],"categories":[],"categories_nodes":[],"categories_segments":[],"categories_sizes":[],"default_left":[0,0,0,0,0,0,0,0,0,0,0,0,0,0,0],"id":58,"left_children":[1,3,5,7,9,11,13,-1,-1,-1,-1,-1,-1,-1,-1],"loss_changes":[2.994912E1,5.3816576E0,5.860895E0,1.8914719E0,1.3984742E0,9.8310447E-1,1.2562256E0,0E0,0E0,0E0,0E0,0E0,0E0,0E0,0E0],"parents":[2147483647,0,0,1,1,2,2,3,3,4,4,5,5,6,6],"right_children":[2,4,6,8,10,12,14,-1,-1,-1,-1,-1,-1,-1,-1],"split_conditions":[3.4444445E-1,2.5555557E-1,4.2222226E-1,2.2222224E-1,3E-1,6.0606055E-2,6.0606055E-2,-7.826011E-4,-3.7961014E-4,-2.3598966E-4,-7.698692E-5,6.2095333E-4,1.3355444E-4,1.0374197E-3,4.4665454E-4],"split_indices":[27,27,27,3,27,28,28,0,0,0,0,0,0,0,0],"split_type":[0,0,0,0,0,0,0,0,0,0,0,0,0,0,0],"sum_hessian":[5.3161E4,2.8644E4,2.4517E4,6.248E3,2.2396E4,1.6312E4,8.205E3,1.55E3,4.698E3,9.972E3,1.2424E4,4.24E2,1.5888E4,3.77E2,7.828E3],"tree_param":{"num_deleted":"0","num_feature":"30","num_nodes":"15","size_leaf_vector":"1"}},{"base_weights":[-5.6351575E-5,-1.9773416E-2,2.9417623E-2,-3.8043704E-2,-8.643642E-3,1.8465146E-2,4.9905732E-2,-8.686736E-4,-3.3800665E-4,-1.4626616E-4,6.2065974E-6,6.471376E-4,1.7199972E-4,1.1077214E-3,4.6602046E-4],"categories":[],"categories_nodes":[],"categories_segments":[],"categories_sizes":[],"default_left":[0,0,0,0,0,0,0,0,0,0,0,0,0,0,0],"id":59,"left_children":[1,3,5,7,9,11,13,-1,-1,-1,-1,-1,-1,-1,-1],"loss_changes":[3.0942814E1,6.4869595E0,4.788128E0,2.4989433E0,1.0989817E0,8.1273794E-1,1.4896908E0,0E0,0E0,0E0,0E0,0E0,0E0,0E0,0E0],"parents":[2147483647,0,0,1,1,2,2,3,3,4,4,5,5,6,6],"right_children":[2,4,6,8,10,12,14,-1,-1,-1,-1,-1,-1,-1,-1],"split_conditions":[3.5555556E-1,2.8333336E-1,4.2777783E-1,1.9444445E-1,3.277778E-1,6.0606055E-2,6.0606055E-2,-8.686736E-4,-3.3800665E-4,-1.4626616E-4,6.2065974E-6,6.471376E-4,1.7199972E-4,1.1077214E-3,4.6602046E-4],"split_indices":[27,27,27,21,27,28,28,0,0,0,0,0,0,0,0],"split_type":[0,0,0,0,0,0,0,0,0,0,0,0,0,0,0],"sum_hessian":[5.3243E4,3.1902E4,2.1341E4,1.2076E4,1.9826E4,1.3908E4,7.433E3,9.64E2,1.1112E4,1.2046E4,7.78E3,3.69E2,1.3539E4,3.81E2,7.052E3],"tree_param":{"num_deleted":"0","num_feature":"30","num_nodes":"15","size_leaf_vector":"1"}},{"base_weights":[-2.2881912E-4,-2.0861732E-2,2.7062977E-2,-3.6153875E-2,-8.7343315E-3,1.8403059E-2,5.3523306E-2,-7.3218794E-4,-3.1247706E-4,-1.4271298E-4,-2.3563452E-5,1.1748473E-4,2.8268917E-4,1.3232473E-5,5.85012E-4],"categories":[],"categories_nodes":[],"categories_segments":[],"categories_sizes":[],"default_left":[0,0,0,0,0,0,0,0,0,0,0,0,0,0,0],"id":60,"left_children":[1,3,5,7,9,11,13,-1,-1,-1,-1,-1,-1,-1,-1],"loss_changes":[3.0099882E1,5.644902E0,5.272314E0,2.4459171E0,5.995394E-1,1.1380944E0,1.4742908E0,0E0,0E0,0E0,0E0,0E0,0E0,0E0,0E0],"parents":[2147483647,0,0,1,1,2,2,3,3,4,4,5,5,6,6],"right_children":[2,4,6,8,10,12,14,-1,-1,-1,-1,-1,-1,-1,-1],"split_conditions":[3.5000002E-1,2.888889E-1,4.4444448E-1,2.0555556E-1,3.2222223E-1,3.9444447E-1,3.5000002E-1,-7.3218794E-4,-3.1247706E-4,-1.4271298E-4,-2.3563452E-5,1.1748473E-4,2.8268917E-4,1.3232473E-5,5.85012E-4],"split_indices":[27,27,27,27,27,27,21,0,0,0,0,0,0,0,0],"split_type":[0,0,0,0,0,0,0,0,0,0,0,0,0,0,0],"sum_hessian":[5.3451E4,3.0439E4,2.3012E4,1.3462E4,1.6977E4,1.7339E4,5.673E3,1.572E3,1.189E4,9.087E3,7.89E3,1.0356E4,6.983E3,4.94E2,5.179E3],"tree_param":{"num_deleted":"0","num_feature":"30","num_nodes":"15","size_leaf_vector":"1"}},{"base_weights":[-6.0802206E-5,-1.7073993E-2,2.0161228E-2,-4.1833643E-2,-1.1258587E-2,1.1724318E-2,3.7324805E-2,-9.502261E-4,-3.591054E-4,-1.9758179E-4,-5.6082925E-5,6.113334E-4,1.04701285E-4,2.1043324E-4,4.835627E-4],"categories":[],"categories_nodes":[],"categories_segments":[],"categories_sizes":[],"default_left":[0,0,0,0,0,0,0,0,0,0,0,0,0,0,0],"id":61,"left_children":[1,3,5,7,9,11,13,-1,-1,-1,-1,-1,-1,-1,-1],"loss_changes":[1.8336367E1,4.167244E0,3.525917E0,1.7309036E0,1.1256478E0,1.011178E0,1.440341E0,0E0,0E0,0E0,0E0,0E0,0E0,0E0,0E0],"parents":[2147483647,0,0,1,1,2,2,3,3,4,4,5,5,6,6],"right_children":[2,4,6,8,10,12,14,-1,-1,-1,-1,-1,-1,-1,-1],"split_conditions":[3.4444445E-1,2.5000003E-1,4.2222226E-1,1.777778E-1,2.9444447E-1,6.0606055E-2,3.888889E-1,-9.502261E-4,-3.591054E-4,-1.9758179E-4,-5.6082925E-5,6.113334E-4,1.04701285E-4,2.1043324E-4,4.835627E-4],"split_indices":[21,21,21,9,21,28,3,0,0,0,0,0,0,0,0],"split_type":[0,0,0,0,0,0,0,0,0,0,0,0,0,0,0],"sum_hessian":[5.3295E4,2.8944E4,2.4351E4,5.504E3,2.344E4,1.6327E4,8.024E3,5.5E2,4.954E3,9.359E3,1.4081E4,4.03E2,1.5924E4,3.242E3,4.782E3],"tree_param":{"num_deleted":"0","num_feature":"30","num_nodes":"15","size_leaf_vector":"1"}},{"base_weights":[-2.1699244E-4,-2.4157928E-2,2.2116225E-2,-4.788892E-2,-1.7723758E-2,9.06185E-3,4.032336E-2,-7.6287065E-4,-3.7429045E-4,-2.5046463E-4,-1.1511611E-4,2.7464479E-5,1.497982E-4,3.2054086E-4,5.7734526E-4],"categories":[],"categories_nodes":[],"categories_segments":[],"categories_sizes":[],"default_left":[0,0,0,0,0,0,0,0,0,0,0,0,0,0,0],"id":62,"left_children":[1,3,5,7,9,11,13,-1,-1,-1,-1,-1,-1,-1,-1],"loss_changes":[2.8424023E1,3.9167004E0,6.5368633E0,1.6225519E0,9.1796684E-1,5.986961E-1,1.6517334E0,0E0,0E0,0E0,0E0,0E0,0E0,0E0,0E0],"parents":[2147483647,0,0,1,1,2,2,3,3,4,4,5,5,6,6],"right_children":[2,4,6,8,10,12,14,-1,-1,-1,-1,-1,-1,-1,-1],"split_conditions":[3.3333334E-1,2.5000003E-1,4.0000004E-1,2.2222224E-1,2.9444447E-1,3.6111113E-1,4.666667E-1,-7.6287065E-4,-3.7429045E-4,-2.5046463E-4,-1.1511611E-4,2.7464479E-5,1.497982E-4,3.2054086E-4,5.7734526E-4],"split_indices":[27,27,27,3,27,27,27,0,0,0,0,0,0,0,0],"split_type":[0,0,0,0,0,0,0,0,0,0,0,0,0,0,0],"sum_hessian":[5.3159E4,2.5656E4,2.7503E4,5.471E3,2.0185E4,1.6019E4,1.1484E4,1.471E3,4E3,9.263E3,1.0922E4,7.75E3,8.269E3,7.788E3,3.696E3],"tree_param":{"num_deleted":"0","num_feature":"30","num_nodes":"15","size_leaf_vector":"1"}},{"base_weights":[-1.8297079E-4,-2.1377895E-2,2.4644187E-2,-5.1211447E-2,-1.5530194E-2,1.4793992E-2,4.6892174E-2,-8.770417E-4,-4.1736622E-4,-2.473241E-4,-7.039938E-5,7.124494E-5,2.2623678E-4,2.859295E-4,5.615921E-4],"categories":[],"categories_nodes":[],"categories_segments":[],"categories_sizes":[],"default_left":[0,0,0,0,0,0,0,0,0,0,0,0,0,0,0],"id":63,"left_children":[1,3,5,7,9,11,13,-1,-1,-1,-1,-1,-1,-1,-1],"loss_changes":[2.7922794E1,4.99323E0,5.3548193E0,1.61831E0,1.8699255E0,1.0170817E0,1.270071E0,0E0,0E0,0E0,0E0,0E0,0E0,0E0,0E0],"parents":[2147483647,0,0,1,1,2,2,3,3,4,4,5,5,6,6],"right_children":[2,4,6,8,10,12,14,-1,-1,-1,-1,-1,-1,-1,-1],"split_conditions":[3.4444445E-1,2.4444446E-1,4.2777783E-1,2.0000002E-1,3E-1,3.7777779E-1,3.6666667E-1,-8.770417E-4,-4.1736622E-4,-2.473241E-4,-7.039938E-5,7.124494E-5,2.2623678E-4,2.859295E-4,5.615921E-4],"split_indices":[27,27,27,15,27,27,6,0,0,0,0,0,0,0,0],"split_type":[0,0,0,0,0,0,0,0,0,0,0,0,0,0,0],"sum_hessian":[5.3062E4,2.8625E4,2.4437E4,4.69E3,2.3935E4,1.6939E4,7.498E3,9.65E2,3.725E3,1.1485E4,1.245E4,8.558E3,8.381E3,2.522E3,4.976E3],"tree_param":{"num_deleted":"0","num_feature":"30","num_nodes":"15","size_leaf_vector":"1"}},{"base_weights":[1.6033303E-4,-1.7412052E-2,2.9608471E-2,-3.2411594E-2,-5.547311E-3,1.9580476E-2,4.8757818E-2,-7.238864E-4,-2.8491553E-4,-1.1925719E-4,8.550012E-6,1.4375689E-4,2.8712692E-4,-3.1611684E-4,5.110648E-4],"categories":[],"categories_nodes":[],"categories_segments":[],"categories_sizes":[],"default_left":[0,0,0,0,0,0,0,0,0,0,0,0,0,0,0],"id":64,"left_children":[1,3,5,7,9,11,13,-1,-1,-1,-1,-1,-1,-1,-1],"loss_changes":[2.758395E1,5.9410257E0,3.8244667E0,2.3084946E0,7.612444E-1,6.211052E-1,1.2938709E0,0E0,0E0,0E0,0E0,0E0,0E0,0E0,0E0],"parents":[2147483647,0,0,1,1,2,2,3,3,4,4,5,5,6,6],"right_children":[2,4,6,8,10,12,14,-1,-1,-1,-1,-1,-1,-1,-1],"split_conditions":[3.6111113E-1,2.9444447E-1,4.3333334E-1,2.0555556E-1,3.277778E-1,4.0000004E-1,3.1111112E-1,-7.238864E-4,-2.8491553E-4,-1.1925719E-4,8.550012E-6,1.4375689E-4,2.8712692E-4,-3.1611684E-4,5.110648E-4],"split_indices":[27,27,27,18,27,27,24,0,0,0,0,0,0,0,0],"split_type":[0,0,0,0,0,0,0,0,0,0,0,0,0,0,0],"sum_hessian":[5.3303E4,3.3383E4,1.992E4,1.4743E4,1.864E4,1.3075E4,6.845E3,1.315E3,1.3428E4,9.337E3,9.303E3,8.33E3,4.745E3,1.94E2,6.651E3],"tree_param":{"num_deleted":"0","num_feature":"30","num_nodes":"15","size_leaf_vector":"1"}},{"base_weights":[-1.2756874E-5,-2.0931015E-2,2.4597712E-2,-4.1201863E-2,-1.26467785E-2,1.4012876E-2,4.5818873E-2,-6.593477E-4,-3.177786E-4,-1.8798371E-4,-5.4930624E-5,7.4428E-4,1.3051307E-4,-2.4017687E-4,4.7911974E-4],"categories":[],"categories_nodes":[],"categories_segments":[],"categories_sizes":[],"default_left":[0,0,0,0,0,0,0,0,0,0,0,0,0,0,0],"id":65,"left_children":[1,3,5,7,9,11,13,-1,-1,-1,-1,-1,-1,-1,-1],"loss_changes":[2.7461924E1,4.841696E0,5.50463E0,1.9476442E0,9.0075874E-1,9.4908595E-1,1.1933556E0,0E0,0E0,0E0,0E0,0E0,0E0,0E0,0E0],"parents":[2147483647,0,0,1,1,2,2,3,3,4,4,5,5,6,6],"right_children":[2,4,6,8,10,12,14,-1,-1,-1,-1,-1,-1,-1,-1],"split_conditions":[3.4444445E-1,2.6666668E-1,4.2222226E-1,2.3888889E-1,3.1111112E-1,4.545454E-2,3.166667E-1,-6.593477E-4,-3.177786E-4,-1.8798371E-4,-5.4930624E-5,7.4428E-4,1.3051307E-4,-2.4017687E-4,4.7911974E-4],"split_indices":[27,27,27,0,27,28,24,0,0,0,0,0,0,0,0],"split_type":[0,0,0,0,0,0,0,0,0,0,0,0,0,0,0],"sum_hessian":[5.3342E4,2.8834E4,2.4508E4,8.364E3,2.047E4,1.6353E4,8.155E3,2.306E3,6.058E3,1.1005E4,9.465E3,2.55E2,1.6098E4,2.37E2,7.918E3],"tree_param":{"num_deleted":"0","num_feature":"30","num_nodes":"15","size_leaf_vector":"1"}},{"base_weights":[3.116536E-4,-1.6914925E-2,2.8923292E-2,-3.3227026E-2,-5.9841378E-3,2.0006536E-2,4.888279E-2,-7.612722E-4,-2.9621404E-4,-1.09250235E-4,1.8770257E-5,1.45192E-4,2.8551993E-4,-3.3108267E-4,5.158937E-4],"categories":[],"categories_nodes":[],"categories_segments":[],"categories_sizes":[],"default_left":[0,0,0,0,0,0,0,0,0,0,0,0,0,0,0],"id":66,"left_children":[1,3,5,7,9,11,13,-1,-1,-1,-1,-1,-1,-1,-1],"loss_changes":[2.6238E1,5.924491E0,3.5595684E0,2.0599623E0,7.7284217E-1,6.480994E-1,1.3724794E0,0E0,0E0,0E0,0E0,0E0,0E0,0E0,0E0],"parents":[2147483647,0,0,1,1,2,2,3,3,4,4,5,5,6,6],"right_children":[2,4,6,8,10,12,14,-1,-1,-1,-1,-1,-1,-1,-1],"split_conditions":[3.6111113E-1,2.888889E-1,4.388889E-1,2.0000002E-1,3.3333334E-1,4.0000004E-1,3.166667E-1,-7.612722E-4,-2.9621404E-4,-1.09250235E-4,1.8770257E-5,1.45192E-4,2.8551993E-4,-3.3108267E-4,5.158937E-4],"split_indices":[27,27,27,12,27,27,24,0,0,0,0,0,0,0,0],"split_type":[0,0,0,0,0,0,0,0,0,0,0,0,0,0,0],"sum_hessian":[5.3232E4,3.3227E4,2.0005E4,1.3331E4,1.9896E4,1.3829E4,6.176E3,1.032E3,1.2299E4,1.2217E4,7.679E3,8.423E3,5.406E3,1.97E2,5.979E3],"tree_param":{"num_deleted":"0","num_feature":"30","num_nodes":"15","size_leaf_vector":"1"}},{"base_weights":[1.814937E-4,-1.6850166E-2,2.8730122E-2,-3.245048E-2,-4.615031E-3,2.0086277E-2,5.0877165E-2,-6.450101E-4,-2.7129846E-4,-9.570634E-5,2.4669216E-5,1.4157369E-4,2.8473634E-4,-1.3593373E-4,5.5420626E-4],"categories":[],"categories_nodes":[],"categories_segments":[],"categories_sizes":[],"default_left":[0,0,0,0,0,0,0,0,0,0,0,0,0,0,0],"id":67,"left_children":[1,3,5,7,9,11,13,-1,-1,-1,-1,-1,-1,-1,-1],"loss_changes":[2.599777E1,6.391959E0,3.8236713E0,2.508438E0,6.587632E-1,7.1428585E-1,1.6434469E0,0E0,0E0,0E0,0E0,0E0,0E0,0E0,0E0],"parents":[2147483647,0,0,1,1,2,2,3,3,4,4,5,5,6,6],"right_children":[2,4,6,8,10,12,14,-1,-1,-1,-1,-1,-1,-1,-1],"split_conditions":[3.6111113E-1,2.9444447E-1,4.4444448E-1,2.1666667E-1,3.3333334E-1,4.0000004E-1,3.6666667E-1,-6.450101E-4,-2.7129846E-4,-9.570634E-5,2.4669216E-5,1.4157369E-4,2.8473634E-4,-1.3593373E-4,5.5420626E-4],"split_indices":[27,27,27,27,27,27,24,0,0,0,0,0,0,0,0],"split_type":[0,0,0,0,0,0,0,0,0,0,0,0,0,0,0],"sum_hessian":[5.3466E4,3.3488E4,1.9978E4,1.4719E4,1.8769E4,1.4371E4,5.607E3,2.094E3,1.2625E4,1.1042E4,7.727E3,8.421E3,5.95E3,3.69E2,5.238E3],"tree_param":{"num_deleted":"0","num_feature":"30","num_nodes":"15","size_leaf_vector":"1"}},{"base_weights":[1.4231217E-4,-2.0163441E-2,2.3981841E-2,-4.6286587E-2,-1.4098794E-2,1.4792635E-2,4.805608E-2,-8.7869965E-4,-3.878186E-4,-2.2300282E-4,-7.154006E-5,7.383735E-5,2.3696778E-4,1.5357042E-4,5.349103E-4],"categories":[],"categories_nodes":[],"categories_segments":[],"categories_sizes":[],"default_left":[0,0,0,0,0,0,0,0,0,0,0,0,0,0,0],"id":68,"left_children":[1,3,5,7,9,11,13,-1,-1,-1,-1,-1,-1,-1,-1],"loss_changes":[2.5731253E1,4.5470133E0,5.4081964E0,1.6842766E0,1.3268385E0,1.1672945E0,1.1994829E0,0E0,0E0,0E0,0E0,0E0,0E0,0E0,0E0],"parents":[2147483647,0,0,1,1,2,2,3,3,4,4,5,5,6,6],"right_children":[2,4,6,8,10,12,14,-1,-1,-1,-1,-1,-1,-1,-1],"split_conditions":[3.4444445E-1,2.5000003E-1,4.3333334E-1,1.9444445E-1,3E-1,3.8333336E-1,3.2222223E-1,-8.7869965E-4,-3.878186E-4,-2.2300282E-4,-7.154006E-5,7.383735E-5,2.3696778E-4,1.5357042E-4,5.349103E-4],"split_indices":[27,27,27,12,27,27,12,0,0,0,0,0,0,0,0],"split_type":[0,0,0,0,0,0,0,0,0,0,0,0,0,0,0],"sum_hessian":[5.3153E4,2.8704E4,2.4449E4,5.407E3,2.3297E4,1.7696E4,6.753E3,8.25E2,4.582E3,1.0681E4,1.2616E4,9.66E3,8.036E3,9.63E2,5.79E3],"tree_param":{"num_deleted":"0","num_feature":"30","num_nodes":"15","size_leaf_vector":"1"}},{"base_weights":[-1.0075699E-4,-1.975175E-2,1.8388996E-2,-4.69241E-2,-1.4675993E-2,6.7700027E-3,3.2315064E-2,-7.6465175E-4,-3.213626E-4,-1.934882E-4,-5.395594E-5,9.425477E-4,6.104376E-5,9.512437E-4,2.9997886E-4],"categories":[],"categories_nodes":[],"categories_segments":[],"categories_sizes":[],"default_left":[0,0,0,0,0,0,0,0,0,0,0,0,0,0,0],"id":69,"left_children":[1,3,5,7,9,11,13,-1,-1,-1,-1,-1,-1,-1,-1],"loss_changes":[1.9368671E1,3.563448E0,4.4438066E0,1.7742062E0,9.4422674E-1,8.71394E-1,1.8152342E0,0E0,0E0,0E0,0E0,0E0,0E0,0E0,0E0],"parents":[2147483647,0,0,1,1,2,2,3,3,4,4,5,5,6,6],"right_children":[2,4,6,8,10,12,14,-1,-1,-1,-1,-1,-1,-1,-1],"split_conditions":[3.3333334E-1,2.3888889E-1,3.9444447E-1,2.2222224E-1,3.3333334E-1,3.030303E-2,6.0606055E-2,-7.6465175E-4,-3.213626E-4,-1.934882E-4,-5.395594E-5,9.425477E-4,6.104376E-5,9.512437E-4,2.9997886E-4],"split_indices":[24,24,24,0,0,28,28,0,0,0,0,0,0,0,0],"split_type":[0,0,0,0,0,0,0,0,0,0,0,0,0,0,0],"sum_hessian":[5.3305E4,2.5841E4,2.7464E4,4.066E3,2.1775E4,1.4973E4,1.2491E4,1.355E3,2.711E3,1.4482E4,7.293E3,1.12E2,1.4861E4,4.43E2,1.2048E4],"tree_param":{"num_deleted":"0","num_feature":"30","num_nodes":"15","size_leaf_vector":"1"}},{"base_weights":[-7.097496E-5,-1.6506122E-2,2.7520591E-2,-3.0983372E-2,-5.038561E-3,1.9113703E-2,4.9199425E-2,-6.1412563E-4,-2.5811043E-4,-1.06145075E-4,5.289351E-6,6.418847E-4,1.7768264E-4,3.443265E-4,6.444652E-4],"categories":[],"categories_nodes":[],"categories_segments":[],"categories_sizes":[],"default_left":[0,0,0,0,0,0,0,0,0,0,0,0,0,0,0],"id":70,"left_children":[1,3,5,7,9,11,13,-1,-1,-1,-1,-1,-1,-1,-1],"loss_changes":[2.4099743E1,5.5292645E0,3.614747E0,2.3153505E0,5.769906E-1,8.6590624E-1,1.2457905E0,0E0,0E0,0E0,0E0,0E0,0E0,0E0,0E0],"parents":[2147483647,0,0,1,1,2,2,3,3,4,4,5,5,6,6],"right_children":[2,4,6,8,10,12,14,-1,-1,-1,-1,-1,-1,-1,-1],"split_conditions":[3.6111113E-1,2.9444447E-1,4.4444448E-1,2.1666667E-1,3.277778E-1,6.0606055E-2,4.388889E-1,-6.1412563E-4,-2.5811043E-4,-1.06145075E-4,5.289351E-6,6.418847E-4,1.7768264E-4,3.443265E-4,6.444652E-4],"split_indices":[27,27,27,27,27,28,15,0,0,0,0,0,0,0,0],"split_type":[0,0,0,0,0,0,0,0,0,0,0,0,0,0,0],"sum_hessian":[5.3143E4,3.3305E4,1.9838E4,1.472E4,1.8585E4,1.4296E4,5.542E3,2.137E3,1.2583E4,9.285E3,9.3E3,4.13E2,1.3883E4,2.817E3,2.725E3],"tree_param":{"num_deleted":"0","num_feature":"30","num_nodes":"15","size_leaf_vector":"1"}},{"base_weights":[4.4785888E-4,-2.1512808E-2,2.0865042E-2,-4.5686927E-2,-1.6154254E-2,1.2732266E-2,4.5711182E-2,-8.8744715E-4,-3.831983E-4,-2.3249627E-4,-9.551398E-5,5.4938973E-5,2.1900372E-4,-1.13145325E-4,4.884408E-4],"categories":[],"categories_nodes":[],"categories_segments":[],"categories_sizes":[],"default_left":[0,0,0,0,0,0,0,0,0,0,0,0,0,0,0],"id":71,"left_children":[1,3,5,7,9,11,13,-1,-1,-1,-1,-1,-1,-1,-1],"loss_changes":[2.3796606E1,3.3115568E0,5.556897E0,1.4681406E0,9.804368E-1,1.3750358E0,1.2121954E0,0E0,0E0,0E0,0E0,0E0,0E0,0E0,0E0],"parents":[2147483647,0,0,1,1,2,2,3,3,4,4,5,5,6,6],"right_children":[2,4,6,8,10,12,14,-1,-1,-1,-1,-1,-1,-1,-1],"split_conditions":[3.3333334E-1,2.4444446E-1,4.3333334E-1,1.888889E-1,2.9444447E-1,3.7777779E-1,3.166667E-1,-8.8744715E-4,-3.831983E-4,-2.3249627E-4,-9.551398E-5,5.4938973E-5,2.1900372E-4,-1.13145325E-4,4.884408E-4],"split_indices":[27,27,27,6,27,27,21,0,0,0,0,0,0,0,0],"split_type":[0,0,0,0,0,0,0,0,0,0,0,0,0,0,0],"sum_hessian":[5.3071E4,2.5569E4,2.7502E4,4.638E3,2.0931E4,2.0721E4,6.781E3,6.76E2,3.962E3,1.0088E4,1.0843E4,1.158E4,9.141E3,3.53E2,6.428E3],"tree_param":{"num_deleted":"0","num_feature":"30","num_nodes":"15","size_leaf_vector":"1"}},{"base_weights":[1.0382793E-4,-2.1422017E-2,2.0231513E-2,-4.1593727E-2,-1.4831249E-2,1.0944886E-2,4.218677E-2,-5.674435E-4,-2.5944976E-4,-2.1458756E-4,-9.798087E-5,6.929313E-4,9.9989185E-5,2.751605E-4,5.1875465E-4],"categories":[],"categories_nodes":[],"categories_segments":[],"categories_sizes":[],"default_left":[0,0,0,0,0,0,0,0,0,0,0,0,0,0,0],"id":72,"left_children":[1,3,5,7,9,11,13,-1,-1,-1,-1,-1,-1,-1,-1],"loss_changes":[2.3117744E1,3.4271564E0,5.6216087E0,1.5038023E0,6.4808893E-1,1.0689423E0,1.1635532E0,0E0,0E0,0E0,0E0,0E0,0E0,0E0,0E0],"parents":[2147483647,0,0,1,1,2,2,3,3,4,4,5,5,6,6],"right_children":[2,4,6,8,10,12,14,-1,-1,-1,-1,-1,-1,-1,-1],"split_conditions":[3.3333334E-1,2.5555557E-1,4.2222226E-1,2.6666668E-1,2.9444447E-1,4.545454E-2,4.0000004E-1,-5.674435E-4,-2.5944976E-4,-2.1458756E-4,-9.798087E-5,6.929313E-4,9.9989185E-5,2.751605E-4,5.1875465E-4],"split_indices":[27,27,27,0,27,28,12,0,0,0,0,0,0,0,0],"split_type":[0,0,0,0,0,0,0,0,0,0,0,0,0,0,0],"sum_hessian":[5.3355E4,2.5782E4,2.7573E4,6.348E3,1.9434E4,1.9378E4,8.195E3,3.224E3,3.124E3,8.387E3,1.1047E4,3.08E2,1.907E4,3.261E3,4.934E3],"tree_param":{"num_deleted":"0","num_feature":"30","num_nodes":"15","size_leaf_vector":"1"}},{"base_weights":[-3.3043174E-4,-1.2885561E-2,2.6064409E-2,-2.9075548E-2,-3.2883657E-3,9.007583E-2,2.4558544E-2,-7.2765694E-4,-2.508848E-4,4.634359E-4,-3.977428E-5,-7.1644183E-4,9.576694E-4,1.7117267E-4,3.7611506E-4],"categories":[],"categories_nodes":[],"categories_segments":[],"categories_sizes":[],"default_left":[0,0,0,0,0,0,0,0,0,0,0,0,0,0,0],"id":73,"left_children":[1,3,5,7,9,11,13,-1,-1,-1,-1,-1,-1,-1,-1],"loss_changes":[1.7684996E1,5.619012E0,1.6559334E0,2.3426723E0,7.767189E-1,3.7040615E-1,1.6319284E0,0E0,0E0,0E0,0E0,0E0,0E0,0E0,0E0],"parents":[2147483647,0,0,1,1,2,2,3,3,4,4,5,5,6,6],"right_children":[2,4,6,8,10,12,14,-1,-1,-1,-1,-1,-1,-1,-1],"split_conditions":[3.7222224E-1,2.888889E-1,4.545454E-2,2.0000002E-1,4.545454E-2,2.5555557E-1,4.166667E-1,-7.2765694E-4,-2.508848E-4,4.634359E-4,-3.977428E-5,-7.1644183E-4,9.576694E-4,1.7117267E-4,3.7611506E-4],"split_indices":[24,24,28,15,28,12,6,0,0,0,0,0,0,0,0],"split_type":[0,0,0,0,0,0,0,0,0,0,0,0,0,0,0],"sum_hessian":[5.3364E4,3.6163E4,1.7201E4,1.3458E4,2.2705E4,3.94E2,1.6807E4,1.124E3,1.2334E4,3.1E2,2.2395E4,1.3E1,3.81E2,1.0706E4,6.101E3],"tree_param":{"num_deleted":"0","num_feature":"30","num_nodes":"15","size_leaf_vector":"1"}},{"base_weights":[-2.9044188E-4,-1.604842E-2,2.0732671E-2,-4.419792E-2,-1.165454E-2,1.3635238E-2,3.77232E-2,-9.4594155E-4,-3.6443124E-4,-2.1280801E-4,-6.341634E-5,6.598467E-5,1.8907686E-4,2.3430643E-4,5.1281846E-4],"categories":[],"categories_nodes":[],"categories_segments":[],"categories_sizes":[],"default_left":[0,0,0,0,0,0,0,0,0,0,0,0,0,0,0],"id":74,"left_children":[1,3,5,7,9,11,13,-1,-1,-1,-1,-1,-1,-1,-1],"loss_changes":[1.7597689E1,3.7548237E0,2.7438526E0,1.5984945E0,1.3430955E0,5.95495E-1,1.2981462E0,0E0,0E0,0E0,0E0,0E0,0E0,0E0,0E0],"parents":[2147483647,0,0,1,1,2,2,3,3,4,4,5,5,6,6],"right_children":[2,4,6,8,10,12,14,-1,-1,-1,-1,-1,-1,-1,-1],"split_conditions":[3.5000002E-1,2.3888889E-1,4.3333334E-1,1.777778E-1,2.888889E-1,3.7777779E-1,4.1111112E-1,-9.4594155E-4,-3.6443124E-4,-2.1280801E-4,-6.341634E-5,6.598467E-5,1.8907686E-4,2.3430643E-4,5.1281846E-4],"split_indices":[24,24,24,9,24,24,6,0,0,0,0,0,0,0,0],"split_type":[0,0,0,0,0,0,0,0,0,0,0,0,0,0,0],"sum_hessian":[5.3118E4,3.0361E4,2.2757E4,4.098E3,2.6263E4,1.6053E4,6.704E3,5.45E2,3.553E3,9.339E3,1.6924E4,6.877E3,9.176E3,3.265E3,3.439E3],"tree_param":{"num_deleted":"0","num_feature":"30","num_nodes":"15","size_leaf_vector":"1"}},{"base_weights":[-1.9213466E-4,-1.6153317E-2,2.670068E-2,-2.9927507E-2,-5.1563946E-3,1.9020518E-2,4.6237033E-2,-7.001595E-4,-2.6412494E-4,-9.568036E-5,1.1959111E-5,1.2480687E-4,2.5768805E-4,-2.0820502E-4,4.9976935E-4],"categories":[],"categories_nodes":[],"categories_segments":[],"categories_sizes":[],"default_left":[0,0,0,0,0,0,0,0,0,0,0,0,0,0,0],"id":75,"left_children":[1,3,5,7,9,11,13,-1,-1,-1,-1,-1,-1,-1,-1],"loss_changes":[2.2832624E1,5.0561895E0,2.9717588E0,2.0863152E0,5.2022266E-1,6.2737703E-1,1.4029503E0,0E0,0E0,0E0,0E0,0E0,0E0,0E0,0E0],"parents":[2147483647,0,0,1,1,2,2,3,3,4,4,5,5,6,6],"right_children":[2,4,6,8,10,12,14,-1,-1,-1,-1,-1,-1,-1,-1],"split_conditions":[3.6111113E-1,2.9444447E-1,4.4444448E-1,2.0000002E-1,3.3333334E-1,3.9444447E-1,3.166667E-1,-7.001595E-4,-2.6412494E-4,-9.568036E-5,1.1959111E-5,1.2480687E-4,2.5768805E-4,-2.0820502E-4,4.9976935E-4],"split_indices":[27,27,27,21,27,27,21,0,0,0,0,0,0,0,0],"split_type":[0,0,0,0,0,0,0,0,0,0,0,0,0,0,0],"sum_hessian":[5.3191E4,3.338E4,1.9811E4,1.4818E4,1.8562E4,1.4222E4,5.589E3,1.193E3,1.3625E4,1.0954E4,7.608E3,7.224E3,6.998E3,2.95E2,5.294E3],"tree_param":{"num_deleted":"0","num_feature":"30","num_nodes":"15","size_leaf_vector":"1"}},{"base_weights":[-1.4536422E-4,-1.5638785E-2,2.593872E-2,-2.9500462E-2,-4.58306E-3,1.6476396E-2,4.142046E-2,-5.8799237E-4,-2.4708515E-4,-8.800582E-5,1.4522176E-5,5.859824E-4,1.535313E-4,2.853514E-4,5.3981825E-4],"categories":[],"categories_nodes":[],"categories_segments":[],"categories_sizes":[],"default_left":[0,0,0,0,0,0,0,0,0,0,0,0,0,0,0],"id":76,"left_children":[1,3,5,7,9,11,13,-1,-1,-1,-1,-1,-1,-1,-1],"loss_changes":[2.1615389E1,5.1421986E0,2.9190722E0,2.0887957E0,4.7518644E-1,5.844691E-1,1.2221012E0,0E0,0E0,0E0,0E0,0E0,0E0,0E0,0E0],"parents":[2147483647,0,0,1,1,2,2,3,3,4,4,5,5,6,6],"right_children":[2,4,6,8,10,12,14,-1,-1,-1,-1,-1,-1,-1,-1],"split_conditions":[3.6111113E-1,2.9444447E-1,4.2777783E-1,2.1666667E-1,3.3333334E-1,6.0606055E-2,4.0000004E-1,-5.8799237E-4,-2.4708515E-4,-8.800582E-5,1.4522176E-5,5.859824E-4,1.535313E-4,2.853514E-4,5.3981825E-4],"split_indices":[27,27,27,27,27,28,3,0,0,0,0,0,0,0,0],"split_type":[0,0,0,0,0,0,0,0,0,0,0,0,0,0,0],"sum_hessian":[5.3484E4,3.3554E4,1.993E4,1.4887E4,1.8667E4,1.2371E4,7.559E3,2.091E3,1.2796E4,1.0988E4,7.679E3,3.2E2,1.2051E4,3.733E3,3.826E3],"tree_param":{"num_deleted":"0","num_feature":"30","num_nodes":"15","size_leaf_vector":"1"}},{"base_weights":[2.8727913E-5,-1.549963E-2,2.6126226E-2,-2.9324545E-2,-4.5038043E-3,1.8241549E-2,4.6317935E-2,-4.868735E-4,-2.158841E-4,-1.11851215E-4,3.5111252E-6,1.2627656E-4,2.608695E-4,-2.8589406E-4,4.97205E-4],"categories":[],"categories_nodes":[],"categories_segments":[],"categories_sizes":[],"default_left":[0,0,0,0,0,0,0,0,0,0,0,0,0,0,0],"id":77,"left_children":[1,3,5,7,9,11,13,-1,-1,-1,-1,-1,-1,-1,-1],"loss_changes":[2.1490881E1,5.0541067E0,3.1487103E0,2.2052546E0,6.007417E-1,6.2636185E-1,1.4172649E0,0E0,0E0,0E0,0E0,0E0,0E0,0E0,0E0],"parents":[2147483647,0,0,1,1,2,2,3,3,4,4,5,5,6,6],"right_children":[2,4,6,8,10,12,14,-1,-1,-1,-1,-1,-1,-1,-1],"split_conditions":[3.6111113E-1,2.9444447E-1,4.4444448E-1,2.5555557E-1,3.2222223E-1,4.0000004E-1,3.277778E-1,-4.868735E-4,-2.158841E-4,-1.11851215E-4,3.5111252E-6,1.2627656E-4,2.608695E-4,-2.8589406E-4,4.97205E-4],"split_indices":[27,27,27,0,27,27,24,0,0,0,0,0,0,0,0],"split_type":[0,0,0,0,0,0,0,0,0,0,0,0,0,0,0],"sum_hessian":[5.3029E4,3.3247E4,1.9782E4,1.4728E4,1.8519E4,1.4228E4,5.554E3,4.203E3,1.0525E4,7.793E3,1.0726E4,8.295E3,5.933E3,2.41E2,5.313E3],"tree_param":{"num_deleted":"0","num_feature":"30","num_nodes":"15","size_leaf_vector":"1"}},{"base_weights":[-1.8831324E-5,-1.8664962E-2,2.182919E-2,-3.612793E-2,-1.1657132E-2,1.4650419E-2,4.6133265E-2,-6.4745673E-4,-2.956597E-4,-1.7600873E-4,-4.853695E-5,8.0553495E-5,2.3597329E-4,-8.1155165E-5,5.036925E-4],"categories":[],"categories_nodes":[],"categories_segments":[],"categories_sizes":[],"default_left":[0,0,0,0,0,0,0,0,0,0,0,0,0,0,0],"id":78,"left_children":[1,3,5,7,9,11,13,-1,-1,-1,-1,-1,-1,-1,-1],"loss_changes":[2.1597713E1,3.500064E0,4.258569E0,1.5362606E0,8.254132E-1,1.111887E0,1.279459E0,0E0,0E0,0E0,0E0,0E0,0E0,0E0,0E0],"parents":[2147483647,0,0,1,1,2,2,3,3,4,4,5,5,6,6],"right_children":[2,4,6,8,10,12,14,-1,-1,-1,-1,-1,-1,-1,-1],"split_conditions":[3.4444445E-1,2.6666668E-1,4.4444448E-1,2.1666667E-1,3.1111112E-1,3.888889E-1,3.7777779E-1,-6.4745673E-4,-2.956597E-4,-1.7600873E-4,-4.853695E-5,8.0553495E-5,2.3597329E-4,-8.1155165E-5,5.036925E-4],"split_indices":[27,27,27,12,27,27,24,0,0,0,0,0,0,0,0],"split_type":[0,0,0,0,0,0,0,0,0,0,0,0,0,0,0],"sum_hessian":[5.3014E4,2.8603E4,2.4411E4,8.19E3,2.0413E4,1.8846E4,5.565E3,1.526E3,6.664E3,1.0894E4,9.519E3,1.085E4,7.996E3,4.03E2,5.162E3],"tree_param":{"num_deleted":"0","num_feature":"30","num_nodes":"15","size_leaf_vector":"1"}},{"base_weights":[-1.9157637E-4,-1.6158134E-2,2.355523E-2,-3.624755E-2,-8.956353E-3,1.49291055E-2,3.980921E-2,-7.6816394E-4,-3.1454067E-4,-1.6210834E-4,-2.621433E-5,8.572122E-5,2.0677067E-4,2.2980628E-4,4.8381268E-4],"categories":[],"categories_nodes":[],"categories_segments":[],"categories_sizes":[],"default_left":[0,0,0,0,0,0,0,0,0,0,0,0,0,0,0],"id":79,"left_children":[1,3,5,7,9,11,13,-1,-1,-1,-1,-1,-1,-1,-1],"loss_changes":[2.0208946E1,4.610759E0,3.0039415E0,1.6330423E0,1.0781901E0,5.11415E-1,1.0705633E0,0E0,0E0,0E0,0E0,0E0,0E0,0E0,0E0],"parents":[2147483647,0,0,1,1,2,2,3,3,4,4,5,5,6,6],"right_children":[2,4,6,8,10,12,14,-1,-1,-1,-1,-1,-1,-1,-1],"split_conditions":[3.5555556E-1,2.6666668E-1,4.2777783E-1,1.9444445E-1,3.1111112E-1,3.8333336E-1,3.5555556E-1,-7.6816394E-4,-3.1454067E-4,-1.6210834E-4,-2.621433E-5,8.572122E-5,2.0677067E-4,2.2980628E-4,4.8381268E-4],"split_indices":[27,27,27,3,27,27,0,0,0,0,0,0,0,0,0],"split_type":[0,0,0,0,0,0,0,0,0,0,0,0,0,0,0],"sum_hessian":[5.3298E4,3.187E4,2.1428E4,8.409E3,2.3461E4,1.4E4,7.428E3,8.87E2,7.522E3,1.0936E4,1.2525E4,6.649E3,7.351E3,2.508E3,4.92E3],"tree_param":{"num_deleted":"0","num_feature":"30","num_nodes":"15","size_leaf_vector":"1"}},{"base_weights":[1.7704406E-5,-1.6562229E-2,2.205224E-2,-3.8026873E-2,-1.0966715E-2,1.5704436E-2,4.4460166E-2,-5.256617E-4,-2.258309E-4,-1.7250709E-4,-3.5407356E-5,6.4077915E-4,1.4369974E-4,-2.8268187E-4,4.8209316E-4],"categories":[],"categories_nodes":[],"categories_segments":[],"categories_sizes":[],"default_left":[0,0,0,0,0,0,0,0,0,0,0,0,0,0,0],"id":80,"left_children":[1,3,5,7,9,11,13,-1,-1,-1,-1,-1,-1,-1,-1],"loss_changes":[1.9451323E1,3.648634E0,3.2510757E0,1.4093838E0,1.124608E0,1.1491475E0,1.3772535E0,0E0,0E0,0E0,0E0,0E0,0E0,0E0,0E0],"parents":[2147483647,0,0,1,1,2,2,3,3,4,4,5,5,6,6],"right_children":[2,4,6,8,10,12,14,-1,-1,-1,-1,-1,-1,-1,-1],"split_conditions":[3.5000002E-1,2.5555557E-1,4.5000005E-1,2.6666668E-1,3.1111112E-1,6.0606055E-2,3.388889E-1,-5.256617E-4,-2.258309E-4,-1.7250709E-4,-3.5407356E-5,6.4077915E-4,1.4369974E-4,-2.8268187E-4,4.8209316E-4],"split_indices":[27,27,27,0,27,28,24,0,0,0,0,0,0,0,0],"split_type":[0,0,0,0,0,0,0,0,0,0,0,0,0,0,0],"sum_hessian":[5.3241E4,3.0381E4,2.286E4,6.281E3,2.41E4,1.7815E4,5.045E3,3.234E3,3.047E3,1.3053E4,1.1047E4,4.77E2,1.7338E4,2.47E2,4.798E3],"tree_param":{"num_deleted":"0","num_feature":"30","num_nodes":"15","size_leaf_vector":"1"}},{"base_weights":[3.5096405E-4,-1.5410743E-2,1.5299996E-2,-5.053759E-2,-1.2285935E-2,8.579066E-3,3.1570025E-2,-8.377957E-4,-3.3738796E-4,-1.5586618E-4,1.2994476E-5,3.0694137E-5,1.3971548E-4,1.4333088E-4,4.0987745E-4],"categories":[],"categories_nodes":[],"categories_segments":[],"categories_sizes":[],"default_left":[0,0,0,0,0,0,0,0,0,0,0,0,0,0,0],"id":81,"left_children":[1,3,5,7,9,11,13,-1,-1,-1,-1,-1,-1,-1,-1],"loss_changes":[1.2528272E1,2.8403072E0,2.9837742E0,1.1776843E0,1.0658476E0,5.737599E-1,1.2943387E0,0E0,0E0,0E0,0E0,0E0,0E0,0E0,0E0],"parents":[2147483647,0,0,1,1,2,2,3,3,4,4,5,5,6,6],"right_children":[2,4,6,8,10,12,14,-1,-1,-1,-1,-1,-1,-1,-1],"split_conditions":[3.3333334E-1,2.1666667E-1,4.2222226E-1,2.0000002E-1,3.5555556E-1,3.6111113E-1,3.7777779E-1,-8.377957E-4,-3.3738796E-4,-1.5586618E-4,1.2994476E-5,3.0694137E-5,1.3971548E-4,1.4333088E-4,4.0987745E-4],"split_indices":[21,21,21,0,0,0,3,0,0,0,0,0,0,0,0],"split_type":[0,0,0,0,0,0,0,0,0,0,0,0,0,0,0],"sum_hessian":[5.3169E4,2.5881E4,2.7288E4,2.113E3,2.3768E4,1.9312E4,7.976E3,7.08E2,1.405E3,1.9122E4,4.646E3,9.553E3,9.759E3,2.819E3,5.157E3],"tree_param":{"num_deleted":"0","num_feature":"30","num_nodes":"15","size_leaf_vector":"1"}},{"base_weights":[4.3401515E-4,-1.07771335E-2,1.7680846E-2,-3.6467567E-2,-5.976085E-3,8.442926E-3,3.1247433E-2,-7.086024E-4,-2.831063E-4,4.4875426E-4,-7.004648E-5,6.543004E-4,7.9725316E-5,8.9112535E-4,2.8712573E-4],"categories":[],"categories_nodes":[],"categories_segments":[],