{"learner":{"attributes":{"scikit_learn":"{\"_estimator_type\": \"regressor\"}"},"feature_names":[],"feature_types":[],"gradient_booster":{"model":{"gbtree_model_param":{"num_parallel_tree":"1","num_trees":"150"},"iteration_indptr":[0,1,2,3,4,5,6,7,8,9,10,11,12,13,14,15,16,17,18,19,20,21,22,23,24,25,26,27,28,29,30,31,32,33,34,35,36,37,38,39,40,41,42,43,44,45,46,47,48,49,50,51,52,53,54,55,56,57,58,59,60,61,62,63,64,65,66,67,68,69,70,71,72,73,74,75,76,77,78,79,80,81,82,83,84,85,86,87,88,89,90,91,92,93,94,95,96,97,98,99,100,101,102,103,104,105,106,107,108,109,110,111,112,113,114,115,116,117,118,119,120,121,122,123,124,125,126,127,128,129,130,131,132,133,134,135,136,137,138,139,140,141,142,143,144,145,146,147,148,149,150],"tree_info":[0,0,0,0,0,0,0,0,0,0,0,0,0,0,0,0,0,0,0,0,0,0,0,0,0,0,0,0,0,0,0,0,0,0,0,0,0,0,0,0,0,0,0,0,0,0,0,0,0,0,0,0,0,0,0,0,0,0,0,0,0,0,0,0,0,0,0,0,0,0,0,0,0,0,0,0,0,0,0,0,0,0,0,0,0,0,0,0,0,0,0,0,0,0,0,0,0,0,0,0,0,0,0,0,0,0,0,0,0,0,0,0,0,0,0,0,0,0,0,0,0,0,0,0,0,0,0,0,0,0,0,0,0,0,0,0,0,0,0,0,0,0,0,0,0,0,0,0,0,0],"trees":[{"base_weights":[-1.6220006E-4,-2.9107776E-2,2.8142655E-2,-8.710912E-2,-2.2052485E-2,1.4153592E-2,4.98779E-2,-1.2308991E-3,-5.030275E-4,-3.3187878E-4,-1.1784969E-4,6.3542044E-5,2.2674426E-4,2.7374338E-4,6.04098E-4],"categories":[],"categories_nodes":[],"categories_segments":[],"categories_sizes":[],"default_left":[0,0,0,0,0,0,0,0,0,0,0,0,0,0,0],"id":0,"left_children":[1,3,5,7,9,11,13,-1,-1,-1,-1,-1,-1,-1,-1],"loss_changes":[4.3631023E1,1.0772335E1,8.185993E0,3.7747517E0,2.6835728E0,1.0886259E0,2.4970932E0,0E0,0E0,0E0,0E0,0E0,0E0,0E0,0E0],"parents":[2147483647,0,0,1,1,2,2,3,3,4,4,5,5,6,6],"right_children":[2,4,6,8,10,12,14,-1,-1,-1,-1,-1,-1,-1,-1],"split_conditions":[3.3333334E-1,2.2222224E-1,4.0555555E-1,9.0909086E-2,2.888889E-1,3.6666667E-1,4.1111112E-1,-1.2308991E-3,-5.030275E-4,-3.3187878E-4,-1.1784969E-4,6.3542044E-5,2.2674426E-4,2.7374338E-4,6.04098E-4],"split_indices":[6,6,6,4,6,0,0,0,0,0,0,0,0,0,0],"split_type":[0,0,0,0,0,0,0,0,0,0,0,0,0,0,0],"sum_hessian":[5.3252E4,2.6328E4,2.6924E4,2.854E3,2.3474E4,1.6382E4,1.0542E4,1.442E3,1.412E3,1.126E4,1.2214E4,8.554E3,7.828E3,3.362E3,7.18E3],"tree_param":{"num_deleted":"0","num_feature":"15","num_nodes":"15","size_leaf_vector":"1"}},{"base_weights":[1.1124418E-4,-2.8035665E-2,3.0607218E-2,-8.688231E-2,-2.1308865E-2,1.7406225E-2,5.228348E-2,-1.2446264E-3,-4.886753E-4,-3.2653756E-4,-9.641271E-5,9.521603E-5,2.6587682E-4,2.6201954E-4,6.2084943E-4],"categories":[],"categories_nodes":[],"categories_segments":[],"categories_sizes":[],"default_left":[0,0,0,0,0,0,0,0,0,0,0,0,0,0,0],"id":1,"left_children":[1,3,5,7,9,11,13,-1,-1,-1,-1,-1,-1,-1,-1],"loss_changes":[4.562137E1,1.09390335E1,7.298729E0,4.0440216E0,3.283063E0,1.1475997E0,2.4665508E0,0E0,0E0,0E0,0E0,0E0,0E0,0E0,0E0],"parents":[2147483647,0,0,1,1,2,2,3,3,4,4,5,5,6,6],"right_children":[2,4,6,8,10,12,14,-1,-1,-1,-1,-1,-1,-1,-1],"split_conditions":[3.388889E-1,2.2222224E-1,4.1111112E-1,9.0909086E-2,2.9444447E-1,3.7222224E-1,4.0555555E-1,-1.2446264E-3,-4.886753E-4,-3.2653756E-4,-9.641271E-5,9.521603E-5,2.6587682E-4,2.6201954E-4,6.2084943E-4],"split_indices":[9,9,9,1,9,9,3,0,0,0,0,0,0,0,0],"split_type":[0,0,0,0,0,0,0,0,0,0,0,0,0,0,0],"sum_hessian":[5.3147E4,2.7638E4,2.5509E4,2.834E3,2.4804E4,1.5855E4,9.654E3,1.424E3,1.41E3,1.2575E4,1.2229E4,8.531E3,7.324E3,2.638E3,7.016E3],"tree_param":{"num_deleted":"0","num_feature":"15","num_nodes":"15","size_leaf_vector":"1"}},{"base_weights":[7.825584E-5,-3.042263E-2,2.9708944E-2,-9.169557E-2,-2.366981E-2,1.5941275E-2,5.4434825E-2,-1.2531914E-3,-6.1207067E-4,-3.7102785E-4,-1.3114841E-4,8.4057545E-5,2.6178418E-4,3.5088617E-4,6.9408945E-4],"categories":[],"categories_nodes":[],"categories_segments":[],"categories_sizes":[],"default_left":[0,0,0,0,0,0,0,0,0,0,0,0,0,0,0],"id":2,"left_children":[1,3,5,7,9,11,13,-1,-1,-1,-1,-1,-1,-1,-1],"loss_changes":[4.802502E1,1.083227E1,9.174755E0,2.6566486E0,3.3437872E0,1.3354974E0,2.7901993E0,0E0,0E0,0E0,0E0,0E0,0E0,0E0,0E0],"parents":[2147483647,0,0,1,1,2,2,3,3,4,4,5,5,6,6],"right_children":[2,4,6,8,10,12,14,-1,-1,-1,-1,-1,-1,-1,-1],"split_conditions":[3.3333334E-1,2.2222224E-1,4.1111112E-1,2.1111113E-1,2.8333336E-1,3.7222224E-1,4.1111112E-1,-1.2531914E-3,-6.1207067E-4,-3.7102785E-4,-1.3114841E-4,8.4057545E-5,2.6178418E-4,3.5088617E-4,6.9408945E-4],"split_indices":[12,0,12,12,12,12,0,0,0,0,0,0,0,0,0],"split_type":[0,0,0,0,0,0,0,0,0,0,0,0,0,0,0],"sum_hessian":[5.3137E4,2.6184E4,2.6953E4,2.598E3,2.3586E4,1.7314E4,9.639E3,1.234E3,1.364E3,1.0377E4,1.3209E4,9.974E3,7.34E3,4.207E3,5.432E3],"tree_param":{"num_deleted":"0","num_feature":"15","num_nodes":"15","size_leaf_vector":"1"}},{"base_weights":[-6.907639E-5,-2.8607247E-2,3.1127054E-2,-8.92342E-2,-2.2186736E-2,1.615738E-2,5.21839E-2,-1.2337036E-3,-5.6160375E-4,-3.5680592E-4,-1.06972584E-4,8.981127E-5,2.542849E-4,3.418792E-4,6.672978E-4],"categories":[],"categories_nodes":[],"categories_segments":[],"categories_sizes":[],"default_left":[0,0,0,0,0,0,0,0,0,0,0,0,0,0,0],"id":3,"left_children":[1,3,5,7,9,11,13,-1,-1,-1,-1,-1,-1,-1,-1],"loss_changes":[4.7678974E1,1.0885126E1,8.064228E0,3.0165672E0,3.920824E0,9.948211E-1,2.7805672E0,0E0,0E0,0E0,0E0,0E0,0E0,0E0,0E0],"parents":[2147483647,0,0,1,1,2,2,3,3,4,4,5,5,6,6],"right_children":[2,4,6,8,10,12,14,-1,-1,-1,-1,-1,-1,-1,-1],"split_conditions":[3.388889E-1,2.2222224E-1,4.0555555E-1,2.0555556E-1,2.888889E-1,3.7222224E-1,4.1111112E-1,-1.2337036E-3,-5.6160375E-4,-3.5680592E-4,-1.06972584E-4,8.981127E-5,2.542849E-4,3.418792E-4,6.672978E-4],"split_indices":[12,6,12,12,12,12,0,0,0,0,0,0,0,0,0],"split_type":[0,0,0,0,0,0,0,0,0,0,0,0,0,0,0],"sum_hessian":[5.3553E4,2.7968E4,2.5585E4,2.677E3,2.5291E4,1.4955E4,1.063E4,1.316E3,1.361E3,1.163E4,1.3661E4,8.431E3,6.524E3,4.753E3,5.877E3],"tree_param":{"num_deleted":"0","num_feature":"15","num_nodes":"15","size_leaf_vector":"1"}},{"base_weights":[4.7153668E-7,-2.8174939E-2,3.070742E-2,-9.603116E-2,-2.2051105E-2,1.6695548E-2,5.0536066E-2,-1.2824101E-3,-6.027905E-4,-3.547568E-4,-1.0283565E-4,8.747445E-5,2.3683051E-4,2.8445903E-4,6.437721E-4],"categories":[],"categories_nodes":[],"categories_segments":[],"categories_sizes":[],"default_left":[0,0,0,0,0,0,0,0,0,0,0,0,0,0,0],"id":4,"left_children":[1,3,5,7,9,11,13,-1,-1,-1,-1,-1,-1,-1,-1],"loss_changes":[4.6063095E1,1.1535355E1,7.07732E0,2.6385765E0,4.0229235E0,8.289113E-1,3.2232533E0,0E0,0E0,0E0,0E0,0E0,0E0,0E0,0E0],"parents":[2147483647,0,0,1,1,2,2,3,3,4,4,5,5,6,6],"right_children":[2,4,6,8,10,12,14,-1,-1,-1,-1,-1,-1,-1,-1],"split_conditions":[3.388889E-1,2.1666667E-1,4.0555555E-1,2.1111113E-1,2.888889E-1,3.6111113E-1,4.0000004E-1,-1.2824101E-3,-6.027905E-4,-3.547568E-4,-1.0283565E-4,8.747445E-5,2.3683051E-4,2.8445903E-4,6.437721E-4],"split_indices":[12,0,12,12,12,0,0,0,0,0,0,0,0,0,0],"split_type":[0,0,0,0,0,0,0,0,0,0,0,0,0,0,0],"sum_hessian":[5.3239E4,2.7764E4,2.5475E4,2.297E3,2.5467E4,1.4928E4,1.0547E4,1.207E3,1.09E3,1.1895E4,1.3572E4,6.985E3,7.943E3,4.064E3,6.483E3],"tree_param":{"num_deleted":"0","num_feature":"15","num_nodes":"15","size_leaf_vector":"1"}},{"base_weights":[-2.325394E-6,-2.739149E-2,2.6652947E-2,-8.664783E-2,-2.0320624E-2,1.3775961E-2,4.6723157E-2,-1.1762098E-3,-5.048943E-4,-3.0887444E-4,-9.96138E-5,7.473738E-5,2.2440325E-4,2.6830638E-4,5.625187E-4],"categories":[],"categories_nodes":[],"categories_segments":[],"categories_sizes":[],"default_left":[0,0,0,0,0,0,0,0,0,0,0,0,0,0,0],"id":5,"left_children":[1,3,5,7,9,11,13,-1,-1,-1,-1,-1,-1,-1,-1],"loss_changes":[3.892418E1,1.1016096E1,6.9825077E0,3.1332512E0,2.5714464E0,8.986814E-1,2.0001392E0,0E0,0E0,0E0,0E0,0E0,0E0,0E0,0E0],"parents":[2147483647,0,0,1,1,2,2,3,3,4,4,5,5,6,6],"right_children":[2,4,6,8,10,12,14,-1,-1,-1,-1,-1,-1,-1,-1],"split_conditions":[3.3333334E-1,2.2222224E-1,4.0555555E-1,9.0909086E-2,2.888889E-1,3.7222224E-1,4.1111112E-1,-1.1762098E-3,-5.048943E-4,-3.0887444E-4,-9.96138E-5,7.473738E-5,2.2440325E-4,2.6830638E-4,5.625187E-4],"split_indices":[6,0,6,1,6,0,0,0,0,0,0,0,0,0,0],"split_type":[0,0,0,0,0,0,0,0,0,0,0,0,0,0,0],"sum_hessian":[5.3314E4,2.6295E4,2.7019E4,2.802E3,2.3493E4,1.646E4,1.0559E4,1.508E3,1.294E3,1.1629E4,1.1864E4,9.53E3,6.93E3,3.421E3,7.138E3],"tree_param":{"num_deleted":"0","num_feature":"15","num_nodes":"15","size_leaf_vector":"1"}},{"base_weights":[-2.8219653E-4,-3.0067228E-2,2.8645087E-2,-8.821862E-2,-2.3563785E-2,1.50526455E-2,5.0346743E-2,-1.2174333E-3,-5.5754697E-4,-3.7994262E-4,-1.4402806E-4,7.8599376E-5,2.3243351E-4,2.9084634E-4,6.361395E-4],"categories":[],"categories_nodes":[],"categories_segments":[],"categories_sizes":[],"default_left":[0,0,0,0,0,0,0,0,0,0,0,0,0,0,0],"id":6,"left_children":[1,3,5,7,9,11,13,-1,-1,-1,-1,-1,-1,-1,-1],"loss_changes":[4.5764748E1,9.895002E0,7.947733E0,2.8577309E0,3.1112452E0,9.760113E-1,2.9253883E0,0E0,0E0,0E0,0E0,0E0,0E0,0E0,0E0],"parents":[2147483647,0,0,1,1,2,2,3,3,4,4,5,5,6,6],"right_children":[2,4,6,8,10,12,14,-1,-1,-1,-1,-1,-1,-1,-1],"split_conditions":[3.3333334E-1,2.2222224E-1,4.0555555E-1,2.1111113E-1,2.777778E-1,3.6666667E-1,4.0000004E-1,-1.2174333E-3,-5.5754697E-4,-3.7994262E-4,-1.4402806E-4,7.8599376E-5,2.3243351E-4,2.9084634E-4,6.361395E-4],"split_indices":[12,0,12,12,12,12,0,0,0,0,0,0,0,0,0],"split_type":[0,0,0,0,0,0,0,0,0,0,0,0,0,0,0],"sum_hessian":[5.3114E4,2.6169E4,2.6945E4,2.631E3,2.3538E4,1.6569E4,1.0376E4,1.293E3,1.338E3,9.139E3,1.4399E4,8.823E3,7.746E3,3.988E3,6.388E3],"tree_param":{"num_deleted":"0","num_feature":"15","num_nodes":"15","size_leaf_vector":"1"}},{"base_weights":[-4.6841556E-4,-2.7448248E-2,2.9435089E-2,-9.010959E-2,-2.1377137E-2,1.4124999E-2,4.8127886E-2,-1.1766984E-3,-3.5611037E-4,-3.8007653E-4,-1.2322894E-4,8.357765E-5,2.2965157E-4,3.0370016E-4,6.3316565E-4],"categories":[],"categories_nodes":[],"categories_segments":[],"categories_sizes":[],"default_left":[0,0,0,0,0,0,0,0,0,0,0,0,0,0,0],"id":7,"left_children":[1,3,5,7,9,11,13,-1,-1,-1,-1,-1,-1,-1,-1],"loss_changes":[4.2868874E1,1.06244545E1,7.2118397E0,3.7012272E0,3.8342705E0,7.062323E-1,3.0585747E0,0E0,0E0,0E0,0E0,0E0,0E0,0E0,0E0],"parents":[2147483647,0,0,1,1,2,2,3,3,4,4,5,5,6,6],"right_children":[2,4,6,8,10,12,14,-1,-1,-1,-1,-1,-1,-1,-1],"split_conditions":[3.388889E-1,2.1666667E-1,4.0000004E-1,1.06060594E-1,2.777778E-1,3.7222224E-1,4.1111112E-1,-1.1766984E-3,-3.5611037E-4,-3.8007653E-4,-1.2322894E-4,8.357765E-5,2.2965157E-4,3.0370016E-4,6.3316565E-4],"split_indices":[12,12,12,10,12,12,0,0,0,0,0,0,0,0,0],"split_type":[0,0,0,0,0,0,0,0,0,0,0,0,0,0,0],"sum_hessian":[5.3133E4,2.7932E4,2.5201E4,2.466E3,2.5466E4,1.3855E4,1.1346E4,1.637E3,8.29E2,8.976E3,1.649E4,8.386E3,5.469E3,5.232E3,6.114E3],"tree_param":{"num_deleted":"0","num_feature":"15","num_nodes":"15","size_leaf_vector":"1"}},{"base_weights":[-2.2594603E-4,-2.91061E-2,2.4932232E-2,-7.696749E-2,-2.1233192E-2,1.299086E-2,4.814363E-2,-1.0939187E-3,-4.6371738E-4,-3.206883E-4,-1.3554392E-4,4.621606E-5,2.0567384E-4,2.013551E-4,5.8341736E-4],"categories":[],"categories_nodes":[],"categories_segments":[],"categories_sizes":[],"default_left":[0,0,0,0,0,0,0,0,0,0,0,0,0,0,0],"id":8,"left_children":[1,3,5,7,9,11,13,-1,-1,-1,-1,-1,-1,-1,-1],"loss_changes":[3.8661625E1,9.33304E0,7.8817024E0,3.4661045E0,1.7697458E0,1.1906786E0,2.7580109E0,0E0,0E0,0E0,0E0,0E0,0E0,0E0,0E0],"parents":[2147483647,0,0,1,1,2,2,3,3,4,4,5,5,6,6],"right_children":[2,4,6,8,10,12,14,-1,-1,-1,-1,-1,-1,-1,-1],"split_conditions":[3.277778E-1,2.3333335E-1,4.1111112E-1,9.0909086E-2,2.888889E-1,3.6111113E-1,3.888889E-1,-1.0939187E-3,-4.6371738E-4,-3.206883E-4,-1.3554392E-4,4.621606E-5,2.0567384E-4,2.013551E-4,5.8341736E-4],"split_indices":[9,0,9,1,0,9,0,0,0,0,0,0,0,0,0],"split_type":[0,0,0,0,0,0,0,0,0,0,0,0,0,0,0],"sum_hessian":[5.3209E4,2.4772E4,2.8437E4,3.498E3,2.1274E4,1.8778E4,9.659E3,1.697E3,1.801E3,8.822E3,1.2452E4,8.923E3,9.855E3,2.579E3,7.08E3],"tree_param":{"num_deleted":"0","num_feature":"15","num_nodes":"15","size_leaf_vector":"1"}},{"base_weights":[-1.1762971E-4,-2.682372E-2,2.9339498E-2,-8.338487E-2,-2.088792E-2,1.5749414E-2,4.8790023E-2,-1.1793851E-3,-5.110933E-4,-3.3402207E-4,-1.0143829E-4,9.3017734E-5,2.41566E-4,2.605625E-4,5.977619E-4],"categories":[],"categories_nodes":[],"categories_segments":[],"categories_sizes":[],"default_left":[0,0,0,0,0,0,0,0,0,0,0,0,0,0,0],"id":9,"left_children":[1,3,5,7,9,11,13,-1,-1,-1,-1,-1,-1,-1,-1],"loss_changes":[4.1917706E1,9.381063E0,6.6966686E0,2.9538136E0,3.4005575E0,8.0837417E-1,2.60116E0,0E0,0E0,0E0,0E0,0E0,0E0,0E0,0E0],"parents":[2147483647,0,0,1,1,2,2,3,3,4,4,5,5,6,6],"right_children":[2,4,6,8,10,12,14,-1,-1,-1,-1,-1,-1,-1,-1],"split_conditions":[3.388889E-1,2.2222224E-1,4.0555555E-1,2.1111113E-1,2.888889E-1,3.7222224E-1,3.888889E-1,-1.1793851E-3,-5.110933E-4,-3.3402207E-4,-1.0143829E-4,9.3017734E-5,2.41566E-4,2.605625E-4,5.977619E-4],"split_indices":[12,0,12,12,12,12,0,0,0,0,0,0,0,0,0],"split_type":[0,0,0,0,0,0,0,0,0,0,0,0,0,0,0],"sum_hessian":[5.3282E4,2.7946E4,2.5336E4,2.653E3,2.5293E4,1.4916E4,1.042E4,1.28E3,1.373E3,1.1683E4,1.361E4,8.443E3,6.473E3,3.396E3,7.024E3],"tree_param":{"num_deleted":"0","num_feature":"15","num_nodes":"15","size_leaf_vector":"1"}},{"base_weights":[-2.325249E-4,-2.7020203E-2,2.5588226E-2,-8.5687086E-2,-2.092964E-2,1.3198584E-2,4.491468E-2,-1.1180964E-3,-3.2728713E-4,-3.21343E-4,-1.2375327E-4,6.269436E-5,2.0925225E-4,2.0272378E-4,5.343518E-4],"categories":[],"categories_nodes":[],"categories_segments":[],"categories_sizes":[],"default_left":[0,0,0,0,0,0,0,0,0,0,0,0,0,0,0],"id":10,"left_children":[1,3,5,7,9,11,13,-1,-1,-1,-1,-1,-1,-1,-1],"loss_changes":[3.6954967E1,9.368055E0,6.513584E0,3.4078255E0,2.276762E0,8.8749266E-1,2.2302132E0,0E0,0E0,0E0,0E0,0E0,0E0,0E0,0E0],"parents":[2147483647,0,0,1,1,2,2,3,3,4,4,5,5,6,6],"right_children":[2,4,6,8,10,12,14,-1,-1,-1,-1,-1,-1,-1,-1],"split_conditions":[3.3333334E-1,2.1666667E-1,4.0555555E-1,1.06060594E-1,2.8333336E-1,3.6666667E-1,4.0000004E-1,-1.1180964E-3,-3.2728713E-4,-3.21343E-4,-1.2375327E-4,6.269436E-5,2.0925225E-4,2.0272378E-4,5.343518E-4],"split_indices":[6,6,6,1,6,6,0,0,0,0,0,0,0,0,0],"split_type":[0,0,0,0,0,0,0,0,0,0,0,0,0,0,0],"sum_hessian":[5.3426E4,2.6222E4,2.7204E4,2.465E3,2.3757E4,1.6578E4,1.0626E4,1.65E3,8.15E2,1.0284E4,1.3473E4,8.741E3,7.837E3,2.731E3,7.895E3],"tree_param":{"num_deleted":"0","num_feature":"15","num_nodes":"15","size_leaf_vector":"1"}},{"base_weights":[-3.7476028E-4,-2.694459E-2,2.8772326E-2,-8.5895106E-2,-2.1174716E-2,1.5245831E-2,4.8120484E-2,-1.1115803E-3,-3.415094E-4,-3.086538E-4,-7.981048E-5,8.9903224E-5,2.3441216E-4,3.0007225E-4,5.976915E-4],"categories":[],"categories_nodes":[],"categories_segments":[],"categories_sizes":[],"default_left":[0,0,0,0,0,0,0,0,0,0,0,0,0,0,0],"id":11,"left_children":[1,3,5,7,9,11,13,-1,-1,-1,-1,-1,-1,-1,-1],"loss_changes":[4.128658E1,9.484266E0,6.65279E0,3.245926E0,3.2477922E0,7.669382E-1,2.2052174E0,0E0,0E0,0E0,0E0,0E0,0E0,0E0,0E0],"parents":[2147483647,0,0,1,1,2,2,3,3,4,4,5,5,6,6],"right_children":[2,4,6,8,10,12,14,-1,-1,-1,-1,-1,-1,-1,-1],"split_conditions":[3.388889E-1,2.1666667E-1,4.0555555E-1,1.06060594E-1,3E-1,3.7222224E-1,4.1111112E-1,-1.1115803E-3,-3.415094E-4,-3.086538E-4,-7.981048E-5,8.9903224E-5,2.3441216E-4,3.0007225E-4,5.976915E-4],"split_indices":[12,12,12,10,12,12,3,0,0,0,0,0,0,0,0],"split_type":[0,0,0,0,0,0,0,0,0,0,0,0,0,0,0],"sum_hessian":[5.331E4,2.7888E4,2.5422E4,2.485E3,2.5403E4,1.4963E4,1.0459E4,1.669E3,8.16E2,1.4645E4,1.0758E4,8.487E3,6.476E3,4.095E3,6.364E3],"tree_param":{"num_deleted":"0","num_feature":"15","num_nodes":"15","size_leaf_vector":"1"}},{"base_weights":[-2.5308778E-4,-2.6982483E-2,2.5710607E-2,-6.4409874E-2,-1.7763779E-2,1.3902748E-2,4.6767455E-2,-1.0099203E-3,-3.9176663E-4,-2.6949818E-4,-9.081327E-5,5.414335E-5,2.2656129E-4,2.5220966E-4,5.6672696E-4],"categories":[],"categories_nodes":[],"categories_segments":[],"categories_sizes":[],"default_left":[0,0,0,0,0,0,0,0,0,0,0,0,0,0,0],"id":12,"left_children":[1,3,5,7,9,11,13,-1,-1,-1,-1,-1,-1,-1,-1],"loss_changes":[3.6869118E1,9.03076E0,6.699848E0,4.771162E0,1.6750588E0,1.2829304E0,2.0649357E0,0E0,0E0,0E0,0E0,0E0,0E0,0E0,0E0],"parents":[2147483647,0,0,1,1,2,2,3,3,4,4,5,5,6,6],"right_children":[2,4,6,8,10,12,14,-1,-1,-1,-1,-1,-1,-1,-1],"split_conditions":[3.3333334E-1,2.4444446E-1,4.1111112E-1,9.0909086E-2,2.9444447E-1,3.6666667E-1,4.0000004E-1,-1.0099203E-3,-3.9176663E-4,-2.6949818E-4,-9.081327E-5,5.414335E-5,2.2656129E-4,2.5220966E-4,5.6672696E-4],"split_indices":[9,9,9,1,9,9,0,0,0,0,0,0,0,0,0],"split_type":[0,0,0,0,0,0,0,0,0,0,0,0,0,0,0],"sum_hessian":[5.3124E4,2.6176E4,2.6948E4,5.172E3,2.1004E4,1.7267E4,9.681E3,2.11E3,3.062E3,1.0205E4,1.0799E4,8.767E3,8.5E3,3.05E3,6.631E3],"tree_param":{"num_deleted":"0","num_feature":"15","num_nodes":"15","size_leaf_vector":"1"}},{"base_weights":[1.237719E-4,-2.4930054E-2,2.7529528E-2,-8.428914E-2,-1.9336514E-2,1.5208305E-2,4.731362E-2,-1.076347E-3,-3.5599252E-4,-3.5412578E-4,-1.2039468E-4,6.900598E-5,2.3189906E-4,3.054902E-4,6.064936E-4],"categories":[],"categories_nodes":[],"categories_segments":[],"categories_sizes":[],"default_left":[0,0,0,0,0,0,0,0,0,0,0,0,0,0,0],"id":13,"left_children":[1,3,5,7,9,11,13,-1,-1,-1,-1,-1,-1,-1,-1],"loss_changes":[3.6572075E1,9.237364E0,6.2001534E0,2.7196827E0,2.9828281E0,1.0393629E0,2.180624E0,0E0,0E0,0E0,0E0,0E0,0E0,0E0,0E0],"parents":[2147483647,0,0,1,1,2,2,3,3,4,4,5,5,6,6],"right_children":[2,4,6,8,10,12,14,-1,-1,-1,-1,-1,-1,-1,-1],"split_conditions":[3.388889E-1,2.1666667E-1,4.1111112E-1,1.06060594E-1,2.7222225E-1,3.6666667E-1,4.2222226E-1,-1.076347E-3,-3.5599252E-4,-3.5412578E-4,-1.2039468E-4,6.900598E-5,2.3189906E-4,3.054902E-4,6.064936E-4],"split_indices":[9,6,9,4,9,0,0,0,0,0,0,0,0,0,0],"split_type":[0,0,0,0,0,0,0,0,0,0,0,0,0,0,0],"sum_hessian":[5.3262E4,2.7825E4,2.5437E4,2.395E3,2.543E4,1.5676E4,9.761E3,1.618E3,7.77E2,7.938E3,1.7492E4,7.682E3,7.994E3,4.326E3,5.435E3],"tree_param":{"num_deleted":"0","num_feature":"15","num_nodes":"15","size_leaf_vector":"1"}},{"base_weights":[-5.9299982E-5,-2.7411811E-2,2.6234616E-2,-8.506037E-2,-2.1378882E-2,1.260604E-2,4.469306E-2,-1.0979364E-3,-3.6059206E-4,-3.4483604E-4,-1.1405998E-4,3.9163115E-5,1.8107326E-4,2.8841192E-4,5.875483E-4],"categories":[],"categories_nodes":[],"categories_segments":[],"categories_sizes":[],"default_left":[0,0,0,0,0,0,0,0,0,0,0,0,0,0,0],"id":14,"left_children":[1,3,5,7,9,11,13,-1,-1,-1,-1,-1,-1,-1,-1],"loss_changes":[3.81236E1,9.034103E0,6.7984123E0,2.978674E0,3.0736113E0,7.432442E-1,2.5570335E0,0E0,0E0,0E0,0E0,0E0,0E0,0E0,0E0],"parents":[2147483647,0,0,1,1,2,2,3,3,4,4,5,5,6,6],"right_children":[2,4,6,8,10,12,14,-1,-1,-1,-1,-1,-1,-1,-1],"split_conditions":[3.3333334E-1,2.1666667E-1,4.0000004E-1,1.06060594E-1,2.8333336E-1,3.5555556E-1,4.1111112E-1,-1.0979364E-3,-3.6059206E-4,-3.4483604E-4,-1.1405998E-4,3.9163115E-5,1.8107326E-4,2.8841192E-4,5.875483E-4],"split_indices":[12,12,12,7,12,12,0,0,0,0,0,0,0,0,0],"split_type":[0,0,0,0,0,0,0,0,0,0,0,0,0,0,0],"sum_hessian":[5.3006E4,2.598E4,2.7026E4,2.46E3,2.352E4,1.5548E4,1.1478E4,1.634E3,8.26E2,1.0163E4,1.3357E4,6.028E3,9.52E3,5.397E3,6.081E3],"tree_param":{"num_deleted":"0","num_feature":"15","num_nodes":"15","size_leaf_vector":"1"}},{"base_weights":[4.1817152E-4,-2.5085667E-2,2.8512495E-2,-6.992171E-2,-1.7920706E-2,1.4055665E-2,4.5881353E-2,-1.0352104E-3,-4.17683E-4,-3.002924E-4,-8.9244946E-5,7.650798E-5,2.0751604E-4,3.1696993E-4,6.1718945E-4],"categories":[],"categories_nodes":[],"categories_segments":[],"categories_sizes":[],"default_left":[0,0,0,0,0,0,0,0,0,0,0,0,0,0,0],"id":15,"left_children":[1,3,5,7,9,11,13,-1,-1,-1,-1,-1,-1,-1,-1],"loss_changes":[3.8099865E1,8.952583E0,6.3526516E0,3.628069E0,2.61767E0,5.9210515E-1,2.5799046E0,0E0,0E0,0E0,0E0,0E0,0E0,0E0,0E0],"parents":[2147483647,0,0,1,1,2,2,3,3,4,4,5,5,6,6],"right_children":[2,4,6,8,10,12,14,-1,-1,-1,-1,-1,-1,-1,-1],"split_conditions":[3.388889E-1,2.3333335E-1,4.0000004E-1,9.0909086E-2,2.888889E-1,3.6666667E-1,4.2222226E-1,-1.0352104E-3,-4.17683E-4,-3.002924E-4,-8.9244946E-5,7.650798E-5,2.0751604E-4,3.1696993E-4,6.1718945E-4],"split_indices":[12,12,12,1,12,12,0,0,0,0,0,0,0,0,0],"split_type":[0,0,0,0,0,0,0,0,0,0,0,0,0,0,0],"sum_hessian":[5.3172E4,2.7871E4,2.5301E4,3.839E3,2.4032E4,1.3809E4,1.1492E4,1.749E3,2.09E3,1.0243E4,1.3789E4,7.059E3,6.75E3,6.064E3,5.428E3],"tree_param":{"num_deleted":"0","num_feature":"15","num_nodes":"15","size_leaf_vector":"1"}},{"base_weights":[7.8805235E-5,-2.2262948E-2,3.0650845E-2,-8.127593E-2,-1.6787332E-2,1.8513221E-2,4.7446493E-2,-1.2347731E-3,-5.8727775E-4,-3.0477656E-4,-7.0821734E-5,1.04604194E-4,2.4957999E-4,3.349944E-4,5.986927E-4],"categories":[],"categories_nodes":[],"categories_segments":[],"categories_sizes":[],"default_left":[0,0,0,0,0,0,0,0,0,0,0,0,0,0,0],"id":16,"left_children":[1,3,5,7,9,11,13,-1,-1,-1,-1,-1,-1,-1,-1],"loss_changes":[3.6663162E1,1.0019942E1,4.6193867E0,2.4982147E0,3.7706757E0,6.826191E-1,1.6451893E0,0E0,0E0,0E0,0E0,0E0,0E0,0E0,0E0],"parents":[2147483647,0,0,1,1,2,2,3,3,4,4,5,5,6,6],"right_children":[2,4,6,8,10,12,14,-1,-1,-1,-1,-1,-1,-1,-1],"split_conditions":[3.5000002E-1,2.2222224E-1,4.1111112E-1,1.9444445E-1,2.888889E-1,3.6111113E-1,4.2777783E-1,-1.2347731E-3,-5.8727775E-4,-3.0477656E-4,-7.0821734E-5,1.04604194E-4,2.4957999E-4,3.349944E-4,5.986927E-4],"split_indices":[12,0,9,12,12,0,0,0,0,0,0,0,0,0,0],"split_type":[0,0,0,0,0,0,0,0,0,0,0,0,0,0,0],"sum_hessian":[5.3675E4,3.1012E4,2.2663E4,2.632E3,2.838E4,1.3157E4,9.506E3,9.15E2,1.717E3,1.1772E4,1.6608E4,5.85E3,7.307E3,4.48E3,5.026E3],"tree_param":{"num_deleted":"0","num_feature":"15","num_nodes":"15","size_leaf_vector":"1"}},{"base_weights":[-1.18329535E-5,-2.6774904E-2,2.6029486E-2,-8.516104E-2,-2.116422E-2,1.3207756E-2,4.609313E-2,-1.0730376E-3,-3.545323E-4,-3.428643E-4,-1.2988398E-4,6.5741304E-5,2.0884977E-4,2.41785E-4,5.4906955E-4],"categories":[],"categories_nodes":[],"categories_segments":[],"categories_sizes":[],"default_left":[0,0,0,0,0,0,0,0,0,0,0,0,0,0,0],"id":17,"left_children":[1,3,5,7,9,11,13,-1,-1,-1,-1,-1,-1,-1,-1],"loss_changes":[3.7273354E1,8.638283E0,6.9724274E0,2.5409374E0,2.5812588E0,8.4215736E-1,2.0398998E0,0E0,0E0,0E0,0E0,0E0,0E0,0E0,0E0],"parents":[2147483647,0,0,1,1,2,2,3,3,4,4,5,5,6,6],"right_children":[2,4,6,8,10,12,14,-1,-1,-1,-1,-1,-1,-1,-1],"split_conditions":[3.3333334E-1,2.1666667E-1,4.0555555E-1,1.06060594E-1,2.777778E-1,3.6666667E-1,4.0555555E-1,-1.0730376E-3,-3.545323E-4,-3.428643E-4,-1.2988398E-4,6.5741304E-5,2.0884977E-4,2.41785E-4,5.4906955E-4],"split_indices":[12,6,12,4,12,12,6,0,0,0,0,0,0,0,0],"split_type":[0,0,0,0,0,0,0,0,0,0,0,0,0,0,0],"sum_hessian":[5.3479E4,2.6374E4,2.7105E4,2.311E3,2.4063E4,1.6538E4,1.0567E4,1.598E3,7.13E2,9.236E3,1.4827E4,8.873E3,7.665E3,3.032E3,7.535E3],"tree_param":{"num_deleted":"0","num_feature":"15","num_nodes":"15","size_leaf_vector":"1"}},{"base_weights":[1.7899887E-5,-2.595356E-2,2.2557646E-2,-8.329512E-2,-2.0105455E-2,1.1055257E-2,4.245279E-2,-1.0465041E-3,-3.328189E-4,-3.3059128E-4,-1.2801425E-4,5.7326728E-5,2.0712416E-4,1.7645446E-4,5.0871854E-4],"categories":[],"categories_nodes":[],"categories_segments":[],"categories_sizes":[],"default_left":[0,0,0,0,0,0,0,0,0,0,0,0,0,0,0],"id":18,"left_children":[1,3,5,7,9,11,13,-1,-1,-1,-1,-1,-1,-1,-1],"loss_changes":[3.10567E1,8.264442E0,6.499319E0,2.4327326E0,2.1160927E0,9.250486E-1,2.1722355E0,0E0,0E0,0E0,0E0,0E0,0E0,0E0,0E0],"parents":[2147483647,0,0,1,1,2,2,3,3,4,4,5,5,6,6],"right_children":[2,4,6,8,10,12,14,-1,-1,-1,-1,-1,-1,-1,-1],"split_conditions":[3.277778E-1,2.1666667E-1,4.0555555E-1,1.06060594E-1,2.7222225E-1,3.7222224E-1,4.0000004E-1,-1.0465041E-3,-3.328189E-4,-3.3059128E-4,-1.2801425E-4,5.7326728E-5,2.0712416E-4,1.7645446E-4,5.0871854E-4],"split_indices":[9,0,9,1,9,9,3,0,0,0,0,0,0,0,0],"split_type":[0,0,0,0,0,0,0,0,0,0,0,0,0,0,0],"sum_hessian":[5.3051E4,2.4649E4,2.8402E4,2.28E3,2.2369E4,1.7998E4,1.0404E4,1.597E3,6.83E2,8.064E3,1.4305E4,1.1604E4,6.394E3,2.637E3,7.767E3],"tree_param":{"num_deleted":"0","num_feature":"15","num_nodes":"15","size_leaf_vector":"1"}},{"base_weights":[8.84863E-6,-2.3876969E-2,2.3273183E-2,-7.543684E-2,-1.78746E-2,1.11048445E-2,4.03439E-2,-1.0713115E-3,-4.2386347E-4,-2.7369385E-4,-8.922128E-5,5.6268218E-5,1.7294953E-4,2.5540873E-4,5.096152E-4],"categories":[],"categories_nodes":[],"categories_segments":[],"categories_sizes":[],"default_left":[0,0,0,0,0,0,0,0,0,0,0,0,0,0,0],"id":19,"left_children":[1,3,5,7,9,11,13,-1,-1,-1,-1,-1,-1,-1,-1],"loss_changes":[2.9553135E1,8.119752E0,5.5960045E0,2.861455E0,1.9978089E0,5.333338E-1,1.7609215E0,0E0,0E0,0E0,0E0,0E0,0E0,0E0,0E0],"parents":[2147483647,0,0,1,1,2,2,3,3,4,4,5,5,6,6],"right_children":[2,4,6,8,10,12,14,-1,-1,-1,-1,-1,-1,-1,-1],"split_conditions":[3.3333334E-1,2.2222224E-1,4.0000004E-1,9.0909086E-2,2.888889E-1,3.6666667E-1,4.2777783E-1,-1.0713115E-3,-4.2386347E-4,-2.7369385E-4,-8.922128E-5,5.6268218E-5,1.7294953E-4,2.5540873E-4,5.096152E-4],"split_indices":[6,3,3,1,6,6,6,0,0,0,0,0,0,0,0],"split_type":[0,0,0,0,0,0,0,0,0,0,0,0,0,0,0],"sum_hessian":[5.3181E4,2.624E4,2.6941E4,2.735E3,2.3505E4,1.573E4,1.1211E4,1.395E3,1.34E3,1.1406E4,1.2099E4,8.346E3,7.384E3,4.684E3,6.527E3],"tree_param":{"num_deleted":"0","num_feature":"15","num_nodes":"15","size_leaf_vector":"1"}},{"base_weights":[1.4822336E-4,-2.5847776E-2,2.2689221E-2,-8.2561955E-2,-2.000523E-2,1.1782449E-2,4.412E-2,-1.0304166E-3,-3.4547842E-4,-3.3377926E-4,-1.274718E-4,5.759077E-5,2.1334548E-4,2.6253413E-4,5.479813E-4],"categories":[],"categories_nodes":[],"categories_segments":[],"categories_sizes":[],"default_left":[0,0,0,0,0,0,0,0,0,0,0,0,0,0,0],"id":20,"left_children":[1,3,5,7,9,11,13,-1,-1,-1,-1,-1,-1,-1,-1],"loss_changes":[3.1158089E1,8.180834E0,6.6561804E0,2.2639637E0,2.1726446E0,1.0858665E0,1.8310184E0,0E0,0E0,0E0,0E0,0E0,0E0,0E0,0E0],"parents":[2147483647,0,0,1,1,2,2,3,3,4,4,5,5,6,6],"right_children":[2,4,6,8,10,12,14,-1,-1,-1,-1,-1,-1,-1,-1],"split_conditions":[3.277778E-1,2.1666667E-1,4.1111112E-1,1.06060594E-1,2.777778E-1,3.7222224E-1,4.1111112E-1,-1.0304166E-3,-3.4547842E-4,-3.3377926E-4,-1.274718E-4,5.759077E-5,2.1334548E-4,2.6253413E-4,5.479813E-4],"split_indices":[9,0,9,1,0,9,0,0,0,0,0,0,0,0,0],"split_type":[0,0,0,0,0,0,0,0,0,0,0,0,0,0,0],"sum_hessian":[5.3171E4,2.4693E4,2.8478E4,2.305E3,2.2388E4,1.8874E4,9.604E3,1.615E3,6.9E2,7.875E3,1.4513E4,1.1576E4,7.298E3,3.594E3,6.01E3],"tree_param":{"num_deleted":"0","num_feature":"15","num_nodes":"15","size_leaf_vector":"1"}},{"base_weights":[3.0263922E-5,-2.591403E-2,2.5193967E-2,-8.3105065E-2,-2.0514628E-2,1.1393472E-2,4.386671E-2,-1.0379724E-3,-3.6413013E-4,-3.1924227E-4,-1.1657538E-4,6.586893E-5,1.9986206E-4,2.525138E-4,5.356656E-4],"categories":[],"categories_nodes":[],"categories_segments":[],"categories_sizes":[],"default_left":[0,0,0,0,0,0,0,0,0,0,0,0,0,0,0],"id":21,"left_children":[1,3,5,7,9,11,13,-1,-1,-1,-1,-1,-1,-1,-1],"loss_changes":[3.466592E1,8.071493E0,6.9456177E0,2.1749115E0,2.4138527E0,6.4008546E-1,2.06703E0,0E0,0E0,0E0,0E0,0E0,0E0,0E0,0E0],"parents":[2147483647,0,0,1,1,2,2,3,3,4,4,5,5,6,6],"right_children":[2,4,6,8,10,12,14,-1,-1,-1,-1,-1,-1,-1,-1],"split_conditions":[3.3333334E-1,2.1666667E-1,4.0000004E-1,1.06060594E-1,2.8333336E-1,3.7222224E-1,4.0000004E-1,-1.0379724E-3,-3.6413013E-4,-3.1924227E-4,-1.1657538E-4,6.586893E-5,1.9986206E-4,2.525138E-4,5.356656E-4],"split_indices":[12,6,12,4,12,12,3,0,0,0,0,0,0,0,0],"split_type":[0,0,0,0,0,0,0,0,0,0,0,0,0,0,0],"sum_hessian":[5.3097E4,2.6143E4,2.6954E4,2.254E3,2.3889E4,1.55E4,1.1454E4,1.561E3,6.93E2,1.0439E4,1.345E4,9.941E3,5.559E3,3.925E3,7.529E3],"tree_param":{"num_deleted":"0","num_feature":"15","num_nodes":"15","size_leaf_vector":"1"}},{"base_weights":[1.6230964E-5,-2.5670482E-2,2.4841158E-2,-7.979678E-2,-2.0215591E-2,1.3713019E-2,4.4584624E-2,-1.028274E-3,-3.1278614E-4,-3.105585E-4,-1.0075618E-4,5.1271072E-5,2.0176686E-4,2.4760232E-4,5.5149593E-4],"categories":[],"categories_nodes":[],"categories_segments":[],"categories_sizes":[],"default_left":[0,0,0,0,0,0,0,0,0,0,0,0,0,0,0],"id":22,"left_children":[1,3,5,7,9,11,13,-1,-1,-1,-1,-1,-1,-1,-1],"loss_changes":[3.397446E1,7.7295895E0,5.95216E0,2.6751995E0,2.6145735E0,9.6159506E-1,2.0440655E0,0E0,0E0,0E0,0E0,0E0,0E0,0E0,0E0],"parents":[2147483647,0,0,1,1,2,2,3,3,4,4,5,5,6,6],"right_children":[2,4,6,8,10,12,14,-1,-1,-1,-1,-1,-1,-1,-1],"split_conditions":[3.3333334E-1,2.1666667E-1,4.1111112E-1,1.06060594E-1,2.888889E-1,3.6111113E-1,4.0555555E-1,-1.028274E-3,-3.1278614E-4,-3.105585E-4,-1.0075618E-4,5.1271072E-5,2.0176686E-4,2.4760232E-4,5.5149593E-4],"split_indices":[12,12,12,13,12,12,3,0,0,0,0,0,0,0,0],"split_type":[0,0,0,0,0,0,0,0,0,0,0,0,0,0,0],"sum_hessian":[5.3277E4,2.6184E4,2.7093E4,2.396E3,2.3788E4,1.7328E4,9.765E3,1.624E3,7.72E2,1.1496E4,1.2292E4,7.443E3,9.885E3,3.396E3,6.369E3],"tree_param":{"num_deleted":"0","num_feature":"15","num_nodes":"15","size_leaf_vector":"1"}},{"base_weights":[-2.0681841E-4,-2.3422988E-2,2.2400063E-2,-7.772839E-2,-1.809104E-2,1.4164387E-2,4.556075E-2,-1.0689152E-3,-4.1283827E-4,-2.830857E-4,-1.0020836E-4,5.776924E-5,2.2702865E-4,2.3434206E-4,5.401377E-4],"categories":[],"categories_nodes":[],"categories_segments":[],"categories_sizes":[],"default_left":[0,0,0,0,0,0,0,0,0,0,0,0,0,0,0],"id":23,"left_children":[1,3,5,7,9,11,13,-1,-1,-1,-1,-1,-1,-1,-1],"loss_changes":[2.7906546E1,7.594166E0,5.137806E0,2.4879408E0,1.9694633E0,1.4231689E0,1.3203325E0,0E0,0E0,0E0,0E0,0E0,0E0,0E0,0E0],"parents":[2147483647,0,0,1,1,2,2,3,3,4,4,5,5,6,6],"right_children":[2,4,6,8,10,12,14,-1,-1,-1,-1,-1,-1,-1,-1],"split_conditions":[3.3333334E-1,2.1666667E-1,4.2777783E-1,9.0909086E-2,2.8333336E-1,3.6666667E-1,4.2222226E-1,-1.0689152E-3,-4.1283827E-4,-2.830857E-4,-1.0020836E-4,5.776924E-5,2.2702865E-4,2.3434206E-4,5.401377E-4],"split_indices":[6,0,0,1,6,0,6,0,0,0,0,0,0,0,0],"split_type":[0,0,0,0,0,0,0,0,0,0,0,0,0,0,0],"sum_hessian":[5.3169E4,2.6231E4,2.6938E4,2.344E3,2.3887E4,1.9873E4,7.065E3,1.301E3,1.043E3,1.054E4,1.3347E4,1.0026E4,9.847E3,1.954E3,5.111E3],"tree_param":{"num_deleted":"0","num_feature":"15","num_nodes":"15","size_leaf_vector":"1"}},{"base_weights":[-1.1728375E-5,-2.5215719E-2,2.4509015E-2,-7.5799316E-2,-1.9716859E-2,1.3688466E-2,4.413935E-2,-1.051695E-3,-4.819836E-4,-3.0717862E-4,-1.1026453E-4,7.405932E-5,2.2221271E-4,2.1630195E-4,5.263714E-4],"categories":[],"categories_nodes":[],"categories_segments":[],"categories_sizes":[],"default_left":[0,0,0,0,0,0,0,0,0,0,0,0,0,0,0],"id":24,"left_children":[1,3,5,7,9,11,13,-1,-1,-1,-1,-1,-1,-1,-1],"loss_changes":[3.305854E1,7.335602E0,5.7584953E0,2.09126E0,2.2743473E0,9.3689656E-1,1.8416348E0,0E0,0E0,0E0,0E0,0E0,0E0,0E0,0E0],"parents":[2147483647,0,0,1,1,2,2,3,3,4,4,5,5,6,6],"right_children":[2,4,6,8,10,12,14,-1,-1,-1,-1,-1,-1,-1,-1],"split_conditions":[3.3333334E-1,2.2222224E-1,4.1111112E-1,2.1111113E-1,2.8333336E-1,3.7222224E-1,3.7777779E-1,-1.051695E-3,-4.819836E-4,-3.0717862E-4,-1.1026453E-4,7.405932E-5,2.2221271E-4,2.1630195E-4,5.263714E-4],"split_indices":[12,0,12,12,12,12,0,0,0,0,0,0,0,0,0],"split_type":[0,0,0,0,0,0,0,0,0,0,0,0,0,0,0],"sum_hessian":[5.3489E4,2.6377E4,2.7112E4,2.585E3,2.3792E4,1.7479E4,9.633E3,1.251E3,1.334E3,1.0499E4,1.3293E4,1.0068E4,7.411E3,2.641E3,6.992E3],"tree_param":{"num_deleted":"0","num_feature":"15","num_nodes":"15","size_leaf_vector":"1"}},{"base_weights":[4.708044E-5,-2.3052558E-2,2.2613497E-2,-7.33487E-2,-1.7394038E-2,1.1524112E-2,3.977139E-2,-9.22124E-4,-2.8274805E-4,-3.0110354E-4,-1.13967806E-4,4.7980095E-5,1.8897184E-4,1.8748765E-4,4.7820157E-4],"categories":[],"categories_nodes":[],"categories_segments":[],"categories_sizes":[],"default_left":[0,0,0,0,0,0,0,0,0,0,0,0,0,0,0],"id":25,"left_children":[1,3,5,7,9,11,13,-1,-1,-1,-1,-1,-1,-1,-1],"loss_changes":[2.7812683E1,7.502535E0,5.1347513E0,2.264186E0,1.807167E0,8.1297064E-1,1.7918453E0,0E0,0E0,0E0,0E0,0E0,0E0,0E0,0E0],"parents":[2147483647,0,0,1,1,2,2,3,3,4,4,5,5,6,6],"right_children":[2,4,6,8,10,12,14,-1,-1,-1,-1,-1,-1,-1,-1],"split_conditions":[3.3333334E-1,2.2222224E-1,4.0555555E-1,1.06060594E-1,2.777778E-1,3.6666667E-1,3.888889E-1,-9.22124E-4,-2.8274805E-4,-3.0110354E-4,-1.13967806E-4,4.7980095E-5,1.8897184E-4,1.8748765E-4,4.7820157E-4],"split_indices":[9,0,9,10,0,0,0,0,0,0,0,0,0,0,0],"split_type":[0,0,0,0,0,0,0,0,0,0,0,0,0,0,0],"sum_hessian":[5.3353E4,2.6365E4,2.6988E4,2.665E3,2.37E4,1.6394E4,1.0594E4,1.878E3,7.87E2,7.594E3,1.6106E4,8.574E3,7.82E3,2.934E3,7.66E3],"tree_param":{"num_deleted":"0","num_feature":"15","num_nodes":"15","size_leaf_vector":"1"}},{"base_weights":[-7.6445234E-5,-2.288782E-2,2.4946634E-2,-7.803426E-2,-1.7576102E-2,1.3065298E-2,4.2005114E-2,-1.092585E-3,-4.1926946E-4,-2.8668658E-4,-8.254215E-5,7.2189876E-5,2.0628158E-4,2.2239069E-4,5.1729154E-4],"categories":[],"categories_nodes":[],"categories_segments":[],"categories_sizes":[],"default_left":[0,0,0,0,0,0,0,0,0,0,0,0,0,0,0],"id":26,"left_children":[1,3,5,7,9,11,13,-1,-1,-1,-1,-1,-1,-1,-1],"loss_changes":[3.0357431E1,8.148023E0,5.139759E0,2.7508411E0,2.623939E0,6.609068E-1,2.0000973E0,0E0,0E0,0E0,0E0,0E0,0E0,0E0,0E0],"parents":[2147483647,0,0,1,1,2,2,3,3,4,4,5,5,6,6],"right_children":[2,4,6,8,10,12,14,-1,-1,-1,-1,-1,-1,-1,-1],"split_conditions":[3.388889E-1,2.1666667E-1,4.0555555E-1,9.0909086E-2,2.888889E-1,3.7222224E-1,3.888889E-1,-1.092585E-3,-4.1926946E-4,-2.8668658E-4,-8.254215E-5,7.2189876E-5,2.0628158E-4,2.2239069E-4,5.1729154E-4],"split_indices":[12,12,12,1,12,12,0,0,0,0,0,0,0,0,0],"split_type":[0,0,0,0,0,0,0,0,0,0,0,0,0,0,0],"sum_hessian":[5.3181E4,2.782E4,2.5361E4,2.443E3,2.5377E4,1.495E4,1.0411E4,1.309E3,1.134E3,1.1587E4,1.379E4,8.433E3,6.517E3,3.434E3,6.977E3],"tree_param":{"num_deleted":"0","num_feature":"15","num_nodes":"15","size_leaf_vector":"1"}},{"base_weights":[-5.6393306E-5,-2.4456793E-2,2.0997895E-2,-7.300277E-2,-1.930058E-2,1.007265E-2,3.9481997E-2,-9.487351E-4,-2.5552433E-4,-3.0260655E-4,-1.2403767E-4,4.490657E-5,1.7588197E-4,-1.3966773E-4,4.207047E-4],"categories":[],"categories_nodes":[],"categories_segments":[],"categories_sizes":[],"default_left":[0,0,0,0,0,0,0,0,0,0,0,0,0,0,0],"id":27,"left_children":[1,3,5,7,9,11,13,-1,-1,-1,-1,-1,-1,-1,-1],"loss_changes":[2.7230934E1,6.144288E0,5.7457E0,2.4436083E0,1.6774111E0,7.502278E-1,1.4629536E0,0E0,0E0,0E0,0E0,0E0,0E0,0E0,0E0],"parents":[2147483647,0,0,1,1,2,2,3,3,4,4,5,5,6,6],"right_children":[2,4,6,8,10,12,14,-1,-1,-1,-1,-1,-1,-1,-1],"split_conditions":[3.277778E-1,2.1666667E-1,4.0555555E-1,1.06060594E-1,2.777778E-1,3.6666667E-1,3.388889E-1,-9.487351E-4,-2.5552433E-4,-3.0260655E-4,-1.2403767E-4,4.490657E-5,1.7588197E-4,-1.3966773E-4,4.207047E-4],"split_indices":[9,6,9,4,6,9,6,0,0,0,0,0,0,0,0],"split_type":[0,0,0,0,0,0,0,0,0,0,0,0,0,0,0],"sum_hessian":[5.3004E4,2.4551E4,2.8453E4,2.356E3,2.2195E4,1.7884E4,1.0569E4,1.612E3,7.44E2,8.571E3,1.3624E4,1.0263E4,7.621E3,4.88E2,1.0081E4],"tree_param":{"num_deleted":"0","num_feature":"15","num_nodes":"15","size_leaf_vector":"1"}},{"base_weights":[3.2925606E-4,-2.1954669E-2,2.1957468E-2,-7.2824664E-2,-1.6847964E-2,1.16070025E-2,4.0560953E-2,-1.0074025E-3,-3.9047594E-4,-2.6753053E-4,-9.2510265E-5,5.4414108E-5,2.0009995E-4,9.4641895E-5,4.5064362E-4],"categories":[],"categories_nodes":[],"categories_segments":[],"categories_sizes":[],"default_left":[0,0,0,0,0,0,0,0,0,0,0,0,0,0,0],"id":28,"left_children":[1,3,5,7,9,11,13,-1,-1,-1,-1,-1,-1,-1,-1],"loss_changes":[2.566011E1,6.810931E0,5.201971E0,2.2514992E0,1.7930713E0,8.993547E-1,1.3520956E0,0E0,0E0,0E0,0E0,0E0,0E0,0E0,0E0],"parents":[2147483647,0,0,1,1,2,2,3,3,4,4,5,5,6,6],"right_children":[2,4,6,8,10,12,14,-1,-1,-1,-1,-1,-1,-1,-1],"split_conditions":[3.3333334E-1,2.1666667E-1,4.1111112E-1,9.0909086E-2,2.8333336E-1,3.7222224E-1,3.9444447E-1,-1.0074025E-3,-3.9047594E-4,-2.6753053E-4,-9.2510265E-5,5.4414108E-5,2.0009995E-4,9.4641895E-5,4.5064362E-4],"split_indices":[9,6,9,7,9,9,6,0,0,0,0,0,0,0,0],"split_type":[0,0,0,0,0,0,0,0,0,0,0,0,0,0,0],"sum_hessian":[5.3239E4,2.6222E4,2.7017E4,2.391E3,2.3831E4,1.736E4,9.657E3,1.308E3,1.083E3,1.0343E4,1.3488E4,1.0014E4,7.346E3,1.222E3,8.435E3],"tree_param":{"num_deleted":"0","num_feature":"15","num_nodes":"15","size_leaf_vector":"1"}},{"base_weights":[-2.585181E-5,-2.2673871E-2,2.488233E-2,-7.4596405E-2,-1.7543262E-2,1.4489959E-2,4.4307355E-2,-9.7426836E-4,-2.8517094E-4,-2.845576E-4,-8.331549E-5,7.781189E-5,2.149212E-4,3.063111E-4,5.8531784E-4],"categories":[],"categories_nodes":[],"categories_segments":[],"categories_sizes":[],"default_left":[0,0,0,0,0,0,0,0,0,0,0,0,0,0,0],"id":29,"left_children":[1,3,5,7,9,11,13,-1,-1,-1,-1,-1,-1,-1,-1],"loss_changes":[3.0065956E1,7.4350853E0,5.123274E0,2.6377678E0,2.5536456E0,7.7667284E-1,1.71908E0,0E0,0E0,0E0,0E0,0E0,0E0,0E0,0E0],"parents":[2147483647,0,0,1,1,2,2,3,3,4,4,5,5,6,6],"right_children":[2,4,6,8,10,12,14,-1,-1,-1,-1,-1,-1,-1,-1],"split_conditions":[3.388889E-1,2.1666667E-1,4.166667E-1,1.06060594E-1,2.888889E-1,3.7222224E-1,4.2777783E-1,-9.7426836E-4,-2.8517094E-4,-2.845576E-4,-8.331549E-5,7.781189E-5,2.149212E-4,3.063111E-4,5.8531784E-4],"split_indices":[12,12,12,1,12,12,0,0,0,0,0,0,0,0,0],"split_type":[0,0,0,0,0,0,0,0,0,0,0,0,0,0,0],"sum_hessian":[5.3295E4,2.7914E4,2.5381E4,2.509E3,2.5405E4,1.6536E4,8.845E3,1.677E3,8.32E2,1.1628E4,1.3777E4,8.446E3,8.09E3,4.511E3,4.334E3],"tree_param":{"num_deleted":"0","num_feature":"15","num_nodes":"15","size_leaf_vector":"1"}},{"base_weights":[2.4372202E-4,-2.3270452E-2,2.3067655E-2,-7.410752E-2,-1.7751848E-2,1.1684165E-2,4.067105E-2,-9.241211E-4,-3.6825758E-4,-2.7388046E-4,-8.193048E-5,6.517225E-5,1.9483893E-4,2.8050836E-4,5.572317E-4],"categories":[],"categories_nodes":[],"categories_segments":[],"categories_sizes":[],"default_left":[0,0,0,0,0,0,0,0,0,0,0,0,0,0,0],"id":30,"left_children":[1,3,5,7,9,11,13,-1,-1,-1,-1,-1,-1,-1,-1],"loss_changes":[2.8499634E1,7.3367434E0,5.3993816E0,1.7442923E0,2.1732154E0,6.5943456E-1,2.008604E0,0E0,0E0,0E0,0E0,0E0,0E0,0E0,0E0],"parents":[2147483647,0,0,1,1,2,2,3,3,4,4,5,5,6,6],"right_children":[2,4,6,8,10,12,14,-1,-1,-1,-1,-1,-1,-1,-1],"split_conditions":[3.3333334E-1,2.2222224E-1,4.0555555E-1,2.3333335E-1,2.888889E-1,3.7222224E-1,4.2777783E-1,-9.241211E-4,-3.6825758E-4,-2.7388046E-4,-8.193048E-5,6.517225E-5,1.9483893E-4,2.8050836E-4,5.572317E-4],"split_indices":[12,0,12,12,12,12,0,0,0,0,0,0,0,0,0],"split_type":[0,0,0,0,0,0,0,0,0,0,0,0,0,0,0],"sum_hessian":[5.3101E4,2.6155E4,2.6946E4,2.56E3,2.3595E4,1.6365E4,1.0581E4,1.716E3,8.44E2,1.1749E4,1.1846E4,9.845E3,6.52E3,5.757E3,4.824E3],"tree_param":{"num_deleted":"0","num_feature":"15","num_nodes":"15","size_leaf_vector":"1"}},{"base_weights":[-1.6752623E-4,-2.3358373E-2,2.2511777E-2,-8.0863066E-2,-1.8801017E-2,1.3970103E-2,4.521703E-2,-9.6105813E-4,-1.3559921E-4,-2.9180656E-4,-1.0504668E-4,6.4051346E-5,2.1964422E-4,2.3037723E-4,5.493662E-4],"categories":[],"categories_nodes":[],"categories_segments":[],"categories_sizes":[],"default_left":[0,0,0,0,0,0,0,0,0,0,0,0,0,0,0],"id":31,"left_children":[1,3,5,7,9,11,13,-1,-1,-1,-1,-1,-1,-1,-1],"loss_changes":[2.791965E1,6.876752E0,5.2043543E0,1.9755783E0,2.0939636E0,1.1793377E0,1.5801811E0,0E0,0E0,0E0,0E0,0E0,0E0,0E0,0E0],"parents":[2147483647,0,0,1,1,2,2,3,3,4,4,5,5,6,6],"right_children":[2,4,6,8,10,12,14,-1,-1,-1,-1,-1,-1,-1,-1],"split_conditions":[3.3333334E-1,2.1111113E-1,4.2777783E-1,1.2121211E-1,2.8333336E-1,3.7222224E-1,3.888889E-1,-9.6105813E-4,-1.3559921E-4,-2.9180656E-4,-1.0504668E-4,6.4051346E-5,2.1964422E-4,2.3037723E-4,5.493662E-4],"split_indices":[12,0,12,1,12,12,0,0,0,0,0,0,0,0,0],"split_type":[0,0,0,0,0,0,0,0,0,0,0,0,0,0,0],"sum_hessian":[5.3082E4,2.6245E4,2.6837E4,1.926E3,2.4319E4,1.9502E4,7.335E3,1.57E3,3.56E2,1.0802E4,1.3517E4,1.0021E4,9.481E3,2.236E3,5.099E3],"tree_param":{"num_deleted":"0","num_feature":"15","num_nodes":"15","size_leaf_vector":"1"}},{"base_weights":[-7.292224E-5,-2.3264699E-2,2.2484139E-2,-6.423966E-2,-1.735514E-2,1.1505804E-2,3.9711516E-2,-9.373355E-4,-3.7950455E-4,-2.667107E-4,-9.014867E-5,6.556962E-5,1.9243518E-4,1.7408295E-4,4.724524E-4],"categories":[],"categories_nodes":[],"categories_segments":[],"categories_sizes":[],"default_left":[0,0,0,0,0,0,0,0,0,0,0,0,0,0,0],"id":32,"left_children":[1,3,5,7,9,11,13,-1,-1,-1,-1,-1,-1,-1,-1],"loss_changes":[2.7789633E1,6.341117E0,5.0925665E0,2.5559416E0,1.7784085E0,6.2975097E-1,1.7602634E0,0E0,0E0,0E0,0E0,0E0,0E0,0E0,0E0],"parents":[2147483647,0,0,1,1,2,2,3,3,4,4,5,5,6,6],"right_children":[2,4,6,8,10,12,14,-1,-1,-1,-1,-1,-1,-1,-1],"split_conditions":[3.3333334E-1,2.2777778E-1,4.0555555E-1,9.0909086E-2,2.888889E-1,3.7222224E-1,3.8333336E-1,-9.373355E-4,-3.7950455E-4,-2.667107E-4,-9.014867E-5,6.556962E-5,1.9243518E-4,1.7408295E-4,4.724524E-4],"split_indices":[12,12,12,1,12,12,3,0,0,0,0,0,0,0,0],"split_type":[0,0,0,0,0,0,0,0,0,0,0,0,0,0,0],"sum_hessian":[5.3119E4,2.6191E4,2.6928E4,3.3E3,2.2891E4,1.6448E4,1.048E4,1.554E3,1.746E3,1.0812E4,1.2079E4,1.0033E4,6.415E3,2.647E3,7.833E3],"tree_param":{"num_deleted":"0","num_feature":"15","num_nodes":"15","size_leaf_vector":"1"}},{"base_weights":[3.2907462E-4,-2.1300668E-2,2.4034103E-2,-7.291139E-2,-1.664707E-2,1.3016966E-2,3.958106E-2,-9.963139E-4,-4.164852E-4,-2.6568436E-4,-7.913907E-5,6.269976E-5,2.0036161E-4,2.5104638E-4,5.111102E-4],"categories":[],"categories_nodes":[],"categories_segments":[],"categories_sizes":[],"default_left":[0,0,0,0,0,0,0,0,0,0,0,0,0,0,0],"id":33,"left_children":[1,3,5,7,9,11,13,-1,-1,-1,-1,-1,-1,-1,-1],"loss_changes":[2.7307167E1,6.687194E0,4.3517838E0,1.9196482E0,2.2132196E0,7.0423627E-1,1.7576427E0,0E0,0E0,0E0,0E0,0E0,0E0,0E0,0E0],"parents":[2147483647,0,0,1,1,2,2,3,3,4,4,5,5,6,6],"right_children":[2,4,6,8,10,12,14,-1,-1,-1,-1,-1,-1,-1,-1],"split_conditions":[3.388889E-1,2.1666667E-1,4.0555555E-1,9.0909086E-2,2.888889E-1,3.6666667E-1,4.1111112E-1,-9.963139E-4,-4.164852E-4,-2.6568436E-4,-7.913907E-5,6.269976E-5,2.0036161E-4,2.5104638E-4,5.111102E-4],"split_indices":[12,6,12,1,12,0,0,0,0,0,0,0,0,0,0],"split_type":[0,0,0,0,0,0,0,0,0,0,0,0,0,0,0],"sum_hessian":[5.3256E4,2.7847E4,2.5409E4,2.302E3,2.5545E4,1.4872E4,1.0537E4,1.24E3,1.062E3,1.1958E4,1.3587E4,7.584E3,7.288E3,4.673E3,5.864E3],"tree_param":{"num_deleted":"0","num_feature":"15","num_nodes":"15","size_leaf_vector":"1"}},{"base_weights":[2.2827896E-4,-2.0864964E-2,2.0731399E-2,-7.032793E-2,-1.5855705E-2,1.1531815E-2,3.785818E-2,-9.084456E-4,-2.7608644E-4,-2.6292796E-4,-9.332954E-5,6.781419E-5,1.8692396E-4,1.3937289E-4,4.2061988E-4],"categories":[],"categories_nodes":[],"categories_segments":[],"categories_sizes":[],"default_left":[0,0,0,0,0,0,0,0,0,0,0,0,0,0,0],"id":34,"left_children":[1,3,5,7,9,11,13,-1,-1,-1,-1,-1,-1,-1,-1],"loss_changes":[2.3016008E1,6.4984617E0,4.2516155E0,2.1115036E0,1.6214542E0,5.971191E-1,9.476843E-1,0E0,0E0,0E0,0E0,0E0,0E0,0E0,0E0],"parents":[2147483647,0,0,1,1,2,2,3,3,4,4,5,5,6,6],"right_children":[2,4,6,8,10,12,14,-1,-1,-1,-1,-1,-1,-1,-1],"split_conditions":[3.3333334E-1,2.1666667E-1,4.1111112E-1,1.06060594E-1,2.777778E-1,3.7222224E-1,4.0555555E-1,-9.084456E-4,-2.7608644E-4,-2.6292796E-4,-9.332954E-5,6.781419E-5,1.8692396E-4,1.3937289E-4,4.2061988E-4],"split_indices":[6,3,3,1,6,3,6,0,0,0,0,0,0,0,0],"split_type":[0,0,0,0,0,0,0,0,0,0,0,0,0,0,0],"sum_hessian":[5.3217E4,2.6231E4,2.6986E4,2.411E3,2.382E4,1.7557E4,9.429E3,1.628E3,7.83E2,9.16E3,1.466E4,1.0556E4,7.001E3,1.41E3,8.019E3],"tree_param":{"num_deleted":"0","num_feature":"15","num_nodes":"15","size_leaf_vector":"1"}},{"base_weights":[-1.7721439E-4,-2.2498399E-2,1.9128615E-2,-6.7886576E-2,-1.710436E-2,9.053836E-3,3.6272526E-2,-9.064161E-4,-4.004521E-4,-2.4941182E-4,-7.829972E-5,4.0114483E-5,1.8214504E-4,2.330535E-4,4.748877E-4],"categories":[],"categories_nodes":[],"categories_segments":[],"categories_sizes":[],"default_left":[0,0,0,0,0,0,0,0,0,0,0,0,0,0,0],"id":35,"left_children":[1,3,5,7,9,11,13,-1,-1,-1,-1,-1,-1,-1,-1],"loss_changes":[2.2939213E1,6.0430937E0,4.929823E0,1.6574888E0,1.603672E0,8.304527E-1,1.5354996E0,0E0,0E0,0E0,0E0,0E0,0E0,0E0,0E0],"parents":[2147483647,0,0,1,1,2,2,3,3,4,4,5,5,6,6],"right_children":[2,4,6,8,10,12,14,-1,-1,-1,-1,-1,-1,-1,-1],"split_conditions":[3.277778E-1,2.2222224E-1,4.0555555E-1,9.0909086E-2,3E-1,3.7222224E-1,4.2222226E-1,-9.064161E-4,-4.004521E-4,-2.4941182E-4,-7.829972E-5,4.0114483E-5,1.8214504E-4,2.330535E-4,4.748877E-4],"split_indices":[9,0,9,7,0,9,0,0,0,0,0,0,0,0,0],"split_type":[0,0,0,0,0,0,0,0,0,0,0,0,0,0,0],"sum_hessian":[5.323E4,2.4687E4,2.8543E4,2.621E3,2.2066E4,1.7979E4,1.0564E4,1.441E3,1.18E3,1.1959E4,1.0107E4,1.1597E4,6.382E3,4.901E3,5.663E3],"tree_param":{"num_deleted":"0","num_feature":"15","num_nodes":"15","size_leaf_vector":"1"}},{"base_weights":[9.5530646E-5,-1.8980723E-2,2.6259067E-2,-6.025967E-2,-1.3142947E-2,1.7343318E-2,4.435548E-2,-8.25832E-4,-2.6712893E-4,-2.17666E-4,-3.1006894E-5,8.856931E-5,2.2153852E-4,1.9363806E-4,5.0322147E-4],"categories":[],"categories_nodes":[],"categories_segments":[],"categories_sizes":[],"default_left":[0,0,0,0,0,0,0,0,0,0,0,0,0,0,0],"id":36,"left_children":[1,3,5,7,9,11,13,-1,-1,-1,-1,-1,-1,-1,-1],"loss_changes":[2.656072E1,7.415765E0,3.61977E0,2.853282E0,2.3351274E0,6.135931E-1,1.1033859E0,0E0,0E0,0E0,0E0,0E0,0E0,0E0,0E0],"parents":[2147483647,0,0,1,1,2,2,3,3,4,4,5,5,6,6],"right_children":[2,4,6,8,10,12,14,-1,-1,-1,-1,-1,-1,-1,-1],"split_conditions":[3.5000002E-1,2.3333335E-1,4.2777783E-1,1.06060594E-1,3.0555558E-1,3.7222224E-1,4.2222226E-1,-8.25832E-4,-2.6712893E-4,-2.17666E-4,-3.1006894E-5,8.856931E-5,2.2153852E-4,1.9363806E-4,5.0322147E-4],"split_indices":[12,12,12,7,12,12,9,0,0,0,0,0,0,0,0],"split_type":[0,0,0,0,0,0,0,0,0,0,0,0,0,0,0],"sum_hessian":[5.3215E4,3.0776E4,2.2439E4,3.812E3,2.6964E4,1.5034E4,7.405E3,2.288E3,1.524E3,1.4506E4,1.2458E4,5.44E3,9.594E3,1.428E3,5.977E3],"tree_param":{"num_deleted":"0","num_feature":"15","num_nodes":"15","size_leaf_vector":"1"}},{"base_weights":[-3.3501914E-5,-1.9740444E-2,2.4208562E-2,-7.078596E-2,-1.5063683E-2,1.5760135E-2,4.3298125E-2,-9.1534224E-4,-2.7086414E-4,-2.6469963E-4,-6.467481E-5,7.721437E-5,2.1462131E-4,1.6523564E-4,5.115923E-4],"categories":[],"categories_nodes":[],"categories_segments":[],"categories_sizes":[],"default_left":[0,0,0,0,0,0,0,0,0,0,0,0,0,0,0],"id":37,"left_children":[1,3,5,7,9,11,13,-1,-1,-1,-1,-1,-1,-1,-1],"loss_changes":[2.543997E1,7.0110807E0,3.8502836E0,2.2325115E0,2.6382747E0,7.5861406E-1,1.540904E0,0E0,0E0,0E0,0E0,0E0,0E0,0E0,0E0],"parents":[2147483647,0,0,1,1,2,2,3,3,4,4,5,5,6,6],"right_children":[2,4,6,8,10,12,14,-1,-1,-1,-1,-1,-1,-1,-1],"split_conditions":[3.4444445E-1,2.1666667E-1,4.2777783E-1,1.06060594E-1,2.888889E-1,3.7222224E-1,4.0555555E-1,-9.1534224E-4,-2.7086414E-4,-2.6469963E-4,-6.467481E-5,7.721437E-5,2.1462131E-4,1.6523564E-4,5.115923E-4],"split_indices":[12,12,12,1,12,12,6,0,0,0,0,0,0,0,0],"split_type":[0,0,0,0,0,0,0,0,0,0,0,0,0,0,0],"sum_hessian":[5.3249E4,2.9372E4,2.3877E4,2.464E3,2.6908E4,1.6553E4,7.324E3,1.67E3,7.94E2,1.1563E4,1.5345E4,6.87E3,9.683E3,1.663E3,5.661E3],"tree_param":{"num_deleted":"0","num_feature":"15","num_nodes":"15","size_leaf_vector":"1"}},{"base_weights":[-7.640873E-5,-2.0261228E-2,1.95543E-2,-6.778455E-2,-1.541781E-2,9.892642E-3,3.764935E-2,-9.4481406E-4,-3.6138008E-4,-2.4398566E-4,-7.276847E-5,2.7119899E-5,1.642552E-4,2.537899E-4,4.2994088E-4],"categories":[],"categories_nodes":[],"categories_segments":[],"categories_sizes":[],"default_left":[0,0,0,0,0,0,0,0,0,0,0,0,0,0,0],"id":38,"left_children":[1,3,5,7,9,11,13,-1,-1,-1,-1,-1,-1,-1,-1],"loss_changes":[2.1126057E1,6.0495768E0,4.7250576E0,2.0504494E0,1.7440557E0,8.26609E-1,6.1590385E-1,0E0,0E0,0E0,0E0,0E0,0E0,0E0,0E0],"parents":[2147483647,0,0,1,1,2,2,3,3,4,4,5,5,6,6],"right_children":[2,4,6,8,10,12,14,-1,-1,-1,-1,-1,-1,-1,-1],"split_conditions":[3.3333334E-1,2.1666667E-1,4.1111112E-1,9.0909086E-2,2.888889E-1,3.6111113E-1,4.2777783E-1,-9.4481406E-4,-3.6138008E-4,-2.4398566E-4,-7.276847E-5,2.7119899E-5,1.642552E-4,2.537899E-4,4.2994088E-4],"split_indices":[0,3,3,1,3,3,0,0,0,0,0,0,0,0,0],"split_type":[0,0,0,0,0,0,0,0,0,0,0,0,0,0,0],"sum_hessian":[5.3314E4,2.6286E4,2.7028E4,2.43E3,2.3856E4,1.7621E4,9.407E3,1.317E3,1.113E3,1.1342E4,1.2514E4,8.395E3,9.226E3,2.856E3,6.551E3],"tree_param":{"num_deleted":"0","num_feature":"15","num_nodes":"15","size_leaf_vector":"1"}},{"base_weights":[-2.195755E-5,-2.1575948E-2,2.09285E-2,-7.001705E-2,-1.6952945E-2,1.0423159E-2,3.744777E-2,-8.7812386E-4,-2.7947547E-4,-2.6133936E-4,-7.771305E-5,2.4685862E-5,1.4955533E-4,1.653008E-4,4.5474517E-4],"categories":[],"categories_nodes":[],"categories_segments":[],"categories_sizes":[],"default_left":[0,0,0,0,0,0,0,0,0,0,0,0,0,0,0],"id":39,"left_children":[1,3,5,7,9,11,13,-1,-1,-1,-1,-1,-1,-1,-1],"loss_changes":[2.4042276E1,5.875759E0,4.685031E0,1.7089396E0,2.019374E0,5.950196E-1,1.7613697E0,0E0,0E0,0E0,0E0,0E0,0E0,0E0,0E0],"parents":[2147483647,0,0,1,1,2,2,3,3,4,4,5,5,6,6],"right_children":[2,4,6,8,10,12,14,-1,-1,-1,-1,-1,-1,-1,-1],"split_conditions":[3.3333334E-1,2.1666667E-1,4.0555555E-1,1.06060594E-1,2.888889E-1,3.5555556E-1,3.7777779E-1,-8.7812386E-4,-2.7947547E-4,-2.6133936E-4,-7.771305E-5,2.4685862E-5,1.4955533E-4,1.653008E-4,4.5474517E-4],"split_indices":[12,0,12,1,12,12,0,0,0,0,0,0,0,0,0],"split_type":[0,0,0,0,0,0,0,0,0,0,0,0,0,0,0],"sum_hessian":[5.324E4,2.6242E4,2.6998E4,2.285E3,2.3957E4,1.6504E4,1.0494E4,1.605E3,6.8E2,1.1978E4,1.1979E4,5.991E3,1.0513E4,2.911E3,7.583E3],"tree_param":{"num_deleted":"0","num_feature":"15","num_nodes":"15","size_leaf_vector":"1"}},{"base_weights":[1.9329168E-4,-2.5602004E-2,1.7767457E-2,-8.097712E-2,-2.0979395E-2,7.116371E-3,3.651148E-2,-9.645277E-4,-2.7135477E-4,-6.354672E-4,-1.903843E-4,9.237215E-6,1.4112509E-4,2.1515746E-4,4.640633E-4],"categories":[],"categories_nodes":[],"categories_segments":[],"categories_sizes":[],"default_left":[0,0,0,0,0,0,0,0,0,0,0,0,0,0,0],"id":40,"left_children":[1,3,5,7,9,11,13,-1,-1,-1,-1,-1,-1,-1,-1],"loss_changes":[2.4108583E1,5.514616E0,6.314686E0,1.3805513E0,1.6422176E0,8.7388825E-1,1.6995926E0,0E0,0E0,0E0,0E0,0E0,0E0,0E0,0E0],"parents":[2147483647,0,0,1,1,2,2,3,3,4,4,5,5,6,6],"right_children":[2,4,6,8,10,12,14,-1,-1,-1,-1,-1,-1,-1,-1],"split_conditions":[3.166667E-1,2.0555556E-1,4.0000004E-1,1.06060594E-1,6.0606055E-2,3.5555556E-1,4.0000004E-1,-9.645277E-4,-2.7135477E-4,-6.354672E-4,-1.903843E-4,9.237215E-6,1.4112509E-4,2.1515746E-4,4.640633E-4],"split_indices":[12,0,12,4,4,12,0,0,0,0,0,0,0,0,0],"split_type":[0,0,0,0,0,0,0,0,0,0,0,0,0,0,0],"sum_hessian":[5.3179E4,2.1549E4,3.163E4,1.659E3,1.989E4,2.017E4,1.146E4,1.288E3,3.71E2,8.66E2,1.9024E4,1.07E4,9.47E3,4.557E3,6.903E3],"tree_param":{"num_deleted":"0","num_feature":"15","num_nodes":"15","size_leaf_vector":"1"}},{"base_weights":[-9.759187E-5,-1.9249283E-2,1.8641964E-2,-6.0947645E-2,-1.4848963E-2,8.767513E-3,3.2008052E-2,-8.305593E-4,-1.8254062E-4,-2.5783383E-4,-9.610964E-5,4.8169084E-5,1.5898603E-4,2.607232E-4,3.9181332E-4],"categories":[],"categories_nodes":[],"categories_segments":[],"categories_sizes":[],"default_left":[0,0,0,0,0,0,0,0,0,0,0,0,0,0,0],"id":41,"left_children":[1,3,5,7,9,11,13,-1,-1,-1,-1,-1,-1,-1,-1],"loss_changes":[1.9137672E1,4.8379917E0,3.55692E0,2.3742342E0,1.3660922E0,4.3664753E-1,4.8654747E-1,0E0,0E0,0E0,0E0,0E0,0E0,0E0,0E0],"parents":[2147483647,0,0,1,1,2,2,3,3,4,4,5,5,6,6],"right_children":[2,4,6,8,10,12,14,-1,-1,-1,-1,-1,-1,-1,-1],"split_conditions":[3.3333334E-1,2.1666667E-1,4.0000004E-1,1.06060594E-1,2.7222225E-1,3.7222224E-1,4.5000005E-1,-8.305593E-4,-1.8254062E-4,-2.5783383E-4,-9.610964E-5,4.8169084E-5,1.5898603E-4,2.607232E-4,3.9181332E-4],"split_indices":[3,3,3,1,3,3,3,0,0,0,0,0,0,0,0],"split_type":[0,0,0,0,0,0,0,0,0,0,0,0,0,0,0],"sum_hessian":[5.3322E4,2.6371E4,2.6951E4,2.516E3,2.3855E4,1.5501E4,1.145E4,1.657E3,8.59E2,7.725E3,1.613E4,9.976E3,5.525E3,6.268E3,5.182E3],"tree_param":{"num_deleted":"0","num_feature":"15","num_nodes":"15","size_leaf_vector":"1"}},{"base_weights":[1.4755333E-5,-1.9999426E-2,2.203114E-2,-6.5200426E-2,-1.55764185E-2,1.4241547E-2,4.0943205E-2,-8.51715E-4,-2.402807E-4,-2.3208665E-4,-5.3830467E-5,8.263088E-5,2.0240356E-4,1.6737019E-4,4.8149642E-4],"categories":[],"categories_nodes":[],"categories_segments":[],"categories_sizes":[],"default_left":[0,0,0,0,0,0,0,0,0,0,0,0,0,0,0],"id":42,"left_children":[1,3,5,7,9,11,13,-1,-1,-1,-1,-1,-1,-1,-1],"loss_changes":[2.3541187E1,5.5938673E0,3.7471676E0,2.0486612E0,1.9831095E0,6.4609575E-1,1.2937164E0,0E0,0E0,0E0,0E0,0E0,0E0,0E0,0E0],"parents":[2147483647,0,0,1,1,2,2,3,3,4,4,5,5,6,6],"right_children":[2,4,6,8,10,12,14,-1,-1,-1,-1,-1,-1,-1,-1],"split_conditions":[3.388889E-1,2.1666667E-1,4.2777783E-1,1.06060594E-1,3E-1,3.7222224E-1,4.0555555E-1,-8.51715E-4,-2.402807E-4,-2.3208665E-4,-5.3830467E-5,8.263088E-5,2.0240356E-4,1.6737019E-4,4.8149642E-4],"split_indices":[12,12,12,13,12,3,6,0,0,0,0,0,0,0,0],"split_type":[0,0,0,0,0,0,0,0,0,0,0,0,0,0,0],"sum_hessian":[5.3423E4,2.7984E4,2.5439E4,2.493E3,2.5491E4,1.8019E4,7.42E3,1.678E3,8.15E2,1.4576E4,1.0915E4,9.026E3,8.993E3,1.703E3,5.717E3],"tree_param":{"num_deleted":"0","num_feature":"15","num_nodes":"15","size_leaf_vector":"1"}},{"base_weights":[2.1972404E-4,-2.0893611E-2,1.8367903E-2,-6.4988546E-2,-1.6164111E-2,7.1438793E-3,3.094509E-2,-8.43271E-4,-2.4371035E-4,-5.591441E-4,-1.4625078E-4,3.404206E-5,1.2512872E-4,1.8364028E-4,3.95708E-4],"categories":[],"categories_nodes":[],"categories_segments":[],"categories_sizes":[],"default_left":[0,0,0,0,0,0,0,0,0,0,0,0,0,0,0],"id":43,"left_children":[1,3,5,7,9,11,13,-1,-1,-1,-1,-1,-1,-1,-1],"loss_changes":[2.042097E1,5.136505E0,4.045615E0,1.8721104E0,1.3603706E0,3.0406308E-1,1.4659281E0,0E0,0E0,0E0,0E0,0E0,0E0,0E0,0E0],"parents":[2147483647,0,0,1,1,2,2,3,3,4,4,5,5,6,6],"right_children":[2,4,6,8,10,12,14,-1,-1,-1,-1,-1,-1,-1,-1],"split_conditions":[3.277778E-1,2.1666667E-1,3.888889E-1,1.06060594E-1,6.0606055E-2,3.6111113E-1,4.1111112E-1,-8.43271E-4,-2.4371035E-4,-5.591441E-4,-1.4625078E-4,3.404206E-5,1.2512872E-4,1.8364028E-4,3.95708E-4],"split_indices":[9,6,9,1,1,9,3,0,0,0,0,0,0,0,0],"split_type":[0,0,0,0,0,0,0,0,0,0,0,0,0,0,0],"sum_hessian":[5.3293E4,2.4634E4,2.8659E4,2.385E3,2.2249E4,1.5145E4,1.3514E4,1.615E3,7.7E2,8.28E2,2.1421E4,8.928E3,6.217E3,5.498E3,8.016E3],"tree_param":{"num_deleted":"0","num_feature":"15","num_nodes":"15","size_leaf_vector":"1"}},{"base_weights":[-3.4023917E-4,-2.1086317E-2,2.010907E-2,-6.507448E-2,-1.6649935E-2,1.1222391E-2,3.8245663E-2,-8.443874E-4,-2.377003E-4,-2.787986E-4,-9.8468234E-5,5.2668078E-5,1.8513502E-4,1.8233308E-4,4.7326638E-4],"categories":[],"categories_nodes":[],"categories_segments":[],"categories_sizes":[],"default_left":[0,0,0,0,0,0,0,0,0,0,0,0,0,0,0],"id":44,"left_children":[1,3,5,7,9,11,13,-1,-1,-1,-1,-1,-1,-1,-1],"loss_changes":[2.2671968E1,5.175809E0,4.337249E0,1.9415817E0,1.8408513E0,7.842927E-1,1.6074629E0,0E0,0E0,0E0,0E0,0E0,0E0,0E0,0E0],"parents":[2147483647,0,0,1,1,2,2,3,3,4,4,5,5,6,6],"right_children":[2,4,6,8,10,12,14,-1,-1,-1,-1,-1,-1,-1,-1],"split_conditions":[3.3333334E-1,2.1666667E-1,4.166667E-1,1.06060594E-1,2.777778E-1,3.7222224E-1,3.888889E-1,-8.443874E-4,-2.377003E-4,-2.787986E-4,-9.8468234E-5,5.2668078E-5,1.8513502E-4,1.8233308E-4,4.7326638E-4],"split_indices":[12,12,12,10,12,12,0,0,0,0,0,0,0,0,0],"split_type":[0,0,0,0,0,0,0,0,0,0,0,0,0,0,0],"sum_hessian":[5.3439E4,2.6527E4,2.6912E4,2.429E3,2.4098E4,1.8063E4,8.849E3,1.653E3,7.76E2,9.09E3,1.5008E4,9.943E3,8.12E3,2.763E3,6.086E3],"tree_param":{"num_deleted":"0","num_feature":"15","num_nodes":"15","size_leaf_vector":"1"}},{"base_weights":[-3.094777E-4,-2.099877E-2,1.9934837E-2,-6.766523E-2,-1.6117558E-2,1.016784E-2,3.522191E-2,-8.7669224E-4,-2.679512E-4,-2.6478604E-4,-9.9931676E-5,4.3111497E-5,1.6722907E-4,1.8116094E-4,4.3597395E-4],"categories":[],"categories_nodes":[],"categories_segments":[],"categories_sizes":[],"default_left":[0,0,0,0,0,0,0,0,0,0,0,0,0,0,0],"id":45,"left_children":[1,3,5,7,9,11,13,-1,-1,-1,-1,-1,-1,-1,-1],"loss_changes":[2.2307867E1,5.999096E0,4.0190363E0,2.0366602E0,1.5130119E0,6.305767E-1,1.5026808E0,0E0,0E0,0E0,0E0,0E0,0E0,0E0,0E0],"parents":[2147483647,0,0,1,1,2,2,3,3,4,4,5,5,6,6],"right_children":[2,4,6,8,10,12,14,-1,-1,-1,-1,-1,-1,-1,-1],"split_conditions":[3.3333334E-1,2.1666667E-1,4.0555555E-1,1.06060594E-1,2.777778E-1,3.6666667E-1,3.888889E-1,-8.7669224E-4,-2.679512E-4,-2.6478604E-4,-9.9931676E-5,4.3111497E-5,1.6722907E-4,1.8116094E-4,4.3597395E-4],"split_indices":[12,12,12,7,12,12,0,0,0,0,0,0,0,0,0],"split_type":[0,0,0,0,0,0,0,0,0,0,0,0,0,0,0],"sum_hessian":[5.3259E4,2.634E4,2.6919E4,2.493E3,2.3847E4,1.6426E4,1.0493E4,1.673E3,8.2E2,8.858E3,1.4989E4,8.676E3,7.75E3,3.45E3,7.043E3],"tree_param":{"num_deleted":"0","num_feature":"15","num_nodes":"15","size_leaf_vector":"1"}},{"base_weights":[3.8390124E-4,-1.850786E-2,1.877859E-2,-4.771202E-2,-1.1990942E-2,1.0401936E-2,3.4200896E-2,-7.920797E-4,-2.7317827E-4,-2.3443393E-4,-8.455557E-5,5.970899E-5,1.7169453E-4,2.011985E-4,4.1483078E-4],"categories":[],"categories_nodes":[],"categories_segments":[],"categories_sizes":[],"default_left":[0,0,0,0,0,0,0,0,0,0,0,0,0,0,0],"id":46,"left_children":[1,3,5,7,9,11,13,-1,-1,-1,-1,-1,-1,-1,-1],"loss_changes":[1.8534344E1,5.0071573E0,3.490672E0,3.0810423E0,8.7083817E-1,5.250621E-1,9.744301E-1,0E0,0E0,0E0,0E0,0E0,0E0,0E0,0E0],"parents":[2147483647,0,0,1,1,2,2,3,3,4,4,5,5,6,6],"right_children":[2,4,6,8,10,12,14,-1,-1,-1,-1,-1,-1,-1,-1],"split_conditions":[3.3333334E-1,9.0909086E-2,4.1111112E-1,2.3888889E-1,2.6111114E-1,3.7222224E-1,4.2777783E-1,-7.920797E-4,-2.7317827E-4,-2.3443393E-4,-8.455557E-5,5.970899E-5,1.7169453E-4,2.011985E-4,4.1483078E-4],"split_indices":[6,1,3,6,3,3,6,0,0,0,0,0,0,0,0],"split_type":[0,0,0,0,0,0,0,0,0,0,0,0,0,0,0],"sum_hessian":[5.3333E4,2.6311E4,2.7022E4,4.799E3,2.1512E4,1.7512E4,9.51E3,1.885E3,2.914E3,5.073E3,1.6439E4,1.0584E4,6.928E3,3.243E3,6.267E3],"tree_param":{"num_deleted":"0","num_feature":"15","num_nodes":"15","size_leaf_vector":"1"}},{"base_weights":[1.5136189E-4,-1.7907321E-2,2.2274338E-2,-6.377178E-2,-1.3723806E-2,1.4510188E-2,3.951536E-2,-9.030796E-4,-3.4495417E-4,-2.2269582E-4,-3.645706E-5,6.961467E-5,1.88725E-4,2.5791614E-4,5.261803E-4],"categories":[],"categories_nodes":[],"categories_segments":[],"categories_sizes":[],"default_left":[0,0,0,0,0,0,0,0,0,0,0,0,0,0,0],"id":47,"left_children":[1,3,5,7,9,11,13,-1,-1,-1,-1,-1,-1,-1,-1],"loss_changes":[2.1261618E1,5.6212454E0,3.2011356E0,1.8994703E0,2.3126383E0,5.429809E-1,1.3339701E0,0E0,0E0,0E0,0E0,0E0,0E0,0E0,0E0],"parents":[2147483647,0,0,1,1,2,2,3,3,4,4,5,5,6,6],"right_children":[2,4,6,8,10,12,14,-1,-1,-1,-1,-1,-1,-1,-1],"split_conditions":[3.4444445E-1,2.1666667E-1,4.2777783E-1,9.0909086E-2,3E-1,3.5555556E-1,4.2777783E-1,-9.030796E-4,-3.4495417E-4,-2.2269582E-4,-3.645706E-5,6.961467E-5,1.88725E-4,2.5791614E-4,5.261803E-4],"split_indices":[12,12,12,1,12,0,0,0,0,0,0,0,0,0,0],"split_type":[0,0,0,0,0,0,0,0,0,0,0,0,0,0,0],"sum_hessian":[5.3217E4,2.93E4,2.3917E4,2.448E3,2.6852E4,1.6492E4,7.425E3,1.283E3,1.165E3,1.453E4,1.2322E4,6.041E3,1.0451E4,3.628E3,3.797E3],"tree_param":{"num_deleted":"0","num_feature":"15","num_nodes":"15","size_leaf_vector":"1"}},{"base_weights":[5.2432522E-5,-1.7839026E-2,2.2158246E-2,-6.3306615E-2,-1.3842565E-2,1.2763449E-2,3.6018256E-2,-8.268439E-4,-2.2545816E-4,-2.2085702E-4,-4.177152E-5,7.7127974E-5,1.8402126E-4,2.3632802E-4,4.8285842E-4],"categories":[],"categories_nodes":[],"categories_segments":[],"categories_sizes":[],"default_left":[0,0,0,0,0,0,0,0,0,0,0,0,0,0,0],"id":48,"left_children":[1,3,5,7,9,11,13,-1,-1,-1,-1,-1,-1,-1,-1],"loss_changes":[2.1020311E1,5.3366556E0,3.0952005E0,1.8724575E0,2.1512465E0,4.034338E-1,1.4580879E0,0E0,0E0,0E0,0E0,0E0,0E0,0E0,0E0],"parents":[2147483647,0,0,1,1,2,2,3,3,4,4,5,5,6,6],"right_children":[2,4,6,8,10,12,14,-1,-1,-1,-1,-1,-1,-1,-1],"split_conditions":[3.4444445E-1,2.1666667E-1,4.1111112E-1,1.06060594E-1,3E-1,3.7222224E-1,4.2222226E-1,-8.268439E-4,-2.2545816E-4,-2.2085702E-4,-4.177152E-5,7.7127974E-5,1.8402126E-4,2.3632802E-4,4.8285842E-4],"split_indices":[12,12,12,10,12,0,0,0,0,0,0,0,0,0,0],"split_type":[0,0,0,0,0,0,0,0,0,0,0,0,0,0,0],"sum_hessian":[5.3146E4,2.9373E4,2.3773E4,2.372E3,2.7001E4,1.417E4,9.603E3,1.607E3,7.65E2,1.4572E4,1.2429E4,7.476E3,6.694E3,4.78E3,4.823E3],"tree_param":{"num_deleted":"0","num_feature":"15","num_nodes":"15","size_leaf_vector":"1"}},{"base_weights":[1.5134222E-4,-1.9688122E-2,1.947396E-2,-6.0290046E-2,-1.5540833E-2,9.501571E-3,3.303603E-2,-7.89079E-4,-2.2068882E-4,-2.3934255E-4,-7.5217E-5,2.7662352E-5,1.381249E-4,2.0178649E-4,4.396112E-4],"categories":[],"categories_nodes":[],"categories_segments":[],"categories_sizes":[],"default_left":[0,0,0,0,0,0,0,0,0,0,0,0,0,0,0],"id":49,"left_children":[1,3,5,7,9,11,13,-1,-1,-1,-1,-1,-1,-1,-1],"loss_changes":[2.0391172E1,4.4184055E0,3.644167E0,1.7288599E0,1.6026921E0,4.5088303E-1,1.6029778E0,0E0,0E0,0E0,0E0,0E0,0E0,0E0,0E0],"parents":[2147483647,0,0,1,1,2,2,3,3,4,4,5,5,6,6],"right_children":[2,4,6,8,10,12,14,-1,-1,-1,-1,-1,-1,-1,-1],"split_conditions":[3.3333334E-1,2.1666667E-1,4.0000004E-1,1.06060594E-1,2.888889E-1,3.5555556E-1,4.1111112E-1,-7.89079E-4,-2.2068882E-4,-2.3934255E-4,-7.5217E-5,2.7662352E-5,1.381249E-4,2.0178649E-4,4.396112E-4],"split_indices":[12,12,12,7,12,12,0,0,0,0,0,0,0,0,0],"split_type":[0,0,0,0,0,0,0,0,0,0,0,0,0,0,0],"sum_hessian":[5.319E4,2.6244E4,2.6946E4,2.431E3,2.3813E4,1.5529E4,1.1417E4,1.634E3,7.97E2,1.1634E4,1.2179E4,6.061E3,9.468E3,5.246E3,6.171E3],"tree_param":{"num_deleted":"0","num_feature":"15","num_nodes":"15","size_leaf_vector":"1"}},{"base_weights":[-8.174834E-6,-1.9899596E-2,1.7189471E-2,-6.0355265E-2,-1.506633E-2,8.68357E-3,3.1610444E-2,-8.353926E-4,-3.3558067E-4,-2.4941357E-4,-8.971568E-5,3.7110785E-5,1.5293722E-4,1.1647252E-4,3.7485713E-4],"categories":[],"categories_nodes":[],"categories_segments":[],"categories_sizes":[],"default_left":[0,0,0,0,0,0,0,0,0,0,0,0,0,0,0],"id":50,"left_children":[1,3,5,7,9,11,13,-1,-1,-1,-1,-1,-1,-1,-1],"loss_changes":[1.8204086E1,4.823868E0,3.5005379E0,1.6329908E0,1.3264546E0,5.900389E-1,1.2414198E0,0E0,0E0,0E0,0E0,0E0,0E0,0E0,0E0],"parents":[2147483647,0,0,1,1,2,2,3,3,4,4,5,5,6,6],"right_children":[2,4,6,8,10,12,14,-1,-1,-1,-1,-1,-1,-1,-1],"split_conditions":[3.277778E-1,2.2222224E-1,4.0555555E-1,9.0909086E-2,2.8333336E-1,3.6666667E-1,3.7777779E-1,-8.353926E-4,-3.3558067E-4,-2.4941357E-4,-8.971568E-5,3.7110785E-5,1.5293722E-4,1.1647252E-4,3.7485713E-4],"split_indices":[9,0,9,1,0,9,0,0,0,0,0,0,0,0,0],"split_type":[0,0,0,0,0,0,0,0,0,0,0,0,0,0,0],"sum_hessian":[5.3213E4,2.4674E4,2.8539E4,2.632E3,2.2042E4,1.7952E4,1.0587E4,1.41E3,1.222E3,8.411E3,1.3631E4,1.0246E4,7.706E3,2.408E3,8.179E3],"tree_param":{"num_deleted":"0","num_feature":"15","num_nodes":"15","size_leaf_vector":"1"}},{"base_weights":[4.4056655E-5,-1.7822813E-2,1.7524658E-2,-6.0289297E-2,-1.3642414E-2,6.8400386E-3,2.9170992E-2,-7.693047E-4,-2.505617E-4,-3.8046142E-4,-1.1465132E-4,-3.9167062E-5,9.5144576E-5,2.328341E-4,3.884783E-4],"categories":[],"categories_nodes":[],"categories_segments":[],"categories_sizes":[],"default_left":[0,0,0,0,0,0,0,0,0,0,0,0,0,0,0],"id":51,"left_children":[1,3,5,7,9,11,13,-1,-1,-1,-1,-1,-1,-1,-1],"loss_changes":[1.6576889E1,4.658901E0,3.3381863E0,1.377099E0,1.2693028E0,4.0258843E-1,7.3040295E-1,0E0,0E0,0E0,0E0,0E0,0E0,0E0,0E0],"parents":[2147483647,0,0,1,1,2,2,3,3,4,4,5,5,6,6],"right_children":[2,4,6,8,10,12,14,-1,-1,-1,-1,-1,-1,-1,-1],"split_conditions":[3.3333334E-1,2.1666667E-1,3.888889E-1,1.06060594E-1,7.575756E-2,3.3333334E-1,4.5000005E-1,-7.693047E-4,-2.505617E-4,-3.8046142E-4,-1.1465132E-4,-3.9167062E-5,9.5144576E-5,2.328341E-4,3.884783E-4],"split_indices":[0,3,3,1,1,3,3,0,0,0,0,0,0,0,0],"split_type":[0,0,0,0,0,0,0,0,0,0,0,0,0,0,0],"sum_hessian":[5.3074E4,2.6247E4,2.6827E4,2.351E3,2.3896E4,1.3992E4,1.2835E4,1.596E3,7.55E2,1.956E3,2.194E4,2.786E3,1.1206E4,7.982E3,4.853E3],"tree_param":{"num_deleted":"0","num_feature":"15","num_nodes":"15","size_leaf_vector":"1"}},{"base_weights":[8.698191E-5,-1.8331712E-2,2.040162E-2,-6.1006542E-2,-1.3839611E-2,1.0123873E-2,3.2930676E-2,-8.5640885E-4,-3.3564854E-4,-2.1691821E-4,-5.258871E-5,1.2479641E-5,1.3209715E-4,2.4198958E-4,4.5897372E-4],"categories":[],"categories_nodes":[],"categories_segments":[],"categories_sizes":[],"default_left":[0,0,0,0,0,0,0,0,0,0,0,0,0,0,0],"id":52,"left_children":[1,3,5,7,9,11,13,-1,-1,-1,-1,-1,-1,-1,-1],"loss_changes":[1.9912905E1,5.3498774E0,3.258461E0,1.7939548E0,1.7015114E0,3.8080943E-1,1.2900677E0,0E0,0E0,0E0,0E0,0E0,0E0,0E0,0E0],"parents":[2147483647,0,0,1,1,2,2,3,3,4,4,5,5,6,6],"right_children":[2,4,6,8,10,12,14,-1,-1,-1,-1,-1,-1,-1,-1],"split_conditions":[3.388889E-1,2.2222224E-1,4.0000004E-1,9.0909086E-2,3.0555558E-1,3.3333334E-1,4.3333334E-1,-8.5640885E-4,-3.3564854E-4,-2.1691821E-4,-5.258871E-5,1.2479641E-5,1.3209715E-4,2.4198958E-4,4.5897372E-4],"split_indices":[12,6,12,1,0,0,0,0,0,0,0,0,0,0,0],"split_type":[0,0,0,0,0,0,0,0,0,0,0,0,0,0,0],"sum_hessian":[5.3217E4,2.7911E4,2.5306E4,2.657E3,2.5254E4,1.3903E4,1.1403E4,1.399E3,1.258E3,1.3186E4,1.2068E4,3.587E3,1.0316E4,6.816E3,4.587E3],"tree_param":{"num_deleted":"0","num_feature":"15","num_nodes":"15","size_leaf_vector":"1"}},{"base_weights":[-1.8940393E-4,-1.908021E-2,1.8138463E-2,-5.4225676E-2,-1.3897456E-2,8.680084E-3,3.10159E-2,-7.3093333E-4,-2.7071053E-4,-2.167317E-4,-6.6822504E-5,4.7889454E-5,1.5692362E-4,1.8252709E-4,3.93495E-4],"categories":[],"categories_nodes":[],"categories_segments":[],"categories_sizes":[],"default_left":[0,0,0,0,0,0,0,0,0,0,0,0,0,0,0],"id":53,"left_children":[1,3,5,7,9,11,13,-1,-1,-1,-1,-1,-1,-1,-1],"loss_changes":[1.8449808E1,4.779052E0,3.2940474E0,1.7256451E0,1.2829404E0,4.2544615E-1,1.2174616E0,0E0,0E0,0E0,0E0,0E0,0E0,0E0,0E0],"parents":[2147483647,0,0,1,1,2,2,3,3,4,4,5,5,6,6],"right_children":[2,4,6,8,10,12,14,-1,-1,-1,-1,-1,-1,-1,-1],"split_conditions":[3.3333334E-1,2.3333335E-1,4.0000004E-1,2.3333335E-1,2.888889E-1,3.7222224E-1,4.0000004E-1,-7.3093333E-4,-2.7071053E-4,-2.167317E-4,-6.6822504E-5,4.7889454E-5,1.5692362E-4,1.8252709E-4,3.93495E-4],"split_indices":[12,0,12,12,12,12,0,0,0,0,0,0,0,0,0],"split_type":[0,0,0,0,0,0,0,0,0,0,0,0,0,0,0],"sum_hessian":[5.3286E4,2.624E4,2.7046E4,3.371E3,2.2869E4,1.5594E4,1.1452E4,1.988E3,1.383E3,1.1006E4,1.1863E4,1.003E4,5.564E3,4.525E3,6.927E3],"tree_param":{"num_deleted":"0","num_feature":"15","num_nodes":"15","size_leaf_vector":"1"}},{"base_weights":[-1.3052309E-5,-1.6985057E-2,2.1030152E-2,-4.7399208E-2,-1.11651905E-2,1.3881551E-2,3.6878854E-2,-7.3552964E-4,-2.868189E-4,-1.8241638E-4,-3.469038E-5,9.4576055E-5,1.9626148E-4,2.2644017E-4,5.0593895E-4],"categories":[],"categories_nodes":[],"categories_segments":[],"categories_sizes":[],"default_left":[0,0,0,0,0,0,0,0,0,0,0,0,0,0,0],"id":54,"left_children":[1,3,5,7,9,11,13,-1,-1,-1,-1,-1,-1,-1,-1],"loss_changes":[1.9045492E1,5.2245197E0,2.6968412E0,2.3187428E0,1.3494363E0,4.1682935E-1,1.4435663E0,0E0,0E0,0E0,0E0,0E0,0E0,0E0,0E0],"parents":[2147483647,0,0,1,1,2,2,3,3,4,4,5,5,6,6],"right_children":[2,4,6,8,10,12,14,-1,-1,-1,-1,-1,-1,-1,-1],"split_conditions":[3.4444445E-1,2.4444446E-1,4.2777783E-1,9.0909086E-2,3E-1,3.8333336E-1,4.2777783E-1,-7.3552964E-4,-2.868189E-4,-1.8241638E-4,-3.469038E-5,9.4576055E-5,1.9626148E-4,2.2644017E-4,5.0593895E-4],"split_indices":[12,0,12,1,12,12,0,0,0,0,0,0,0,0,0],"split_type":[0,0,0,0,0,0,0,0,0,0,0,0,0,0,0],"sum_hessian":[5.3325E4,2.9518E4,2.3807E4,4.74E3,2.4778E4,1.6408E4,7.399E3,1.976E3,2.764E3,1.2908E4,1.187E4,9.271E3,7.137E3,3.632E3,3.767E3],"tree_param":{"num_deleted":"0","num_feature":"15","num_nodes":"15","size_leaf_vector":"1"}},{"base_weights":[1.0873035E-4,-1.8399589E-2,1.7968014E-2,-6.0761288E-2,-1.4353127E-2,1.1021561E-2,3.653686E-2,-7.7279255E-4,-2.1145727E-4,-2.5364614E-4,-8.794057E-5,5.2742715E-5,1.7010576E-4,1.19912154E-4,4.3194825E-4],"categories":[],"categories_nodes":[],"categories_segments":[],"categories_sizes":[],"default_left":[0,0,0,0,0,0,0,0,0,0,0,0,0,0,0],"id":55,"left_children":[1,3,5,7,9,11,13,-1,-1,-1,-1,-1,-1,-1,-1],"loss_changes":[1.7595589E1,4.4800863E0,3.4940014E0,1.4896717E0,1.4605179E0,6.785815E-1,1.2047348E0,0E0,0E0,0E0,0E0,0E0,0E0,0E0,0E0],"parents":[2147483647,0,0,1,1,2,2,3,3,4,4,5,5,6,6],"right_children":[2,4,6,8,10,12,14,-1,-1,-1,-1,-1,-1,-1,-1],"split_conditions":[3.3333334E-1,2.1666667E-1,4.2777783E-1,1.06060594E-1,2.7222225E-1,3.7222224E-1,4.0000004E-1,-7.7279255E-4,-2.1145727E-4,-2.5364614E-4,-8.794057E-5,5.2742715E-5,1.7010576E-4,1.19912154E-4,4.3194825E-4],"split_indices":[12,6,12,4,12,12,6,0,0,0,0,0,0,0,0],"split_type":[0,0,0,0,0,0,0,0,0,0,0,0,0,0,0],"sum_hessian":[5.323E4,2.614E4,2.709E4,2.278E3,2.3862E4,1.9716E4,7.374E3,1.607E3,6.71E2,8.004E3,1.5858E4,1.0062E4,9.654E3,1.574E3,5.8E3],"tree_param":{"num_deleted":"0","num_feature":"15","num_nodes":"15","size_leaf_vector":"1"}},{"base_weights":[-1.1816392E-4,-1.7181853E-2,1.6628088E-2,-5.209437E-2,-1.3048344E-2,9.098205E-3,3.0933723E-2,-7.03857E-4,-1.7826825E-4,-2.297003E-4,-8.329978E-5,4.7412654E-5,1.5929973E-4,2.2072479E-4,3.7063155E-4],"categories":[],"categories_nodes":[],"categories_segments":[],"categories_sizes":[],"default_left":[0,0,0,0,0,0,0,0,0,0,0,0,0,0,0],"id":56,"left_children":[1,3,5,7,9,11,13,-1,-1,-1,-1,-1,-1,-1,-1],"loss_changes":[1.5217482E1,3.8058157E0,2.8949037E0,1.7487683E0,1.1039672E0,5.240967E-1,5.025673E-1,0E0,0E0,0E0,0E0,0E0,0E0,0E0,0E0],"parents":[2147483647,0,0,1,1,2,2,3,3,4,4,5,5,6,6],"right_children":[2,4,6,8,10,12,14,-1,-1,-1,-1,-1,-1,-1,-1],"split_conditions":[3.3333334E-1,2.2222224E-1,4.1111112E-1,1.06060594E-1,2.7222225E-1,3.7222224E-1,4.388889E-1,-7.03857E-4,-1.7826825E-4,-2.297003E-4,-8.329978E-5,4.7412654E-5,1.5929973E-4,2.2072479E-4,3.7063155E-4],"split_indices":[0,3,3,1,0,3,0,0,0,0,0,0,0,0,0],"split_type":[0,0,0,0,0,0,0,0,0,0,0,0,0,0,0],"sum_hessian":[5.3252E4,2.6376E4,2.6876E4,2.791E3,2.3585E4,1.7609E4,9.267E3,1.819E3,9.72E2,7.6E3,1.5985E4,1.0753E4,6.856E3,3.791E3,5.476E3],"tree_param":{"num_deleted":"0","num_feature":"15","num_nodes":"15","size_leaf_vector":"1"}},{"base_weights":[-1.7203456E-4,-1.7592689E-2,1.6679136E-2,-5.30111E-2,-1.2851226E-2,8.770905E-3,3.0885702E-2,-7.367885E-4,-3.1706848E-4,-3.055024E-4,-9.984054E-5,3.51839E-5,1.4242402E-4,1.2802151E-4,3.7316777E-4],"categories":[],"categories_nodes":[],"categories_segments":[],"categories_sizes":[],"default_left":[0,0,0,0,0,0,0,0,0,0,0,0,0,0,0],"id":57,"left_children":[1,3,5,7,9,11,13,-1,-1,-1,-1,-1,-1,-1,-1],"loss_changes":[1.5511039E1,4.3622713E0,3.0171928E0,1.3480978E0,1.1624918E0,4.958434E-1,1.116436E0,0E0,0E0,0E0,0E0,0E0,0E0,0E0,0E0],"parents":[2147483647,0,0,1,1,2,2,3,3,4,4,5,5,6,6],"right_children":[2,4,6,8,10,12,14,-1,-1,-1,-1,-1,-1,-1,-1],"split_conditions":[3.3333334E-1,2.2777778E-1,4.1111112E-1,9.0909086E-2,9.0909086E-2,3.6666667E-1,3.888889E-1,-7.367885E-4,-3.1706848E-4,-3.055024E-4,-9.984054E-5,3.51839E-5,1.4242402E-4,1.2802151E-4,3.7316777E-4],"split_indices":[9,0,9,1,4,0,0,0,0,0,0,0,0,0,0],"split_type":[0,0,0,0,0,0,0,0,0,0,0,0,0,0,0],"sum_hessian":[5.2836E4,2.5979E4,2.6857E4,3.066E3,2.2913E4,1.7254E4,9.603E3,1.555E3,1.511E3,3.193E3,1.972E4,8.804E3,8.45E3,2.52E3,7.083E3],"tree_param":{"num_deleted":"0","num_feature":"15","num_nodes":"15","size_leaf_vector":"1"}},{"base_weights":[2.6788696E-4,-1.5012596E-2,1.9009298E-2,-5.3395934E-2,-1.0857923E-2,1.0470893E-2,3.030559E-2,-7.6808623E-4,-2.9698925E-4,-1.8636763E-4,-3.557011E-5,5.4261152E-5,1.6519833E-4,1.7988043E-4,3.8614043E-4],"categories":[],"categories_nodes":[],"categories_segments":[],"categories_sizes":[],"default_left":[0,0,0,0,0,0,0,0,0,0,0,0,0,0,0],"id":58,"left_children":[1,3,5,7,9,11,13,-1,-1,-1,-1,-1,-1,-1,-1],"loss_changes":[1.5224417E1,4.6695056E0,2.3026733E0,1.5844765E0,1.5007358E0,4.14922E-1,1.0511541E0,0E0,0E0,0E0,0E0,0E0,0E0,0E0,0E0],"parents":[2147483647,0,0,1,1,2,2,3,3,4,4,5,5,6,6],"right_children":[2,4,6,8,10,12,14,-1,-1,-1,-1,-1,-1,-1,-1],"split_conditions":[3.4444445E-1,2.2222224E-1,4.0000004E-1,9.0909086E-2,3E-1,3.6111113E-1,4.166667E-1,-7.6808623E-4,-2.9698925E-4,-1.8636763E-4,-3.557011E-5,5.4261152E-5,1.6519833E-4,1.7988043E-4,3.8614043E-4],"split_indices":[9,9,0,1,0,0,9,0,0,0,0,0,0,0,0],"split_type":[0,0,0,0,0,0,0,0,0,0,0,0,0,0,0],"sum_hessian":[5.316E4,2.9284E4,2.3876E4,2.859E3,2.6425E4,1.3599E4,1.0277E4,1.437E3,1.422E3,1.2793E4,1.3632E4,7.416E3,6.183E3,4.141E3,6.136E3],"tree_param":{"num_deleted":"0","num_feature":"15","num_nodes":"15","size_leaf_vector":"1"}},{"base_weights":[3.093026E-5,-2.1402257E-2,1.6493358E-2,-6.437866E-2,-1.757285E-2,7.4176653E-3,3.1061407E-2,-7.8563264E-4,-2.2017387E-4,-2.85856E-4,-1.2517985E-4,1.8766781E-5,1.2790241E-4,1.4117359E-4,3.7277496E-4],"categories":[],"categories_nodes":[],"categories_segments":[],"categories_sizes":[],"default_left":[0,0,0,0,0,0,0,0,0,0,0,0,0,0,0],"id":59,"left_children":[1,3,5,7,9,11,13,-1,-1,-1,-1,-1,-1,-1,-1],"loss_changes":[1.8786734E1,3.8054686E0,3.9812965E0,1.1351309E0,1.1819735E0,5.523764E-1,1.2169333E0,0E0,0E0,0E0,0E0,0E0,0E0,0E0,0E0],"parents":[2147483647,0,0,1,1,2,2,3,3,4,4,5,5,6,6],"right_children":[2,4,6,8,10,12,14,-1,-1,-1,-1,-1,-1,-1,-1],"split_conditions":[3.2222223E-1,2.1111113E-1,4.0000004E-1,1.06060594E-1,2.7222225E-1,3.5555556E-1,3.7222224E-1,-7.8563264E-4,-2.2017387E-4,-2.85856E-4,-1.2517985E-4,1.8766781E-5,1.2790241E-4,1.4117359E-4,3.7277496E-4],"split_indices":[12,0,12,4,0,12,0,0,0,0,0,0,0,0,0],"split_type":[0,0,0,0,0,0,0,0,0,0,0,0,0,0,0],"sum_hessian":[5.3242E4,2.3129E4,3.0113E4,1.891E3,2.1238E4,1.8555E4,1.1558E4,1.416E3,4.75E2,6.68E3,1.4558E4,9.135E3,9.42E3,3.103E3,8.455E3],"tree_param":{"num_deleted":"0","num_feature":"15","num_nodes":"15","size_leaf_vector":"1"}},{"base_weights":[-1.1524054E-4,-1.6904034E-2,1.6325423E-2,-5.5843268E-2,-1.3017019E-2,7.848854E-3,2.8664565E-2,-7.891563E-4,-2.7854313E-4,-2.0852227E-4,-6.293462E-5,1.7639744E-5,1.3808628E-4,2.0931687E-4,3.6763627E-4],"categories":[],"categories_nodes":[],"categories_segments":[],"categories_sizes":[],"default_left":[0,0,0,0,0,0,0,0,0,0,0,0,0,0,0],"id":60,"left_children":[1,3,5,7,9,11,13,-1,-1,-1,-1,-1,-1,-1,-1],"loss_changes":[1.4753763E1,4.0020714E0,2.824429E0,1.5476522E0,1.266676E0,5.8057046E-1,6.8796253E-1,0E0,0E0,0E0,0E0,0E0,0E0,0E0,0E0],"parents":[2147483647,0,0,1,1,2,2,3,3,4,4,5,5,6,6],"right_children":[2,4,6,8,10,12,14,-1,-1,-1,-1,-1,-1,-1,-1],"split_conditions":[3.3333334E-1,2.1666667E-1,4.0000004E-1,9.0909086E-2,2.888889E-1,3.5555556E-1,4.388889E-1,-7.891563E-4,-2.7854313E-4,-2.0852227E-4,-6.293462E-5,1.7639744E-5,1.3808628E-4,2.0931687E-4,3.6763627E-4],"split_indices":[0,6,3,1,6,6,6,0,0,0,0,0,0,0,0],"split_type":[0,0,0,0,0,0,0,0,0,0,0,0,0,0,0],"sum_hessian":[5.345E4,2.6445E4,2.7005E4,2.399E3,2.4046E4,1.6009E4,1.0996E4,1.314E3,1.085E3,1.1104E4,1.2942E4,7.922E3,8.087E3,5.627E3,5.369E3],"tree_param":{"num_deleted":"0","num_feature":"15","num_nodes":"15","size_leaf_vector":"1"}},{"base_weights":[8.981059E-5,-2.0240715E-2,1.5585749E-2,-5.0880663E-2,-1.5301004E-2,6.9166566E-3,2.964584E-2,-7.4119493E-4,-2.949217E-4,-2.4186927E-4,-1.0672072E-4,3.156864E-5,1.3410882E-4,1.7722283E-4,3.7999562E-4],"categories":[],"categories_nodes":[],"categories_segments":[],"categories_sizes":[],"default_left":[0,0,0,0,0,0,0,0,0,0,0,0,0,0,0],"id":61,"left_children":[1,3,5,7,9,11,13,-1,-1,-1,-1,-1,-1,-1,-1],"loss_changes":[1.6790403E1,3.4881992E0,3.686182E0,1.5883532E0,8.1634235E-1,4.5679867E-1,1.148283E0,0E0,0E0,0E0,0E0,0E0,0E0,0E0,0E0],"parents":[2147483647,0,0,1,1,2,2,3,3,4,4,5,5,6,6],"right_children":[2,4,6,8,10,12,14,-1,-1,-1,-1,-1,-1,-1,-1],"split_conditions":[3.2222223E-1,2.2777778E-1,4.0000004E-1,9.0909086E-2,2.7222225E-1,3.6666667E-1,4.1111112E-1,-7.4119493E-4,-2.949217E-4,-2.4186927E-4,-1.0672072E-4,3.156864E-5,1.3410882E-4,1.7722283E-4,3.7999562E-4],"split_indices":[12,12,12,1,12,12,3,0,0,0,0,0,0,0,0],"split_type":[0,0,0,0,0,0,0,0,0,0,0,0,0,0,0],"sum_hessian":[5.3294E4,2.3051E4,3.0243E4,3.199E3,1.9852E4,1.8709E4,1.1534E4,1.532E3,1.667E3,6.798E3,1.3054E4,1.185E4,6.859E3,4.753E3,6.781E3],"tree_param":{"num_deleted":"0","num_feature":"15","num_nodes":"15","size_leaf_vector":"1"}},{"base_weights":[-3.280863E-4,-2.1574775E-2,1.4223131E-2,-6.884849E-2,-1.8176073E-2,5.6739184E-3,2.930208E-2,-8.005184E-4,-7.5465185E-5,-5.490814E-4,-1.642689E-4,1.083041E-6,1.1918069E-4,1.9418757E-4,3.870887E-4],"categories":[],"categories_nodes":[],"categories_segments":[],"categories_sizes":[],"default_left":[0,0,0,0,0,0,0,0,0,0,0,0,0,0,0],"id":62,"left_children":[1,3,5,7,9,11,13,-1,-1,-1,-1,-1,-1,-1,-1],"loss_changes":[1.6435528E1,3.4706497E0,4.0673003E0,9.945502E-1,1.2944636E0,6.998105E-1,1.0605984E0,0E0,0E0,0E0,0E0,0E0,0E0,0E0,0E0],"parents":[2147483647,0,0,1,1,2,2,3,3,4,4,5,5,6,6],"right_children":[2,4,6,8,10,12,14,-1,-1,-1,-1,-1,-1,-1,-1],"split_conditions":[3.166667E-1,2.0000002E-1,4.0000004E-1,1.2121211E-1,6.0606055E-2,3.5555556E-1,4.2222226E-1,-8.005184E-4,-7.5465185E-5,-5.490814E-4,-1.642689E-4,1.083041E-6,1.1918069E-4,1.9418757E-4,3.870887E-4],"split_indices":[12,6,12,4,4,12,3,0,0,0,0,0,0,0,0],"split_type":[0,0,0,0,0,0,0,0,0,0,0,0,0,0,0],"sum_hessian":[5.3159E4,2.1608E4,3.1551E4,1.448E3,2.016E4,2.0136E4,1.1415E4,1.224E3,2.24E2,9.15E2,1.9245E4,1.0647E4,9.489E3,5.568E3,5.847E3],"tree_param":{"num_deleted":"0","num_feature":"15","num_nodes":"15","size_leaf_vector":"1"}},{"base_weights":[1.9938633E-4,-2.0040223E-2,1.5544895E-2,-5.754197E-2,-1.5325923E-2,6.5150927E-3,3.010598E-2,-7.293203E-4,-2.642136E-4,-3.2396242E-4,-1.2272451E-4,1.6812437E-5,1.2656614E-4,2.1080242E-4,4.1564475E-4],"categories":[],"categories_nodes":[],"categories_segments":[],"categories_sizes":[],"default_left":[0,0,0,0,0,0,0,0,0,0,0,0,0,0,0],"id":63,"left_children":[1,3,5,7,9,11,13,-1,-1,-1,-1,-1,-1,-1,-1],"loss_changes":[1.6480995E1,4.0447054E0,3.9681144E0,1.2217846E0,1.0592265E0,5.530511E-1,1.1938467E0,0E0,0E0,0E0,0E0,0E0,0E0,0E0,0E0],"parents":[2147483647,0,0,1,1,2,2,3,3,4,4,5,5,6,6],"right_children":[2,4,6,8,10,12,14,-1,-1,-1,-1,-1,-1,-1,-1],"split_conditions":[3.2222223E-1,2.2222224E-1,4.0000004E-1,1.06060594E-1,9.0909086E-2,3.6111113E-1,4.2777783E-1,-7.293203E-4,-2.642136E-4,-3.2396242E-4,-1.2272451E-4,1.6812437E-5,1.2656614E-4,2.1080242E-4,4.1564475E-4],"split_indices":[12,3,12,1,1,12,0,0,0,0,0,0,0,0,0],"split_type":[0,0,0,0,0,0,0,0,0,0,0,0,0,0,0],"sum_hessian":[5.3062E4,2.2882E4,3.018E4,2.554E3,2.0328E4,1.8629E4,1.1551E4,1.708E3,8.46E2,3.083E3,1.7245E4,1.0425E4,8.204E3,6.463E3,5.088E3],"tree_param":{"num_deleted":"0","num_feature":"15","num_nodes":"15","size_leaf_vector":"1"}},{"base_weights":[2.179278E-4,-1.4316613E-2,2.0202588E-2,-4.8683226E-2,-1.0265348E-2,1.3025584E-2,3.4610637E-2,-6.762057E-4,-1.8070576E-4,-1.8225373E-4,-2.4270368E-5,2.2814686E-4,1.0456393E-4,1.6581749E-4,4.2640438E-4],"categories":[],"categories_nodes":[],"categories_segments":[],"categories_sizes":[],"default_left":[0,0,0,0,0,0,0,0,0,0,0,0,0,0,0],"id":64,"left_children":[1,3,5,7,9,11,13,-1,-1,-1,-1,-1,-1,-1,-1],"loss_changes":[1.5483098E1,4.2960844E0,2.320406E0,1.8851938E0,1.722444E0,3.76585E-1,1.0795555E0,0E0,0E0,0E0,0E0,0E0,0E0,0E0,0E0],"parents":[2147483647,0,0,1,1,2,2,3,3,4,4,5,5,6,6],"right_children":[2,4,6,8,10,12,14,-1,-1,-1,-1,-1,-1,-1,-1],"split_conditions":[3.5000002E-1,2.2777778E-1,4.2777783E-1,1.06060594E-1,3E-1,1.06060594E-1,3.888889E-1,-6.762057E-4,-1.8070576E-4,-1.8225373E-4,-2.4270368E-5,2.2814686E-4,1.0456393E-4,1.6581749E-4,4.2640438E-4],"split_indices":[12,12,12,10,12,13,0,0,0,0,0,0,0,0,0],"split_type":[0,0,0,0,0,0,0,0,0,0,0,0,0,0,0],"sum_hessian":[5.3302E4,3.0859E4,2.2443E4,3.253E3,2.7606E4,1.4982E4,7.461E3,2.009E3,1.244E3,1.3696E4,1.391E4,3.113E3,1.1869E4,2.3E3,5.161E3],"tree_param":{"num_deleted":"0","num_feature":"15","num_nodes":"15","size_leaf_vector":"1"}},{"base_weights":[2.963201E-4,-1.717526E-2,1.732423E-2,-5.387219E-2,-1.3174384E-2,1.07153235E-2,3.4624375E-2,-7.575532E-4,-3.3498023E-4,-2.5525424E-4,-8.747352E-5,4.8752412E-5,1.6744953E-4,2.0669457E-4,4.3856792E-4],"categories":[],"categories_nodes":[],"categories_segments":[],"categories_sizes":[],"default_left":[0,0,0,0,0,0,0,0,0,0,0,0,0,0,0],"id":65,"left_children":[1,3,5,7,9,11,13,-1,-1,-1,-1,-1,-1,-1,-1],"loss_changes":[1.587008E1,3.864912E0,3.0883904E0,1.1513233E0,1.2979522E0,6.883073E-1,9.611254E-1,0E0,0E0,0E0,0E0,0E0,0E0,0E0,0E0],"parents":[2147483647,0,0,1,1,2,2,3,3,4,4,5,5,6,6],"right_children":[2,4,6,8,10,12,14,-1,-1,-1,-1,-1,-1,-1,-1],"split_conditions":[3.3333334E-1,2.2222224E-1,4.2777783E-1,2.1111113E-1,2.7222225E-1,3.7222224E-1,4.1111112E-1,-7.575532E-4,-3.3498023E-4,-2.5525424E-4,-8.747352E-5,4.8752412E-5,1.6744953E-4,2.0669457E-4,4.3856792E-4],"split_indices":[12,0,12,12,0,12,0,0,0,0,0,0,0,0,0],"split_type":[0,0,0,0,0,0,0,0,0,0,0,0,0,0,0],"sum_hessian":[5.3342E4,2.6328E4,2.7014E4,2.587E3,2.3741E4,1.9548E4,7.466E3,1.246E3,1.341E3,6.263E3,1.7478E4,9.931E3,9.617E3,2.974E3,4.492E3],"tree_param":{"num_deleted":"0","num_feature":"15","num_nodes":"15","size_leaf_vector":"1"}},{"base_weights":[1.02686274E-4,-2.0442747E-2,1.3986987E-2,-6.137584E-2,-1.668418E-2,5.895559E-3,2.8290471E-2,-7.6767016E-4,-2.0827565E-4,-2.702967E-4,-1.1258321E-4,8.194434E-6,1.15748284E-4,1.1007615E-4,3.4538793E-4],"categories":[],"categories_nodes":[],"categories_segments":[],"categories_sizes":[],"default_left":[0,0,0,0,0,0,0,0,0,0,0,0,0,0,0],"id":66,"left_children":[1,3,5,7,9,11,13,-1,-1,-1,-1,-1,-1,-1,-1],"loss_changes":[1.5185191E1,3.3016682E0,3.6762905E0,1.124876E0,1.1034422E0,5.849235E-1,1.2390089E0,0E0,0E0,0E0,0E0,0E0,0E0,0E0,0E0],"parents":[2147483647,0,0,1,1,2,2,3,3,4,4,5,5,6,6],"right_children":[2,4,6,8,10,12,14,-1,-1,-1,-1,-1,-1,-1,-1],"split_conditions":[3.166667E-1,2.0555556E-1,4.0000004E-1,1.06060594E-1,2.7222225E-1,3.5555556E-1,3.7222224E-1,-7.6767016E-4,-2.0827565E-4,-2.702967E-4,-1.1258321E-4,8.194434E-6,1.15748284E-4,1.1007615E-4,3.4538793E-4],"split_indices":[12,12,12,10,0,12,0,0,0,0,0,0,0,0,0],"split_type":[0,0,0,0,0,0,0,0,0,0,0,0,0,0,0],"sum_hessian":[5.3231E4,2.1466E4,3.1765E4,1.804E3,1.9662E4,2.0289E4,1.1476E4,1.307E3,4.97E2,6.763E3,1.2899E4,1.0714E4,9.575E3,3.048E3,8.428E3],"tree_param":{"num_deleted":"0","num_feature":"15","num_nodes":"15","size_leaf_vector":"1"}},{"base_weights":[2.1176768E-4,-1.47990575E-2,1.647368E-2,-4.0386856E-2,-9.244026E-3,8.904457E-3,2.865511E-2,-6.810133E-4,-2.3150635E-4,-1.456824E-4,-3.632763E-5,4.6683574E-5,1.3798638E-4,-1.862981E-4,3.0479569E-4],"categories":[],"categories_nodes":[],"categories_segments":[],"categories_sizes":[],"default_left":[0,0,0,0,0,0,0,0,0,0,0,0,0,0,0],"id":67,"left_children":[1,3,5,7,9,11,13,-1,-1,-1,-1,-1,-1,-1,-1],"loss_changes":[1.3051548E1,3.9515743E0,2.366068E0,2.367302E0,6.824542E-1,3.2812703E-1,8.4902763E-1,0E0,0E0,0E0,0E0,0E0,0E0,0E0,0E0],"parents":[2147483647,0,0,1,1,2,2,3,3,4,4,5,5,6,6],"right_children":[2,4,6,8,10,12,14,-1,-1,-1,-1,-1,-1,-1,-1],"split_conditions":[3.388889E-1,9.0909086E-2,4.1111112E-1,2.3888889E-1,2.9444447E-1,3.7222224E-1,3.3333334E-1,-6.810133E-4,-2.3150635E-4,-1.456824E-4,-3.632763E-5,4.6683574E-5,1.3798638E-4,-1.862981E-4,3.0479569E-4],"split_indices":[9,1,9,9,9,9,6,0,0,0,0,0,0,0,0],"split_type":[0,0,0,0,0,0,0,0,0,0,0,0,0,0,0],"sum_hessian":[5.3465E4,2.7802E4,2.5663E4,4.958E3,2.2844E4,1.5829E4,9.834E3,1.9E3,3.058E3,1.1721E4,1.1123E4,8.486E3,7.343E3,3.65E2,9.469E3],"tree_param":{"num_deleted":"0","num_feature":"15","num_nodes":"15","size_leaf_vector":"1"}},{"base_weights":[-1.6104337E-4,-2.0335892E-2,1.3565231E-2,-5.527256E-2,-1.572682E-2,7.801194E-3,3.2815047E-2,-8.3364523E-4,-3.941561E-4,-4.896484E-4,-1.4457555E-4,2.5340647E-5,1.583963E-4,1.4127519E-4,4.09384E-4],"categories":[],"categories_nodes":[],"categories_segments":[],"categories_sizes":[],"default_left":[0,0,0,0,0,0,0,0,0,0,0,0,0,0,0],"id":68,"left_children":[1,3,5,7,9,11,13,-1,-1,-1,-1,-1,-1,-1,-1],"loss_changes":[1.47199745E1,3.4647245E0,3.5096354E0,1.1139097E0,8.014927E-1,1.0307146E0,1.1059308E0,0E0,0E0,0E0,0E0,0E0,0E0,0E0,0E0],"parents":[2147483647,0,0,1,1,2,2,3,3,4,4,5,5,6,6],"right_children":[2,4,6,8,10,12,14,-1,-1,-1,-1,-1,-1,-1,-1],"split_conditions":[3.166667E-1,2.2222224E-1,4.2777783E-1,1.9444445E-1,6.0606055E-2,3.7222224E-1,3.888889E-1,-8.3364523E-4,-3.941561E-4,-4.896484E-4,-1.4457555E-4,2.5340647E-5,1.583963E-4,1.4127519E-4,4.09384E-4],"split_indices":[12,0,12,12,4,12,0,0,0,0,0,0,0,0,0],"split_type":[0,0,0,0,0,0,0,0,0,0,0,0,0,0,0],"sum_hessian":[5.3153E4,2.1521E4,3.1632E4,2.507E3,1.9014E4,2.4344E4,7.288E3,9.03E2,1.604E3,6.98E2,1.8316E4,1.4708E4,9.636E3,2.209E3,5.079E3],"tree_param":{"num_deleted":"0","num_feature":"15","num_nodes":"15","size_leaf_vector":"1"}},{"base_weights":[1.8184453E-4,-1.4357471E-2,1.7951706E-2,-3.673431E-2,-7.572567E-3,1.1624828E-2,3.1989504E-2,-7.604659E-4,-2.8302707E-4,-1.1588374E-4,-2.3956532E-6,4.9936825E-5,1.5427008E-4,2.0549627E-4,4.296072E-4],"categories":[],"categories_nodes":[],"categories_segments":[],"categories_sizes":[],"default_left":[0,0,0,0,0,0,0,0,0,0,0,0,0,0,0],"id":69,"left_children":[1,3,5,7,9,11,13,-1,-1,-1,-1,-1,-1,-1,-1],"loss_changes":[1.3772224E1,4.4509172E0,2.1301332E0,2.2587738E0,6.625165E-1,4.1686726E-1,9.344125E-1,0E0,0E0,0E0,0E0,0E0,0E0,0E0,0E0],"parents":[2147483647,0,0,1,1,2,2,3,3,4,4,5,5,6,6],"right_children":[2,4,6,8,10,12,14,-1,-1,-1,-1,-1,-1,-1,-1],"split_conditions":[3.4444445E-1,2.5555557E-1,4.2777783E-1,2.0000002E-1,3.277778E-1,3.5555556E-1,4.2777783E-1,-7.604659E-4,-2.8302707E-4,-1.1588374E-4,-2.3956532E-6,4.9936825E-5,1.5427008E-4,2.0549627E-4,4.296072E-4],"split_indices":[12,12,12,0,0,0,0,0,0,0,0,0,0,0,0],"split_type":[0,0,0,0,0,0,0,0,0,0,0,0,0,0,0],"sum_hessian":[5.3304E4,2.9317E4,2.3987E4,6.82E3,2.2497E4,1.6536E4,7.451E3,1.203E3,5.617E3,1.4536E4,7.961E3,6.027E3,1.0509E4,3.649E3,3.802E3],"tree_param":{"num_deleted":"0","num_feature":"15","num_nodes":"15","size_leaf_vector":"1"}},{"base_weights":[8.275518E-5,-1.3529337E-2,1.879915E-2,-5.286309E-2,-1.0085139E-2,1.1937913E-2,3.267852E-2,-6.9426483E-4,-1.8183408E-4,-1.6823252E-4,-1.4046084E-5,2.1573476E-4,9.384998E-5,1.7813058E-4,4.2602676E-4],"categories":[],"categories_nodes":[],"categories_segments":[],"categories_sizes":[],"default_left":[0,0,0,0,0,0,0,0,0,0,0,0,0,0,0],"id":70,"left_children":[1,3,5,7,9,11,13,-1,-1,-1,-1,-1,-1,-1,-1],"loss_changes":[1.3539714E1,4.167706E0,2.1305633E0,1.4215593E0,1.6547866E0,3.6818862E-1,1.0912371E0,0E0,0E0,0E0,0E0,0E0,0E0,0E0,0E0],"parents":[2147483647,0,0,1,1,2,2,3,3,4,4,5,5,6,6],"right_children":[2,4,6,8,10,12,14,-1,-1,-1,-1,-1,-1,-1,-1],"split_conditions":[3.5000002E-1,2.1666667E-1,4.2777783E-1,1.06060594E-1,3.0555558E-1,1.06060594E-1,4.1111112E-1,-6.9426483E-4,-1.8183408E-4,-1.6823252E-4,-1.4046084E-5,2.1573476E-4,9.384998E-5,1.7813058E-4,4.2602676E-4],"split_indices":[12,12,12,13,12,13,0,0,0,0,0,0,0,0,0],"split_type":[0,0,0,0,0,0,0,0,0,0,0,0,0,0,0],"sum_hessian":[5.3143E4,3.0767E4,2.2376E4,2.476E3,2.8291E4,1.4975E4,7.401E3,1.675E3,8.01E2,1.5927E4,1.2364E4,3.135E3,1.184E4,2.964E3,4.437E3],"tree_param":{"num_deleted":"0","num_feature":"15","num_nodes":"15","size_leaf_vector":"1"}},{"base_weights":[5.843071E-4,-1.2145959E-2,2.0160267E-2,-3.4206524E-2,-6.298416E-3,1.2945461E-2,3.3430226E-2,-5.9402786E-4,-2.0144391E-4,-1.3111837E-4,-5.9203926E-6,2.219397E-4,1.0560234E-4,1.5915772E-4,3.9357797E-4],"categories":[],"categories_nodes":[],"categories_segments":[],"categories_sizes":[],"default_left":[0,0,0,0,0,0,0,0,0,0,0,0,0,0,0],"id":71,"left_children":[1,3,5,7,9,11,13,-1,-1,-1,-1,-1,-1,-1,-1],"loss_changes":[1.3225919E1,4.1482997E0,2.0017815E0,2.386166E0,9.8839843E-1,2.986536E-1,7.639942E-1,0E0,0E0,0E0,0E0,0E0,0E0,0E0,0E0],"parents":[2147483647,0,0,1,1,2,2,3,3,4,4,5,5,6,6],"right_children":[2,4,6,8,10,12,14,-1,-1,-1,-1,-1,-1,-1,-1],"split_conditions":[3.5555556E-1,2.5555557E-1,4.2777783E-1,9.0909086E-2,3.0555558E-1,1.06060594E-1,4.1111112E-1,-5.9402786E-4,-2.0144391E-4,-1.3111837E-4,-5.9203926E-6,2.219397E-4,1.0560234E-4,1.5915772E-4,3.9357797E-4],"split_indices":[12,12,12,1,12,13,6,0,0,0,0,0,0,0,0],"split_type":[0,0,0,0,0,0,0,0,0,0,0,0,0,0,0],"sum_hessian":[5.307E4,3.2158E4,2.0912E4,6.737E3,2.5421E4,1.3548E4,7.364E3,2.412E3,4.325E3,1.1586E4,1.3835E4,2.776E3,1.0772E4,1.863E3,5.501E3],"tree_param":{"num_deleted":"0","num_feature":"15","num_nodes":"15","size_leaf_vector":"1"}},{"base_weights":[2.2011758E-4,-1.6050056E-2,1.4213537E-2,-4.8239768E-2,-1.1926813E-2,7.317763E-3,2.587814E-2,-7.0420065E-4,-2.5447234E-4,-4.555006E-4,-1.0686138E-4,3.7904738E-5,1.3623426E-4,3.59562E-5,2.8870898E-4],"categories":[],"categories_nodes":[],"categories_segments":[],"categories_sizes":[],"default_left":[0,0,0,0,0,0,0,0,0,0,0,0,0,0,0],"id":72,"left_children":[1,3,5,7,9,11,13,-1,-1,-1,-1,-1,-1,-1,-1],"loss_changes":[1.2147846E1,3.2739077E0,2.3071308E0,1.4142399E0,9.118738E-1,4.0094745E-1,7.105708E-1,0E0,0E0,0E0,0E0,0E0,0E0,0E0,0E0],"parents":[2147483647,0,0,1,1,2,2,3,3,4,4,5,5,6,6],"right_children":[2,4,6,8,10,12,14,-1,-1,-1,-1,-1,-1,-1,-1],"split_conditions":[3.277778E-1,2.2222224E-1,4.0555555E-1,9.0909086E-2,6.0606055E-2,3.7222224E-1,3.888889E-1,-7.0420065E-4,-2.5447234E-4,-4.555006E-4,-1.0686138E-4,3.7904738E-5,1.3623426E-4,3.59562E-5,2.8870898E-4],"split_indices":[9,9,9,7,4,9,6,0,0,0,0,0,0,0,0],"split_type":[0,0,0,0,0,0,0,0,0,0,0,0,0,0,0],"sum_hessian":[5.3354E4,2.467E4,2.8684E4,2.8E3,2.187E4,1.8028E4,1.0656E4,1.418E3,1.382E3,7.77E2,2.1093E4,1.1562E4,6.466E3,1.262E3,9.394E3],"tree_param":{"num_deleted":"0","num_feature":"15","num_nodes":"15","size_leaf_vector":"1"}},{"base_weights":[-1.9186488E-4,-1.8872287E-2,1.3969543E-2,-4.345997E-2,-1.2814897E-2,8.144257E-3,3.1750746E-2,-6.726509E-4,-2.63693E-4,-1.7817008E-4,-5.5263205E-5,2.9905324E-5,1.5176355E-4,1.8026434E-4,4.101907E-4],"categories":[],"categories_nodes":[],"categories_segments":[],"categories_sizes":[],"default_left":[0,0,0,0,0,0,0,0,0,0,0,0,0,0,0],"id":73,"left_children":[1,3,5,7,9,11,13,-1,-1,-1,-1,-1,-1,-1,-1],"loss_changes":[1.4117234E1,3.4266367E0,3.1438274E0,1.8485584E0,6.7306733E-1,8.286164E-1,9.519992E-1,0E0,0E0,0E0,0E0,0E0,0E0,0E0,0E0],"parents":[2147483647,0,0,1,1,2,2,3,3,4,4,5,5,6,6],"right_children":[2,4,6,8,10,12,14,-1,-1,-1,-1,-1,-1,-1,-1],"split_conditions":[3.2222223E-1,9.0909086E-2,4.2777783E-1,2.3888889E-1,3.0555558E-1,3.7222224E-1,4.1111112E-1,-6.726509E-4,-2.63693E-4,-1.7817008E-4,-5.5263205E-5,2.9905324E-5,1.5176355E-4,1.8026434E-4,4.101907E-4],"split_indices":[12,1,12,12,0,12,0,0,0,0,0,0,0,0,0],"split_type":[0,0,0,0,0,0,0,0,0,0,0,0,0,0,0],"sum_hessian":[5.3363E4,2.301E4,3.0353E4,4.547E3,1.8463E4,2.2864E4,7.489E3,1.899E3,2.648E3,1.0948E4,7.515E3,1.3195E4,9.669E3,3.02E3,4.469E3],"tree_param":{"num_deleted":"0","num_feature":"15","num_nodes":"15","size_leaf_vector":"1"}},{"base_weights":[-2.7693788E-4,-1.7132707E-2,1.2694792E-2,-4.142204E-2,-1.1114218E-2,6.246706E-3,2.6328921E-2,-8.1086316E-4,-3.0956566E-4,-1.5842565E-4,-4.716619E-5,1.8951267E-5,1.1788884E-4,1.8006306E-4,3.6548587E-4],"categories":[],"categories_nodes":[],"categories_segments":[],"categories_sizes":[],"default_left":[0,0,0,0,0,0,0,0,0,0,0,0,0,0,0],"id":74,"left_children":[1,3,5,7,9,11,13,-1,-1,-1,-1,-1,-1,-1,-1],"loss_changes":[1.16143875E1,3.3765607E0,2.6388392E0,1.901578E0,5.600052E-1,4.9151093E-1,8.1909513E-1,0E0,0E0,0E0,0E0,0E0,0E0,0E0,0E0],"parents":[2147483647,0,0,1,1,2,2,3,3,4,4,5,5,6,6],"right_children":[2,4,6,8,10,12,14,-1,-1,-1,-1,-1,-1,-1,-1],"split_conditions":[3.2222223E-1,9.0909086E-2,4.1111112E-1,2.0000002E-1,3E-1,3.6666667E-1,4.388889E-1,-8.1086316E-4,-3.0956566E-4,-1.5842565E-4,-4.716619E-5,1.8951267E-5,1.1788884E-4,1.8006306E-4,3.6548587E-4],"split_indices":[9,1,9,9,0,0,0,0,0,0,0,0,0,0,0],"split_type":[0,0,0,0,0,0,0,0,0,0,0,0,0,0,0],"sum_hessian":[5.3117E4,2.31E4,3.0017E4,4.586E3,1.8514E4,2.038E4,9.637E3,9.56E2,3.63E3,1.0645E4,7.869E3,1.1417E4,8.963E3,5.313E3,4.324E3],"tree_param":{"num_deleted":"0","num_feature":"15","num_nodes":"15","size_leaf_vector":"1"}},{"base_weights":[2.904239E-4,-1.3528939E-2,1.3980483E-2,-4.185811E-2,-9.498095E-3,8.871997E-3,2.8324042E-2,-5.845854E-4,-1.4237323E-4,-4.1689456E-4,-8.367595E-5,3.8632625E-5,1.4721799E-4,1.6005445E-4,3.326944E-4],"categories":[],"categories_nodes":[],"categories_segments":[],"categories_sizes":[],"default_left":[0,0,0,0,0,0,0,0,0,0,0,0,0,0,0],"id":75,"left_children":[1,3,5,7,9,11,13,-1,-1,-1,-1,-1,-1,-1,-1],"loss_changes":[1.0063284E1,3.0223374E0,1.9576998E0,1.5108986E0,8.4304404E-1,5.7730174E-1,4.2694616E-1,0E0,0E0,0E0,0E0,0E0,0E0,0E0,0E0],"parents":[2147483647,0,0,1,1,2,2,3,3,4,4,5,5,6,6],"right_children":[2,4,6,8,10,12,14,-1,-1,-1,-1,-1,-1,-1,-1],"split_conditions":[3.3333334E-1,2.2777778E-1,4.2777783E-1,1.06060594E-1,6.0606055E-2,3.7222224E-1,4.388889E-1,-5.845854E-4,-1.4237323E-4,-4.1689456E-4,-8.367595E-5,3.8632625E-5,1.4721799E-4,1.6005445E-4,3.326944E-4],"split_indices":[0,3,3,1,1,3,0,0,0,0,0,0,0,0,0],"split_type":[0,0,0,0,0,0,0,0,0,0,0,0,0,0,0],"sum_hessian":[5.319E4,2.647E4,2.672E4,3.296E3,2.3174E4,1.9704E4,7.016E3,2.058E3,1.238E3,7.85E2,2.2389E4,1.0616E4,9.088E3,2.011E3,5.005E3],"tree_param":{"num_deleted":"0","num_feature":"15","num_nodes":"15","size_leaf_vector":"1"}},{"base_weights":[-2.3152427E-4,-1.4737418E-2,1.3972172E-2,-3.6607604E-2,-9.600109E-3,7.5741266E-3,2.6172794E-2,-5.545709E-4,-1.5455019E-4,-1.4088147E-4,-4.486604E-5,1.7557844E-5,1.15610725E-4,1.6631929E-3,2.588297E-4],"categories":[],"categories_nodes":[],"categories_segments":[],"categories_sizes":[],"default_left":[0,0,0,0,0,0,0,0,0,0,0,0,0,0,0],"id":76,"left_children":[1,3,5,7,9,11,13,-1,-1,-1,-1,-1,-1,-1,-1],"loss_changes":[1.1019905E1,2.9726453E0,2.1092987E0,2.005877E0,4.917239E-1,4.1124666E-1,3.7327385E-1,0E0,0E0,0E0,0E0,0E0,0E0,0E0,0E0],"parents":[2147483647,0,0,1,1,2,2,3,3,4,4,5,5,6,6],"right_children":[2,4,6,8,10,12,14,-1,-1,-1,-1,-1,-1,-1,-1],"split_conditions":[3.3333334E-1,9.0909086E-2,4.1111112E-1,2.5555557E-1,2.9444447E-1,3.5555556E-1,1.5151514E-2,-5.545709E-4,-1.5455019E-4,-1.4088147E-4,-4.486604E-5,1.7557844E-5,1.15610725E-4,1.6631929E-3,2.588297E-4],"split_indices":[0,1,3,0,3,3,13,0,0,0,0,0,0,0,0],"split_type":[0,0,0,0,0,0,0,0,0,0,0,0,0,0,0],"sum_hessian":[5.3483E4,2.646E4,2.7023E4,5.032E3,2.1428E4,1.7728E4,9.295E3,2.66E3,2.372E3,1.1411E4,1.0017E4,7.209E3,1.0519E4,1.8E1,9.277E3],"tree_param":{"num_deleted":"0","num_feature":"15","num_nodes":"15","size_leaf_vector":"1"}},{"base_weights":[7.954913E-5,-2.0587705E-2,1.1098219E-2,-5.500353E-2,-1.597763E-2,4.2547295E-3,2.5031101E-2,-7.579674E-4,-4.0658543E-4,-2.5278493E-4,-1.0851631E-4,-1.4445804E-5,9.2527516E-5,1.571424E-4,3.3303114E-4],"categories":[],"categories_nodes":[],"categories_segments":[],"categories_sizes":[],"default_left":[0,0,0,0,0,0,0,0,0,0,0,0,0,0,0],"id":77,"left_children":[1,3,5,7,9,11,13,-1,-1,-1,-1,-1,-1,-1,-1],"loss_changes":[1.2076292E1,2.9249616E0,3.2979383E0,6.465688E-1,7.751312E-1,6.607865E-1,8.775263E-1,0E0,0E0,0E0,0E0,0E0,0E0,0E0,0E0],"parents":[2147483647,0,0,1,1,2,2,3,3,4,4,5,5,6,6],"right_children":[2,4,6,8,10,12,14,-1,-1,-1,-1,-1,-1,-1,-1],"split_conditions":[3.0555558E-1,2.1666667E-1,4.0000004E-1,1.9444445E-1,2.7222225E-1,3.4444445E-1,4.1111112E-1,-7.579674E-4,-4.0658543E-4,-2.5278493E-4,-1.0851631E-4,-1.4445804E-5,9.2527516E-5,1.571424E-4,3.3303114E-4],"split_indices":[12,0,12,12,0,12,0,0,0,0,0,0,0,0,0],"split_type":[0,0,0,0,0,0,0,0,0,0,0,0,0,0,0],"sum_hessian":[5.3028E4,1.844E4,3.4588E4,2.177E3,1.6263E4,2.3196E4,1.1392E4,8.87E2,1.29E3,5.777E3,1.0486E4,1.0838E4,1.2358E4,5.359E3,6.033E3],"tree_param":{"num_deleted":"0","num_feature":"15","num_nodes":"15","size_leaf_vector":"1"}},{"base_weights":[-5.0250517E-5,-1.4799437E-2,1.4318317E-2,-4.332008E-2,-1.0391048E-2,7.7269166E-3,2.6110562E-2,-6.3575845E-4,-2.4863044E-4,-1.6054192E-4,-4.8177277E-5,2.9120172E-5,1.18277814E-4,1.6804141E-4,3.4760727E-4],"categories":[],"categories_nodes":[],"categories_segments":[],"categories_sizes":[],"default_left":[0,0,0,0,0,0,0,0,0,0,0,0,0,0,0],"id":78,"left_children":[1,3,5,7,9,11,13,-1,-1,-1,-1,-1,-1,-1,-1],"loss_changes":[1.1235188E1,3.288775E0,2.0870905E0,1.3076811E0,7.1512914E-1,3.401171E-1,7.744899E-1,0E0,0E0,0E0,0E0,0E0,0E0,0E0,0E0],"parents":[2147483647,0,0,1,1,2,2,3,3,4,4,5,5,6,6],"right_children":[2,4,6,8,10,12,14,-1,-1,-1,-1,-1,-1,-1,-1],"split_conditions":[3.3333334E-1,2.3333335E-1,4.1111112E-1,9.0909086E-2,3E-1,3.6111113E-1,4.2777783E-1,-6.3575845E-4,-2.4863044E-4,-1.6054192E-4,-4.8177277E-5,2.9120172E-5,1.18277814E-4,1.6804141E-4,3.4760727E-4],"split_indices":[9,0,9,1,0,0,0,0,0,0,0,0,0,0,0],"split_type":[0,0,0,0,0,0,0,0,0,0,0,0,0,0,0],"sum_hessian":[5.3013E4,2.616E4,2.6853E4,3.501E3,2.2659E4,1.7226E4,9.627E3,1.668E3,1.833E3,1.1238E4,1.1421E4,7.924E3,9.302E3,4.639E3,4.988E3],"tree_param":{"num_deleted":"0","num_feature":"15","num_nodes":"15","size_leaf_vector":"1"}},{"base_weights":[2.2230637E-5,-1.6062794E-2,1.4056505E-2,-4.587147E-2,-1.2194963E-2,8.1666615E-3,2.721237E-2,-6.1572593E-4,-1.677622E-4,-1.8881385E-4,-6.6679444E-5,2.835037E-5,1.2631589E-4,1.117519E-4,3.3298714E-4],"categories":[],"categories_nodes":[],"categories_segments":[],"categories_sizes":[],"default_left":[0,0,0,0,0,0,0,0,0,0,0,0,0,0,0],"id":79,"left_children":[1,3,5,7,9,11,13,-1,-1,-1,-1,-1,-1,-1,-1],"loss_changes":[1.2031805E1,2.86279E0,2.2053385E0,1.3018408E0,8.123145E-1,4.680481E-1,8.587718E-1,0E0,0E0,0E0,0E0,0E0,0E0,0E0,0E0],"parents":[2147483647,0,0,1,1,2,2,3,3,4,4,5,5,6,6],"right_children":[2,4,6,8,10,12,14,-1,-1,-1,-1,-1,-1,-1,-1],"split_conditions":[3.277778E-1,2.2222224E-1,4.166667E-1,1.06060594E-1,2.8333336E-1,3.6111113E-1,4.1111112E-1,-6.1572593E-4,-1.677622E-4,-1.8881385E-4,-6.6679444E-5,2.835037E-5,1.2631589E-4,1.117519E-4,3.3298714E-4],"split_indices":[12,12,12,13,12,12,6,0,0,0,0,0,0,0,0],"split_type":[0,0,0,0,0,0,0,0,0,0,0,0,0,0,0],"sum_hessian":[5.3297E4,2.4834E4,2.8463E4,2.851E3,2.1983E4,1.9662E4,8.801E3,1.851E3,1E3,9.947E3,1.2036E4,8.962E3,1.07E4,2.422E3,6.379E3],"tree_param":{"num_deleted":"0","num_feature":"15","num_nodes":"15","size_leaf_vector":"1"}},{"base_weights":[-2.2351742E-5,-1.2466997E-2,1.6966516E-2,-5.0085846E-2,-9.314407E-3,1.1187386E-2,2.8721126E-2,-6.545708E-4,-1.7252186E-4,-1.5251883E-4,-1.6003234E-5,2.0014023E-4,8.884684E-5,1.3756749E-4,3.4721236E-4],"categories":[],"categories_nodes":[],"categories_segments":[],"categories_sizes":[],"default_left":[0,0,0,0,0,0,0,0,0,0,0,0,0,0,0],"id":80,"left_children":[1,3,5,7,9,11,13,-1,-1,-1,-1,-1,-1,-1,-1],"loss_changes":[1.1256447E1,3.6441326E0,1.5288825E0,1.1980238E0,1.2987423E0,3.0658913E-1,6.6565895E-1,0E0,0E0,0E0,0E0,0E0,0E0,0E0,0E0],"parents":[2147483647,0,0,1,1,2,2,3,3,4,4,5,5,6,6],"right_children":[2,4,6,8,10,12,14,-1,-1,-1,-1,-1,-1,-1,-1],"split_conditions":[3.5000002E-1,2.1666667E-1,4.2777783E-1,1.06060594E-1,3.0555558E-1,1.06060594E-1,4.0000004E-1,-6.545708E-4,-1.7252186E-4,-1.5251883E-4,-1.6003234E-5,2.0014023E-4,8.884684E-5,1.3756749E-4,3.4721236E-4],"split_indices":[12,12,12,10,12,13,3,0,0,0,0,0,0,0,0],"split_type":[0,0,0,0,0,0,0,0,0,0,0,0,0,0,0],"sum_hessian":[5.324E4,3.073E4,2.251E4,2.375E3,2.8355E4,1.5092E4,7.418E3,1.617E3,7.58E2,1.6022E4,1.2333E4,3.121E3,1.1971E4,2.124E3,5.294E3],"tree_param":{"num_deleted":"0","num_feature":"15","num_nodes":"15","size_leaf_vector":"1"}},{"base_weights":[2.2543066E-4,-1.4110269E-2,1.278231E-2,-4.4086576E-2,-9.991296E-3,7.6620826E-3,2.7278204E-2,-6.284653E-4,-2.4321256E-4,-1.5544781E-4,-3.6547568E-5,3.0986866E-5,1.3166766E-4,7.102899E-5,3.2711992E-4],"categories":[],"categories_nodes":[],"categories_segments":[],"categories_sizes":[],"default_left":[0,0,0,0,0,0,0,0,0,0,0,0,0,0,0],"id":81,"left_children":[1,3,5,7,9,11,13,-1,-1,-1,-1,-1,-1,-1,-1],"loss_changes":[9.571401E0,3.0649886E0,2.103547E0,1.1104903E0,7.6810265E-1,5.2614903E-1,8.1079865E-1,0E0,0E0,0E0,0E0,0E0,0E0,0E0,0E0],"parents":[2147483647,0,0,1,1,2,2,3,3,4,4,5,5,6,6],"right_children":[2,4,6,8,10,12,14,-1,-1,-1,-1,-1,-1,-1,-1],"split_conditions":[3.277778E-1,2.2777778E-1,4.2777783E-1,9.0909086E-2,3E-1,3.7222224E-1,4.0000004E-1,-6.284653E-4,-2.4321256E-4,-1.5544781E-4,-3.6547568E-5,3.0986866E-5,1.3166766E-4,7.102899E-5,3.2711992E-4],"split_indices":[9,0,9,1,0,0,3,0,0,0,0,0,0,0,0],"split_type":[0,0,0,0,0,0,0,0,0,0,0,0,0,0,0],"sum_hessian":[5.3169E4,2.4826E4,2.8343E4,2.998E3,2.1828E4,2.0946E4,7.397E3,1.537E3,1.461E3,1.1632E4,1.0196E4,1.1453E4,9.493E3,1.57E3,5.827E3],"tree_param":{"num_deleted":"0","num_feature":"15","num_nodes":"15","size_leaf_vector":"1"}},{"base_weights":[2.68493E-4,-1.247691E-2,1.416828E-2,-3.4384258E-2,-7.791304E-3,7.6770084E-3,2.4691328E-2,-5.251881E-4,-1.6653455E-4,-1.2009328E-4,-2.067095E-5,1.0002641E-3,7.352878E-5,-1.1915725E-4,2.6105685E-4],"categories":[],"categories_nodes":[],"categories_segments":[],"categories_sizes":[],"default_left":[0,0,0,0,0,0,0,0,0,0,0,0,0,0,0],"id":82,"left_children":[1,3,5,7,9,11,13,-1,-1,-1,-1,-1,