{"learner":{"attributes":{"scikit_learn":"{\"_estimator_type\": \"classifier\"}"},"feature_names":[],"feature_types":[],"gradient_booster":{"model":{"gbtree_model_param":{"num_parallel_tree":"1","num_trees":"500"},"iteration_indptr":[0,5,10,15,20,25,30,35,40,45,50,55,60,65,70,75,80,85,90,95,100,105,110,115,120,125,130,135,140,145,150,155,160,165,170,175,180,185,190,195,200,205,210,215,220,225,230,235,240,245,250,255,260,265,270,275,280,285,290,295,300,305,310,315,320,325,330,335,340,345,350,355,360,365,370,375,380,385,390,395,400,405,410,415,420,425,430,435,440,445,450,455,460,465,470,475,480,485,490,495,500],"tree_info":[0,1,2,3,4,0,1,2,3,4,0,1,2,3,4,0,1,2,3,4,0,1,2,3,4,0,1,2,3,4,0,1,2,3,4,0,1,2,3,4,0,1,2,3,4,0,1,2,3,4,0,1,2,3,4,0,1,2,3,4,0,1,2,3,4,0,1,2,3,4,0,1,2,3,4,0,1,2,3,4,0,1,2,3,4,0,1,2,3,4,0,1,2,3,4,0,1,2,3,4,0,1,2,3,4,0,1,2,3,4,0,1,2,3,4,0,1,2,3,4,0,1,2,3,4,0,1,2,3,4,0,1,2,3,4,0,1,2,3,4,0,1,2,3,4,0,1,2,3,4,0,1,2,3,4,0,1,2,3,4,0,1,2,3,4,0,1,2,3,4,0,1,2,3,4,0,1,2,3,4,0,1,2,3,4,0,1,2,3,4,0,1,2,3,4,0,1,2,3,4,0,1,2,3,4,0,1,2,3,4,0,1,2,3,4,0,1,2,3,4,0,1,2,3,4,0,1,2,3,4,0,1,2,3,4,0,1,2,3,4,0,1,2,3,4,0,1,2,3,4,0,1,2,3,4,0,1,2,3,4,0,1,2,3,4,0,1,2,3,4,0,1,2,3,4,0,1,2,3,4,0,1,2,3,4,0,1,2,3,4,0,1,2,3,4,0,1,2,3,4,0,1,2,3,4,0,1,2,3,4,0,1,2,3,4,0,1,2,3,4,0,1,2,3,4,0,1,2,3,4,0,1,2,3,4,0,1,2,3,4,0,1,2,3,4,0,1,2,3,4,0,1,2,3,4,0,1,2,3,4,0,1,2,3,4,0,1,2,3,4,0,1,2,3,4,0,1,2,3,4,0,1,2,3,4,0,1,2,3,4,0,1,2,3,4,0,1,2,3,4,0,1,2,3,4,0,1,2,3,4,0,1,2,3,4,0,1,2,3,4,0,1,2,3,4,0,1,2,3,4,0,1,2,3,4,0,1,2,3,4,0,1,2,3,4,0,1,2,3,4,0,1,2,3,4,0,1,2,3,4,0,1,2,3,4,0,1,2,3,4,0,1,2,3,4,0,1,2,3,4,0,1,2,3,4,0,1,2,3,4,0,1,2,3,4,0,1,2,3,4],"trees":[{"base_weights":[-1.1126511E0,-4.18861E-1,-1.2274655E0,2.3423757E-3,-1.0038469E-2,1.5068822E-2,-1.2285489E-2],"categories":[],"categories_nodes":[],"categories_segments":[],"categories_sizes":[],"default_left":[0,0,0,0,0,0,0],"id":0,"left_children":[1,3,5,-1,-1,-1,-1],"loss_changes":[7.5417676E2,5.147739E2,2.5930664E1,0E0,0E0,0E0,0E0],"parents":[2147483647,0,0,1,1,2,2],"right_children":[2,4,6,-1,-1,-1,-1],"split_conditions":[9.0909086E-2,3.896552E-1,1.5151514E-2,2.3423757E-3,-1.0038469E-2,1.5068822E-2,-1.2285489E-2],"split_indices":[25,26,7,0,0,0,0],"split_type":[0,0,0,0,0,0,0],"sum_hessian":[9.473235E3,1.3457715E3,8.1274634E3,6.361505E2,7.096209E2,2.6684167E0,8.124795E3],"tree_param":{"num_deleted":"0","num_feature":"30","num_nodes":"7","size_leaf_vector":"1"}},{"base_weights":[-2.4241976E-1,5.1293397E-1,-8.1240326E-1,-1.1311418E-2,9.161824E-3,-4.4755284E-3,-9.359317E-3],"categories":[],"categories_nodes":[],"categories_segments":[],"categories_sizes":[],"default_left":[0,0,0,0,0,0,0],"id":1,"left_children":[1,3,5,-1,-1,-1,-1],"loss_changes":[4.071403E3,2.6974282E3,2.4247949E2,0E0,0E0,0E0,0E0],"parents":[2147483647,0,0,1,1,2,2],"right_children":[2,4,6,-1,-1,-1,-1],"split_conditions":[3.2222223E-1,9.0909086E-2,3.5000002E-1,-1.1311418E-2,9.161824E-3,-4.4755284E-3,-9.359317E-3],"split_indices":[27,28,27,0,0,0,0],"split_type":[0,0,0,0,0,0,0],"sum_hessian":[9.454556E3,4.0661333E3,5.388423E3,8.00525E2,3.2656084E3,1.3640946E3,4.0243281E3],"tree_param":{"num_deleted":"0","num_feature":"30","num_nodes":"7","size_leaf_vector":"1"}},{"base_weights":[-1.1101276E0,-1.6150887E-1,-1.2676085E0,7.844756E-3,-8.741593E-3,-1.1568363E-2,-1.2839971E-2],"categories":[],"categories_nodes":[],"categories_segments":[],"categories_sizes":[],"default_left":[0,0,0,0,0,0,0],"id":2,"left_children":[1,3,5,-1,-1,-1,-1],"loss_changes":[1.4120889E3,9.0886005E2,1.3234375E1,0E0,0E0,0E0,0E0],"parents":[2147483647,0,0,1,1,2,2],"right_children":[2,4,6,-1,-1,-1,-1],"split_conditions":[9.0909086E-2,2.8333336E-1,2.6666668E-1,7.844756E-3,-8.741593E-3,-1.1568363E-2,-1.2839971E-2],"split_indices":[22,27,27,0,0,0,0],"split_type":[0,0,0,0,0,0,0],"sum_hessian":[9.452777E3,1.3461272E3,8.10665E3,5.7833484E2,7.677924E2,1.0540245E3,7.052625E3],"tree_param":{"num_deleted":"0","num_feature":"30","num_nodes":"7","size_leaf_vector":"1"}},{"base_weights":[-1.0872618E0,-3.1442076E-2,-1.264269E0,6.8031102E-3,-9.482758E-3,-4.1600293E-3,-1.26674045E-2],"categories":[],"categories_nodes":[],"categories_segments":[],"categories_sizes":[],"default_left":[0,0,0,0,0,0,0],"id":3,"left_children":[1,3,5,-1,-1,-1,-1],"loss_changes":[1.7805859E3,8.940041E2,1.6579102E1,0E0,0E0,0E0,0E0],"parents":[2147483647,0,0,1,1,2,2],"right_children":[2,4,6,-1,-1,-1,-1],"split_conditions":[9.0909086E-2,4.126437E-1,6.0606055E-2,6.8031102E-3,-9.482758E-3,-4.1600293E-3,-1.26674045E-2],"split_indices":[28,29,10,0,0,0,0],"split_type":[0,0,0,0,0,0,0],"sum_hessian":[9.526781E3,1.3680083E3,8.158773E3,7.7028296E2,5.9772534E2,2.4193644E1,8.134579E3],"tree_param":{"num_deleted":"0","num_feature":"30","num_nodes":"7","size_leaf_vector":"1"}},{"base_weights":[2.6685703E0,1.2659247E0,3.400713E0,-3.0739803E-3,1.6929148E-2,1.9668428E-2,3.5639897E-2],"categories":[],"categories_nodes":[],"categories_segments":[],"categories_sizes":[],"default_left":[0,0,0,0,0,0,0],"id":4,"left_children":[1,3,5,-1,-1,-1,-1],"loss_changes":[9.722758E3,2.183892E3,1.4498672E3,0E0,0E0,0E0,0E0],"parents":[2147483647,0,0,1,1,2,2],"right_children":[2,4,6,-1,-1,-1,-1],"split_conditions":[3.0555558E-1,9.0909086E-2,9.0909086E-2,-3.0739803E-3,1.6929148E-2,1.9668428E-2,3.5639897E-2],"split_indices":[27,25,19,0,0,0,0],"split_type":[0,0,0,0,0,0,0],"sum_hessian":[9.470922E3,3.2490642E3,6.221858E3,6.936104E2,2.5554536E3,6.373958E2,5.5844624E3],"tree_param":{"num_deleted":"0","num_feature":"30","num_nodes":"7","size_leaf_vector":"1"}},{"base_weights":[-1.106822E0,-4.243226E-1,-1.2240498E0,2.500172E-3,-1.0421189E-2,6.8513933E-3,-1.2254874E-2],"categories":[],"categories_nodes":[],"categories_segments":[],"categories_sizes":[],"default_left":[0,0,0,0,0,0,0],"id":5,"left_children":[1,3,5,-1,-1,-1,-1],"loss_changes":[7.538418E2,5.766824E2,2.2921875E1,0E0,0E0,0E0,0E0],"parents":[2147483647,0,0,1,1,2,2],"right_children":[2,4,6,-1,-1,-1,-1],"split_conditions":[9.0909086E-2,3.9310345E-1,3.030303E-2,2.500172E-3,-1.0421189E-2,6.8513933E-3,-1.2254874E-2],"split_indices":[28,29,10,0,0,0,0],"split_type":[0,0,0,0,0,0,0],"sum_hessian":[9.427591E3,1.3826182E3,8.044973E3,6.613422E2,7.212759E2,5.6954236E0,8.039278E3],"tree_param":{"num_deleted":"0","num_feature":"30","num_nodes":"7","size_leaf_vector":"1"}},{"base_weights":[-2.3872E-1,2.5366345E-1,-6.6643584E-1,-1.1301175E-2,6.0516363E-3,-3.4803194E-3,-7.9680355E-3],"categories":[],"categories_nodes":[],"categories_segments":[],"categories_sizes":[],"default_left":[0,0,0,0,0,0,0],"id":6,"left_children":[1,3,5,-1,-1,-1,-1],"loss_changes":[1.9876805E3,2.134889E3,2.093711E2,0E0,0E0,0E0,0E0],"parents":[2147483647,0,0,1,1,2,2],"right_children":[2,4,6,-1,-1,-1,-1],"split_conditions":[3.277778E-1,9.0909086E-2,3.388889E-1,-1.1301175E-2,6.0516363E-3,-3.4803194E-3,-7.9680355E-3],"split_indices":[15,28,0,0,0,0,0],"split_type":[0,0,0,0,0,0,0],"sum_hessian":[9.436367E3,4.386763E3,5.049604E3,8.881381E2,3.498625E3,1.4679713E3,3.5816328E3],"tree_param":{"num_deleted":"0","num_feature":"30","num_nodes":"7","size_leaf_vector":"1"}},{"base_weights":[-1.1060702E0,-1.318882E-1,-1.2701609E0,8.153955E-3,-8.641129E-3,-1.1834415E-2,-1.2866813E-2],"categories":[],"categories_nodes":[],"categories_segments":[],"categories_sizes":[],"default_left":[0,0,0,0,0,0,0],"id":7,"left_children":[1,3,5,-1,-1,-1,-1],"loss_changes":[1.5019209E3,9.410581E2,1E1,0E0,0E0,0E0,0E0],"parents":[2147483647,0,0,1,1,2,2],"right_children":[2,4,6,-1,-1,-1,-1],"split_conditions":[9.0909086E-2,2.8333336E-1,1.06060594E-1,8.153955E-3,-8.641129E-3,-1.1834415E-2,-1.2866813E-2],"split_indices":[28,27,28,0,0,0,0],"split_type":[0,0,0,0,0,0,0],"sum_hessian":[9.395608E3,1.3547095E3,8.0408984E3,5.905708E2,7.6413873E2,1.2983197E3,6.7425786E3],"tree_param":{"num_deleted":"0","num_feature":"30","num_nodes":"7","size_leaf_vector":"1"}},{"base_weights":[-1.0825366E0,-1.9823408E-2,-1.2603331E0,8.435389E-3,-8.780769E-3,-1.1217118E-2,-1.2774605E-2],"categories":[],"categories_nodes":[],"categories_segments":[],"categories_sizes":[],"default_left":[0,0,0,0,0,0,0],"id":8,"left_children":[1,3,5,-1,-1,-1,-1],"loss_changes":[1.778208E3,1.0009898E3,1.7708984E1,0E0,0E0,0E0,0E0],"parents":[2147483647,0,0,1,1,2,2],"right_children":[2,4,6,-1,-1,-1,-1],"split_conditions":[9.0909086E-2,3E-1,2.6111114E-1,8.435389E-3,-8.780769E-3,-1.1217118E-2,-1.2774605E-2],"split_indices":[25,27,27,0,0,0,0],"split_type":[0,0,0,0,0,0,0],"sum_hessian":[9.410299E3,1.3488934E3,8.0614053E3,6.7245386E2,6.764395E2,8.9381775E2,7.167588E3],"tree_param":{"num_deleted":"0","num_feature":"30","num_nodes":"7","size_leaf_vector":"1"}},{"base_weights":[2.6055222E0,1.4277847E0,3.2985053E0,-1.5653273E-3,1.8462231E-2,1.9965073E-2,3.445232E-2],"categories":[],"categories_nodes":[],"categories_segments":[],"categories_sizes":[],"default_left":[0,0,0,0,0,0,0],"id":9,"left_children":[1,3,5,-1,-1,-1,-1],"loss_changes":[7.8426914E3,2.3627095E3,1.1493906E3,0E0,0E0,0E0,0E0],"parents":[2147483647,0,0,1,1,2,2],"right_children":[2,4,6,-1,-1,-1,-1],"split_conditions":[3.1111112E-1,9.0909086E-2,9.0909086E-2,-1.5653273E-3,1.8462231E-2,1.9965073E-2,3.445232E-2],"split_indices":[24,25,28,0,0,0,0],"split_type":[0,0,0,0,0,0,0],"sum_hessian":[9.614121E3,3.5625552E3,6.0515664E3,7.4446027E2,2.818095E3,6.143806E2,5.4371855E3],"tree_param":{"num_deleted":"0","num_feature":"30","num_nodes":"7","size_leaf_vector":"1"}},{"base_weights":[-1.1061051E0,-4.0634012E-1,-1.2255665E0,1.4467925E-3,-1.0180794E-2,-1.104236E-2,-1.2490271E-2],"categories":[],"categories_nodes":[],"categories_segments":[],"categories_sizes":[],"default_left":[0,0,0,0,0,0,0],"id":10,"left_children":[1,3,5,-1,-1,-1,-1],"loss_changes":[7.8460547E2,4.6229205E2,2.1455078E1,0E0,0E0,0E0,0E0],"parents":[2147483647,0,0,1,1,2,2],"right_children":[2,4,6,-1,-1,-1,-1],"split_conditions":[9.0909086E-2,4E-1,1.06060594E-1,1.4467925E-3,-1.0180794E-2,-1.104236E-2,-1.2490271E-2],"split_indices":[28,26,28,0,0,0,0],"split_type":[0,0,0,0,0,0,0],"sum_hessian":[9.390757E3,1.3700233E3,8.020734E3,7.2118506E2,6.4883826E2,1.3073914E3,6.7133423E3],"tree_param":{"num_deleted":"0","num_feature":"30","num_nodes":"7","size_leaf_vector":"1"}},{"base_weights":[-2.3221001E-1,4.673047E-1,-8.3571166E-1,-1.0876104E-2,8.227678E-3,-5.65335E-3,-9.57998E-3],"categories":[],"categories_nodes":[],"categories_segments":[],"categories_sizes":[],"default_left":[0,0,0,0,0,0,0],"id":11,"left_children":[1,3,5,-1,-1,-1,-1],"loss_changes":[3.993956E3,2.4229214E3,1.6738135E2,0E0,0E0,0E0,0E0],"parents":[2147483647,0,0,1,1,2,2],"right_children":[2,4,6,-1,-1,-1,-1],"split_conditions":[3.277778E-1,9.0909086E-2,3.6111113E-1,-1.0876104E-2,8.227678E-3,-5.65335E-3,-9.57998E-3],"split_indices":[27,25,27,0,0,0,0],"split_type":[0,0,0,0,0,0,0],"sum_hessian":[9.458878E3,4.3810537E3,5.077824E3,8.147971E2,3.5662566E3,1.5831289E3,3.4946953E3],"tree_param":{"num_deleted":"0","num_feature":"30","num_nodes":"7","size_leaf_vector":"1"}},{"base_weights":[-1.1037927E0,-1.6913293E-1,-1.2619766E0,7.441722E-3,-8.803058E-3,-1.1014504E-2,-1.2729964E-2],"categories":[],"categories_nodes":[],"categories_segments":[],"categories_sizes":[],"default_left":[0,0,0,0,0,0,0],"id":12,"left_children":[1,3,5,-1,-1,-1,-1],"loss_changes":[1.380544E3,8.7941034E2,1.27265625E1,0E0,0E0,0E0,0E0],"parents":[2147483647,0,0,1,1,2,2],"right_children":[2,4,6,-1,-1,-1,-1],"split_conditions":[9.0909086E-2,2.8333336E-1,2.4444446E-1,7.441722E-3,-8.803058E-3,-1.1014504E-2,-1.2729964E-2],"split_indices":[22,27,24,0,0,0,0],"split_type":[0,0,0,0,0,0,0],"sum_hessian":[9.338028E3,1.3519347E3,7.9860938E3,5.9183704E2,7.6009766E2,5.194994E2,7.466594E3],"tree_param":{"num_deleted":"0","num_feature":"30","num_nodes":"7","size_leaf_vector":"1"}},{"base_weights":[-1.0788063E0,-3.3152554E-2,-1.2568097E0,8.710059E-3,-8.391829E-3,-1.1503741E-2,-1.2771014E-2],"categories":[],"categories_nodes":[],"categories_segments":[],"categories_sizes":[],"default_left":[0,0,0,0,0,0,0],"id":13,"left_children":[1,3,5,-1,-1,-1,-1],"loss_changes":[1.7430996E3,9.943234E2,1.5814453E1,0E0,0E0,0E0,0E0],"parents":[2147483647,0,0,1,1,2,2],"right_children":[2,4,6,-1,-1,-1,-1],"split_conditions":[9.0909086E-2,2.9444447E-1,1.06060594E-1,8.710059E-3,-8.391829E-3,-1.1503741E-2,-1.2771014E-2],"split_indices":[28,27,28,0,0,0,0],"split_type":[0,0,0,0,0,0,0],"sum_hessian":[9.3641875E3,1.3623655E3,8.001822E3,6.420595E2,7.2030597E2,1.2905001E3,6.711322E3],"tree_param":{"num_deleted":"0","num_feature":"30","num_nodes":"7","size_leaf_vector":"1"}},{"base_weights":[2.5357647E0,1.1865752E0,3.2218864E0,-3.3617297E-3,1.6069697E-2,1.9298434E-2,3.3694696E-2],"categories":[],"categories_nodes":[],"categories_segments":[],"categories_sizes":[],"default_left":[0,0,0,0,0,0,0],"id":14,"left_children":[1,3,5,-1,-1,-1,-1],"loss_changes":[8.97198E3,2.0940044E3,1.2190156E3,0E0,0E0,0E0,0E0],"parents":[2147483647,0,0,1,1,2,2],"right_children":[2,4,6,-1,-1,-1,-1],"split_conditions":[3.0555558E-1,9.0909086E-2,9.0909086E-2,-3.3617297E-3,1.6069697E-2,1.9298434E-2,3.3694696E-2],"split_indices":[27,28,19,0,0,0,0],"split_type":[0,0,0,0,0,0,0],"sum_hessian":[9.695157E3,3.269245E3,6.4259126E3,7.073372E2,2.5619077E3,6.601954E2,5.765717E3],"tree_param":{"num_deleted":"0","num_feature":"30","num_nodes":"7","size_leaf_vector":"1"}},{"base_weights":[-1.096626E0,-3.9288208E-1,-1.2174067E0,2.7418032E-3,-9.465287E-3,-1.1014831E-2,-1.2396438E-2],"categories":[],"categories_nodes":[],"categories_segments":[],"categories_sizes":[],"default_left":[0,0,0,0,0,0,0],"id":15,"left_children":[1,3,5,-1,-1,-1,-1],"loss_changes":[7.8920996E2,5.0342154E2,1.9074219E1,0E0,0E0,0E0,0E0],"parents":[2147483647,0,0,1,1,2,2],"right_children":[2,4,6,-1,-1,-1,-1],"split_conditions":[9.0909086E-2,3.816092E-1,1.06060594E-1,2.7418032E-3,-9.465287E-3,-1.1014831E-2,-1.2396438E-2],"split_indices":[28,26,28,0,0,0,0],"split_type":[0,0,0,0,0,0,0],"sum_hessian":[9.289603E3,1.3614125E3,7.9281904E3,6.17691E2,7.4372144E2,1.2841774E3,6.644013E3],"tree_param":{"num_deleted":"0","num_feature":"30","num_nodes":"7","size_leaf_vector":"1"}},{"base_weights":[-2.3334329E-1,4.9317762E-1,-7.9034287E-1,-1.11566065E-2,8.776203E-3,-4.583146E-3,-9.333341E-3],"categories":[],"categories_nodes":[],"categories_segments":[],"categories_sizes":[],"default_left":[0,0,0,0,0,0,0],"id":16,"left_children":[1,3,5,-1,-1,-1,-1],"loss_changes":[3.8497012E3,2.5545093E3,2.5521948E2,0E0,0E0,0E0,0E0],"parents":[2147483647,0,0,1,1,2,2],"right_children":[2,4,6,-1,-1,-1,-1],"split_conditions":[3.2222223E-1,9.0909086E-2,3.5555556E-1,-1.11566065E-2,8.776203E-3,-4.583146E-3,-9.333341E-3],"split_indices":[27,28,27,0,0,0,0],"split_type":[0,0,0,0,0,0,0],"sum_hessian":[9.511181E3,4.127544E3,5.383636E3,7.957097E2,3.3318342E3,1.6218585E3,3.7617778E3],"tree_param":{"num_deleted":"0","num_feature":"30","num_nodes":"7","size_leaf_vector":"1"}},{"base_weights":[-1.1016353E0,-1.6404481E-1,-1.2610716E0,6.9669834E-3,-8.8691665E-3,-1.1625136E-2,-1.2757665E-2],"categories":[],"categories_nodes":[],"categories_segments":[],"categories_sizes":[],"default_left":[0,0,0,0,0,0,0],"id":17,"left_children":[1,3,5,-1,-1,-1,-1],"loss_changes":[1.3966328E3,8.463226E2,1.0083984E1,0E0,0E0,0E0,0E0],"parents":[2147483647,0,0,1,1,2,2],"right_children":[2,4,6,-1,-1,-1,-1],"split_conditions":[9.0909086E-2,2.888889E-1,2.6666668E-1,6.9669834E-3,-8.8691665E-3,-1.1625136E-2,-1.2757665E-2],"split_indices":[25,27,27,0,0,0,0],"split_type":[0,0,0,0,0,0,0],"sum_hessian":[9.343296E3,1.3582014E3,7.9850947E3,6.1999396E2,7.3820746E2,1.0464878E3,6.938607E3],"tree_param":{"num_deleted":"0","num_feature":"30","num_nodes":"7","size_leaf_vector":"1"}},{"base_weights":[-1.0682527E0,7.3442603E-3,-1.2496051E0,8.556588E-3,-8.388211E-3,-1.1069345E-2,-1.2708495E-2],"categories":[],"categories_nodes":[],"categories_segments":[],"categories_sizes":[],"default_left":[0,0,0,0,0,0,0],"id":18,"left_children":[1,3,5,-1,-1,-1,-1],"loss_changes":[1.8088516E3,9.6181683E2,2.2645508E1,0E0,0E0,0E0,0E0],"parents":[2147483647,0,0,1,1,2,2],"right_children":[2,4,6,-1,-1,-1,-1],"split_conditions":[9.0909086E-2,3E-1,2.6666668E-1,8.556588E-3,-8.388211E-3,-1.1069345E-2,-1.2708495E-2],"split_indices":[25,27,27,0,0,0,0],"split_type":[0,0,0,0,0,0,0],"sum_hessian":[9.272169E3,1.3379243E3,7.9342446E3,6.681081E2,6.698162E2,1.0352184E3,6.8990264E3],"tree_param":{"num_deleted":"0","num_feature":"30","num_nodes":"7","size_leaf_vector":"1"}},{"base_weights":[2.4842927E0,1.2581396E0,3.1850088E0,-2.9041357E-3,1.6425809E-2,1.9309776E-2,3.323127E-2],"categories":[],"categories_nodes":[],"categories_segments":[],"categories_sizes":[],"default_left":[0,0,0,0,0,0,0],"id":19,"left_children":[1,3,5,-1,-1,-1,-1],"loss_changes":[8.463469E3,2.1350615E3,1.0796914E3,0E0,0E0,0E0,0E0],"parents":[2147483647,0,0,1,1,2,2],"right_children":[2,4,6,-1,-1,-1,-1],"split_conditions":[3.1111112E-1,9.0909086E-2,9.0909086E-2,-2.9041357E-3,1.6425809E-2,1.9309776E-2,3.323127E-2],"split_indices":[27,22,22,0,0,0,0],"split_type":[0,0,0,0,0,0,0],"sum_hessian":[9.854238E3,3.5845615E3,6.269677E3,7.1295996E2,2.8716016E3,6.235144E2,5.646162E3],"tree_param":{"num_deleted":"0","num_feature":"30","num_nodes":"7","size_leaf_vector":"1"}},{"base_weights":[-1.0911897E0,-4.212933E-1,-1.2037057E0,2.4231826E-3,-9.6282875E-3,-1.0732644E-2,-1.2286444E-2],"categories":[],"categories_nodes":[],"categories_segments":[],"categories_sizes":[],"default_left":[0,0,0,0,0,0,0],"id":20,"left_children":[1,3,5,-1,-1,-1,-1],"loss_changes":[6.955137E2,4.7800763E2,2.4398438E1,0E0,0E0,0E0,0E0],"parents":[2147483647,0,0,1,1,2,2],"right_children":[2,4,6,-1,-1,-1,-1],"split_conditions":[9.0909086E-2,3.873563E-1,1.06060594E-1,2.4231826E-3,-9.6282875E-3,-1.0732644E-2,-1.2286444E-2],"split_indices":[22,29,22,0,0,0,0],"split_type":[0,0,0,0,0,0,0],"sum_hessian":[9.233229E3,1.3284802E3,7.904748E3,5.972038E2,7.3127637E2,1.2757922E3,6.628956E3],"tree_param":{"num_deleted":"0","num_feature":"30","num_nodes":"7","size_leaf_vector":"1"}},{"base_weights":[-2.4311619E-1,5.208886E-1,-7.593401E-1,1.1485701E-2,-5.2253646E-3,-3.7535187E-3,-9.184189E-3],"categories":[],"categories_nodes":[],"categories_segments":[],"categories_sizes":[],"default_left":[0,0,0,0,0,0,0],"id":21,"left_children":[1,3,5,-1,-1,-1,-1],"loss_changes":[3.7066406E3,2.4826987E3,3.4224146E2,0E0,0E0,0E0,0E0],"parents":[2147483647,0,0,1,1,2,2],"right_children":[2,4,6,-1,-1,-1,-1],"split_conditions":[3.166667E-1,3.862069E-1,3.5000002E-1,1.1485701E-2,-5.2253646E-3,-3.7535187E-3,-9.184189E-3],"split_indices":[27,29,27,0,0,0,0],"split_type":[0,0,0,0,0,0,0],"sum_hessian":[9.39623E3,3.7888184E3,5.6074116E3,2.3656438E3,1.4231746E3,1.6435443E3,3.9638674E3],"tree_param":{"num_deleted":"0","num_feature":"30","num_nodes":"7","size_leaf_vector":"1"}},{"base_weights":[-1.101435E0,-1.7766747E-1,-1.2576759E0,-8.235269E-3,7.316928E-3,-1.1676547E-2,-1.274795E-2],"categories":[],"categories_nodes":[],"categories_segments":[],"categories_sizes":[],"default_left":[0,0,0,0,0,0,0],"id":22,"left_children":[1,3,5,-1,-1,-1,-1],"loss_changes":[1.3351367E3,7.8739594E2,1.0707031E1,0E0,0E0,0E0,0E0],"parents":[2147483647,0,0,1,1,2,2],"right_children":[2,4,6,-1,-1,-1,-1],"split_conditions":[9.0909086E-2,4.0114942E-1,1.06060594E-1,-8.235269E-3,7.316928E-3,-1.1676547E-2,-1.274795E-2],"split_indices":[25,8,25,0,0,0,0],"split_type":[0,0,0,0,0,0,0],"sum_hessian":[9.251125E3,1.3386356E3,7.9124897E3,7.827755E2,5.5586017E2,1.2753416E3,6.6371484E3],"tree_param":{"num_deleted":"0","num_feature":"30","num_nodes":"7","size_leaf_vector":"1"}},{"base_weights":[-1.0643928E0,-9.570921E-5,-1.2461573E0,8.974377E-3,-8.2077235E-3,-1.1324818E-2,-1.2678905E-2],"categories":[],"categories_nodes":[],"categories_segments":[],"categories_sizes":[],"default_left":[0,0,0,0,0,0,0],"id":23,"left_children":[1,3,5,-1,-1,-1,-1],"loss_changes":[1.7873516E3,9.94202E2,1.8061523E1,0E0,0E0,0E0,0E0],"parents":[2147483647,0,0,1,1,2,2],"right_children":[2,4,6,-1,-1,-1,-1],"split_conditions":[9.0909086E-2,2.9444447E-1,1.06060594E-1,8.974377E-3,-8.2077235E-3,-1.1324818E-2,-1.2678905E-2],"split_indices":[25,27,25,0,0,0,0],"split_type":[0,0,0,0,0,0,0],"sum_hessian":[9.238283E3,1.3477456E3,7.890538E3,6.436853E2,7.0406024E2,1.2749679E3,6.61557E3],"tree_param":{"num_deleted":"0","num_feature":"30","num_nodes":"7","size_leaf_vector":"1"}},{"base_weights":[2.4274807E0,1.3149133E0,3.1445706E0,-1.5943183E-3,1.6718704E-2,1.9766282E-2,3.274794E-2],"categories":[],"categories_nodes":[],"categories_segments":[],"categories_sizes":[],"default_left":[0,0,0,0,0,0,0],"id":24,"left_children":[1,3,5,-1,-1,-1,-1],"loss_changes":[8.0017773E3,2.07098E3,9.214844E2,0E0,0E0,0E0,0E0],"parents":[2147483647,0,0,1,1,2,2],"right_children":[2,4,6,-1,-1,-1,-1],"split_conditions":[3.166667E-1,9.0909086E-2,9.0909086E-2,-1.5943183E-3,1.6718704E-2,1.9766282E-2,3.274794E-2],"split_indices":[27,25,25,0,0,0,0],"split_type":[0,0,0,0,0,0,0],"sum_hessian":[1.00338545E4,3.9336372E3,6.1002173E3,7.6685175E2,3.1667854E3,6.135556E2,5.4866616E3],"tree_param":{"num_deleted":"0","num_feature":"30","num_nodes":"7","size_leaf_vector":"1"}},{"base_weights":[-1.0885159E0,-3.6470792E-1,-1.2127718E0,2.9909462E-3,-1.0150693E-2,-1.0959434E-2,-1.23506375E-2],"categories":[],"categories_nodes":[],"categories_segments":[],"categories_sizes":[],"default_left":[0,0,0,0,0,0,0],"id":25,"left_children":[1,3,5,-1,-1,-1,-1],"loss_changes":[8.2783594E2,5.834506E2,1.9115234E1,0E0,0E0,0E0,0E0],"parents":[2147483647,0,0,1,1,2,2],"right_children":[2,4,6,-1,-1,-1,-1],"split_conditions":[9.0909086E-2,3.9655176E-1,1.06060594E-1,2.9909462E-3,-1.0150693E-2,-1.0959434E-2,-1.23506375E-2],"split_indices":[28,29,28,0,0,0,0],"split_type":[0,0,0,0,0,0,0],"sum_hessian":[9.208493E3,1.3497793E3,7.8587144E3,6.682543E2,6.81525E2,1.2672826E3,6.5914316E3],"tree_param":{"num_deleted":"0","num_feature":"30","num_nodes":"7","size_leaf_vector":"1"}},{"base_weights":[-2.2789973E-1,4.626016E-1,-7.053965E-1,-1.0886372E-2,8.43665E-3,-4.0493864E-3,-8.90587E-3],"categories":[],"categories_nodes":[],"categories_segments":[],"categories_sizes":[],"default_left":[0,0,0,0,0,0,0],"id":26,"left_children":[1,3,5,-1,-1,-1,-1],"loss_changes":[3.0995217E3,2.2728042E3,3.0886084E2,0E0,0E0,0E0,0E0],"parents":[2147483647,0,0,1,1,2,2],"right_children":[2,4,6,-1,-1,-1,-1],"split_conditions":[3.166667E-1,9.0909086E-2,3.6111113E-1,-1.0886372E-2,8.43665E-3,-4.0493864E-3,-8.90587E-3],"split_indices":[24,25,24,0,0,0,0],"split_type":[0,0,0,0,0,0,0],"sum_hessian":[9.3987E3,3.8423555E3,5.5563447E3,7.57373E2,3.0849824E3,2.1199958E3,3.4363489E3],"tree_param":{"num_deleted":"0","num_feature":"30","num_nodes":"7","size_leaf_vector":"1"}},{"base_weights":[-1.0891306E0,-1.4895275E-1,-1.2534212E0,7.39876E-3,-8.395263E-3,-1.1627182E-2,-1.2705488E-2],"categories":[],"categories_nodes":[],"categories_segments":[],"categories_sizes":[],"default_left":[0,0,0,0,0,0,0],"id":27,"left_children":[1,3,5,-1,-1,-1,-1],"loss_changes":[1.4129844E3,8.3665063E2,1.0621094E1,0E0,0E0,0E0,0E0],"parents":[2147483647,0,0,1,1,2,2],"right_children":[2,4,6,-1,-1,-1,-1],"split_conditions":[9.0909086E-2,2.8333336E-1,1.06060594E-1,7.39876E-3,-8.395263E-3,-1.1627182E-2,-1.2705488E-2],"split_indices":[28,27,28,0,0,0,0],"split_type":[0,0,0,0,0,0,0],"sum_hessian":[9.147972E3,1.3610515E3,7.7869204E3,5.950712E2,7.659802E2,1.2478058E3,6.5391147E3],"tree_param":{"num_deleted":"0","num_feature":"30","num_nodes":"7","size_leaf_vector":"1"}},{"base_weights":[-1.0611155E0,3.910899E-3,-1.2459003E0,7.993353E-3,-8.857594E-3,-1.1422181E-2,-1.2655356E-2],"categories":[],"categories_nodes":[],"categories_segments":[],"categories_sizes":[],"default_left":[0,0,0,0,0,0,0],"id":28,"left_children":[1,3,5,-1,-1,-1,-1],"loss_changes":[1.8099131E3,9.6364557E2,1.4508789E1,0E0,0E0,0E0,0E0],"parents":[2147483647,0,0,1,1,2,2],"right_children":[2,4,6,-1,-1,-1,-1],"split_conditions":[9.0909086E-2,3.0555558E-1,1.06060594E-1,7.993353E-3,-8.857594E-3,-1.1422181E-2,-1.2655356E-2],"split_indices":[28,27,28,0,0,0,0],"split_type":[0,0,0,0,0,0,0],"sum_hessian":[9.195657E3,1.3597244E3,7.835933E3,7.1793994E2,6.417844E2,1.2571041E3,6.578829E3],"tree_param":{"num_deleted":"0","num_feature":"30","num_nodes":"7","size_leaf_vector":"1"}},{"base_weights":[2.3677642E0,1.2017647E0,3.0330594E0,-2.6274896E-3,1.5643284E-2,1.8905481E-2,3.1606387E-2],"categories":[],"categories_nodes":[],"categories_segments":[],"categories_sizes":[],"default_left":[0,0,0,0,0,0,0],"id":29,"left_children":[1,3,5,-1,-1,-1,-1],"loss_changes":[7.8437227E3,1.9526865E3,9.3276953E2,0E0,0E0,0E0,0E0],"parents":[2147483647,0,0,1,1,2,2],"right_children":[2,4,6,-1,-1,-1,-1],"split_conditions":[3.1111112E-1,9.0909086E-2,9.0909086E-2,-2.6274896E-3,1.5643284E-2,1.8905481E-2,3.1606387E-2],"split_indices":[27,22,22,0,0,0,0],"split_type":[0,0,0,0,0,0,0],"sum_hessian":[1.0115061E4,3.6757424E3,6.4393184E3,7.29466E2,2.9462764E3,6.484119E2,5.7909067E3],"tree_param":{"num_deleted":"0","num_feature":"30","num_nodes":"7","size_leaf_vector":"1"}},{"base_weights":[-1.0817971E0,-3.6977923E-1,-1.2045531E0,1.5640261E-3,-1.0747514E-2,-1.0684056E-2,-1.2306888E-2],"categories":[],"categories_nodes":[],"categories_segments":[],"categories_sizes":[],"default_left":[0,0,0,0,0,0,0],"id":30,"left_children":[1,3,5,-1,-1,-1,-1],"loss_changes":[7.9584375E2,4.9766098E2,2.633496E1,0E0,0E0,0E0,0E0],"parents":[2147483647,0,0,1,1,2,2],"right_children":[2,4,6,-1,-1,-1,-1],"split_conditions":[9.0909086E-2,4.1149423E-1,1.06060594E-1,1.5640261E-3,-1.0747514E-2,-1.0684056E-2,-1.2306888E-2],"split_indices":[28,26,28,0,0,0,0],"split_type":[0,0,0,0,0,0,0],"sum_hessian":[9.109403E3,1.3401552E3,7.7692485E3,7.6783295E2,5.7232214E2,1.2579801E3,6.511268E3],"tree_param":{"num_deleted":"0","num_feature":"30","num_nodes":"7","size_leaf_vector":"1"}},{"base_weights":[-2.1942414E-1,5.470205E-1,-7.4740165E-1,1.0567167E-2,-6.216171E-3,-3.716782E-3,-9.032527E-3],"categories":[],"categories_nodes":[],"categories_segments":[],"categories_sizes":[],"default_left":[0,0,0,0,0,0,0],"id":31,"left_children":[1,3,5,-1,-1,-1,-1],"loss_changes":[3.7919824E3,2.2774294E3,3.2455664E2,0E0,0E0,0E0,0E0],"parents":[2147483647,0,0,1,1,2,2],"right_children":[2,4,6,-1,-1,-1,-1],"split_conditions":[3.166667E-1,4.0459773E-1,3.5000002E-1,1.0567167E-2,-6.216171E-3,-3.716782E-3,-9.032527E-3],"split_indices":[27,26,27,0,0,0,0],"split_type":[0,0,0,0,0,0,0],"sum_hessian":[9.368648E3,3.821332E3,5.5473164E3,2.6608916E3,1.1604406E3,1.6273971E3,3.9199194E3],"tree_param":{"num_deleted":"0","num_feature":"30","num_nodes":"7","size_leaf_vector":"1"}},{"base_weights":[-1.0911195E0,-1.5757892E-1,-1.2527851E0,-7.863293E-3,7.6211905E-3,-1.1739293E-2,-1.2679828E-2],"categories":[],"categories_nodes":[],"categories_segments":[],"categories_sizes":[],"default_left":[0,0,0,0,0,0,0],"id":32,"left_children":[1,3,5,-1,-1,-1,-1],"loss_changes":[1.3750928E3,7.790989E2,7.8203125E0,0E0,0E0,0E0,0E0],"parents":[2147483647,0,0,1,1,2,2],"right_children":[2,4,6,-1,-1,-1,-1],"split_conditions":[9.0909086E-2,4.0114942E-1,1.06060594E-1,-7.863293E-3,7.6211905E-3,-1.1739293E-2,-1.2679828E-2],"split_indices":[28,8,28,0,0,0,0],"split_type":[0,0,0,0,0,0,0],"sum_hessian":[9.111634E3,1.3452783E3,7.766356E3,7.9911163E2,5.461667E2,1.267573E3,6.4987827E3],"tree_param":{"num_deleted":"0","num_feature":"30","num_nodes":"7","size_leaf_vector":"1"}},{"base_weights":[-1.0592444E0,1.081716E-2,-1.2431343E0,8.83313E-3,-7.86355E-3,-1.1357647E-2,-1.2635734E-2],"categories":[],"categories_nodes":[],"categories_segments":[],"categories_sizes":[],"default_left":[0,0,0,0,0,0,0],"id":33,"left_children":[1,3,5,-1,-1,-1,-1],"loss_changes":[1.7993379E3,9.340697E2,1.5688477E1,0E0,0E0,0E0,0E0],"parents":[2147483647,0,0,1,1,2,2],"right_children":[2,4,6,-1,-1,-1,-1],"split_conditions":[9.0909086E-2,2.888889E-1,1.06060594E-1,8.83313E-3,-7.86355E-3,-1.1357647E-2,-1.2635734E-2],"split_indices":[28,24,28,0,0,0,0],"split_type":[0,0,0,0,0,0,0],"sum_hessian":[9.143134E3,1.3409635E3,7.80217E3,6.4018274E2,7.007807E2,1.2567638E3,6.5454062E3],"tree_param":{"num_deleted":"0","num_feature":"30","num_nodes":"7","size_leaf_vector":"1"}},{"base_weights":[2.3287733E0,1.2748121E0,2.9953818E0,-1.772991E-3,1.6313188E-2,1.8568242E-2,3.1200627E-2],"categories":[],"categories_nodes":[],"categories_segments":[],"categories_sizes":[],"default_left":[0,0,0,0,0,0,0],"id":34,"left_children":[1,3,5,-1,-1,-1,-1],"loss_changes":[7.1746133E3,2.0504653E3,8.825703E2,0E0,0E0,0E0,0E0],"parents":[2147483647,0,0,1,1,2,2],"right_children":[2,4,6,-1,-1,-1,-1],"split_conditions":[3.166667E-1,9.0909086E-2,9.0909086E-2,-1.772991E-3,1.6313188E-2,1.8568242E-2,3.1200627E-2],"split_indices":[27,28,19,0,0,0,0],"split_type":[0,0,0,0,0,0,0],"sum_hessian":[1.0216251E4,3.9592598E3,6.2569907E3,7.805309E2,3.178729E3,6.1913007E2,5.637861E3],"tree_param":{"num_deleted":"0","num_feature":"30","num_nodes":"7","size_leaf_vector":"1"}},{"base_weights":[-1.0825678E0,-3.8031846E-1,-1.2041112E0,2.656868E-3,-9.957171E-3,5.8788406E-3,-1.2053509E-2],"categories":[],"categories_nodes":[],"categories_segments":[],"categories_sizes":[],"default_left":[0,0,0,0,0,0,0],"id":35,"left_children":[1,3,5,-1,-1,-1,-1],"loss_changes":[7.742803E2,5.3324646E2,1.789746E1,0E0,0E0,0E0,0E0],"parents":[2147483647,0,0,1,1,2,2],"right_children":[2,4,6,-1,-1,-1,-1],"split_conditions":[9.0909086E-2,3.9310345E-1,3.030303E-2,2.656868E-3,-9.957171E-3,5.8788406E-3,-1.2053509E-2],"split_indices":[28,29,10,0,0,0,0],"split_type":[0,0,0,0,0,0,0],"sum_hessian":[9.075797E3,1.339664E3,7.7361333E3,6.5385645E2,6.858075E2,5.021023E0,7.7311123E3],"tree_param":{"num_deleted":"0","num_feature":"30","num_nodes":"7","size_leaf_vector":"1"}},{"base_weights":[-2.3108654E-1,4.014887E-1,-7.258565E-1,9.994194E-3,-5.183835E-3,-4.408836E-3,-8.818811E-3],"categories":[],"categories_nodes":[],"categories_segments":[],"categories_sizes":[],"default_left":[0,0,0,0,0,0,0],"id":36,"left_children":[1,3,5,-1,-1,-1,-1],"loss_changes":[2.9361648E3,2.2652378E3,2.336582E2,0E0,0E0,0E0,0E0],"parents":[2147483647,0,0,1,1,2,2],"right_children":[2,4,6,-1,-1,-1,-1],"split_conditions":[3.2222223E-1,3.816092E-1,3.6111113E-1,9.994194E-3,-5.183835E-3,-4.408836E-3,-8.818811E-3],"split_indices":[24,29,24,0,0,0,0],"split_type":[0,0,0,0,0,0,0],"sum_hessian":[9.379409E3,4.116524E3,5.2628857E3,2.4947878E3,1.621736E3,1.8633591E3,3.3995269E3],"tree_param":{"num_deleted":"0","num_feature":"30","num_nodes":"7","size_leaf_vector":"1"}},{"base_weights":[-1.0845903E0,-1.641289E-1,-1.2456789E0,-8.050806E-3,7.0347944E-3,-1.1642009E-2,-1.2613328E-2],"categories":[],"categories_nodes":[],"categories_segments":[],"categories_sizes":[],"default_left":[0,0,0,0,0,0,0],"id":37,"left_children":[1,3,5,-1,-1,-1,-1],"loss_changes":[1.3460605E3,7.532231E2,8.386719E0,0E0,0E0,0E0,0E0],"parents":[2147483647,0,0,1,1,2,2],"right_children":[2,4,6,-1,-1,-1,-1],"split_conditions":[9.0909086E-2,4.0114942E-1,1.06060594E-1,-8.050806E-3,7.0347944E-3,-1.1642009E-2,-1.2613328E-2],"split_indices":[25,8,25,0,0,0,0],"split_type":[0,0,0,0,0,0,0],"sum_hessian":[9.078461E3,1.3524678E3,7.725993E3,7.7787744E2,5.7459033E2,1.257282E3,6.4687114E3],"tree_param":{"num_deleted":"0","num_feature":"30","num_nodes":"7","size_leaf_vector":"1"}},{"base_weights":[-1.046629E0,2.353911E-2,-1.2372468E0,8.894771E-3,-8.220759E-3,-1.09514E-2,-1.2547222E-2],"categories":[],"categories_nodes":[],"categories_segments":[],"categories_sizes":[],"default_left":[0,0,0,0,0,0,0],"id":38,"left_children":[1,3,5,-1,-1,-1,-1],"loss_changes":[1.8566348E3,1.00904535E3,1.78125E1,0E0,0E0,0E0,0E0],"parents":[2147483647,0,0,1,1,2,2],"right_children":[2,4,6,-1,-1,-1,-1],"split_conditions":[9.0909086E-2,2.9444447E-1,2.6111114E-1,8.894771E-3,-8.220759E-3,-1.09514E-2,-1.2547222E-2],"split_indices":[28,27,27,0,0,0,0],"split_type":[0,0,0,0,0,0,0],"sum_hessian":[9.100328E3,1.3760076E3,7.7243203E3,6.798088E2,6.961988E2,8.5284644E2,6.8714736E3],"tree_param":{"num_deleted":"0","num_feature":"30","num_nodes":"7","size_leaf_vector":"1"}},{"base_weights":[2.2762556E0,1.0319998E0,2.8073351E0,-3.5195672E-3,1.4112674E-2,1.736783E-2,2.9284889E-2],"categories":[],"categories_nodes":[],"categories_segments":[],"categories_sizes":[],"default_left":[0,0,0,0,0,0,0],"id":39,"left_children":[1,3,5,-1,-1,-1,-1],"loss_changes":[6.826051E3,1.6240032E3,9.342578E2,0E0,0E0,0E0,0E0],"parents":[2147483647,0,0,1,1,2,2],"right_children":[2,4,6,-1,-1,-1,-1],"split_conditions":[3E-1,9.0909086E-2,9.0909086E-2,-3.5195672E-3,1.4112674E-2,1.736783E-2,2.9284889E-2],"split_indices":[27,28,28,0,0,0,0],"split_type":[0,0,0,0,0,0,0],"sum_hessian":[1.0333383E4,3.0920422E3,7.2413403E3,6.6511035E2,2.426932E3,7.377436E2,6.5035967E3],"tree_param":{"num_deleted":"0","num_feature":"30","num_nodes":"7","size_leaf_vector":"1"}},{"base_weights":[-1.0780236E0,-3.9864033E-1,-1.1951505E0,1.5094721E-3,-1.0296744E-2,9.707081E-3,-1.1967812E-2],"categories":[],"categories_nodes":[],"categories_segments":[],"categories_sizes":[],"default_left":[0,0,0,0,0,0,0],"id":40,"left_children":[1,3,5,-1,-1,-1,-1],"loss_changes":[7.167217E2,4.6032056E2,2.830957E1,0E0,0E0,0E0,0E0],"parents":[2147483647,0,0,1,1,2,2],"right_children":[2,4,6,-1,-1,-1,-1],"split_conditions":[9.0909086E-2,4.0574715E-1,3.030303E-2,1.5094721E-3,-1.0296744E-2,9.707081E-3,-1.1967812E-2],"split_indices":[25,26,1,0,0,0,0],"split_type":[0,0,0,0,0,0,0],"sum_hessian":[9.011953E3,1.3258567E3,7.686096E3,7.090679E2,6.167889E2,5.3351207E0,7.680761E3],"tree_param":{"num_deleted":"0","num_feature":"30","num_nodes":"7","size_leaf_vector":"1"}},{"base_weights":[-2.2776093E-1,2.5690293E-1,-6.1308736E-1,-1.0997731E-2,6.030221E-3,-4.922482E-3,-1.0064964E-2],"categories":[],"categories_nodes":[],"categories_segments":[],"categories_sizes":[],"default_left":[0,0,0,0,0,0,0],"id":41,"left_children":[1,3,5,-1,-1,-1,-1],"loss_changes":[1.7534031E3,1.953487E3,2.4814746E2,0E0,0E0,0E0,0E0],"parents":[2147483647,0,0,1,1,2,2],"right_children":[2,4,6,-1,-1,-1,-1],"split_conditions":[3.2222223E-1,9.0909086E-2,4.1034487E-1,-1.0997731E-2,6.030221E-3,-4.922482E-3,-1.0064964E-2],"split_indices":[15,28,26,0,0,0,0],"split_type":[0,0,0,0,0,0,0],"sum_hessian":[9.387005E3,4.1577354E3,5.2292695E3,8.4468066E2,3.313055E3,4.0022073E3,1.2270625E3],"tree_param":{"num_deleted":"0","num_feature":"30","num_nodes":"7","size_leaf_vector":"1"}},{"base_weights":[-1.077844E0,-1.3900353E-1,-1.243837E0,6.1648367E-3,-9.269269E-3,-1.1630671E-2,-1.2590915E-2],"categories":[],"categories_nodes":[],"categories_segments":[],"categories_sizes":[],"default_left":[0,0,0,0,0,0,0],"id":42,"left_children":[1,3,5,-1,-1,-1,-1],"loss_changes":[1.4106074E3,8.108631E2,8.013672E0,0E0,0E0,0E0,0E0],"parents":[2147483647,0,0,1,1,2,2],"right_children":[2,4,6,-1,-1,-1,-1],"split_conditions":[9.0909086E-2,3E-1,1.06060594E-1,6.1648367E-3,-9.269269E-3,-1.1630671E-2,-1.2590915E-2],"split_indices":[28,27,28,0,0,0,0],"split_type":[0,0,0,0,0,0,0],"sum_hessian":[9.051694E3,1.360226E3,7.6914683E3,6.945173E2,6.657086E2,1.2341426E3,6.4573257E3],"tree_param":{"num_deleted":"0","num_feature":"30","num_nodes":"7","size_leaf_vector":"1"}},{"base_weights":[-1.0514052E0,-2.569506E-2,-1.2337456E0,8.379802E-3,-8.498353E-3,-1.1256273E-2,-1.2543944E-2],"categories":[],"categories_nodes":[],"categories_segments":[],"categories_sizes":[],"default_left":[0,0,0,0,0,0,0],"id":43,"left_children":[1,3,5,-1,-1,-1,-1],"loss_changes":[1.6911475E3,9.729149E2,1.5728516E1,0E0,0E0,0E0,0E0],"parents":[2147483647,0,0,1,1,2,2],"right_children":[2,4,6,-1,-1,-1,-1],"split_conditions":[9.0909086E-2,2.9444447E-1,1.06060594E-1,8.379802E-3,-8.498353E-3,-1.1256273E-2,-1.2543944E-2],"split_indices":[28,27,28,0,0,0,0],"split_type":[0,0,0,0,0,0,0],"sum_hessian":[9.041373E3,1.3648569E3,7.6765166E3,6.6643524E2,6.9842175E2,1.2398895E3,6.436627E3],"tree_param":{"num_deleted":"0","num_feature":"30","num_nodes":"7","size_leaf_vector":"1"}},{"base_weights":[2.224636E0,1.1542782E0,2.75684E0,-2.595433E-3,1.5252398E-2,1.6920485E-2,2.871773E-2],"categories":[],"categories_nodes":[],"categories_segments":[],"categories_sizes":[],"default_left":[0,0,0,0,0,0,0],"id":44,"left_children":[1,3,5,-1,-1,-1,-1],"loss_changes":[5.9656367E3,1.8263193E3,8.515078E2,0E0,0E0,0E0,0E0],"parents":[2147483647,0,0,1,1,2,2],"right_children":[2,4,6,-1,-1,-1,-1],"split_conditions":[3.0555558E-1,9.0909086E-2,9.0909086E-2,-2.595433E-3,1.5252398E-2,1.6920485E-2,2.871773E-2],"split_indices":[24,25,28,0,0,0,0],"split_type":[0,0,0,0,0,0,0],"sum_hessian":[1.0477065E4,3.4804407E3,6.996625E3,7.234613E2,2.7569795E3,6.83168E2,6.313457E3],"tree_param":{"num_deleted":"0","num_feature":"30","num_nodes":"7","size_leaf_vector":"1"}},{"base_weights":[-1.0717014E0,-3.652325E-1,-1.1969833E0,2.4962004E-3,-9.758274E-3,-1.0741686E-2,-1.220538E-2],"categories":[],"categories_nodes":[],"categories_segments":[],"categories_sizes":[],"default_left":[0,0,0,0,0,0,0],"id":45,"left_children":[1,3,5,-1,-1,-1,-1],"loss_changes":[7.936553E2,5.081349E2,2.0732422E1,0E0,0E0,0E0,0E0],"parents":[2147483647,0,0,1,1,2,2],"right_children":[2,4,6,-1,-1,-1,-1],"split_conditions":[9.0909086E-2,3.9310345E-1,1.06060594E-1,2.4962004E-3,-9.758274E-3,-1.0741686E-2,-1.220538E-2],"split_indices":[28,29,28,0,0,0,0],"split_type":[0,0,0,0,0,0,0],"sum_hessian":[8.970994E3,1.3518406E3,7.619154E3,6.738665E2,6.779741E2,1.2336188E3,6.385535E3],"tree_param":{"num_deleted":"0","num_feature":"30","num_nodes":"7","size_leaf_vector":"1"}},{"base_weights":[-2.3309584E-1,4.695716E-1,-7.894132E-1,-1.10065015E-2,8.32166E-3,-5.150224E-3,-9.383036E-3],"categories":[],"categories_nodes":[],"categories_segments":[],"categories_sizes":[],"default_left":[0,0,0,0,0,0,0],"id":46,"left_children":[1,3,5,-1,-1,-1,-1],"loss_changes":[3.6659707E3,2.3604302E3,2.1334692E2,0E0,0E0,0E0,0E0],"parents":[2147483647,0,0,1,1,2,2],"right_children":[2,4,6,-1,-1,-1,-1],"split_conditions":[3.2222223E-1,9.0909086E-2,3.6111113E-1,-1.10065015E-2,8.32166E-3,-5.150224E-3,-9.383036E-3],"split_indices":[27,28,27,0,0,0,0],"split_type":[0,0,0,0,0,0,0],"sum_hessian":[9.376188E3,4.1431978E3,5.23299E3,7.76878E2,3.3663198E3,1.8422881E3,3.3907021E3],"tree_param":{"num_deleted":"0","num_feature":"30","num_nodes":"7","size_leaf_vector":"1"}},{"base_weights":[-1.0749428E0,-1.5782252E-1,-1.2404962E0,6.5191295E-3,-8.708042E-3,-1.1581791E-2,-1.2562701E-2],"categories":[],"categories_nodes":[],"categories_segments":[],"categories_sizes":[],"default_left":[0,0,0,0,0,0,0],"id":47,"left_children":[1,3,5,-1,-1,-1,-1],"loss_changes":[1.3607031E3,7.9249677E2,8.40332E0,0E0,0E0,0E0,0E0],"parents":[2147483647,0,0,1,1,2,2],"right_children":[2,4,6,-1,-1,-1,-1],"split_conditions":[9.0909086E-2,2.888889E-1,1.06060594E-1,6.5191295E-3,-8.708042E-3,-1.1581791E-2,-1.2562701E-2],"split_indices":[28,27,28,0,0,0,0],"split_type":[0,0,0,0,0,0,0],"sum_hessian":[8.962161E3,1.3707175E3,7.5914434E3,6.41851E2,7.288665E2,1.2327386E3,6.358705E3],"tree_param":{"num_deleted":"0","num_feature":"30","num_nodes":"7","size_leaf_vector":"1"}},{"base_weights":[-1.0518367E0,-5.5549387E-2,-1.2259058E0,7.2625675E-3,-8.904949E-3,-1.0889401E-2,-1.2463412E-2],"categories":[],"categories_nodes":[],"categories_segments":[],"categories_sizes":[],"default_left":[0,0,0,0,0,0,0],"id":48,"left_children":[1,3,5,-1,-1,-1,-1],"loss_changes":[1.5542656E3,8.7149E2,1.999707E1,0E0,0E0,0E0,0E0],"parents":[2147483647,0,0,1,1,2,2],"right_children":[2,4,6,-1,-1,-1,-1],"split_conditions":[9.0909086E-2,4.0574715E-1,2.6666668E-1,7.2625675E-3,-8.904949E-3,-1.0889401E-2,-1.2463412E-2],"split_indices":[22,29,27,0,0,0,0],"split_type":[0,0,0,0,0,0,0],"sum_hessian":[8.961689E3,1.3330828E3,7.6286064E3,6.885165E2,6.445663E2,9.9747437E2,6.6311323E3],"tree_param":{"num_deleted":"0","num_feature":"30","num_nodes":"7","size_leaf_vector":"1"}},{"base_weights":[2.1861322E0,9.224028E-1,2.6556525E0,-3.955146E-3,1.2966096E-2,2.0543795E-2,2.8868785E-2],"categories":[],"categories_nodes":[],"categories_segments":[],"categories_sizes":[],"default_left":[0,0,0,0,0,0,0],"id":49,"left_children":[1,3,5,-1,-1,-1,-1],"loss_changes":[6.2488125E3,1.4087817E3,1.0619688E3,0E0,0E0,0E0,0E0],"parents":[2147483647,0,0,1,1,2,2],"right_children":[2,4,6,-1,-1,-1,-1],"split_conditions":[2.9444447E-1,9.0909086E-2,3.3333334E-1,-3.955146E-3,1.2966096E-2,2.0543795E-2,2.8868785E-2],"split_indices":[27,25,27,0,0,0,0],"split_type":[0,0,0,0,0,0,0],"sum_hessian":[1.0534599E4,2.854523E3,7.680075E3,6.312543E2,2.2232686E3,2.13588E3,5.5441953E3],"tree_param":{"num_deleted":"0","num_feature":"30","num_nodes":"7","size_leaf_vector":"1"}},{"base_weights":[-1.0648751E0,-3.477562E-1,-1.1916925E0,1.976296E-3,-9.91278E-3,-1.0722495E-2,-1.2145767E-2],"categories":[],"categories_nodes":[],"categories_segments":[],"categories_sizes":[],"default_left":[0,0,0,0,0,0,0],"id":50,"left_children":[1,3,5,-1,-1,-1,-1],"loss_changes":[8.097158E2,4.7050018E2,1.9387695E1,0E0,0E0,0E0,0E0],"parents":[2147483647,0,0,1,1,2,2],"right_children":[2,4,6,-1,-1,-1,-1],"split_conditions":[9.0909086E-2,4.0229884E-1,1.06060594E-1,1.976296E-3,-9.91278E-3,-1.0722495E-2,-1.2145767E-2],"split_indices":[28,26,28,0,0,0,0],"split_type":[0,0,0,0,0,0,0],"sum_hessian":[8.907103E3,1.3390217E3,7.5680806E3,7.251493E2,6.1387244E2,1.2245386E3,6.343542E3],"tree_param":{"num_deleted":"0","num_feature":"30","num_nodes":"7","size_leaf_vector":"1"}},{"base_weights":[-2.2086905E-1,4.350416E-1,-6.874378E-1,9.738012E-3,-6.291726E-3,-3.7060035E-3,-8.537311E-3],"categories":[],"categories_nodes":[],"categories_segments":[],"categories_sizes":[],"default_left":[0,0,0,0,0,0,0],"id":51,"left_children":[1,3,5,-1,-1,-1,-1],"loss_changes":[2.85213E3,2.2218428E3,2.8661133E2,0E0,0E0,0E0,0E0],"parents":[2147483647,0,0,1,1,2,2],"right_children":[2,4,6,-1,-1,-1,-1],"split_conditions":[3.166667E-1,3.9655176E-1,3.5555556E-1,9.738012E-3,-6.291726E-3,-3.7060035E-3,-8.537311E-3],"split_indices":[24,29,24,0,0,0,0],"split_type":[0,0,0,0,0,0,0],"sum_hessian":[9.317875E3,3.8730872E3,5.4447876E3,2.5713987E3,1.3016885E3,1.8752046E3,3.569583E3],"tree_param":{"num_deleted":"0","num_feature":"30","num_nodes":"7","size_leaf_vector":"1"}},{"base_weights":[-1.0665376E0,-1.2749772E-1,-1.2326249E0,7.242739E-3,-8.815495E-3,-1.1229115E-2,-1.2488891E-2],"categories":[],"categories_nodes":[],"categories_segments":[],"categories_sizes":[],"default_left":[0,0,0,0,0,0,0],"id":52,"left_children":[1,3,5,-1,-1,-1,-1],"loss_changes":[1.3889541E3,8.610906E2,1.21015625E1,0E0,0E0,0E0,0E0],"parents":[2147483647,0,0,1,1,2,2],"right_children":[2,4,6,-1,-1,-1,-1],"split_conditions":[9.0909086E-2,2.888889E-1,2.6666668E-1,7.242739E-3,-8.815495E-3,-1.1229115E-2,-1.2488891E-2],"split_indices":[25,27,27,0,0,0,0],"split_type":[0,0,0,0,0,0,0],"sum_hessian":[8.905692E3,1.3386838E3,7.5670083E3,6.286287E2,7.100551E2,9.85979E2,6.5810293E3],"tree_param":{"num_deleted":"0","num_feature":"30","num_nodes":"7","size_leaf_vector":"1"}},{"base_weights":[-1.0416688E0,-1.2714932E-2,-1.2255977E0,7.199064E-3,-8.927596E-3,-1.101706E-2,-1.2493717E-2],"categories":[],"categories_nodes":[],"categories_segments":[],"categories_sizes":[],"default_left":[0,0,0,0,0,0,0],"id":53,"left_children":[1,3,5,-1,-1,-1,-1],"loss_changes":[1.6903467E3,8.745658E2,2.094043E1,0E0,0E0,0E0,0E0],"parents":[2147483647,0,0,1,1,2,2],"right_children":[2,4,6,-1,-1,-1,-1],"split_conditions":[9.0909086E-2,3.0555558E-1,1.06060594E-1,7.199064E-3,-8.927596E-3,-1.101706E-2,-1.2493717E-2],"split_indices":[28,24,28,0,0,0,0],"split_type":[0,0,0,0,0,0,0],"sum_hessian":[8.930691E3,1.3544669E3,7.5762246E3,7.392427E2,6.152243E2,1.2273795E3,6.348845E3],"tree_param":{"num_deleted":"0","num_feature":"30","num_nodes":"7","size_leaf_vector":"1"}},{"base_weights":[2.1450715E0,1.0576035E0,2.6698709E0,-2.6287022E-3,1.38990935E-2,1.6172005E-2,2.7833633E-2],"categories":[],"categories_nodes":[],"categories_segments":[],"categories_sizes":[],"default_left":[0,0,0,0,0,0,0],"id":54,"left_children":[1,3,5,-1,-1,-1,-1],"loss_changes":[6.0820703E3,1.5239768E3,8.5459766E2,0E0,0E0,0E0,0E0],"parents":[2147483647,0,0,1,1,2,2],"right_children":[2,4,6,-1,-1,-1,-1],"split_conditions":[3.0555558E-1,9.0909086E-2,9.0909086E-2,-2.6287022E-3,1.38990935E-2,1.6172005E-2,2.7833633E-2],"split_indices":[27,25,7,0,0,0,0],"split_type":[0,0,0,0,0,0,0],"sum_hessian":[1.0661107E4,3.4712139E3,7.189893E3,6.979601E2,2.7732537E3,7.012129E2,6.48868E3],"tree_param":{"num_deleted":"0","num_feature":"30","num_nodes":"7","size_leaf_vector":"1"}},{"base_weights":[-1.0669866E0,-3.6196288E-1,-1.1919234E0,2.2854144E-3,-9.3770055E-3,-1.0687599E-2,-1.2156094E-2],"categories":[],"categories_nodes":[],"categories_segments":[],"categories_sizes":[],"default_left":[0,0,0,0,0,0,0],"id":55,"left_children":[1,3,5,-1,-1,-1,-1],"loss_changes":[7.796582E2,4.539464E2,2.0646484E1,0E0,0E0,0E0,0E0],"parents":[2147483647,0,0,1,1,2,2],"right_children":[2,4,6,-1,-1,-1,-1],"split_conditions":[9.0909086E-2,3.873563E-1,1.06060594E-1,2.2854144E-3,-9.3770055E-3,-1.0687599E-2,-1.2156094E-2],"split_indices":[28,26,28,0,0,0,0],"split_type":[0,0,0,0,0,0,0],"sum_hessian":[8.855276E3,1.3336019E3,7.521675E3,6.586558E2,6.749461E2,1.2206442E3,6.3010303E3],"tree_param":{"num_deleted":"0","num_feature":"30","num_nodes":"7","size_leaf_vector":"1"}},{"base_weights":[-2.1409056E-1,3.9507568E-1,-6.977391E-1,8.784222E-3,-7.00318E-3,-4.0650847E-3,-8.580402E-3],"categories":[],"categories_nodes":[],"categories_segments":[],"categories_sizes":[],"default_left":[0,0,0,0,0,0,0],"id":56,"left_children":[1,3,5,-1,-1,-1,-1],"loss_changes":[2.7509639E3,2.1886538E3,2.4263037E2,0E0,0E0,0E0,0E0],"parents":[2147483647,0,0,1,1,2,2],"right_children":[2,4,6,-1,-1,-1,-1],"split_conditions":[3.2222223E-1,4.0229884E-1,3.6111113E-1,8.784222E-3,-7.00318E-3,-4.0650847E-3,-8.580402E-3],"split_indices":[24,29,24,0,0,0,0],"split_type":[0,0,0,0,0,0,0],"sum_hessian":[9.335319E3,4.131626E3,5.203693E3,2.8668264E3,1.2647998E3,1.8486512E3,3.3550417E3],"tree_param":{"num_deleted":"0","num_feature":"30","num_nodes":"7","size_leaf_vector":"1"}},{"base_weights":[-1.0676777E0,-1.4965339E-1,-1.2293458E0,6.451245E-3,-8.044591E-3,-1.1220091E-2,-1.2454979E-2],"categories":[],"categories_nodes":[],"categories_segments":[],"categories_sizes":[],"default_left":[0,0,0,0,0,0,0],"id":57,"left_children":[1,3,5,-1,-1,-1,-1],"loss_changes":[1.304001E3,6.858789E2,1.1556641E1,0E0,0E0,0E0,0E0],"parents":[2147483647,0,0,1,1,2,2],"right_children":[2,4,6,-1,-1,-1,-1],"split_conditions":[9.0909086E-2,2.8333336E-1,2.6666668E-1,6.451245E-3,-8.044591E-3,-1.1220091E-2,-1.2454979E-2],"split_indices":[25,27,27,0,0,0,0],"split_type":[0,0,0,0,0,0,0],"sum_hessian":[8.786403E3,1.3159233E3,7.4704795E3,5.944354E2,7.21488E2,9.863435E2,6.4841357E3],"tree_param":{"num_deleted":"0","num_feature":"30","num_nodes":"7","size_leaf_vector":"1"}},{"base_weights":[-1.038437E0,-1.7529937E-2,-1.220949E0,8.013818E-3,-8.043987E-3,-1.1051778E-2,-1.2432269E-2],"categories":[],"categories_nodes":[],"categories_segments":[],"categories_sizes":[],"default_left":[0,0,0,0,0,0,0],"id":58,"left_children":[1,3,5,-1,-1,-1,-1],"loss_changes":[1.6500645E3,8.667502E2,1.8001953E1,0E0,0E0,0E0,0E0],"parents":[2147483647,0,0,1,1,2,2],"right_children":[2,4,6,-1,-1,-1,-1],"split_conditions":[9.0909086E-2,2.9444447E-1,1.06060594E-1,8.013818E-3,-8.043987E-3,-1.1051778E-2,-1.2432269E-2],"split_indices":[28,27,28,0,0,0,0],"split_type":[0,0,0,0,0,0,0],"sum_hessian":[8.854818E3,1.3430994E3,7.5117197E3,6.5814E2,6.8495935E2,1.2203779E3,6.2913413E3],"tree_param":{"num_deleted":"0","num_feature":"30","num_nodes":"7","size_leaf_vector":"1"}},{"base_weights":[2.1021183E0,1.0955411E0,2.6564915E0,-2.606764E-3,1.4124847E-2,1.6570557E-2,2.7685167E-2],"categories":[],"categories_nodes":[],"categories_segments":[],"categories_sizes":[],"default_left":[0,0,0,0,0,0,0],"id":59,"left_children":[1,3,5,-1,-1,-1,-1],"loss_changes":[5.990742E3,1.6408081E3,7.708086E2,0E0,0E0,0E0,0E0],"parents":[2147483647,0,0,1,1,2,2],"right_children":[2,4,6,-1,-1,-1,-1],"split_conditions":[3.1111112E-1,9.0909086E-2,9.0909086E-2,-2.606764E-3,1.4124847E-2,1.6570557E-2,2.7685167E-2],"split_indices":[27,19,28,0,0,0,0],"split_type":[0,0,0,0,0,0,0],"sum_hessian":[1.0739937E4,3.8153572E3,6.924579E3,7.227692E2,3.0925881E3,6.995261E2,6.225053E3],"tree_param":{"num_deleted":"0","num_feature":"30","num_nodes":"7","size_leaf_vector":"1"}},{"base_weights":[-1.0583835E0,-3.617128E-1,-1.1838044E0,1.0906834E-3,-9.71838E-3,-1.052206E-2,-1.2090526E-2],"categories":[],"categories_nodes":[],"categories_segments":[],"categories_sizes":[],"default_left":[0,0,0,0,0,0,0],"id":60,"left_children":[1,3,5,-1,-1,-1,-1],"loss_changes":[7.718037E2,3.878109E2,2.3611328E1,0E0,0E0,0E0,0E0],"parents":[2147483647,0,0,1,1,2,2],"right_children":[2,4,6,-1,-1,-1,-1],"split_conditions":[9.0909086E-2,4.0114942E-1,1.06060594E-1,1.0906834E-3,-9.71838E-3,-1.052206E-2,-1.2090526E-2],"split_indices":[28,20,28,0,0,0,0],"split_type":[0,0,0,0,0,0,0],"sum_hessian":[8.836913E3,1.3487809E3,7.4881323E3,7.617924E2,5.8698846E2,1.212264E3,6.2758687E3],"tree_param":{"num_deleted":"0","num_feature":"30","num_nodes":"7","size_leaf_vector":"1"}},{"base_weights":[-2.2670466E-1,2.5669807E-1,-7.208231E-1,-1.07823135E-2,5.559071E-3,-5.857545E-3,-9.725804E-3],"categories":[],"categories_nodes":[],"categories_segments":[],"categories_sizes":[],"default_left":[0,0,0,0,0,0,0],"id":61,"left_children":[1,3,5,-1,-1,-1,-1],"loss_changes":[2.2293538E3,1.8851537E3,1.5637524E2,0E0,0E0,0E0,0E0],"parents":[2147483647,0,0,1,1,2,2],"right_children":[2,4,6,-1,-1,-1,-1],"split_conditions":[3.3333334E-1,9.0909086E-2,3.7816095E-1,-1.07823135E-2,5.559071E-3,-5.857545E-3,-9.725804E-3],"split_indices":[21,28,29,0,0,0,0],"split_type":[0,0,0,0,0,0,0],"sum_hessian":[9.331604E3,4.717192E3,4.6144116E3,8.632362E2,3.8539556E3,3.0053552E3,1.6090562E3],"tree_param":{"num_deleted":"0","num_feature":"30","num_nodes":"7","size_leaf_vector":"1"}},{"base_weights":[-1.0604799E0,-1.456627E-1,-1.2261326E0,6.661723E-3,-8.783934E-3,-1.1159647E-2,-1.2426496E-2],"categories":[],"categories_nodes":[],"categories_segments":[],"categories_sizes":[],"default_left":[0,0,0,0,0,0,0],"id":62,"left_children":[1,3,5,-1,-1,-1,-1],"loss_changes":[1.3314648E3,8.026672E2,1.2151367E1,0E0,0E0,0E0,0E0],"parents":[2147483647,0,0,1,1,2,2],"right_children":[2,4,6,-1,-1,-1,-1],"split_conditions":[9.0909086E-2,2.888889E-1,2.6666668E-1,6.661723E-3,-8.783934E-3,-1.1159647E-2,-1.2426496E-2],"split_indices":[25,27,27,0,0,0,0],"split_type":[0,0,0,0,0,0,0],"sum_hessian":[8.786293E3,1.3473624E3,7.4389307E3,6.39222E2,7.0814044E2,9.7881354E2,6.460117E3],"tree_param":{"num_deleted":"0","num_feature":"30","num_nodes":"7","size_leaf_vector":"1"}},{"base_weights":[-1.036981E0,-3.056303E-2,-1.217976E0,7.078273E-3,-9.255928E-3,-1.1007931E-2,-1.2405336E-2],"categories":[],"categories_nodes":[],"categories_segments":[],"categories_sizes":[],"default_left":[0,0,0,0,0,0,0],"id":63,"left_children":[1,3,5,-1,-1,-1,-1],"loss_changes":[1.6004482E3,8.8643884E2,1.8319336E1,0E0,0E0,0E0,0E0],"parents":[2147483647,0,0,1,1,2,2],"right_children":[2,4,6,-1,-1,-1,-1],"split_conditions":[9.0909086E-2,4.126437E-1,1.06060594E-1,7.078273E-3,-9.255928E-3,-1.1007931E-2,-1.2405336E-2],"split_indices":[25,29,25,0,0,0,0],"split_type":[0,0,0,0,0,0,0],"sum_hessian":[8.785315E3,1.3393066E3,7.446009E3,7.3398535E2,6.053212E2,1.2100095E3,6.2359995E3],"tree_param":{"num_deleted":"0","num_feature":"30","num_nodes":"7","size_leaf_vector":"1"}},{"base_weights":[2.0671146E0,1.1521074E0,2.6249657E0,-1.8704637E-3,1.4538687E-2,1.649248E-2,2.7296863E-2],"categories":[],"categories_nodes":[],"categories_segments":[],"categories_sizes":[],"default_left":[0,0,0,0,0,0,0],"id":64,"left_children":[1,3,5,-1,-1,-1,-1],"loss_changes":[5.535422E3,1.6617129E3,6.841719E2,0E0,0E0,0E0,0E0],"parents":[2147483647,0,0,1,1,2,2],"right_children":[2,4,6,-1,-1,-1,-1],"split_conditions":[3.166667E-1,9.0909086E-2,9.0909086E-2,-1.8704637E-3,1.4538687E-2,1.649248E-2,2.7296863E-2],"split_indices":[27,25,4,0,0,0,0],"split_type":[0,0,0,0,0,0,0],"sum_hessian":[1.0849387E4,4.1104106E3,6.738976E3,7.55967E2,3.3544436E3,6.547947E2,6.0841816E3],"tree_param":{"num_deleted":"0","num_feature":"30","num_nodes":"7","size_leaf_vector":"1"}},{"base_weights":[-1.0578619E0,-3.531056E-1,-1.181968E0,1.2390241E-3,-9.335164E-3,-1.0452782E-2,-1.2083492E-2],"categories":[],"categories_nodes":[],"categories_segments":[],"categories_sizes":[],"default_left":[0,0,0,0,0,0,0],"id":65,"left_children":[1,3,5,-1,-1,-1,-1],"loss_changes":[7.661455E2,3.6382892E2,2.5608398E1,0E0,0E0,0E0,0E0],"parents":[2147483647,0,0,1,1,2,2],"right_children":[2,4,6,-1,-1,-1,-1],"split_conditions":[9.0909086E-2,3.9540234E-1,1.06060594E-1,1.2390241E-3,-9.335164E-3,-1.0452782E-2,-1.2083492E-2],"split_indices":[28,20,28,0,0,0,0],"split_type":[0,0,0,0,0,0,0],"sum_hessian":[8.763272E3,1.3127054E3,7.450567E3,7.2096783E2,5.917377E2,1.2119087E3,6.238658E3],"tree_param":{"num_deleted":"0","num_feature":"30","num_nodes":"7","size_leaf_vector":"1"}},{"base_weights":[-2.1511611E-1,4.3208668E-1,-8.054855E-1,-1.0655553E-2,7.48728E-3,-5.6083594E-3,-9.175916E-3],"categories":[],"categories_nodes":[],"categories_segments":[],"categories_sizes":[],"default_left":[0,0,0,0,0,0,0],"id":66,"left_children":[1,3,5,-1,-1,-1,-1],"loss_changes":[3.5570974E3,2.1069104E3,1.3301099E2,0E0,0E0,0E0,0E0],"parents":[2147483647,0,0,1,1,2,2],"right_children":[2,4,6,-1,-1,-1,-1],"split_conditions":[3.277778E-1,9.0909086E-2,3.6111113E-1,-1.0655553E-2,7.48728E-3,-5.6083594E-3,-9.175916E-3],"split_indices":[27,25,27,0,0,0,0],"split_type":[0,0,0,0,0,0,0],"sum_hessian":[9.307701E3,4.4402583E3,4.867443E3,7.7453186E2,3.6657263E3,1.5314213E3,3.3360215E3],"tree_param":{"num_deleted":"0","num_feature":"30","num_nodes":"7","size_leaf_vector":"1"}},{"base_weights":[-1.0613371E0,-1.337081E-1,-1.2256012E0,7.651084E-3,-8.019618E-3,-1.1098106E-2,-1.2399099E-2],"categories":[],"categories_nodes":[],"categories_segments":[],"categories_sizes":[],"default_left":[0,0,0,0,0,0,0],"id":67,"left_children":[1,3,5,-1,-1,-1,-1],"loss_changes":[1.3376631E3,7.9462506E2,1.0982422E1,0E0,0E0,0E0,0E0],"parents":[2147483647,0,0,1,1,2,2],"right_children":[2,4,6,-1,-1,-1,-1],"split_conditions":[9.0909086E-2,2.777778E-1,2.6111114E-1,7.651084E-3,-8.019618E-3,-1.1098106E-2,-1.2399099E-2],"split_indices":[25,27,27,0,0,0,0],"split_type":[0,0,0,0,0,0,0],"sum_hessian":[8.778763E3,1.3209481E3,7.4578145E3,5.632368E2,7.577113E2,8.2886725E2,6.6289473E3],"tree_param":{"num_deleted":"0","num_feature":"30","num_nodes":"7","size_leaf_vector":"1"}},{"base_weights":[-1.0213295E0,3.3513207E-2,-1.2121708E0,7.794087E-3,-8.393469E-3,-1.0573491E-2,-1.231779E-2],"categories":[],"categories_nodes":[],"categories_segments":[],"categories_sizes":[],"default_left":[0,0,0,0,0,0,0],"id":68,"left_children":[1,3,5,-1,-1,-1,-1],"loss_changes":[1.7612275E3,8.7392224E2,2.1188477E1,0E0,0E0,0E0,0E0],"parents":[2147483647,0,0,1,1,2,2],"right_children":[2,4,6,-1,-1,-1,-1],"split_conditions":[9.0909086E-2,4.0804598E-1,2.6111114E-1,7.794087E-3,-8.393469E-3,-1.0573491E-2,-1.231779E-2],"split_indices":[25,29,27,0,0,0,0],"split_type":[0,0,0,0,0,0,0],"sum_hessian":[8.747735E3,1.3402969E3,7.4074385E3,7.227683E2,6.175286E2,8.3886523E2,6.568573E3],"tree_param":{"num_deleted":"0","num_feature":"30","num_nodes":"7","size_leaf_vector":"1"}},{"base_weights":[2.029337E0,1.142506E0,2.5063944E0,-1.5934764E-3,1.4523387E-2,1.5363231E-2,2.6058767E-2],"categories":[],"categories_nodes":[],"categories_segments":[],"categories_sizes":[],"default_left":[0,0,0,0,0,0,0],"id":69,"left_children":[1,3,5,-1,-1,-1,-1],"loss_changes":[4.6266875E3,1.544835E3,6.825703E2,0E0,0E0,0E0,0E0],"parents":[2147483647,0,0,1,1,2,2],"right_children":[2,4,6,-1,-1,-1,-1],"split_conditions":[3.1111112E-1,9.0909086E-2,9.0909086E-2,-1.5934764E-3,1.4523387E-2,1.5363231E-2,2.6058767E-2],"split_indices":[24,25,1,0,0,0,0],"split_type":[0,0,0,0,0,0,0],"sum_hessian":[1.0941763E4,3.8283708E3,7.113392E3,7.360645E2,3.0923062E3,6.63166E2,6.450226E3],"tree_param":{"num_deleted":"0","num_feature":"30","num_nodes":"7","size_leaf_vector":"1"}},{"base_weights":[-1.0523441E0,-3.5300243E-1,-1.1782076E0,1.9904978E-3,-9.071261E-3,-1.0472172E-2,-1.203847E-2],"categories":[],"categories_nodes":[],"categories_segments":[],"categories_sizes":[],"default_left":[0,0,0,0,0,0,0],"id":70,"left_children":[1,3,5,-1,-1,-1,-1],"loss_changes":[7.633877E2,4.054887E2,2.3436523E1,0E0,0E0,0E0,0E0],"parents":[2147483647,0,0,1,1,2,2],"right_children":[2,4,6,-1,-1,-1,-1],"split_conditions":[9.0909086E-2,3.8390806E-1,1.06060594E-1,1.9904978E-3,-9.071261E-3,-1.0472172E-2,-1.203847E-2],"split_indices":[28,20,28,0,0,0,0],"split_type":[0,0,0,0,0,0,0],"sum_hessian":[8.676449E3,1.3239469E3,7.352503E3,6.63534E2,6.6041284E2,1.2104093E3,6.1420933E3],"tree_param":{"num_deleted":"0","num_feature":"30","num_nodes":"7","size_leaf_vector":"1"}},{"base_weights":[-2.1975382E-1,4.0582094E-1,-7.909087E-1,8.637486E-3,-6.8186712E-3,-5.3310865E-3,-9.117311E-3],"categories":[],"categories_nodes":[],"categories_segments":[],"categories_sizes":[],"default_left":[0,0,0,0,0,0,0],"id":71,"left_children":[1,3,5,-1,-1,-1,-1],"loss_changes":[3.3113179E3,2.2037668E3,1.5040723E2,0E0,0E0,0E0,0E0],"parents":[2147483647,0,0,1,1,2,2],"right_children":[2,4,6,-1,-1,-1,-1],"split_conditions":[3.277778E-1,4.0344825E-1,3.6111113E-1,8.637486E-3,-6.8186712E-3,-5.3310865E-3,-9.117311E-3],"split_indices":[27,29,27,0,0,0,0],"split_type":[0,0,0,0,0,0,0],"sum_hessian":[9.265711E3,4.4223203E3,4.843391E3,3.1122412E3,1.3100791E3,1.5473035E3,3.2960876E3],"tree_param":{"num_deleted":"0","num_feature":"30","num_nodes":"7","size_leaf_vector":"1"}},{"base_weights":[-1.0612317E0,-1.6239133E-1,-1.2261881E0,5.4806354E-3,-9.242174E-3,-1.1466014E-2,-1.241418E-2],"categories":[],"categories_nodes":[],"categories_segments":[],"categories_sizes":[],"default_left":[0,0,0,0,0,0,0],"id":72,"left_children":[1,3,5,-1,-1,-1,-1],"loss_changes":[1.2908525E3,7.319247E2,7.4941406E0,0E0,0E0,0E0,0E0],"parents":[2147483647,0,0,1,1,2,2],"right_children":[2,4,6,-1,-1,-1,-1],"split_conditions":[9.0909086E-2,3E-1,1.06060594E-1,5.4806354E-3,-9.242174E-3,-1.1466014E-2,-1.241418E-2],"split_indices":[28,27,28,0,0,0,0],"split_type":[0,0,0,0,0,0,0],"sum_hessian":[8.706476E3,1.3503671E3,7.356109E3,6.988874E2,6.514796E2,1.1938286E3,6.1622803E3],"tree_param":{"num_deleted":"0","num_feature":"30","num_nodes":"7","size_leaf_vector":"1"}},{"base_weights":[-1.0234157E0,-5.397575E-3,-1.2121061E0,7.432057E-3,-8.009071E-3,-1.09459255E-2,-1.23478575E-2],"categories":[],"categories_nodes":[],"categories_segments":[],"categories_sizes":[],"default_left":[0,0,0,0,0,0,0],"id":73,"left_children":[1,3,5,-1,-1,-1,-1],"loss_changes":[1.6771621E3,8.142407E2,1.8280273E1,0E0,0E0,0E0,0E0],"parents":[2147483647,0,0,1,1,2,2],"right_children":[2,4,6,-1,-1,-1,-1],"split_conditions":[9.0909086E-2,2.9444447E-1,1.06060594E-1,7.432057E-3,-8.009071E-3,-1.09459255E-2,-1.23478575E-2],"split_indices":[28,24,28,0,0,0,0],"split_type":[0,0,0,0,0,0,0],"sum_hessian":[8.730146E3,1.365275E3,7.3648716E3,7.034082E2,6.618668E2,1.1994172E3,6.165454E3],"tree_param":{"num_deleted":"0","num_feature":"30","num_nodes":"7","size_leaf_vector":"1"}},{"base_weights":[1.9842254E0,1.0610859E0,2.4234781E0,-2.099959E-3,1.3761986E-2,1.4675997E-2,2.5227338E-2],"categories":[],"categories_nodes":[],"categories_segments":[],"categories_sizes":[],"default_left":[0,0,0,0,0,0,0],"id":74,"left_children":[1,3,5,-1,-1,-1,-1],"loss_changes":[4.4535312E3,1.4201414E3,7.026953E2,0E0,0E0,0E0,0E0],"parents":[2147483647,0,0,1,1,2,2],"right_children":[2,4,6,-1,-1,-1,-1],"split_conditions":[3.0555558E-1,9.0909086E-2,9.0909086E-2,-2.099959E-3,1.3761986E-2,1.4675997E-2,2.5227338E-2],"split_indices":[24,22,10,0,0,0,0],"split_type":[0,0,0,0,0,0,0],"sum_hessian":[1.0988385E4,3.5438977E3,7.444487E3,7.0409546E2,2.8398022E3,7.01783E2,6.742704E3],"tree_param":{"num_deleted":"0","num_feature":"30","num_nodes":"7","size_leaf_vector":"1"}},{"base_weights":[-1.0477748E0,-3.7123805E-1,-1.1652902E0,-8.809488E-3,2.0602765E-3,-1.0403067E-2,-1.1892625E-2],"categories":[],"categories_nodes":[],"categories_segments":[],"categories_sizes":[],"default_left":[0,0,0,0,0,0,0],"id":75,"left_children":[1,3,5,-1,-1,-1,-1],"loss_changes":[6.857412E2,3.764451E2,2.0793945E1,0E0,0E0,0E0,0E0],"parents":[2147483647,0,0,1,1,2,2],"right_children":[2,4,6,-1,-1,-1,-1],"split_conditions":[9.0909086E-2,3.0555558E-1,1.06060594E-1,-8.809488E-3,2.0602765E-3,-1.0403067E-2,-1.1892625E-2],"split_indices":[22,24,22,0,0,0,0],"split_type":[0,0,0,0,0,0,0],"sum_hessian":[8.62974E3,1.2777704E3,7.3519697E3,6.783122E2,5.9945825E2,1.1903385E3,6.161631E3],"tree_param":{"num_deleted":"0","num_feature":"30","num_nodes":"7","size_leaf_vector":"1"}},{"base_weights":[-2.1681103E-1,4.802207E-1,-7.2212964E-1,-1.10085225E-2,8.522471E-3,-3.2001957E-3,-8.560249E-3],"categories":[],"categories_nodes":[],"categories_segments":[],"categories_sizes":[],"default_left":[0,0,0,0,0,0,0],"id":76,"left_children":[1,3,5,-1,-1,-1,-1],"loss_changes":[3.2849863E3,2.3066045E3,2.9082056E2,0E0,0E0,0E0,0E0],"parents":[2147483647,0,0,1,1,2,2],"right_children":[2,4,6,-1,-1,-1,-1],"split_conditions":[3.166667E-1,9.0909086E-2,3.4444445E-1,-1.10085225E-2,8.522471E-3,-3.2001957E-3,-8.560249E-3],"split_indices":[27,28,27,0,0,0,0],"split_type":[0,0,0,0,0,0,0],"sum_hessian":[9.324452E3,3.9188613E3,5.405591E3,7.4609174E2,3.1727695E3,1.3511749E3,4.0544158E3],"tree_param":{"num_deleted":"0","num_feature":"30","num_nodes":"7","size_leaf_vector":"1"}},{"base_weights":[-1.0479385E0,-1.3548629E-1,-1.2136682E0,6.8291947E-3,-8.233726E-3,-1.0871789E-2,-1.2327022E-2],"categories":[],"categories_nodes":[],"categories_segments":[],"categories_sizes":[],"default_left":[0,0,0,0,0,0,0],"id":77,"left_children":[1,3,5,-1,-1,-1,-1],"loss_changes":[1.3005195E3,7.455077E2,1.618457E1,0E0,0E0,0E0,0E0],"parents":[2147483647,0,0,1,1,2,2],"right_children":[2,4,6,-1,-1,-1,-1],"split_conditions":[9.0909086E-2,2.8333336E-1,2.6666668E-1,6.8291947E-3,-8.233726E-3,-1.0871789E-2,-1.2327022E-2],"split_indices":[22,27,27,0,0,0,0],"split_type":[0,0,0,0,0,0,0],"sum_hessian":[8.600242E3,1.3222415E3,7.2780005E3,6.0383826E2,7.1840326E2,9.595438E2,6.3184565E3],"tree_param":{"num_deleted":"0","num_feature":"30","num_nodes":"7","size_leaf_vector":"1"}},{"base_weights":[-1.022635E0,-9.905816E-3,-1.208582E0,7.730411E-3,-7.870554E-3,-1.0934618E-2,-1.2309571E-2],"categories":[],"categories_nodes":[],"categories_segments":[],"categories_sizes":[],"default_left":[0,0,0,0,0,0,0],"id":78,"left_children":[1,3,5,-1,-1,-1,-1],"loss_changes":[1.622916E3,8.146906E2,1.7408203E1,0E0,0E0,0E0,0E0],"parents":[2147483647,0,0,1,1,2,2],"right_children":[2,4,6,-1,-1,-1,-1],"split_conditions":[9.0909086E-2,2.9444447E-1,1.06060594E-1,7.730411E-3,-7.870554E-3,-1.0934618E-2,-1.2309571E-2],"split_indices":[28,27,28,0,0,0,0],"split_type":[0,0,0,0,0,0,0],"sum_hessian":[8.617198E3,1.3369236E3,7.2802744E3,6.6598035E2,6.709432E2,1.1928618E3,6.0874126E3],"tree_param":{"num_deleted":"0","num_feature":"30","num_nodes":"7","size_leaf_vector":"1"}},{"base_weights":[1.9504777E0,8.945557E-1,2.3873374E0,3.9065587E-3,1.7350161E-2,1.943931E-2,2.6060773E-2],"categories":[],"categories_nodes":[],"categories_segments":[],"categories_sizes":[],"default_left":[0,0,0,0,0,0,0],"id":79,"left_children":[1,3,5,-1,-1,-1,-1],"loss_changes":[5.1229297E3,1.3769951E3,7.571172E2,0E0,0E0,0E0,0E0],"parents":[2147483647,0,0,1,1,2,2],"right_children":[2,4,6,-1,-1,-1,-1],"split_conditions":[3E-1,3.873563E-1,3.4444445E-1,3.9065587E-3,1.7350161E-2,1.943931E-2,2.6060773E-2],"split_indices":[27,29,27,0,0,0,0],"split_type":[0,0,0,0,0,0,0],"sum_hessian":[1.1109295E4,3.2520051E3,7.8572896E3,2.0339882E3,1.2180171E3,2.5989204E3,5.258369E3],"tree_param":{"num_deleted":"0","num_feature":"30","num_nodes":"7","size_leaf_vector":"1"}},{"base_weights":[-1.0410904E0,-3.376363E-1,-1.1695678E0,1.4150963E-3,-9.745211E-3,-1.03965355E-2,-1.194684E-2],"categories":[],"categories_nodes":[],"categories_segments":[],"categories_sizes":[],"default_left":[0,0,0,0,0,0,0],"id":80,"left_children":[1,3,5,-1,-1,-1,-1],"loss_changes":[7.7558984E2,4.0519714E2,2.2445312E1,0E0,0E0,0E0,0E0],"parents":[2147483647,0,0,1,1,2,2],"right_children":[2,4,6,-1,-1,-1,-1],"split_conditions":[9.0909086E-2,4.0114942E-1,1.06060594E-1,1.4150963E-3,-9.745211E-3,-1.03965355E-2,-1.194684E-2],"split_indices":[28,20,28,0,0,0,0],"split_type":[0,0,0,0,0,0,0],"sum_hessian":[8.584987E3,1.3263634E3,7.258624E3,7.573592E2,5.690043E2,1.1828276E3,6.0757964E3],"tree_param":{"num_deleted":"0","num_feature":"30","num_nodes":"7","size_leaf_vector":"1"}},{"base_weights":[-2.1221149E-1,2.7998734E-1,-6.715964E-1,7.771716E-3,-5.6792246E-3,-5.8228844E-3,-1.0512458E-2],"categories":[],"categories_nodes":[],"categories_segments":[],"categories_sizes":[],"default_left":[0,0,0,0,0,0,0],"id":81,"left_children":[1,3,5,-1,-1,-1,-1],"loss_changes":[2.0935664E3,1.8849402E3,1.617644E2,0E0,0E0,0E0,0E0],"parents":[2147483647,0,0,1,1,2,2],"right_children":[2,4,6,-1,-1,-1,-1],"split_conditions":[3.277778E-1,3.862069E-1,4.2643675E-1,7.771716E-3,-5.6792246E-3,-5.8228844E-3,-1.0512458E-2],"split_indices":[21,29,29,0,0,0,0],"split_type":[0,0,0,0,0,0,0],"sum_hessian":[9.257283E3,4.4692183E3,4.788065E3,2.8173232E3,1.6518951E3,3.8782803E3,9.097848E2],"tree_param":{"num_deleted":"0","num_feature":"30","num_nodes":"7","size_leaf_vector":"1"}},{"base_weights":[-1.0477127E0,-1.17057286E-1,-1.2179178E0,-7.777149E-3,7.761132E-3,-1.1387073E-2,-1.232997E-2],"categories":[],"categories_nodes":[],"categories_segments":[],"categories_sizes":[],"default_left":[0,0,0,0,0,0,0],"id":82,"left_children":[1,3,5,-1,-1,-1,-1],"loss_changes":[1.3581875E3,7.8359564E2,7.254883E0,0E0,0E0,0E0,0E0],"parents":[2147483647,0,0,1,1,2,2],"right_children":[2,4,6,-1,-1,-1,-1],"split_conditions":[9.0909086E-2,4.0114942E-1,1.06060594E-1,-7.777149E-3,7.761132E-3,-1.1387073E-2,-1.232997E-2],"split_indices":[28,8,28,0,0,0,0],"split_type":[0,0,0,0,0,0,0],"sum_hessian":[8.574196E3,1.3259255E3,7.2482705E3,7.6224194E2,5.6368353E2,1.1714099E3,6.076861E3],"tree_param":{"num_deleted":"0","num_feature":"30","num_nodes":"7","size_leaf_vector":"1"}},{"base_weights":[-1.0194978E0,-1.9712316E-2,-1.2083226E0,5.974921E-3,-9.194959E-3,-1.1040496E-2,-1.2283949E-2],"categories":[],"categories_nodes":[],"categories_segments":[],"categories_sizes":[],"default_left":[0,0,0,0,0,0,0],"id":83,"left_children":[1,3,5,-1,-1,-1,-1],"loss_changes":[1.6170879E3,7.5683386E2,1.3724609E1,0E0,0E0,0E0,0E0],"parents":[2147483647,0,0,1,1,2,2],"right_children":[2,4,6,-1,-1,-1,-1],"split_conditions":[9.0909086E-2,3.166667E-1,1.06060594E-1,5.974921E-3,-9.194959E-3,-1.1040496E-2,-1.2283949E-2],"split_indices":[28,27,28,0,0,0,0],"split_type":[0,0,0,0,0,0,0],"sum_hessian":[8.56492E3,1.3608151E3,7.204105E3,8.073507E2,5.5346436E2,1.1719553E3,6.0321494E3],"tree_param":{"num_deleted":"0","num_feature":"30","num_nodes":"7","size_leaf_vector":"1"}},{"base_weights":[1.9128703E0,1.0097328E0,2.3390164E0,-2.5450175E-3,1.321072E-2,1.4536541E-2,2.4309942E-2],"categories":[],"categories_nodes":[],"categories_segments":[],"categories_sizes":[],"default_left":[0,0,0,0,0,0,0],"id":84,"left_children":[1,3,5,-1,-1,-1,-1],"loss_changes":[4.2920977E3,1.4090173E3,6.137656E2,0E0,0E0,0E0,0E0],"parents":[2147483647,0,0,1,1,2,2],"right_children":[2,4,6,-1,-1,-1,-1],"split_conditions":[3.0555558E-1,9.0909086E-2,9.0909086E-2,-2.5450175E-3,1.321072E-2,1.4536541E-2,2.4309942E-2],"split_indices":[24,22,7,0,0,0,0],"split_type":[0,0,0,0,0,0,0],"sum_hessian":[1.1157257E4,3.5779114E3,7.579346E3,7.0704486E2,2.8708665E3,7.148761E2,6.8644697E3],"tree_param":{"num_deleted":"0","num_feature":"30","num_nodes":"7","size_leaf_vector":"1"}},{"base_weights":[-1.0436378E0,-3.3230373E-1,-1.1722966E0,3.2478159E-3,-9.376244E-3,-1.0474224E-2,-1.196588E-2],"categories":[],"categories_nodes":[],"categories_segments":[],"categories_sizes":[],"default_left":[0,0,0,0,0,0,0],"id":85,"left_children":[1,3,5,-1,-1,-1,-1],"loss_changes":[7.808574E2,5.209113E2,2.0672852E1,0E0,0E0,0E0,0E0],"parents":[2147483647,0,0,1,1,2,2],"right_children":[2,4,6,-1,-1,-1,-1],"split_conditions":[9.0909086E-2,3.896552E-1,1.06060594E-1,3.2478159E-3,-9.376244E-3,-1.0474224E-2,-1.196588E-2],"split_indices":[28,29,28,0,0,0,0],"split_type":[0,0,0,0,0,0,0],"sum_hessian":[8.535404E3,1.3078881E3,7.2275166E3,6.2735144E2,6.805366E2,1.1841727E3,6.0433438E3],"tree_param":{"num_deleted":"0","num_feature":"30","num_nodes":"7","size_leaf_vector":"1"}},{"base_weights":[-1.9870359E-1,3.819757E-1,-6.7433745E-1,9.112703E-3,-5.263934E-3,-3.9938665E-3,-8.275974E-3],"categories":[],"categories_nodes":[],"categories_segments":[],"categories_sizes":[],"default_left":[0,0,0,0,0,0,0],"id":86,"left_children":[1,3,5,-1,-1,-1,-1],"loss_changes":[2.534978E3,1.9876172E3,2.1227734E2,0E0,0E0,0E0,0E0],"parents":[2147483647,0,0,1,1,2,2],"right_children":[2,4,6,-1,-1,-1,-1],"split_conditions":[3.2222223E-1,3.8505748E-1,3.6111113E-1,9.112703E-3,-5.263934E-3,-3.9938665E-3,-8.275974E-3],"split_indices":[24,29,24,0,0,0,0],"split_type":[0,0,0,0,0,0,0],"sum_hessian":[9.176428E3,4.132026E3,5.044402E3,2.6107646E3,1.5212611E3,1.8067212E3,3.237681E3],"tree_param":{"num_deleted":"0","num_feature":"30","num_nodes":"7","size_leaf_vector":"1"}},{"base_weights":[-1.040511E0,-1.0982593E-1,-1.2146878E0,-7.095284E-3,9.463878E-3,-1.1290577E-2,-1.2311141E-2],"categories":[],"categories_nodes":[],"categories_segments":[],"categories_sizes":[],"default_left":[0,0,0,0,0,0,0],"id":87,"left_children":[1,3,5,-1,-1,-1,-1],"loss_changes":[1.3767832E3,8.495415E2,8.674805E0,0E0,0E0,0E0,0E0],"parents":[2147483647,0,0,1,1,2,2],"right_children":[2,4,6,-1,-1,-1,-1],"split_conditions":[9.0909086E-2,4.1609195E-1,1.06060594E-1,-7.095284E-3,9.463878E-3,-1.1290577E-2,-1.2311141E-2],"split_indices":[28,8,28,0,0,0,0],"split_type":[0,0,0,0,0,0,0],"sum_hessian":[8.49305E3,1.3391504E3,7.1539E3,8.5437646E2,4.8477393E2,1.1626696E3,5.99123E3],"tree_param":{"num_deleted":"0","num_feature":"30","num_nodes":"7","size_leaf_vector":"1"}},{"base_weights":[-1.004527E0,1.800575E-2,-1.2004311E0,7.877506E-3,-8.36191E-3,-2.0623729E-3,-1.20322E-2],"categories":[],"categories_nodes":[],"categories_segments":[],"categories_sizes":[],"default_left":[0,0,0,0,0,0,0],"id":88,"left_children":[1,3,5,-1,-1,-1,-1],"loss_changes":[1.7117773E3,9.046777E2,1.9635742E1,0E0,0E0,0E0,0E0],"parents":[2147483647,0,0,1,1,2,2],"right_children":[2,4,6,-1,-1,-1,-1],"split_conditions":[9.0909086E-2,3E-1,6.0606055E-2,7.877506E-3,-8.36191E-3,-2.0623729E-3,-1.20322E-2],"split_indices":[28,27,10,0,0,0,0],"split_type":[0,0,0,0,0,0,0],"sum_hessian":[8.544175E3,1.3739054E3,7.170269E3,7.22718E2,6.511873E2,2.0267435E1,7.1500015E3],"tree_param":{"num_deleted":"0","num_feature":"30","num_nodes":"7","size_leaf_vector":"1"}},{"base_weights":[1.8959551E0,8.495482E-1,2.3170204E0,-4.0746043E-3,1.17583E-2,1.9019159E-2,2.5228733E-2],"categories":[],"categories_nodes":[],"categories_segments":[],"categories_sizes":[],"default_left":[0,0,0,0,0,0,0],"id":89,"left_children":[1,3,5,-1,-1,-1,-1],"loss_changes":[4.97784E3,1.3311921E3,6.838125E2,0E0,0E0,0E0,0E0],"parents":[2147483647,0,0,1,1,2,2],"right_children":[2,4,6,-1,-1,-1,-1],"split_conditions":[3E-1,9.0909086E-2,3.4444445E-1,-4.0746043E-3,1.17583E-2,1.9019159E-2,2.5228733E-2],"split_indices":[27,25,27,0,0,0,0],"split_type":[0,0,0,0,0,0,0],"sum_hessian":[1.1301187E4,3.243542E3,8.057644E3,6.6837225E2,2.5751697E3,2.674577E3,5.3830674E3],"tree_param":{"num_deleted":"0","num_feature":"30","num_nodes":"7","size_leaf_vector":"1"}},{"base_weights":[-1.0345118E0,-3.3782643E-1,-1.1632428E0,1.8024482E-3,-9.988434E-3,-1.0424843E-2,-1.1868914E-2],"categories":[],"categories_nodes":[],"categories_segments":[],"categories_sizes":[],"default_left":[0,0,0,0,0,0,0],"id":90,"left_children":[1,3,5,-1,-1,-1,-1],"loss_changes":[7.640508E2,4.5590027E2,1.9307617E1,0E0,0E0,0E0,0E0],"parents":[2147483647,0,0,1,1,2,2],"right_children":[2,4,6,-1,-1,-1,-1],"split_conditions":[9.0909086E-2,4.0689656E-1,1.06060594E-1,1.8024482E-3,-9.988434E-3,-1.0424843E-2,-1.1868914E-2],"split_indices":[28,29,28,0,0,0,0],"split_type":[0,0,0,0,0,0,0],"sum_hessian":[8.522659E3,1.3297491E3,7.19291E3,7.458878E2,5.838614E2,1.1853203E3,6.00759E3],"tree_param":{"num_deleted":"0","num_feature":"30","num_nodes":"7","size_leaf_vector":"1"}},{"base_weights":[-2.0892102E-1,1.7463816E-2,-8.924846E-1,6.0393605E-3,-4.2333878E-3,-6.0868175E-3,-1.0465376E-2],"categories":[],"categories_nodes":[],"categories_segments":[],"categories_sizes":[],"default_left":[0,0,0,0,0,0,0],"id":91,"left_children":[1,3,5,-1,-1,-1,-1],"loss_changes":[1.4327139E3,1.7984784E3,1.0006775E2,0E0,0E0,0E0,0E0],"parents":[2147483647,0,0,1,1,2,2],"right_children":[2,4,6,-1,-1,-1,-1],"split_conditions":[4.126437E-1,3.2222223E-1,4.2988506E-1,6.0393605E-3,-4.2333878E-3,-6.0868175E-3,-1.0465376E-2],"split_indices":[29,12,23,0,0,0,0],"split_type":[0,0,0,0,0,0,0],"sum_hessian":[9.257241E3,6.9548765E3,2.3023643E3,2.9841719E3,3.9707048E3,8.1179425E2,1.4905701E3],"tree_param":{"num_deleted":"0","num_feature":"30","num_nodes":"7","size_leaf_vector":"1"}},{"base_weights":[-1.038373E0,-1.20712005E-1,-1.208322E0,6.9043622E-3,-7.889405E-3,-1.10067045E-2,-1.22441705E-2],"categories":[],"categories_nodes":[],"categories_segments":[],"categories_sizes":[],"default_left":[0,0,0,0,0,0,0],"id":92,"left_children":[1,3,5,-1,-1,-1,-1],"loss_changes":[1.3187402E3,7.1741766E2,1.1015625E1,0E0,0E0,0E0,0E0],"parents":[2147483647,0,0,1,1,2,2],"right_children":[2,4,6,-1,-1,-1,-1],"split_conditions":[9.0909086E-2,2.8333336E-1,2.6666668E-1,6.9043622E-3,-7.889405E-3,-1.10067045E-2,-1.22441705E-2],"split_indices":[25,27,27,0,0,0,0],"split_type":[0,0,0,0,0,0,0],"sum_hessian":[8.455809E3,1.3215647E3,7.134244E3,5.969305E2,7.246342E2,9.369339E2,6.1973105E3],"tree_param":{"num_deleted":"0","num_feature":"30","num_nodes":"7","size_leaf_vector":"1"}},{"base_weights":[-1.0116912E0,-7.4317288E-3,-1.1991304E0,7.046606E-3,-8.501529E-3,-1.0588845E-2,-1.216977E-2],"categories":[],"categories_nodes":[],"categories_segments":[],"categories_sizes":[],"default_left":[0,0,0,0,0,0,0],"id":93,"left_children":[1,3,5,-1,-1,-1,-1],"loss_changes":[1.5950703E3,8.0101917E2,1.658496E1,0E0,0E0,0E0,0E0],"parents":[2147483647,0,0,1,1,2,2],"right_children":[2,4,6,-1,-1,-1,-1],"split_conditions":[9.0909086E-2,3.0555558E-1,2.6111114E-1,7.046606E-3,-8.501529E-3,-1.0588845E-2,-1.216977E-2],"split_indices":[25,27,27,0,0,0,0],"split_type":[0,0,0,0,0,0,0],"sum_hessian":[8.47276E3,1.3328217E3,7.1399375E3,7.224887E2,6.10333E2,8.12821E2,6.3271167E3],"tree_param":{"num_deleted":"0","num_feature":"30","num_nodes":"7","size_leaf_vector":"1"}},{"base_weights":[1.8548135E0,1.0316774E0,2.2922401E0,-2.0130007E-3,1.3091379E-2,1.3804586E-2,2.3880681E-2],"categories":[],"categories_nodes":[],"categories_segments":[],"categories_sizes":[],"default_left":[0,0,0,0,0,0,0],"id":94,"left_children":[1,3,5,-1,-1,-1,-1],"loss_changes":[4.0648203E3,1.3418413E3,6.411094E2,0E0,0E0,0E0,0E0],"parents":[2147483647,0,0,1,1,2,2],"right_children":[2,4,6,-1,-1,-1,-1],"split_conditions":[3.1111112E-1,9.0909086E-2,9.0909086E-2,-2.0130007E-3,1.3091379E-2,1.3804586E-2,2.3880681E-2],"split_indices":[24,19,28,0,0,0,0],"split_type":[0,0,0,0,0,0,0],"sum_hessian":[1.1294803E4,3.9205642E3,7.3742383E3,7.202402E2,3.200324E3,7.027867E2,6.6714517E3],"tree_param":{"num_deleted":"0","num_feature":"30","num_nodes":"7","size_leaf_vector":"1"}},{"base_weights":[-1.0312244E0,-3.253563E-1,-1.1606854E0,1.5913495E-3,-1.0393778E-2,-1.0135919E-2,-1.1887948E-2],"categories":[],"categories_nodes":[],"categories_segments":[],"categories_sizes":[],"default_left":[0,0,0,0,0,0,0],"id":95,"left_children":[1,3,5,-1,-1,-1,-1],"loss_changes":[7.707363E2,4.5305817E2,2.8276367E1,0E0,0E0,0E0,0E0],"parents":[2147483647,0,0,1,1,2,2],"right_children":[2,4,6,-1,-1,-1,-1],"split_conditions":[9.0909086E-2,4.126437E-1,1.06060594E-1,1.5913495E-3,-1.0393778E-2,-1.0135919E-2,-1.1887948E-2],"split_indices":[28,26,28,0,0,0,0],"split_type":[0,0,0,0,0,0,0],"sum_hessian":[8.437312E3,1.3081764E3,7.129135E3,7.798173E2,5.2835913E2,1.1497395E3,5.9793955E3],"tree_param":{"num_deleted":"0","num_feature":"30","num_nodes":"7","size_leaf_vector":"1"}},{"base_weights":[-2.0816442E-1,4.3689936E-1,-7.4276423E-1,-1.074256E-2,7.7948696E-3,-4.0501705E-3,-8.612737E-3],"categories":[],"categories_nodes":[],"categories_segments":[],"categories_sizes":[],"default_left":[0,0,0,0,0,0,0],"id":96,"left_children":[1,3,5,-1,-1,-1,-1],"loss_changes":[3.1849614E3,2.1677688E3,2.0179028E2,0E0,0E0,0E0,0E0],"parents":[2147483647,0,0,1,1,2,2],"right_children":[2,4,6,-1,-1,-1,-1],"split_conditions":[3.2222223E-1,9.0909086E-2,3.5000002E-1,-1.074256E-2,7.7948696E-3,-4.0501705E-3,-8.612737E-3],"split_indices":[27,28,27,0,0,0,0],"split_type":[0,0,0,0,0,0,0],"sum_hessian":[9.233821E3,4.1846646E3,5.0491562E3,7.729673E2,3.4116975E3,1.312631E3,3.7365251E3],"tree_param":{"num_deleted":"0","num_feature":"30","num_nodes":"7","size_leaf_vector":"1"}},{"base_weights":[-1.0368346E0,-1.3011156E-1,-1.207298E0,-7.755476E-3,7.842993E-3,-1.1048859E-2,-1.22237755E-2],"categories":[],"categories_nodes":[],"categories_segments":[],"categories_sizes":[],"default_left":[0,0,0,0,0,0,0],"id":97,"left_children":[1,3,5,-1,-1,-1,-1],"loss_changes":[1.3004863E3,7.872062E2,9.587891E0,0E0,0E0,0E0,0E0],"parents":[2147483647,0,0,1,1,2,2],"right_children":[2,4,6,-1,-1,-1,-1],"split_conditions":[9.0909086E-2,4.0114942E-1,2.6666668E-1,-7.755476E-3,7.842993E-3,-1.1048859E-2,-1.22237755E-2],"split_indices":[28,2,27,0,0,0,0],"split_type":[0,0,0,0,0,0,0],"sum_hessian":[8.413966E3,1.3317792E3,7.0821865E3,7.8080237E2,5.5097675E2,9.1849585E2,6.163691E3],"tree_param":{"num_deleted":"0","num_feature":"30","num_nodes":"7","size_leaf_vector":"1"}},{"base_weights":[-1.0119267E0,-2.830266E-2,-1.198527E0,6.9131553E-3,-8.911317E-3,-1.093062E-2,-1.2189493E-2],"categories":[],"categories_nodes":[],"categories_segments":[],"categories_sizes":[],"default_left":[0,0,0,0,0,0,0],"id":98,"left_children":[1,3,5,-1,-1,-1,-1],"loss_changes":[1.5479385E3,8.3626227E2,1.3936523E1,0E0,0E0,0E0,0E0],"parents":[2147483647,0,0,1,1,2,2],"right_children":[2,4,6,-1,-1,-1,-1],"split_conditions":[9.0909086E-2,4.0804598E-1,1.06060594E-1,6.9131553E-3,-8.911317E-3,-1.093062E-2,-1.2189493E-2],"split_indices":[28,29,28,0,0,0,0],"split_type":[0,0,0,0,0,0,0],"sum_hessian":[8.432766E3,1.3448466E3,7.087919E3,7.333857E2,6.114608E2,1.1586932E3,5.9292256E3],"tree_param":{"num_deleted":"0","num_feature":"30","num_nodes":"7","size_leaf_vector":"1"}},{"base_weights":[1.823726E0,8.8740677E-1,2.2576952E0,4.3801265E-3,1.7017817E-2,1.367126E-2,2.353947E-2],"categories":[],"categories_nodes":[],"categories_segments":[],"categories_sizes":[],"default_left":[0,0,0,0,0,0,0],"id":99,"left_children":[1,3,5,-1,-1,-1,-1],"loss_changes":[4.5933633E3,1.3106565E3,6.591406E2,0E0,0E0,0E0,0E0],"parents":[2147483647,0,0,1,1,2,2],"right_children":[2,4,6,-1,-1,-1,-1],"split_conditions":[3.0555558E-1,3.9080462E-1,9.0909086E-2,4.3801265E-3,1.7017817E-2,1.367126E-2,2.353947E-2],"split_indices":[27,26,22,0,0,0,0],"split_type":[0,0,0,0,0,0,0],"sum_hessian":[1.1308346E4,3.5823076E3,7.726038E3,2.3094363E3,1.2728715E3,7.550597E2,6.9709785E3],"tree_param":{"num_deleted":"0","num_feature":"30","num_nodes":"7","size_leaf_vector":"1"}},{"base_weights":[-1.0218954E0,-3.343615E-1,-1.1490885E0,2.338479E-3,-9.565092E-3,-1.010307E-2,-1.1763873E-2],"categories":[],"categories_nodes":[],"categories_segments":[],"categories_sizes":[],"default_left":[0,0,0,0,0,0,0],"id":100,"left_children":[1,3,5,-1,-1,-1,-1],"loss_changes":[7.349121E2,4.647652E2,2.5691406E1,0E0,0E0,0E0,0E0],"parents":[2147483647,0,0,1,1,2,2],"right_children":[2,4,6,-1,-1,-1,-1],"split_conditions":[9.0909086E-2,3.9540234E-1,1.06060594E-1,2.338479E-3,-9.565092E-3,-1.010307E-2,-1.1763873E-2],"split_indices":[25,26,25,0,0,0,0],"split_type":[0,0,0,0,0,0,0],"sum_hessian":[8.40723E3,1.3130825E3,7.094148E3,6.866171E2,6.264654E2,1.1723185E3,5.9218296E3],"tree_param":{"num_deleted":"0","num_feature":"30","num_nodes":"7","size_leaf_vector":"1"}},{"base_weights":[-2.0541869E-1,3.513012E-1,-6.662282E-1,-1.089069E-2,6.8437527E-3,-3.7883439E-3,-8.28966E-3],"categories":[],"categories_nodes":[],"categories_segments":[],"categories_sizes":[],"default_left":[0,0,0,0,0,0,0],"id":101,"left_children":[1,3,5,-1,-1,-1,-1],"loss_changes":[2.3663535E3,2.0049221E3,2.357146E2,0E0,0E0,0E0,0E0],"parents":[2147483647,0,0,1,1,2,2],"right_children":[2,4,6,-1,-1,-1,-1],"split_conditions":[3.2222223E-1,9.0909086E-2,3.6111113E-1,-1.089069E-2,6.8437527E-3,-3.7883439E-3,-8.28966E-3],"split_indices":[24,28,24,0,0,0,0],"split_type":[0,0,0,0,0,0,0],"sum_hessian":[9.222134E3,4.1765444E3,5.04559E3,7.8397876E2,3.3925654E3,1.825355E3,3.2202349E3],"tree_param":{"num_deleted":"0","num_feature":"30","num_nodes":"7","size_leaf_vector":"1"}},{"base_weights":[-1.0302879E0,-1.4042819E-1,-1.1997168E0,-7.4558905E-3,7.396669E-3,-1.1018957E-2,-1.2186472E-2],"categories":[],"categories_nodes":[],"categories_segments":[],"categories_sizes":[],"default_left":[0,0,0,0,0,0,0],"id":102,"left_children":[1,3,5,-1,-1,-1,-1],"loss_changes":[1.2627314E3,7.147197E2,1.1686523E1,0E0,0E0,0E0,0E0],"parents":[2147483647,0,0,1,1,2,2],"right_children":[2,4,6,-1,-1,-1,-1],"split_conditions":[9.0909086E-2,4.0459773E-1,1.06060594E-1,-7.4558905E-3,7.396669E-3,-1.1018957E-2,-1.2186472E-2],"split_indices":[25,2,25,0,0,0,0],"split_type":[0,0,0,0,0,0,0],"sum_hessian":[8.375447E3,1.3399113E3,7.035536E3,7.94061E2,5.458502E2,1.150367E3,5.8851694E3],"tree_param":{"num_deleted":"0","num_feature":"30","num_nodes":"7","size_leaf_vector":"1"}},{"base_weights":[-9.9393374E-1,1.2107471E-2,-1.1916143E0,6.5016286E-3,-8.222097E-3,-1.0756088E-2,-1.2139739E-2],"categories":[],"categories_nodes":[],"categories_segments":[],"categories_sizes":[],"default_left":[0,0,0,0,0,0,0],"id":103,"left_children":[1,3,5,-1,-1,-1,-1],"loss_changes":[1.6661387E3,7.33473E2,1.6856445E1,0E0,0E0,0E0,0E0],"parents":[2147483647,0,0,1,1,2,2],"right_children":[2,4,6,-1,-1,-1,-1],"split_conditions":[9.0909086E-2,3.0555558E-1,1.06060594E-1,6.5016286E-3,-8.222097E-3,-1.0756088E-2,-1.2139739E-2],"split_indices":[28,24,28,0,0,0,0],"split_type":[0,0,0,0,0,0,0],"sum_hessian":[8.37676E3,1.3758225E3,7.0009375E3,7.797323E2,5.9609015E2,1.1392817E3,5.861656E3],"tree_param":{"num_deleted":"0","num_feature":"30","num_nodes":"7","size_leaf_vector":"1"}},{"base_weights":[1.8012185E0,1.0005844E0,2.2808998E0,6.2357984E-3,1.8933136E-2,1.4325833E-2,2.3702426E-2],"categories":[],"categories_nodes":[],"categories_segments":[],"categories_sizes":[],"default_left":[0,0,0,0,0,0,0],"id":104,"left_children":[1,3,5,-1,-1,-1,-1],"loss_changes":[4.4047266E3,1.4463892E3,5.4041406E2,0E0,0E0,0E0,0E0],"parents":[2147483647,0,0,1,1,2,2],"right_children":[2,4,6,-1,-1,-1,-1],"split_conditions":[3.166667E-1,4.0574715E-1,9.0909086E-2,6.2357984E-3,1.8933136E-2,1.4325833E-2,2.3702426E-2],"split_indices":[27,29,19,0,0,0,0],"split_type":[0,0,0,0,0,0,0],"sum_hessian":[1.1474124E4,4.3000356E3,7.174088E3,3.0244797E3,1.2755559E3,6.8519037E2,6.4888975E3],"tree_param":{"num_deleted":"0","num_feature":"30","num_nodes":"7","size_leaf_vector":"1"}},{"base_weights":[-1.0243161E0,-3.1817168E-1,-1.1541456E0,1.6753661E-3,-1.0224857E-2,-1.0312061E-2,-1.17778545E-2],"categories":[],"categories_nodes":[],"categories_segments":[],"categories_sizes":[],"default_left":[0,0,0,0,0,0,0],"id":105,"left_children":[1,3,5,-1,-1,-1,-1],"loss_changes":[7.617793E2,4.423101E2,1.919336E1,0E0,0E0,0E0,0E0],"parents":[2147483647,0,0,1,1,2,2],"right_children":[2,4,6,-1,-1,-1,-1],"split_conditions":[9.0909086E-2,4.126437E-1,1.06060594E-1,1.6753661E-3,-1.0224857E-2,-1.0312061E-2,-1.17778545E-2],"split_indices":[28,26,28,0,0,0,0],"split_type":[0,0,0,0,0,0,0],"sum_hessian":[8.31227E3,1.2914589E3,7.0208105E3,7.648003E2,5.2665857E2,1.1394956E3,5.881315E3],"tree_param":{"num_deleted":"0","num_feature":"30","num_nodes":"7","size_leaf_vector":"1"}},{"base_weights":[-2.1058905E-1,2.8463677E-1,-6.261786E-1,7.1446695E-3,-7.1063437E-3,-4.706489E-3,-9.168703E-3],"categories":[],"categories_nodes":[],"categories_segments":[],"categories_sizes":[],"default_left":[0,0,0,0,0,0,0],"id":106,"left_children":[1,3,5,-1,-1,-1,-1],"loss_changes":[1.9006848E3,1.8032971E3,2.2657983E2,0E0,0E0,0E0,0E0],"parents":[2147483647,0,0,1,1,2,2],"right_children":[2,4,6,-1,-1,-1,-1],"split_conditions":[3.2222223E-1,4.0344825E-1,3.7816095E-1,7.1446695E-3,-7.1063437E-3,-4.706489E-3,-9.168703E-3],"split_indices":[21,29,29,0,0,0,0],"split_type":[0,0,0,0,0,0,0],"sum_hessian":[9.233247E3,4.213117E3,5.02013E3,2.94258E3,1.2705372E3,3.2720784E3,1.7480514E3],"tree_param":{"num_deleted":"0","num_feature":"30","num_nodes":"7","size_leaf_vector":"1"}},{"base_weights":[-1.0333819E0,-1.4951672E-1,-1.1972835E0,-7.763778E-3,6.9269333E-3,-1.08020315E-2,-1.2146869E-2],"categories":[],"categories_nodes":[],"categories_segments":[],"categories_sizes":[],"default_left":[0,0,0,0,0,0,0],"id":107,"left_children":[1,3,5,-1,-1,-1,-1],"loss_changes":[1.2015293E3,6.862185E2,1.29453125E1,0E0,0E0,0E0,0E0],"parents":[2147483647,0,0,1,1,2,2],"right_children":[2,4,6,-1,-1,-1,-1],"split_conditions":[9.0909086E-2,3.988506E-1,2.6666668E-1,-7.763778E-3,6.9269333E-3,-1.08020315E-2,-1.2146869E-2],"split_indices":[25,2,27,0,0,0,0],"split_type":[0,0,0,0,0,0,0],"sum_hessian":[8.294252E3,1.2977639E3,6.9964873E3,7.440455E2,5.537185E2,9.135719E2,6.0829155E3],"tree_param":{"num_deleted":"0","num_feature":"30","num_nodes":"7","size_leaf_vector":"1"}},{"base_weights":[-1.004713E0,-3.5254776E-2,-1.1931224E0,6.5532723E-3,-8.360224E-3,-1.088808E-2,-1.2129034E-2],"categories":[],"categories_nodes":[],"categories_segments":[],"categories_sizes":[],"default_left":[0,0,0,0,0,0,0],"id":108,"left_children":[1,3,5,-1,-1,-1,-1],"loss_changes":[1.528251E3,7.5402344E2,1.3134766E1,0E0,0E0,0E0,0E0],"parents":[2147483647,0,0,1,1,2,2],"right_children":[2,4,6,-1,-1,-1,-1],"split_conditions":[9.0909086E-2,4.0229884E-1,1.06060594E-1,6.5532723E-3,-8.360224E-3,-1.088808E-2,-1.2129034E-2],"split_indices":[28,26,28,0,0,0,0],"split_type":[0,0,0,0,0,0,0],"sum_hessian":[8.366109E3,1.361534E3,7.0045757E3,7.3116174E2,6.3037225E2,1.1254736E3,5.879102E3],"tree_param":{"num_deleted":"0","num_feature":"30","num_nodes":"7","size_leaf_vector":"1"}},{"base_weights":[1.7634723E0,8.085657E-1,2.1491265E0,-3.956404E-3,1.1227999E-2,1.7521203E-2,2.3469204E-2],"categories":[],"categories_nodes":[],"categories_segments":[],"categories_sizes":[],"default_left":[0,0,0,0,0,0,0],"id":109,"left_children":[1,3,5,-1,-1,-1,-1],"loss_changes":[4.243535E3,1.2559597E3,6.4064844E2,0E0,0E0,0E0,0E0],"parents":[2147483647,0,0,1,1,2,2],"right_children":[2,4,6,-1,-1,-1,-1],"split_conditions":[3E-1,9.0909086E-2,3.4444445E-1,-3.956404E-3,1.1227999E-2,1.7521203E-2,2.3469204E-2],"split_indices":[27,28,27,0,0,0,0],"split_type":[0,0,0,0,0,0,0],"sum_hessian":[1.1526798E4,3.3169336E3,8.209864E3,6.863704E2,2.630563E3,2.7333757E3,5.4764883E3],"tree_param":{"num_deleted":"0","num_feature":"30","num_nodes":"7","size_leaf_vector":"1"}},{"base_weights":[-1.0168245E0,-3.4091577E-1,-1.1393045E0,1.655739E-3,-9.920024E-3,-1.0142646E-2,-1.1636196E-2],"categories":[],"categories_nodes":[],"categories_segments":[],"categories_sizes":[],"default_left":[0,0,0,0,0,0,0],"id":110,"left_children":[1,3,5,-1,-1,-1,-1],"loss_changes":[6.8439746E2,4.191022E2,2.0109375E1,0E0,0E0,0E0,0E0],"parents":[2147483647,0,0,1,1,2,2],"right_children":[2,4,6,-1,-1,-1,-1],"split_conditions":[9.0909086E-2,4.0804598E-1,1.06060594E-1,1.655739E-3,-9.920024E-3,-1.0142646E-2,-1.1636196E-2],"split_indices":[22,26,22,0,0,0,0],"split_type":[0,0,0,0,0,0,0],"sum_hessian":[8.270825E3,1.2693995E3,7.0014253E3,7.144018E2,5.5499774E2,1.146795E3,5.8546304E3],"tree_param":{"num_deleted":"0","num_feature":"30","num_nodes":"7","size_leaf_vector":"1"}},{"base_weights":[-2.0094088E-1,4.6008334E-1,-6.938373E-1,-1.0445821E-2,7.948656E-3,-4.038734E-3,-8.817753E-3],"categories":[],"categories_nodes":[],"categories_segments":[],"categories_sizes":[],"default_left":[0,0,0,0,0,0,0],"id":111,"left_children":[1,3,5,-1,-1,-1,-1],"loss_changes":[2.9927224E3,1.9773252E3,2.8637842E2,0E0,0E0,0E0,0E0],"parents":[2147483647,0,0,1,1,2,2],"right_children":[2,4,6,-1,-1,-1,-1],"split_conditions":[3.166667E-1,9.0909086E-2,3.6111113E-1,-1.0445821E-2,7.948656E-3,-4.038734E-3,-8.817753E-3],"split_indices":[27,25,27,0,0,0,0],"split_type":[0,0,0,0,0,0,0],"sum_hessian":[9.183321E3,3.922678E3,5.260643E3,7.1354736E2,3.2091306E3,2.0700195E3,3.1906235E3],"tree_param":{"num_deleted":"0","num_feature":"30","num_nodes":"7","size_leaf_vector":"1"}},{"base_weights":[-1.0197585E0,-1.2795256E-1,-1.191445E0,5.292339E-3,-9.250481E-3,-1.0749794E-2,-1.20908655E-2],"categories":[],"categories_nodes":[],"categories_segments":[],"categories_sizes":[],"default_left":[0,0,0,0,0,0,0],"id":112,"left_children":[1,3,5,-1,-1,-1,-1],"loss_changes":[1.2589277E3,6.964975E2,1.2869141E1,0E0,0E0,0E0,0E0],"parents":[2147483647,0,0,1,1,2,2],"right_children":[2,4,6,-1,-1,-1,-1],"split_conditions":[9.0909086E-2,3.0555558E-1,2.6666668E-1,5.292339E-3,-9.250481E-3,-1.0749794E-2,-1.20908655E-2],"split_indices":[22,24,24,0,0,0,0],"split_type":[0,0,0,0,0,0,0],"sum_hessian":[8.222321E3,1.3276643E3,6.8946567E3,7.2788025E2,5.9978406E2,9.151282E2,5.9795283E3],"tree_param":{"num_deleted":"0","num_feature":"30","num_nodes":"7","size_leaf_vector":"1"}},{"base_weights":[-9.917349E-1,5.5799987E-3,-1.185566E0,7.205998E-3,-8.2592815E-3,-1.0457925E-2,-1.2031751E-2],"categories":[],"categories_nodes":[],"categories_segments":[],"categories_sizes":[],"default_left":[0,0,0,0,0,0,0],"id":113,"left_children":[1,3,5,-1,-1,-1,-1],"loss_changes":[1.5986157E3,8.0126E2,1.578418E1,0E0,0E0,0E0,0E0],"parents":[2147483647,0,0,1,1,2,2],"right_children":[2,4,6,-1,-1,-1,-1],"split_conditions":[9.0909086E-2,3E-1,2.6111114E-1,7.205998E-3,-8.2592815E-3,-1.0457925E-2,-1.2031751E-2],"split_indices":[28,27,27,0,0,0,0],"split_type":[0,0,0,0,0,0,0],"sum_hessian":[8.268643E3,1.3456855E3,6.922957E3,7.2359467E2,6.220909E2,7.813468E2,6.1416104E3],"tree_param":{"num_deleted":"0","num_feature":"30","num_nodes":"7","size_leaf_vector":"1"}},{"base_weights":[1.7347394E0,9.067807E-1,2.1705623E0,4.5322357E-3,1.6683824E-2,1.289848E-2,2.2638876E-2],"categories":[],"categories_nodes":[],"categories_segments":[],"categories_sizes":[],"default_left":[0,0,0,0,0,0,0],"id":114,"left_children":[1,3,5,-1,-1,-1,-1],"loss_changes":[4.1688867E3,1.3767429E3,6.194336E2,0E0,0E0,0E0,0E0],"parents":[2147483647,0,0,1,1,2,2],"right_children":[2,4,6,-1,-1,-1,-1],"split_conditions":[3.1111112E-1,3.862069E-1,9.0909086E-2,4.5322357E-3,1.6683824E-2,1.289848E-2,2.2638876E-2],"split_indices":[27,29,22,0,0,0,0],"split_type":[0,0,0,0,0,0,0],"sum_hessian":[1.155763E4,3.9867825E3,7.570847E3,2.4997185E3,1.487064E3,7.268029E2,6.844044E3],"tree_param":{"num_deleted":"0","num_feature":"30","num_nodes":"7","size_leaf_vector":"1"}},{"base_weights":[-1.0117785E0,-2.96202E-1,-1.1466951E0,2.430581E-3,-9.62411E-3,1.2741389E-2,-1.148779E-2],"categories":[],"categories_nodes":[],"categories_segments":[],"categories_sizes":[],"default_left":[0,0,0,0,0,0,0],"id":115,"left_children":[1,3,5,-1,-1,-1,-1],"loss_changes":[7.953037E2,4.703968E2,3.6442383E1,0E0,0E0,0E0,0E0],"parents":[2147483647,0,0,1,1,2,2],"right_children":[2,4,6,-1,-1,-1,-1],"split_conditions":[9.0909086E-2,4.0344825E-1,3.030303E-2,2.430581E-3,-9.62411E-3,1.2741389E-2,-1.148779E-2],"split_indices":[28,29,10,0,0,0,0],"split_type":[0,0,0,0,0,0,0],"sum_hessian":[8.240325E3,1.3076982E3,6.932627E3,7.230575E2,5.8464075E2,5.4374914E0,6.9271895E3],"tree_param":{"num_deleted":"0","num_feature":"30","num_nodes":"7","size_leaf_vector":"1"}},{"base_weights":[-1.9506471E-1,3.599132E-1,-7.841918E-1,7.4730287E-3,-7.588128E-3,-4.7617736E-3,-8.703832E-3],"categories":[],"categories_nodes":[],"categories_segments":[],"categories_sizes":[],"default_left":[0,0,0,0,0,0,0],"id":116,"left_children":[1,3,5,-1,-1,-1,-1],"loss_changes":[2.9986235E3,2.0473618E3,1.1769141E2,0E0,0E0,0E0,0E0],"parents":[2147483647,0,0,1,1,2,2],"right_children":[2,4,6,-1,-1,-1,-1],"split_conditions":[3.3333334E-1,4.126437E-1,3.2222223E-1,7.4730287E-3,-7.588128E-3,-4.7617736E-3,-8.703832E-3],"split_indices":[27,29,9,0,0,0,0],"split_type":[0,0,0,0,0,0,0],"sum_hessian":[9.169571E3,4.721832E3,4.447739E3,3.507571E3,1.214261E3,9.7390546E2,3.4738333E3],"tree_param":{"num_deleted":"0","num_feature":"30","num_nodes":"7","size_leaf_vector":"1"}},{"base_weights":[-1.024778E0,-1.4177172E-1,-1.1954756E0,-7.1994597E-3,7.7808206E-3,-1.1066988E-2,-1.2124996E-2],"categories":[],"categories_nodes":[],"categories_segments":[],"categories_sizes":[],"default_left":[0,0,0,0,0,0,0],"id":117,"left_children":[1,3,5,-1,-1,-1,-1],"loss_changes":[1.2324023E3,7.0570624E2,9.014648E0,0E0,0E0,0E0,0E0],"parents":[2147483647,0,0,1,1,2,2],"right_children":[2,4,6,-1,-1,-1,-1],"split_conditions":[9.0909086E-2,4.1149423E-1,1.06060594E-1,-7.1994597E-3,7.7808206E-3,-1.1066988E-2,-1.2124996E-2],"split_indices":[28,8,28,0,0,0,0],"split_type":[0,0,0,0,0,0,0],"sum_hessian":[8.1765103E3,1.3248718E3,6.8516387E3,8.1366187E2,5.1120996E2,1.1130981E3,5.7385405E3],"tree_param":{"num_deleted":"0","num_feature":"30","num_nodes":"7","size_leaf_vector":"1"}},{"base_weights":[-9.841007E-1,1.9455047E-2,-1.1794922E0,7.4046105E-3,-7.977701E-3,-1.0547981E-2,-1.2034604E-2],"categories":[],"categories_nodes":[],"categories_segments":[],"categories_sizes":[],"default_left":[0,0,0,0,0,0,0],"id":118,"left_children":[1,3,5,-1,-1,-1,-1],"loss_changes":[1.6082686E3,7.887443E2,1.9248047E1,0E0,0E0,0E0,0E0],"parents":[2147483647,0,0,1,1,2,2],"right_children":[2,4,6,-1,-1,-1,-1],"split_conditions":[9.0909086E-2,4.0459773E-1,1.06060594E-1,7.4046105E-3,-7.977701E-3,-1.0547981E-2,-1.2034604E-2],"split_indices":[25,26,25,0,0,0,0],"split_type":[0,0,0,0,0,0,0],"sum_hessian":[8.20072E3,1.3366123E3,6.864107E3,7.101598E2,6.2645245E2,1.1139263E3,5.7501807E3],"tree_param":{"num_deleted":"0","num_feature":"30","num_nodes":"7","size_leaf_vector":"1"}},{"base_weights":[1.7158103E0,9.453414E-1,2.071903E0,-3.0335363E-3,1.238116E-2,1.2128453E-2,2.1615645E-2],"categories":[],"categories_nodes":[],"categories_segments":[],"categories_sizes":[],"default_left":[0,0,0,0,0,0,0],"id":119,"left_children":[1,3,5,-1,-1,-1,-1],"loss_changes":[3.1946797E3,1.3474448E3,6.1108203E2,0E0,0E0,0E0,0E0],"parents":[2147483647,0,0,1,1,2,2],"right_children":[2,4,6,-1,-1,-1,-1],"split_conditions":[3.0555558E-1,9.0909086E-2,9.0909086E-2,-3.0335363E-3,1.238116E-2,1.2128453E-2,2.1615645E-2],"split_indices":[24,16,19,0,0,0,0],"split_type":[0,0,0,0,0,0,0],"sum_hessian":[1.1650323E4,3.683683E3,7.9666396E3,6.9964276E2,2.9840403E3,7.542858E2,7.212354E3],"tree_param":{"num_deleted":"0","num_feature":"30","num_nodes":"7","size_leaf_vector":"1"}},{"base_weights":[-1.0115432E0,-3.1992823E-1,-1.1398008E0,-9.428578E-3,1.8724604E-3,-1.0020328E-2,-1.1670119E-2],"categories":[],"categories_nodes":[],"categories_segments":[],"categories_sizes":[],"default_left":[0,0,0,0,0,0,0],"id":120,"left_children":[1,3,5,-1,-1,-1,-1],"loss_changes":[7.228379E2,4.03561E2,2.4612305E1,0E0,0E0,0E0,0E0],"parents":[2147483647,0,0,1,1,2,2],"right_children":[2,4,6,-1,-1,-1,-1],"split_conditions":[9.0909086E-2,2.888889E-1,1.06060594E-1,-9.428578E-3,1.8724604E-3,-1.0020328E-2,-1.1670119E-2],"split_indices":[25,27,25,0,0,0,0],"split_type":[0,0,0,0,0,0,0],"sum_hessian":[8.151911E3,1.2758003E3,6.876111E3,5.721752E2,7.036251E2,1.1403632E3,5.7357476E3],"tree_param":{"num_deleted":"0","num_feature":"30","num_nodes":"7","size_leaf_vector":"1"}},{"base_weights":[-1.9028598E-1,4.6327022E-1,-6.8348217E-1,-1.0780146E-2,8.107435E-3,-3.282506E-3,-8.38569E-3],"categories":[],"categories_nodes":[],"categories_segments":[],"categories_sizes":[],"default_left":[0,0,0,0,0,0,0],"id":121,"left_children":[1,3,5,-1,-1,-1,-1],"loss_changes":[2.9471624E3,2.1069546E3,2.8679565E2,0E0,0E0,0E0,0E0],"parents":[2147483647,0,0,1,1,2,2],"right_children":[2,4,6,-1,-1,-1,-1],"split_conditions":[3.166667E-1,9.0909086E-2,3.5000002E-1,-1.0780146E-2,8.107435E-3,-3.282506E-3,-8.38569E-3],"split_indices":[27,28,27,0,0,0,0],"split_type":[0,0,0,0,0,0,0],"sum_hessian":[9.141286E3,3.9315178E3,5.2097686E3,7.2289136E2,3.2086265E3,1.5842074E3,3.6255608E3],"tree_param":{"num_deleted":"0","num_feature":"30","num_nodes":"7","size_leaf_vector":"1"}},{"base_weights":[-1.0209881E0,-1.4281134E-1,-1.1935092E0,-7.82538E-3,7.122358E-3,-1.0891294E-2,-1.2089146E-2],"categories":[],"categories_nodes":[],"categories_segments":[],"categories_sizes":[],"default_left":[0,0,0,0,0,0,0],"id":122,"left_children":[1,3,5,-1,-1,-1,-1],"loss_changes":[1.2359463E3,7.339772E2,9.6484375E0,0E0,0E0,0E0,0E0],"parents":[2147483647,0,0,1,1,2,2],"right_children":[2,4,6,-1,-1,-1,-1],"split_conditions":[9.0909086E-2,4.0114942E-1,2.6666668E-1,-7.82538E-3,7.122358E-3,-1.0891294E-2,-1.2089146E-2],"split_indices":[28,8,27,0,0,0,0],"split_type":[0,0,0,0,0,0,0],"sum_hessian":[8.157976E3,1.3398127E3,6.818163E3,7.664541E2,5.7335864E2,8.861019E2,5.9320615E3],"tree_param":{"num_deleted":"0","num_feature":"30","num_nodes":"7","size_leaf_vector":"1"}},{"base_weights":[-9.861486E-1,1.186876E-3,-1.180886E0,7.2026756E-3,-8.309415E-3,-1.0548496E-2,-1.2052482E-2],"categories":[],"categories_nodes":[],"categories_segments":[],"categories_sizes":[],"default_left":[0,0,0,0,0,0,0],"id":123,"left_children":[1,3,5,-1,-1,-1,-1],"loss_changes":[1.5766772E3,8.095495E2,1.9757812E1,0E0,0E0,0E0,0E0],"parents":[2147483647,0,0,1,1,2,2],"right_children":[2,4,6,-1,-1,-1,-1],"split_conditions":[9.0909086E-2,4.0229884E-1,1.06060594E-1,7.2026756E-3,-8.309415E-3,-1.0548496E-2,-1.2052482E-2],"split_indices":[28,29,28,0,0,0,0],"split_type":[0,0,0,0,0,0,0],"sum_hessian":[8.199268E3,1.35093E3,6.8483374E3,7.2476306E2,6.26167E2,1.1164965E3,5.7318413E3],"tree_param":{"num_deleted":"0","num_feature":"30","num_nodes":"7","size_leaf_vector":"1"}},{"base_weights":[1.6826043E0,7.1789074E-1,2.0229075E0,3.0436148E-3,1.5704704E-2,1.5625983E-2,2.1972809E-2],"categories":[],"categories_nodes":[],"categories_segments":[],"categories_sizes":[],"default_left":[0,0,0,0,0,0,0],"id":124,"left_children":[1,3,5,-1,-1,-1,-1],"loss_changes":[3.8495078E3,1.0785087E3,6.9253906E2,0E0,0E0,0E0,0E0],"parents":[2147483647,0,0,1,1,2,2],"right_children":[2,4,6,-1,-1,-1,-1],"split_conditions":[2.9444447E-1,4.0229884E-1,3.3333334E-1,3.0436148E-3,1.5704704E-2,1.5625983E-2,2.1972809E-2],"split_indices":[27,29,27,0,0,0,0],"split_type":[0,0,0,0,0,0,0],"sum_hessian":[1.1729189E4,3.059377E3,8.6698125E3,2.0610547E3,9.983224E2,2.3846917E3,6.2851206E3],"tree_param":{"num_deleted":"0","num_feature":"30","num_nodes":"7","size_leaf_vector":"1"}},{"base_weights":[-1.011119E0,-3.229326E-1,-1.1425807E0,2.401469E-3,-8.926036E-3,-1.0113219E-2,-1.1683606E-2],"categories":[],"categories_nodes":[],"categories_segments":[],"categories_sizes":[],"default_left":[0,0,0,0,0,0,0],"id":125,"left_children":[1,3,5,-1,-1,-1,-1],"loss_changes":[7.326826E2,4.175265E2,2.1836914E1,0E0,0E0,0E0,0E0],"parents":[2147483647,0,0,1,1,2,2],"right_children":[2,4,6,-1,-1,-1,-1],"split_conditions":[9.0909086E-2,3.873563E-1,1.06060594E-1,2.401469E-3,-8.926036E-3,-1.0113219E-2,-1.1683606E-2],"split_indices":[28,26,28,0,0,0,0],"split_type":[0,0,0,0,0,0,0],"sum_hessian":[8.101701E3,1.2999697E3,6.801732E3,6.5405804E2,6.459116E2,1.1231919E3,5.67854E3],"tree_param":{"num_deleted":"0","num_feature":"30","num_nodes":"7","size_leaf_vector":"1"}},{"base_weights":[-1.8726169E-1,2.957849E-1,-6.0246897E-1,-1.0704768E-2,6.0398355E-3,-2.8522972E-3,-7.242407E-3],"categories":[],"categories_nodes":[],"categories_segments":[],"categories_sizes":[],"default_left":[0,0,0,0,0,0,0],"id":126,"left_children":[1,3,5,-1,-1,-1,-1],"loss_changes":[1.8303113E3,1.7769955E3,1.8936853E2,0E0,0E0,0E0,0E0],"parents":[2147483647,0,0,1,1,2,2],"right_children":[2,4,6,-1,-1,-1,-1],"split_conditions":[3.2222223E-1,9.0909086E-2,3.3333334E-1,-1.0704768E-2,6.0398355E-3,-2.8522972E-3,-7.242407E-3],"split_indices":[21,28,6,0,0,0,0],"split_type":[0,0,0,0,0,0,0],"sum_hessian":[9.123912E3,4.217554E3,4.906358E3,7.758215E2,3.4417324E3,1.3618397E3,3.544518E3],"tree_param":{"num_deleted":"0","num_feature":"30","num_nodes":"7","size_leaf_vector":"1"}},{"base_weights":[-1.01527E0,