{"learner":{"attributes":{"scikit_learn":"{\"_estimator_type\": \"classifier\"}"},"feature_names":[],"feature_types":[],"gradient_booster":{"model":{"gbtree_model_param":{"num_parallel_tree":"1","num_trees":"500"},"iteration_indptr":[0,5,10,15,20,25,30,35,40,45,50,55,60,65,70,75,80,85,90,95,100,105,110,115,120,125,130,135,140,145,150,155,160,165,170,175,180,185,190,195,200,205,210,215,220,225,230,235,240,245,250,255,260,265,270,275,280,285,290,295,300,305,310,315,320,325,330,335,340,345,350,355,360,365,370,375,380,385,390,395,400,405,410,415,420,425,430,435,440,445,450,455,460,465,470,475,480,485,490,495,500],"tree_info":[0,1,2,3,4,0,1,2,3,4,0,1,2,3,4,0,1,2,3,4,0,1,2,3,4,0,1,2,3,4,0,1,2,3,4,0,1,2,3,4,0,1,2,3,4,0,1,2,3,4,0,1,2,3,4,0,1,2,3,4,0,1,2,3,4,0,1,2,3,4,0,1,2,3,4,0,1,2,3,4,0,1,2,3,4,0,1,2,3,4,0,1,2,3,4,0,1,2,3,4,0,1,2,3,4,0,1,2,3,4,0,1,2,3,4,0,1,2,3,4,0,1,2,3,4,0,1,2,3,4,0,1,2,3,4,0,1,2,3,4,0,1,2,3,4,0,1,2,3,4,0,1,2,3,4,0,1,2,3,4,0,1,2,3,4,0,1,2,3,4,0,1,2,3,4,0,1,2,3,4,0,1,2,3,4,0,1,2,3,4,0,1,2,3,4,0,1,2,3,4,0,1,2,3,4,0,1,2,3,4,0,1,2,3,4,0,1,2,3,4,0,1,2,3,4,0,1,2,3,4,0,1,2,3,4,0,1,2,3,4,0,1,2,3,4,0,1,2,3,4,0,1,2,3,4,0,1,2,3,4,0,1,2,3,4,0,1,2,3,4,0,1,2,3,4,0,1,2,3,4,0,1,2,3,4,0,1,2,3,4,0,1,2,3,4,0,1,2,3,4,0,1,2,3,4,0,1,2,3,4,0,1,2,3,4,0,1,2,3,4,0,1,2,3,4,0,1,2,3,4,0,1,2,3,4,0,1,2,3,4,0,1,2,3,4,0,1,2,3,4,0,1,2,3,4,0,1,2,3,4,0,1,2,3,4,0,1,2,3,4,0,1,2,3,4,0,1,2,3,4,0,1,2,3,4,0,1,2,3,4,0,1,2,3,4,0,1,2,3,4,0,1,2,3,4,0,1,2,3,4,0,1,2,3,4,0,1,2,3,4,0,1,2,3,4,0,1,2,3,4,0,1,2,3,4,0,1,2,3,4,0,1,2,3,4,0,1,2,3,4,0,1,2,3,4,0,1,2,3,4,0,1,2,3,4,0,1,2,3,4,0,1,2,3,4,0,1,2,3,4,0,1,2,3,4,0,1,2,3,4,0,1,2,3,4,0,1,2,3,4],"trees":[{"base_weights":[-1.1198553E0,-4.048624E-1,-1.2134565E0,2.288136E-3,-1.0340875E-2,-1.0625525E-2,-1.2405251E-2],"categories":[],"categories_nodes":[],"categories_segments":[],"categories_sizes":[],"default_left":[0,0,0,0,0,0,0],"id":0,"left_children":[1,3,5,-1,-1,-1,-1],"loss_changes":[5.993369E2,4.1451727E2,3.1052734E1,0E0,0E0,0E0,0E0],"parents":[2147483647,0,0,1,1,2,2],"right_children":[2,4,6,-1,-1,-1,-1],"split_conditions":[9.0909086E-2,4.1043884E-1,1.06060594E-1,2.288136E-3,-1.0340875E-2,-1.0625525E-2,-1.2405251E-2],"split_indices":[43,44,43,0,0,0,0],"split_type":[0,0,0,0,0,0,0],"sum_hessian":[8.961788E3,1.038014E3,7.9237734E3,5.174949E2,5.205191E2,1.2112832E3,6.71249E3],"tree_param":{"num_deleted":"0","num_feature":"45","num_nodes":"7","size_leaf_vector":"1"}},{"base_weights":[-2.4822515E-1,2.293215E-1,-6.434083E-1,6.483866E-3,-5.0606136E-3,-3.4729908E-3,-7.946912E-3],"categories":[],"categories_nodes":[],"categories_segments":[],"categories_sizes":[],"default_left":[0,0,0,0,0,0,0],"id":1,"left_children":[1,3,5,-1,-1,-1,-1],"loss_changes":[1.689039E3,1.2493789E3,2.1909985E2,0E0,0E0,0E0,0E0],"parents":[2147483647,0,0,1,1,2,2],"right_children":[2,4,6,-1,-1,-1,-1],"split_conditions":[3.277778E-1,3.9739025E-1,3.388889E-1,6.483866E-3,-5.0606136E-3,-3.4729908E-3,-7.946912E-3],"split_indices":[42,41,18,0,0,0,0],"split_type":[0,0,0,0,0,0,0],"sum_hessian":[8.948268E3,4.0520793E3,4.8961885E3,2.581248E3,1.4708312E3,1.6567308E3,3.2394575E3],"tree_param":{"num_deleted":"0","num_feature":"45","num_nodes":"7","size_leaf_vector":"1"}},{"base_weights":[-1.1361781E0,-1.3922594E-1,-1.266915E0,-7.6597105E-3,9.170059E-3,-1.072369E-2,-1.2739098E-2],"categories":[],"categories_nodes":[],"categories_segments":[],"categories_sizes":[],"default_left":[0,0,0,0,0,0,0],"id":2,"left_children":[1,3,5,-1,-1,-1,-1],"loss_changes":[1.1666748E3,6.8851733E2,9.40332E0,0E0,0E0,0E0,0E0],"parents":[2147483647,0,0,1,1,2,2],"right_children":[2,4,6,-1,-1,-1,-1],"split_conditions":[9.0909086E-2,4.2111504E-1,9.0909086E-2,-7.6597105E-3,9.170059E-3,-1.072369E-2,-1.2739098E-2],"split_indices":[43,2,19,0,0,0,0],"split_type":[0,0,0,0,0,0,0],"sum_hessian":[8.95147E3,1.038014E3,7.9134556E3,6.516273E2,3.863867E2,2.8000583E2,7.6334497E3],"tree_param":{"num_deleted":"0","num_feature":"45","num_nodes":"7","size_leaf_vector":"1"}},{"base_weights":[-1.1229199E0,-1.0381844E-1,-1.2599828E0,6.854481E-3,-6.821652E-3,-1.1585499E-2,-1.277863E-2],"categories":[],"categories_nodes":[],"categories_segments":[],"categories_sizes":[],"default_left":[0,0,0,0,0,0,0],"id":3,"left_children":[1,3,5,-1,-1,-1,-1],"loss_changes":[1.2584346E3,4.8855063E2,1.2923828E1,0E0,0E0,0E0,0E0],"parents":[2147483647,0,0,1,1,2,2],"right_children":[2,4,6,-1,-1,-1,-1],"split_conditions":[9.0909086E-2,2.777778E-1,1.06060594E-1,6.854481E-3,-6.821652E-3,-1.1585499E-2,-1.277863E-2],"split_indices":[43,42,43,0,0,0,0],"split_type":[0,0,0,0,0,0,0],"sum_hessian":[9.009285E3,1.068256E3,7.9410293E3,4.5167395E2,6.165821E2,1.199898E3,6.7411313E3],"tree_param":{"num_deleted":"0","num_feature":"45","num_nodes":"7","size_leaf_vector":"1"}},{"base_weights":[2.7357016E0,8.3946943E-1,2.9911642E0,-1.6868545E-3,1.4081925E-2,2.3320036E-2,3.4342226E-2],"categories":[],"categories_nodes":[],"categories_segments":[],"categories_sizes":[],"default_left":[0,0,0,0,0,0,0],"id":4,"left_children":[1,3,5,-1,-1,-1,-1],"loss_changes":[4.3399844E3,6.112674E2,2.2990703E3,0E0,0E0,0E0,0E0],"parents":[2147483647,0,0,1,1,2,2],"right_children":[2,4,6,-1,-1,-1,-1],"split_conditions":[9.0909086E-2,2.6666668E-1,3.2222223E-1,-1.6868545E-3,1.4081925E-2,2.3320036E-2,3.4342226E-2],"split_indices":[28,36,36,0,0,0,0],"split_type":[0,0,0,0,0,0,0],"sum_hessian":[8.963389E3,1.0646981E3,7.8986904E3,3.8425195E2,6.8044617E2,3.1775503E3,4.72114E3],"tree_param":{"num_deleted":"0","num_feature":"45","num_nodes":"7","size_leaf_vector":"1"}},{"base_weights":[-1.1146498E0,-4.1672474E-1,-1.2067378E0,2.2567783E-3,-9.625135E-3,-1.0629766E-2,-1.2327479E-2],"categories":[],"categories_nodes":[],"categories_segments":[],"categories_sizes":[],"default_left":[0,0,0,0,0,0,0],"id":5,"left_children":[1,3,5,-1,-1,-1,-1],"loss_changes":[5.7249023E2,3.6511908E2,2.8138672E1,0E0,0E0,0E0,0E0],"parents":[2147483647,0,0,1,1,2,2],"right_children":[2,4,6,-1,-1,-1,-1],"split_conditions":[9.0909086E-2,3.9501774E-1,1.06060594E-1,2.2567783E-3,-9.625135E-3,-1.0629766E-2,-1.2327479E-2],"split_indices":[43,41,43,0,0,0,0],"split_type":[0,0,0,0,0,0,0],"sum_hessian":[8.91433E3,1.0397445E3,7.8745854E3,4.7787006E2,5.618745E2,1.2128568E3,6.661729E3],"tree_param":{"num_deleted":"0","num_feature":"45","num_nodes":"7","size_leaf_vector":"1"}},{"base_weights":[-2.4016613E-1,2.0615475E-1,-6.586769E-1,-1.0101635E-2,4.4059306E-3,-3.7477873E-3,-8.1409E-3],"categories":[],"categories_nodes":[],"categories_segments":[],"categories_sizes":[],"default_left":[0,0,0,0,0,0,0],"id":6,"left_children":[1,3,5,-1,-1,-1,-1],"loss_changes":[1.6676208E3,1.2325154E3,2.0297595E2,0E0,0E0,0E0,0E0],"parents":[2147483647,0,0,1,1,2,2],"right_children":[2,4,6,-1,-1,-1,-1],"split_conditions":[3.3333334E-1,9.0909086E-2,3.388889E-1,-1.0101635E-2,4.4059306E-3,-3.7477873E-3,-8.1409E-3],"split_indices":[42,43,9,0,0,0,0],"split_type":[0,0,0,0,0,0,0],"sum_hessian":[8.926052E3,4.3197554E3,4.606296E3,6.97526E2,3.6222295E3,1.6307545E3,2.9755413E3],"tree_param":{"num_deleted":"0","num_feature":"45","num_nodes":"7","size_leaf_vector":"1"}},{"base_weights":[-1.1367602E0,-1.8265773E-1,-1.2644897E0,-7.94013E-3,8.272483E-3,-1.1252957E-2,-1.2711495E-2],"categories":[],"categories_nodes":[],"categories_segments":[],"categories_sizes":[],"default_left":[0,0,0,0,0,0,0],"id":7,"left_children":[1,3,5,-1,-1,-1,-1],"loss_changes":[1.0835996E3,6.496868E2,5.8398438E0,0E0,0E0,0E0,0E0],"parents":[2147483647,0,0,1,1,2,2],"right_children":[2,4,6,-1,-1,-1,-1],"split_conditions":[9.0909086E-2,4.2823243E-1,9.0909086E-2,-7.94013E-3,8.272483E-3,-1.1252957E-2,-1.2711495E-2],"split_indices":[40,14,7,0,0,0,0],"split_type":[0,0,0,0,0,0,0],"sum_hessian":[8.8925625E3,1.0502115E3,7.842351E3,6.543244E2,3.9588712E2,3.6584726E2,7.476504E3],"tree_param":{"num_deleted":"0","num_feature":"45","num_nodes":"7","size_leaf_vector":"1"}},{"base_weights":[-1.1259876E0,-1.663218E-1,-1.2528427E0,5.369538E-3,-7.1680276E-3,-1.1064712E-2,-1.2677159E-2],"categories":[],"categories_nodes":[],"categories_segments":[],"categories_sizes":[],"default_left":[0,0,0,0,0,0,0],"id":8,"left_children":[1,3,5,-1,-1,-1,-1],"loss_changes":[1.084626E3,4.0361642E2,1.5731445E1,0E0,0E0,0E0,0E0],"parents":[2147483647,0,0,1,1,2,2],"right_children":[2,4,6,-1,-1,-1,-1],"split_conditions":[9.0909086E-2,2.8333336E-1,2.5555557E-1,5.369538E-3,-7.1680276E-3,-1.1064712E-2,-1.2677159E-2],"split_indices":[31,42,42,0,0,0,0],"split_type":[0,0,0,0,0,0,0],"sum_hessian":[8.910199E3,1.0405656E3,7.869634E3,4.56887E2,5.836786E2,7.328535E2,7.1367803E3],"tree_param":{"num_deleted":"0","num_feature":"45","num_nodes":"7","size_leaf_vector":"1"}},{"base_weights":[2.6715314E0,7.8414273E-1,2.9186668E0,-4.8561333E-4,1.5504388E-2,2.232698E-2,3.3726435E-2],"categories":[],"categories_nodes":[],"categories_segments":[],"categories_sizes":[],"default_left":[0,0,0,0,0,0,0],"id":9,"left_children":[1,3,5,-1,-1,-1,-1],"loss_changes":[4.237176E3,6.72433E2,2.4950781E3,0E0,0E0,0E0,0E0],"parents":[2147483647,0,0,1,1,2,2],"right_children":[2,4,6,-1,-1,-1,-1],"split_conditions":[9.0909086E-2,2.9444447E-1,3.2222223E-1,-4.8561333E-4,1.5504388E-2,2.232698E-2,3.3726435E-2],"split_indices":[31,39,39,0,0,0,0],"split_type":[0,0,0,0,0,0,0],"sum_hessian":[9.08798E3,1.0526904E3,8.0352905E3,5.049345E2,5.47756E2,3.2023662E3,4.8329243E3],"tree_param":{"num_deleted":"0","num_feature":"45","num_nodes":"7","size_leaf_vector":"1"}},{"base_weights":[-1.1083907E0,-4.070908E-1,-1.2034496E0,2.664034E-3,-9.137468E-3,-1.0513209E-2,-1.2307884E-2],"categories":[],"categories_nodes":[],"categories_segments":[],"categories_sizes":[],"default_left":[0,0,0,0,0,0,0],"id":10,"left_children":[1,3,5,-1,-1,-1,-1],"loss_changes":[5.9257227E2,3.6311456E2,3.128711E1,0E0,0E0,0E0,0E0],"parents":[2147483647,0,0,1,1,2,2],"right_children":[2,4,6,-1,-1,-1,-1],"split_conditions":[9.0909086E-2,3.8908654E-1,1.06060594E-1,2.664034E-3,-9.137468E-3,-1.0513209E-2,-1.2307884E-2],"split_indices":[43,44,43,0,0,0,0],"split_type":[0,0,0,0,0,0,0],"sum_hessian":[8.895177E3,1.062421E3,7.832756E3,4.563167E2,6.0610425E2,1.1991975E3,6.633558E3],"tree_param":{"num_deleted":"0","num_feature":"45","num_nodes":"7","size_leaf_vector":"1"}},{"base_weights":[-2.3968184E-1,2.0370236E-1,-6.583645E-1,5.6212586E-3,-5.099614E-3,-3.9466587E-3,-8.307261E-3],"categories":[],"categories_nodes":[],"categories_segments":[],"categories_sizes":[],"default_left":[0,0,0,0,0,0,0],"id":11,"left_children":[1,3,5,-1,-1,-1,-1],"loss_changes":[1.6627106E3,1.1131117E3,2.090481E2,0E0,0E0,0E0,0E0],"parents":[2147483647,0,0,1,1,2,2],"right_children":[2,4,6,-1,-1,-1,-1],"split_conditions":[3.3333334E-1,4.0450764E-1,3.5000002E-1,5.6212586E-3,-5.099614E-3,-3.9466587E-3,-8.307261E-3],"split_indices":[42,38,18,0,0,0,0],"split_type":[0,0,0,0,0,0,0],"sum_hessian":[8.955049E3,4.3494756E3,4.6055737E3,2.8954868E3,1.4539886E3,1.8217467E3,2.783827E3],"tree_param":{"num_deleted":"0","num_feature":"45","num_nodes":"7","size_leaf_vector":"1"}},{"base_weights":[-1.1318289E0,-1.7180401E-1,-1.2583112E0,-7.5469366E-3,8.051477E-3,-1.1746196E-2,-1.2736947E-2],"categories":[],"categories_nodes":[],"categories_segments":[],"categories_sizes":[],"default_left":[0,0,0,0,0,0,0],"id":12,"left_children":[1,3,5,-1,-1,-1,-1],"loss_changes":[1.0722695E3,5.867804E2,8.551758E0,0E0,0E0,0E0,0E0],"parents":[2147483647,0,0,1,1,2,2],"right_children":[2,4,6,-1,-1,-1,-1],"split_conditions":[9.0909086E-2,4.3060493E-1,1.06060594E-1,-7.5469366E-3,8.051477E-3,-1.1746196E-2,-1.2736947E-2],"split_indices":[37,8,43,0,0,0,0],"split_type":[0,0,0,0,0,0,0],"sum_hessian":[8.831435E3,1.0283574E3,7.8030776E3,6.4421796E2,3.8413947E2,1.2236167E3,6.579461E3],"tree_param":{"num_deleted":"0","num_feature":"45","num_nodes":"7","size_leaf_vector":"1"}},{"base_weights":[-1.1176896E0,-1.22692525E-1,-1.2512205E0,7.542147E-3,-5.7630735E-3,-1.1069728E-2,-1.2632683E-2],"categories":[],"categories_nodes":[],"categories_segments":[],"categories_sizes":[],"default_left":[0,0,0,0,0,0,0],"id":13,"left_children":[1,3,5,-1,-1,-1,-1],"loss_changes":[1.1767432E3,4.1778885E2,1.2173828E1,0E0,0E0,0E0,0E0],"parents":[2147483647,0,0,1,1,2,2],"right_children":[2,4,6,-1,-1,-1,-1],"split_conditions":[9.0909086E-2,2.6111114E-1,2.5000003E-1,7.542147E-3,-5.7630735E-3,-1.1069728E-2,-1.2632683E-2],"split_indices":[43,42,42,0,0,0,0],"split_type":[0,0,0,0,0,0,0],"sum_hessian":[8.856997E3,1.0482135E3,7.8087837E3,3.5714145E2,6.910721E2,6.0909106E2,7.1996924E3],"tree_param":{"num_deleted":"0","num_feature":"45","num_nodes":"7","size_leaf_vector":"1"}},{"base_weights":[2.603873E0,7.6168007E-1,2.84361E0,-1.3894521E-3,1.3988428E-2,2.2039771E-2,3.2634523E-2],"categories":[],"categories_nodes":[],"categories_segments":[],"categories_sizes":[],"default_left":[0,0,0,0,0,0,0],"id":14,"left_children":[1,3,5,-1,-1,-1,-1],"loss_changes":[4.0545078E3,6.0794196E2,2.1753594E3,0E0,0E0,0E0,0E0],"parents":[2147483647,0,0,1,1,2,2],"right_children":[2,4,6,-1,-1,-1,-1],"split_conditions":[9.0909086E-2,2.777778E-1,3.2222223E-1,-1.3894521E-3,1.3988428E-2,2.2039771E-2,3.2634523E-2],"split_indices":[28,39,39,0,0,0,0],"split_type":[0,0,0,0,0,0,0],"sum_hessian":[9.184427E3,1.05808E3,8.1263467E3,4.3872583E2,6.193541E2,3.2227354E3,4.9036113E3],"tree_param":{"num_deleted":"0","num_feature":"45","num_nodes":"7","size_leaf_vector":"1"}},{"base_weights":[-1.1056389E0,-4.065203E-1,-1.1992385E0,2.7648448E-3,-8.849306E-3,-1.0540726E-2,-1.2250938E-2],"categories":[],"categories_nodes":[],"categories_segments":[],"categories_sizes":[],"default_left":[0,0,0,0,0,0,0],"id":15,"left_children":[1,3,5,-1,-1,-1,-1],"loss_changes":[5.747549E2,3.3989954E2,2.7805664E1,0E0,0E0,0E0,0E0],"parents":[2147483647,0,0,1,1,2,2],"right_children":[2,4,6,-1,-1,-1,-1],"split_conditions":[9.0909086E-2,3.819691E-1,1.06060594E-1,2.7648448E-3,-8.849306E-3,-1.0540726E-2,-1.2250938E-2],"split_indices":[43,41,43,0,0,0,0],"split_type":[0,0,0,0,0,0,0],"sum_hessian":[8.789745E3,1.0384739E3,7.7512715E3,4.279422E2,6.1053174E2,1.1781652E3,6.573106E3],"tree_param":{"num_deleted":"0","num_feature":"45","num_nodes":"7","size_leaf_vector":"1"}},{"base_weights":[-2.2996125E-1,2.6911062E-1,-6.0089004E-1,-1.0238244E-2,5.323482E-3,-3.6157256E-3,-7.660664E-3],"categories":[],"categories_nodes":[],"categories_segments":[],"categories_sizes":[],"default_left":[0,0,0,0,0,0,0],"id":16,"left_children":[1,3,5,-1,-1,-1,-1],"loss_changes":[1.6666112E3,1.3070537E3,2.0386401E2,0E0,0E0,0E0,0E0],"parents":[2147483647,0,0,1,1,2,2],"right_children":[2,4,6,-1,-1,-1,-1],"split_conditions":[3.2222223E-1,9.0909086E-2,3.5000002E-1,-1.0238244E-2,5.323482E-3,-3.6157256E-3,-7.660664E-3],"split_indices":[42,43,21,0,0,0,0],"split_type":[0,0,0,0,0,0,0],"sum_hessian":[9.000989E3,3.8377305E3,5.1632593E3,6.486905E2,3.18904E3,2.109736E3,3.0535232E3],"tree_param":{"num_deleted":"0","num_feature":"45","num_nodes":"7","size_leaf_vector":"1"}},{"base_weights":[-1.122456E0,-1.5532178E-1,-1.253361E0,-7.3004155E-3,9.257809E-3,-1.0376985E-2,-1.2612555E-2],"categories":[],"categories_nodes":[],"categories_segments":[],"categories_sizes":[],"default_left":[0,0,0,0,0,0,0],"id":17,"left_children":[1,3,5,-1,-1,-1,-1],"loss_changes":[1.1174902E3,6.553248E2,1.1928711E1,0E0,0E0,0E0,0E0],"parents":[2147483647,0,0,1,1,2,2],"right_children":[2,4,6,-1,-1,-1,-1],"split_conditions":[9.0909086E-2,4.3060493E-1,9.0909086E-2,-7.3004155E-3,9.257809E-3,-1.0376985E-2,-1.2612555E-2],"split_indices":[43,2,19,0,0,0,0],"split_type":[0,0,0,0,0,0,0],"sum_hessian":[8.827287E3,1.0526233E3,7.774664E3,6.874801E2,3.6514325E2,2.792265E2,7.4954375E3],"tree_param":{"num_deleted":"0","num_feature":"45","num_nodes":"7","size_leaf_vector":"1"}},{"base_weights":[-1.1113257E0,-8.9074224E-2,-1.248347E0,4.3739723E-3,-8.36161E-3,-1.1440937E-2,-1.2670835E-2],"categories":[],"categories_nodes":[],"categories_segments":[],"categories_sizes":[],"default_left":[0,0,0,0,0,0,0],"id":18,"left_children":[1,3,5,-1,-1,-1,-1],"loss_changes":[1.2292881E3,4.0882227E2,1.3666992E1,0E0,0E0,0E0,0E0],"parents":[2147483647,0,0,1,1,2,2],"right_children":[2,4,6,-1,-1,-1,-1],"split_conditions":[9.0909086E-2,4.3060493E-1,1.06060594E-1,4.3739723E-3,-8.36161E-3,-1.1440937E-2,-1.2670835E-2],"split_indices":[43,44,43,0,0,0,0],"split_type":[0,0,0,0,0,0,0],"sum_hessian":[8.776022E3,1.0374844E3,7.738538E3,6.0884576E2,4.2863864E2,1.188363E3,6.5501753E3],"tree_param":{"num_deleted":"0","num_feature":"45","num_nodes":"7","size_leaf_vector":"1"}},{"base_weights":[2.5502062E0,7.585652E-1,2.7835944E0,2.2317953E-3,2.1345075E-2,2.2084214E-2,3.1562872E-2],"categories":[],"categories_nodes":[],"categories_segments":[],"categories_sizes":[],"default_left":[0,0,0,0,0,0,0],"id":19,"left_children":[1,3,5,-1,-1,-1,-1],"loss_changes":[3.9049062E3,7.938219E2,1.7650312E3,0E0,0E0,0E0,0E0],"parents":[2147483647,0,0,1,1,2,2],"right_children":[2,4,6,-1,-1,-1,-1],"split_conditions":[9.0909086E-2,9.0909086E-2,3.2222223E-1,2.2317953E-3,2.1345075E-2,2.2084214E-2,3.1562872E-2],"split_indices":[40,1,33,0,0,0,0],"split_type":[0,0,0,0,0,0,0],"sum_hessian":[9.342611E3,1.0772429E3,8.265368E3,7.7633105E2,3.0091183E2,3.252597E3,5.0127715E3],"tree_param":{"num_deleted":"0","num_feature":"45","num_nodes":"7","size_leaf_vector":"1"}},{"base_weights":[-1.101749E0,-3.961282E-1,-1.194626E0,2.8757816E-3,-9.07949E-3,-1.0407738E-2,-1.2219403E-2],"categories":[],"categories_nodes":[],"categories_segments":[],"categories_sizes":[],"default_left":[0,0,0,0,0,0,0],"id":20,"left_children":[1,3,5,-1,-1,-1,-1],"loss_changes":[5.7214746E2,3.5642358E2,3.1173828E1,0E0,0E0,0E0,0E0],"parents":[2147483647,0,0,1,1,2,2],"right_children":[2,4,6,-1,-1,-1,-1],"split_conditions":[9.0909086E-2,3.8908654E-1,1.06060594E-1,2.8757816E-3,-9.07949E-3,-1.0407738E-2,-1.2219403E-2],"split_indices":[43,44,43,0,0,0,0],"split_type":[0,0,0,0,0,0,0],"sum_hessian":[8.7365E3,1.0167956E3,7.719704E3,4.3549106E2,5.8130457E2,1.1697891E3,6.549915E3],"tree_param":{"num_deleted":"0","num_feature":"45","num_nodes":"7","size_leaf_vector":"1"}},{"base_weights":[-2.3247486E-1,1.6825645E-1,-6.5817595E-1,-9.977499E-3,3.7825261E-3,-3.7755342E-3,-8.076951E-3],"categories":[],"categories_nodes":[],"categories_segments":[],"categories_sizes":[],"default_left":[0,0,0,0,0,0,0],"id":21,"left_children":[1,3,5,-1,-1,-1,-1],"loss_changes":[1.5186177E3,1.1232848E3,1.8080603E2,0E0,0E0,0E0,0E0],"parents":[2147483647,0,0,1,1,2,2],"right_children":[2,4,6,-1,-1,-1,-1],"split_conditions":[3.388889E-1,9.0909086E-2,3.388889E-1,-9.977499E-3,3.7825261E-3,-3.7755342E-3,-8.076951E-3],"split_indices":[42,43,9,0,0,0,0],"split_type":[0,0,0,0,0,0,0],"sum_hessian":[8.900409E3,4.584974E3,4.315435E3,6.9915515E2,3.885819E3,1.5012898E3,2.8141453E3],"tree_param":{"num_deleted":"0","num_feature":"45","num_nodes":"7","size_leaf_vector":"1"}},{"base_weights":[-1.1190155E0,2.6434126E-1,-1.2130084E0,-7.16063E-3,1.13670565E-2,-6.194922E-3,-1.2507228E-2],"categories":[],"categories_nodes":[],"categories_segments":[],"categories_sizes":[],"default_left":[0,0,0,0,0,0,0],"id":22,"left_children":[1,3,5,-1,-1,-1,-1],"loss_changes":[1.1381387E3,4.7768213E2,1.8264258E2,0E0,0E0,0E0,0E0],"parents":[2147483647,0,0,1,1,2,2],"right_children":[2,4,6,-1,-1,-1,-1],"split_conditions":[7.575756E-2,4.1043884E-1,9.0909086E-2,-7.16063E-3,1.13670565E-2,-6.194922E-3,-1.2507228E-2],"split_indices":[37,32,37,0,0,0,0],"split_type":[0,0,0,0,0,0,0],"sum_hessian":[8.749701E3,5.565647E2,8.193137E3,2.621393E2,2.9442538E2,4.9055994E2,7.7025767E3],"tree_param":{"num_deleted":"0","num_feature":"45","num_nodes":"7","size_leaf_vector":"1"}},{"base_weights":[-1.1056287E0,-9.6149184E-2,-1.2422135E0,4.5049014E-3,-8.378337E-3,-1.0865775E-2,-1.2576785E-2],"categories":[],"categories_nodes":[],"categories_segments":[],"categories_sizes":[],"default_left":[0,0,0,0,0,0,0],"id":23,"left_children":[1,3,5,-1,-1,-1,-1],"loss_changes":[1.2039482E3,4.2277042E2,1.7148438E1,0E0,0E0,0E0,0E0],"parents":[2147483647,0,0,1,1,2,2],"right_children":[2,4,6,-1,-1,-1,-1],"split_conditions":[9.0909086E-2,4.2941868E-1,2.5555557E-1,4.5049014E-3,-8.378337E-3,-1.0865775E-2,-1.2576785E-2],"split_indices":[40,44,42,0,0,0,0],"split_type":[0,0,0,0,0,0,0],"sum_hessian":[8.731758E3,1.0408292E3,7.6909287E3,5.9942865E2,4.4140067E2,7.0158954E2,6.989339E3],"tree_param":{"num_deleted":"0","num_feature":"45","num_nodes":"7","size_leaf_vector":"1"}},{"base_weights":[2.489774E0,7.6362854E-1,2.71167E0,3.1518738E-3,2.0371428E-2,2.1697942E-2,3.0619921E-2],"categories":[],"categories_nodes":[],"categories_segments":[],"categories_sizes":[],"default_left":[0,0,0,0,0,0,0],"id":24,"left_children":[1,3,5,-1,-1,-1,-1],"loss_changes":[3.6390586E3,6.185527E2,1.5923086E3,0E0,0E0,0E0,0E0],"parents":[2147483647,0,0,1,1,2,2],"right_children":[2,4,6,-1,-1,-1,-1],"split_conditions":[9.0909086E-2,9.0909086E-2,3.2222223E-1,3.1518738E-3,2.0371428E-2,2.1697942E-2,3.0619921E-2],"split_indices":[37,1,33,0,0,0,0],"split_type":[0,0,0,0,0,0,0],"sum_hessian":[9.50525E3,1.0832214E3,8.422028E3,8.020456E2,2.8117587E2,3.3097422E3,5.112286E3],"tree_param":{"num_deleted":"0","num_feature":"45","num_nodes":"7","size_leaf_vector":"1"}},{"base_weights":[-1.0936784E0,-3.9912328E-1,-1.1872636E0,3.2256225E-3,-8.650122E-3,-1.0374535E-2,-1.2144036E-2],"categories":[],"categories_nodes":[],"categories_segments":[],"categories_sizes":[],"default_left":[0,0,0,0,0,0,0],"id":25,"left_children":[1,3,5,-1,-1,-1,-1],"loss_changes":[5.662822E2,3.4889548E2,2.9979492E1,0E0,0E0,0E0,0E0],"parents":[2147483647,0,0,1,1,2,2],"right_children":[2,4,6,-1,-1,-1,-1],"split_conditions":[9.0909086E-2,3.7485164E-1,1.06060594E-1,3.2256225E-3,-8.650122E-3,-1.0374535E-2,-1.2144036E-2],"split_indices":[43,38,43,0,0,0,0],"split_type":[0,0,0,0,0,0,0],"sum_hessian":[8.7183125E3,1.0358536E3,7.682459E3,4.064891E2,6.293645E2,1.1843265E3,6.498133E3],"tree_param":{"num_deleted":"0","num_feature":"45","num_nodes":"7","size_leaf_vector":"1"}},{"base_weights":[-2.3585932E-1,2.2046088E-1,-6.2320954E-1,6.045768E-3,-5.5128103E-3,-3.3933313E-3,-7.883469E-3],"categories":[],"categories_nodes":[],"categories_segments":[],"categories_sizes":[],"default_left":[0,0,0,0,0,0,0],"id":26,"left_children":[1,3,5,-1,-1,-1,-1],"loss_changes":[1.574403E3,1.2127401E3,2.2557178E2,0E0,0E0,0E0,0E0],"parents":[2147483647,0,0,1,1,2,2],"right_children":[2,4,6,-1,-1,-1,-1],"split_conditions":[3.277778E-1,4.0450764E-1,3.388889E-1,6.045768E-3,-5.5128103E-3,-3.3933313E-3,-7.883469E-3],"split_indices":[42,41,9,0,0,0,0],"split_type":[0,0,0,0,0,0,0],"sum_hessian":[8.905448E3,4.0889119E3,4.816536E3,2.7302249E3,1.3586869E3,1.7725394E3,3.0439966E3],"tree_param":{"num_deleted":"0","num_feature":"45","num_nodes":"7","size_leaf_vector":"1"}},{"base_weights":[-1.1152294E0,2.5794467E-1,-1.2068181E0,-6.9472203E-3,1.1306283E-2,-6.0875867E-3,-1.2454396E-2],"categories":[],"categories_nodes":[],"categories_segments":[],"categories_sizes":[],"default_left":[0,0,0,0,0,0,0],"id":27,"left_children":[1,3,5,-1,-1,-1,-1],"loss_changes":[1.0881729E3,4.511244E2,1.8654492E2,0E0,0E0,0E0,0E0],"parents":[2147483647,0,0,1,1,2,2],"right_children":[2,4,6,-1,-1,-1,-1],"split_conditions":[7.575756E-2,4.139976E-1,9.0909086E-2,-6.9472203E-3,1.1306283E-2,-6.0875867E-3,-1.2454396E-2],"split_indices":[34,32,37,0,0,0,0],"split_type":[0,0,0,0,0,0,0],"sum_hessian":[8.648791E3,5.406786E2,8.1081123E3,2.5859106E2,2.820875E2,4.9286108E2,7.6152515E3],"tree_param":{"num_deleted":"0","num_feature":"45","num_nodes":"7","size_leaf_vector":"1"}},{"base_weights":[-1.1026664E0,-8.156026E-2,-1.2416903E0,6.723468E-3,-6.239483E-3,-1.1374155E-2,-1.2566478E-2],"categories":[],"categories_nodes":[],"categories_segments":[],"categories_sizes":[],"default_left":[0,0,0,0,0,0,0],"id":28,"left_children":[1,3,5,-1,-1,-1,-1],"loss_changes":[1.2346387E3,4.2706995E2,1.0511719E1,0E0,0E0,0E0,0E0],"parents":[2147483647,0,0,1,1,2,2],"right_children":[2,4,6,-1,-1,-1,-1],"split_conditions":[9.0909086E-2,2.777778E-1,2.6666668E-1,6.723468E-3,-6.239483E-3,-1.1374155E-2,-1.2566478E-2],"split_indices":[43,42,42,0,0,0,0],"split_type":[0,0,0,0,0,0,0],"sum_hessian":[8.696929E3,1.0423842E3,7.654545E3,4.360479E2,6.0633624E2,9.699203E2,6.6846245E3],"tree_param":{"num_deleted":"0","num_feature":"45","num_nodes":"7","size_leaf_vector":"1"}},{"base_weights":[2.43345E0,7.258318E-1,2.649491E0,-1.7474497E-3,1.3303111E-2,2.0700347E-2,2.9770732E-2],"categories":[],"categories_nodes":[],"categories_segments":[],"categories_sizes":[],"default_left":[0,0,0,0,0,0,0],"id":29,"left_children":[1,3,5,-1,-1,-1,-1],"loss_changes":[3.5368242E3,5.874333E2,1.6100742E3,0E0,0E0,0E0,0E0],"parents":[2147483647,0,0,1,1,2,2],"right_children":[2,4,6,-1,-1,-1,-1],"split_conditions":[9.0909086E-2,2.7222225E-1,3.166667E-1,-1.7474497E-3,1.3303111E-2,2.0700347E-2,2.9770732E-2],"split_indices":[34,33,33,0,0,0,0],"split_type":[0,0,0,0,0,0,0],"sum_hessian":[9.591265E3,1.0776598E3,8.5136045E3,4.3310867E2,6.4455115E2,3.0773801E3,5.4362246E3],"tree_param":{"num_deleted":"0","num_feature":"45","num_nodes":"7","size_leaf_vector":"1"}},{"base_weights":[-1.0894406E0,-3.831997E-1,-1.1856962E0,3.154412E-3,-9.207316E-3,-1.0454504E-2,-1.2112632E-2],"categories":[],"categories_nodes":[],"categories_segments":[],"categories_sizes":[],"default_left":[0,0,0,0,0,0,0],"id":30,"left_children":[1,3,5,-1,-1,-1,-1],"loss_changes":[5.8544824E2,3.8907373E2,2.5929688E1,0E0,0E0,0E0,0E0],"parents":[2147483647,0,0,1,1,2,2],"right_children":[2,4,6,-1,-1,-1,-1],"split_conditions":[9.0909086E-2,3.8671404E-1,1.06060594E-1,3.154412E-3,-9.207316E-3,-1.0454504E-2,-1.2112632E-2],"split_indices":[43,44,43,0,0,0,0],"split_type":[0,0,0,0,0,0,0],"sum_hessian":[8.617783E3,1.0342598E3,7.5835234E3,4.499126E2,5.8434717E2,1.17578E3,6.407743E3],"tree_param":{"num_deleted":"0","num_feature":"45","num_nodes":"7","size_leaf_vector":"1"}},{"base_weights":[-2.3048759E-1,1.4941892E-1,-5.93295E-1,5.0650374E-3,-6.1065606E-3,-3.033105E-3,-7.4904603E-3],"categories":[],"categories_nodes":[],"categories_segments":[],"categories_sizes":[],"default_left":[0,0,0,0,0,0,0],"id":31,"left_children":[1,3,5,-1,-1,-1,-1],"loss_changes":[1.2218792E3,1.1757655E3,2.0456995E2,0E0,0E0,0E0,0E0],"parents":[2147483647,0,0,1,1,2,2],"right_children":[2,4,6,-1,-1,-1,-1],"split_conditions":[3.3333334E-1,4.1043884E-1,3.388889E-1,5.0650374E-3,-6.1065606E-3,-3.033105E-3,-7.4904603E-3],"split_indices":[33,44,3,0,0,0,0],"split_type":[0,0,0,0,0,0,0],"sum_hessian":[8.863288E3,4.3299043E3,4.5333843E3,2.9461367E3,1.3837676E3,1.5851064E3,2.9482778E3],"tree_param":{"num_deleted":"0","num_feature":"45","num_nodes":"7","size_leaf_vector":"1"}},{"base_weights":[-1.1122236E0,-1.5849246E-1,-1.244495E0,-7.499163E-3,8.343465E-3,-1.0534845E-2,-1.2514229E-2],"categories":[],"categories_nodes":[],"categories_segments":[],"categories_sizes":[],"default_left":[0,0,0,0,0,0,0],"id":32,"left_children":[1,3,5,-1,-1,-1,-1],"loss_changes":[1.0862256E3,6.1721185E2,8.689453E0,0E0,0E0,0E0,0E0],"parents":[2147483647,0,0,1,1,2,2],"right_children":[2,4,6,-1,-1,-1,-1],"split_conditions":[9.0909086E-2,4.2823243E-1,9.0909086E-2,-7.499163E-3,8.343465E-3,-1.0534845E-2,-1.2514229E-2],"split_indices":[43,14,19,0,0,0,0],"split_type":[0,0,0,0,0,0,0],"sum_hessian":[8.611055E3,1.0490651E3,7.56199E3,6.575901E2,3.914749E2,2.7002527E2,7.291965E3],"tree_param":{"num_deleted":"0","num_feature":"45","num_nodes":"7","size_leaf_vector":"1"}},{"base_weights":[-1.0975727E0,-9.639526E-2,-1.2353674E0,4.936118E-3,-8.128241E-3,-1.13174E-2,-1.2540805E-2],"categories":[],"categories_nodes":[],"categories_segments":[],"categories_sizes":[],"default_left":[0,0,0,0,0,0,0],"id":33,"left_children":[1,3,5,-1,-1,-1,-1],"loss_changes":[1.1917734E3,4.4267752E2,1.3306641E1,0E0,0E0,0E0,0E0],"parents":[2147483647,0,0,1,1,2,2],"right_children":[2,4,6,-1,-1,-1,-1],"split_conditions":[9.0909086E-2,4.1874254E-1,1.06060594E-1,4.936118E-3,-8.128241E-3,-1.13174E-2,-1.2540805E-2],"split_indices":[43,44,43,0,0,0,0],"split_type":[0,0,0,0,0,0,0],"sum_hessian":[8.638593E3,1.0453173E3,7.5932754E3,5.7340607E2,4.719112E2,1.1708639E3,6.4224116E3],"tree_param":{"num_deleted":"0","num_feature":"45","num_nodes":"7","size_leaf_vector":"1"}},{"base_weights":[2.383382E0,7.033155E-1,2.592731E0,2.3063219E-3,1.9419726E-2,2.0477142E-2,2.9433984E-2],"categories":[],"categories_nodes":[],"categories_segments":[],"categories_sizes":[],"default_left":[0,0,0,0,0,0,0],"id":34,"left_children":[1,3,5,-1,-1,-1,-1],"loss_changes":[3.4041133E3,6.2856415E2,1.6395703E3,0E0,0E0,0E0,0E0],"parents":[2147483647,0,0,1,1,2,2],"right_children":[2,4,6,-1,-1,-1,-1],"split_conditions":[9.0909086E-2,9.0909086E-2,3.2222223E-1,2.3063219E-3,1.9419726E-2,2.0477142E-2,2.9433984E-2],"split_indices":[40,1,36,0,0,0,0],"split_type":[0,0,0,0,0,0,0],"sum_hessian":[9.682647E3,1.0733296E3,8.609318E3,7.777276E2,2.9560196E2,3.373293E3,5.2360254E3],"tree_param":{"num_deleted":"0","num_feature":"45","num_nodes":"7","size_leaf_vector":"1"}},{"base_weights":[-1.0837001E0,-3.6959386E-1,-1.181115E0,2.096697E-3,-9.97605E-3,-1.0270206E-2,-1.2086904E-2],"categories":[],"categories_nodes":[],"categories_segments":[],"categories_sizes":[],"default_left":[0,0,0,0,0,0,0],"id":35,"left_children":[1,3,5,-1,-1,-1,-1],"loss_changes":[5.961885E2,3.752646E2,3.0826172E1,0E0,0E0,0E0,0E0],"parents":[2147483647,0,0,1,1,2,2],"right_children":[2,4,6,-1,-1,-1,-1],"split_conditions":[9.0909086E-2,4.1043884E-1,1.06060594E-1,2.096697E-3,-9.97605E-3,-1.0270206E-2,-1.2086904E-2],"split_indices":[43,44,43,0,0,0,0],"split_type":[0,0,0,0,0,0,0],"sum_hessian":[8.575549E3,1.029984E3,7.5455645E3,5.3613293E2,4.9385104E2,1.1511377E3,6.394427E3],"tree_param":{"num_deleted":"0","num_feature":"45","num_nodes":"7","size_leaf_vector":"1"}},{"base_weights":[-2.1935484E-1,2.0153669E-1,-6.213415E-1,5.3271824E-3,-6.004624E-3,-3.2135635E-3,-7.593072E-3],"categories":[],"categories_nodes":[],"categories_segments":[],"categories_sizes":[],"default_left":[0,0,0,0,0,0,0],"id":36,"left_children":[1,3,5,-1,-1,-1,-1],"loss_changes":[1.5019694E3,1.1522728E3,1.8767542E2,0E0,0E0,0E0,0E0],"parents":[2147483647,0,0,1,1,2,2],"right_children":[2,4,6,-1,-1,-1,-1],"split_conditions":[3.3333334E-1,4.1637003E-1,3.388889E-1,5.3271824E-3,-6.004624E-3,-3.2135635E-3,-7.593072E-3],"split_indices":[39,44,18,0,0,0,0],"split_type":[0,0,0,0,0,0,0],"sum_hessian":[8.875525E3,4.3360527E3,4.539472E3,3.0690425E3,1.2670101E3,1.4310984E3,3.108374E3],"tree_param":{"num_deleted":"0","num_feature":"45","num_nodes":"7","size_leaf_vector":"1"}},{"base_weights":[-1.112378E0,2.4400143E-1,-1.2052367E0,-6.9078305E-3,1.0628967E-2,-6.355485E-3,-1.2411271E-2],"categories":[],"categories_nodes":[],"categories_segments":[],"categories_sizes":[],"default_left":[0,0,0,0,0,0,0],"id":37,"left_children":[1,3,5,-1,-1,-1,-1],"loss_changes":[1.0813105E3,4.2234088E2,1.6345898E2,0E0,0E0,0E0,0E0],"parents":[2147483647,0,0,1,1,2,2],"right_children":[2,4,6,-1,-1,-1,-1],"split_conditions":[7.575756E-2,4.116251E-1,9.0909086E-2,-6.9078305E-3,1.0628967E-2,-6.355485E-3,-1.2411271E-2],"split_indices":[37,32,37,0,0,0,0],"split_type":[0,0,0,0,0,0,0],"sum_hessian":[8.581799E3,5.497666E2,8.032032E3,2.567911E2,2.929755E2,4.771388E2,7.554893E3],"tree_param":{"num_deleted":"0","num_feature":"45","num_nodes":"7","size_leaf_vector":"1"}},{"base_weights":[-1.0965953E0,-1.2541625E-1,-1.232183E0,7.5517897E-3,-5.8248863E-3,-1.0808124E-2,-1.2448507E-2],"categories":[],"categories_nodes":[],"categories_segments":[],"categories_sizes":[],"default_left":[0,0,0,0,0,0,0],"id":38,"left_children":[1,3,5,-1,-1,-1,-1],"loss_changes":[1.1322686E3,4.249356E2,1.3125E1,0E0,0E0,0E0,0E0],"parents":[2147483647,0,0,1,1,2,2],"right_children":[2,4,6,-1,-1,-1,-1],"split_conditions":[9.0909086E-2,2.6111114E-1,2.5000003E-1,7.5517897E-3,-5.8248863E-3,-1.0808124E-2,-1.2448507E-2],"split_indices":[43,42,42,0,0,0,0],"split_type":[0,0,0,0,0,0,0],"sum_hessian":[8.598816E3,1.0536589E3,7.545157E3,3.598056E2,6.9385333E2,5.893367E2,6.9558203E3],"tree_param":{"num_deleted":"0","num_feature":"45","num_nodes":"7","size_leaf_vector":"1"}},{"base_weights":[2.3331182E0,1.5756321E0,2.7506974E0,7.608896E-4,1.8771468E-2,1.5513516E-2,2.8515114E-2],"categories":[],"categories_nodes":[],"categories_segments":[],"categories_sizes":[],"default_left":[0,0,0,0,0,0,0],"id":39,"left_children":[1,3,5,-1,-1,-1,-1],"loss_changes":[3.1006914E3,1.5781504E3,7.6053125E2,0E0,0E0,0E0,0E0],"parents":[2147483647,0,0,1,1,2,2],"right_children":[2,4,6,-1,-1,-1,-1],"split_conditions":[3.1111112E-1,9.0909086E-2,9.0909086E-2,7.608896E-4,1.8771468E-2,1.5513516E-2,2.8515114E-2],"split_indices":[39,34,34,0,0,0,0],"split_type":[0,0,0,0,0,0,0],"sum_hessian":[9.815391E3,3.4897607E3,6.32563E3,5.8442993E2,2.9053308E3,4.917576E2,5.833872E3],"tree_param":{"num_deleted":"0","num_feature":"45","num_nodes":"7","size_leaf_vector":"1"}},{"base_weights":[-1.0841072E0,-4.1832018E-1,-1.1742259E0,1.0491115E-3,-1.0557405E-2,-1.0298452E-2,-1.2008292E-2],"categories":[],"categories_nodes":[],"categories_segments":[],"categories_sizes":[],"default_left":[0,0,0,0,0,0,0],"id":40,"left_children":[1,3,5,-1,-1,-1,-1],"loss_changes":[5.1097656E2,3.3957867E2,2.7600586E1,0E0,0E0,0E0,0E0],"parents":[2147483647,0,0,1,1,2,2],"right_children":[2,4,6,-1,-1,-1,-1],"split_conditions":[9.0909086E-2,4.199288E-1,1.06060594E-1,1.0491115E-3,-1.0557405E-2,-1.0298452E-2,-1.2008292E-2],"split_indices":[34,38,34,0,0,0,0],"split_type":[0,0,0,0,0,0,0],"sum_hessian":[8.523481E3,1.01683905E3,7.5066426E3,5.5889844E2,4.5794064E2,1.1741272E3,6.332515E3],"tree_param":{"num_deleted":"0","num_feature":"45","num_nodes":"7","size_leaf_vector":"1"}},{"base_weights":[-2.2249351E-1,2.6250806E-1,-5.89195E-1,6.763112E-3,-5.0594793E-3,-3.337968E-3,-7.617443E-3],"categories":[],"categories_nodes":[],"categories_segments":[],"categories_sizes":[],"default_left":[0,0,0,0,0,0,0],"id":41,"left_children":[1,3,5,-1,-1,-1,-1],"loss_changes":[1.5815695E3,1.2179451E3,2.2289832E2,0E0,0E0,0E0,0E0],"parents":[2147483647,0,0,1,1,2,2],"right_children":[2,4,6,-1,-1,-1,-1],"split_conditions":[3.2222223E-1,4.0094894E-1,3.4444445E-1,6.763112E-3,-5.0594793E-3,-3.337968E-3,-7.617443E-3],"split_indices":[42,44,12,0,0,0,0],"split_type":[0,0,0,0,0,0,0],"sum_hessian":[8.890805E3,3.8280662E3,5.062739E3,2.4882808E3,1.3397854E3,2.0424896E3,3.0202493E3],"tree_param":{"num_deleted":"0","num_feature":"45","num_nodes":"7","size_leaf_vector":"1"}},{"base_weights":[-1.1042511E0,-1.4025863E-1,-1.2373148E0,-7.3222592E-3,8.222825E-3,-1.1498688E-2,-1.2526537E-2],"categories":[],"categories_nodes":[],"categories_segments":[],"categories_sizes":[],"default_left":[0,0,0,0,0,0,0],"id":42,"left_children":[1,3,5,-1,-1,-1,-1],"loss_changes":[1.0971914E3,5.924869E2,8.641602E0,0E0,0E0,0E0,0E0],"parents":[2147483647,0,0,1,1,2,2],"right_children":[2,4,6,-1,-1,-1,-1],"split_conditions":[9.0909086E-2,4.3060493E-1,1.06060594E-1,-7.3222592E-3,8.222825E-3,-1.1498688E-2,-1.2526537E-2],"split_indices":[43,26,43,0,0,0,0],"split_type":[0,0,0,0,0,0,0],"sum_hessian":[8.553956E3,1.0377719E3,7.516184E3,6.4272943E2,3.9504236E2,1.1329961E3,6.3831885E3],"tree_param":{"num_deleted":"0","num_feature":"45","num_nodes":"7","size_leaf_vector":"1"}},{"base_weights":[-1.0943993E0,-9.311407E-2,-1.2335546E0,5.7377396E-3,-7.1298014E-3,-1.13719655E-2,-1.2507086E-2],"categories":[],"categories_nodes":[],"categories_segments":[],"categories_sizes":[],"default_left":[0,0,0,0,0,0,0],"id":43,"left_children":[1,3,5,-1,-1,-1,-1],"loss_changes":[1.188919E3,4.3129767E2,1.09609375E1,0E0,0E0,0E0,0E0],"parents":[2147483647,0,0,1,1,2,2],"right_children":[2,4,6,-1,-1,-1,-1],"split_conditions":[9.0909086E-2,2.888889E-1,1.06060594E-1,5.7377396E-3,-7.1298014E-3,-1.13719655E-2,-1.2507086E-2],"split_indices":[43,42,43,0,0,0,0],"split_type":[0,0,0,0,0,0,0],"sum_hessian":[8.532677E3,1.0413514E3,7.4913247E3,5.0168445E2,5.39667E2,1.142258E3,6.349067E3],"tree_param":{"num_deleted":"0","num_feature":"45","num_nodes":"7","size_leaf_vector":"1"}},{"base_weights":[2.2784846E0,7.247635E-1,2.474428E0,-2.9147528E-3,1.274995E-2,1.9108776E-2,2.83383E-2],"categories":[],"categories_nodes":[],"categories_segments":[],"categories_sizes":[],"default_left":[0,0,0,0,0,0,0],"id":44,"left_children":[1,3,5,-1,-1,-1,-1],"loss_changes":[3.024621E3,6.236659E2,1.782457E3,0E0,0E0,0E0,0E0],"parents":[2147483647,0,0,1,1,2,2],"right_children":[2,4,6,-1,-1,-1,-1],"split_conditions":[9.0909086E-2,2.6666668E-1,3.2222223E-1,-2.9147528E-3,1.274995E-2,1.9108776E-2,2.83383E-2],"split_indices":[28,36,39,0,0,0,0],"split_type":[0,0,0,0,0,0,0],"sum_hessian":[9.939881E3,1.1136841E3,8.826197E3,3.9135297E2,7.2233105E2,3.4394238E3,5.386773E3],"tree_param":{"num_deleted":"0","num_feature":"45","num_nodes":"7","size_leaf_vector":"1"}},{"base_weights":[-1.0778095E0,-3.8427204E-1,-1.1719438E0,4.374221E-3,-8.543589E-3,-1.0362278E-2,-1.1965745E-2],"categories":[],"categories_nodes":[],"categories_segments":[],"categories_sizes":[],"default_left":[0,0,0,0,0,0,0],"id":45,"left_children":[1,3,5,-1,-1,-1,-1],"loss_changes":[5.5322363E2,3.9244427E2,2.3720703E1,0E0,0E0,0E0,0E0],"parents":[2147483647,0,0,1,1,2,2],"right_children":[2,4,6,-1,-1,-1,-1],"split_conditions":[9.0909086E-2,3.7129295E-1,1.06060594E-1,4.374221E-3,-8.543589E-3,-1.0362278E-2,-1.1965745E-2],"split_indices":[40,41,40,0,0,0,0],"split_type":[0,0,0,0,0,0,0],"sum_hessian":[8.479782E3,1.01402295E3,7.46576E3,3.6903433E2,6.449886E2,1.1534283E3,6.312331E3],"tree_param":{"num_deleted":"0","num_feature":"45","num_nodes":"7","size_leaf_vector":"1"}},{"base_weights":[-2.2091894E-1,1.6591907E-1,-5.9580845E-1,5.134912E-3,-5.7140533E-3,-3.8630709E-3,-8.108116E-3],"categories":[],"categories_nodes":[],"categories_segments":[],"categories_sizes":[],"default_left":[0,0,0,0,0,0,0],"id":46,"left_children":[1,3,5,-1,-1,-1,-1],"loss_changes":[1.2877053E3,1.1203389E3,2.027976E2,0E0,0E0,0E0,0E0],"parents":[2147483647,0,0,1,1,2,2],"right_children":[2,4,6,-1,-1,-1,-1],"split_conditions":[3.3333334E-1,4.080664E-1,3.6666667E-1,5.134912E-3,-5.7140533E-3,-3.8630709E-3,-8.108116E-3],"split_indices":[36,44,9,0,0,0,0],"split_type":[0,0,0,0,0,0,0],"sum_hessian":[8.877728E3,4.36951E3,4.5082173E3,2.9698408E3,1.3996691E3,2.2847393E3,2.223478E3],"tree_param":{"num_deleted":"0","num_feature":"45","num_nodes":"7","size_leaf_vector":"1"}},{"base_weights":[-1.1026667E0,2.7322277E-1,-1.1980587E0,-3.0014866E-3,1.6866582E-2,-6.3123307E-3,-1.23480875E-2],"categories":[],"categories_nodes":[],"categories_segments":[],"categories_sizes":[],"default_left":[0,0,0,0,0,0,0],"id":47,"left_children":[1,3,5,-1,-1,-1,-1],"loss_changes":[1.1126025E3,4.4645816E2,1.6431152E2,0E0,0E0,0E0,0E0],"parents":[2147483647,0,0,1,1,2,2],"right_children":[2,4,6,-1,-1,-1,-1],"split_conditions":[7.575756E-2,4.9228936E-1,9.0909086E-2,-3.0014866E-3,1.6866582E-2,-6.3123307E-3,-1.23480875E-2],"split_indices":[37,29,37,0,0,0,0],"split_type":[0,0,0,0,0,0,0],"sum_hessian":[8.473554E3,5.4927014E2,7.9242837E3,3.9131696E2,1.5795322E2,4.8359515E2,7.440689E3],"tree_param":{"num_deleted":"0","num_feature":"45","num_nodes":"7","size_leaf_vector":"1"}},{"base_weights":[-1.0906894E0,-1.1662487E-1,-1.2285876E0,6.4290063E-3,-6.408213E-3,-1.13427425E-2,-1.2454787E-2],"categories":[],"categories_nodes":[],"categories_segments":[],"categories_sizes":[],"default_left":[0,0,0,0,0,0,0],"id":48,"left_children":[1,3,5,-1,-1,-1,-1],"loss_changes":[1.1366211E3,4.1870978E2,1.0395508E1,0E0,0E0,0E0,0E0],"parents":[2147483647,0,0,1,1,2,2],"right_children":[2,4,6,-1,-1,-1,-1],"split_conditions":[9.0909086E-2,2.7222225E-1,1.06060594E-1,6.4290063E-3,-6.408213E-3,-1.13427425E-2,-1.2454787E-2],"split_indices":[43,39,43,0,0,0,0],"split_type":[0,0,0,0,0,0,0],"sum_hessian":[8.461989E3,1.0496283E3,7.412361E3,4.2851395E2,6.211144E2,1.1362338E3,6.2761274E3],"tree_param":{"num_deleted":"0","num_feature":"45","num_nodes":"7","size_leaf_vector":"1"}},{"base_weights":[2.238504E0,6.667069E-1,2.4286513E0,1.8545727E-3,1.9395065E-2,1.8828584E-2,2.772805E-2],"categories":[],"categories_nodes":[],"categories_segments":[],"categories_sizes":[],"default_left":[0,0,0,0,0,0,0],"id":49,"left_children":[1,3,5,-1,-1,-1,-1],"loss_changes":[2.9884219E3,6.6181525E2,1.6710977E3,0E0,0E0,0E0,0E0],"parents":[2147483647,0,0,1,1,2,2],"right_children":[2,4,6,-1,-1,-1,-1],"split_conditions":[9.0909086E-2,9.0909086E-2,3.2222223E-1,1.8545727E-3,1.9395065E-2,1.8828584E-2,2.772805E-2],"split_indices":[40,1,39,0,0,0,0],"split_type":[0,0,0,0,0,0,0],"sum_hessian":[1.0003375E4,1.0800414E3,8.923333E3,7.8454724E2,2.9549414E2,3.4532688E3,5.4700645E3],"tree_param":{"num_deleted":"0","num_feature":"45","num_nodes":"7","size_leaf_vector":"1"}},{"base_weights":[-1.0757209E0,-3.671324E-1,-1.1723825E0,1.7109229E-3,-9.9144755E-3,-1.0176684E-2,-1.2000829E-2],"categories":[],"categories_nodes":[],"categories_segments":[],"categories_sizes":[],"default_left":[0,0,0,0,0,0,0],"id":50,"left_children":[1,3,5,-1,-1,-1,-1],"loss_changes":[5.7654297E2,3.4043915E2,3.0544922E1,0E0,0E0,0E0,0E0],"parents":[2147483647,0,0,1,1,2,2],"right_children":[2,4,6,-1,-1,-1,-1],"split_conditions":[9.0909086E-2,4.1518384E-1,1.06060594E-1,1.7109229E-3,-9.9144755E-3,-1.0176684E-2,-1.2000829E-2],"split_indices":[43,44,43,0,0,0,0],"split_type":[0,0,0,0,0,0,0],"sum_hessian":[8.422786E3,1.01164105E3,7.4111455E3,5.4366833E2,4.6797275E2,1.1311431E3,6.2800024E3],"tree_param":{"num_deleted":"0","num_feature":"45","num_nodes":"7","size_leaf_vector":"1"}},{"base_weights":[-2.270641E-1,2.2248356E-1,-6.0988444E-1,5.1474487E-3,-6.6899383E-3,-3.9852834E-3,-7.882034E-3],"categories":[],"categories_nodes":[],"categories_segments":[],"categories_sizes":[],"default_left":[0,0,0,0,0,0,0],"id":51,"left_children":[1,3,5,-1,-1,-1,-1],"loss_changes":[1.5165354E3,1.0563901E3,1.7905188E2,0E0,0E0,0E0,0E0],"parents":[2147483647,0,0,1,1,2,2],"right_children":[2,4,6,-1,-1,-1,-1],"split_conditions":[3.277778E-1,4.2823243E-1,3.5555556E-1,5.1474487E-3,-6.6899383E-3,-3.9852834E-3,-7.882034E-3],"split_indices":[42,44,12,0,0,0,0],"split_type":[0,0,0,0,0,0,0],"sum_hessian":[8.810359E3,4.0522285E3,4.7581313E3,3.0520645E3,1.00016394E3,2.1788457E3,2.5792856E3],"tree_param":{"num_deleted":"0","num_feature":"45","num_nodes":"7","size_leaf_vector":"1"}},{"base_weights":[-1.0975212E0,-1.4903234E-1,-1.2293593E0,-7.458911E-3,8.367047E-3,-1.0393147E-2,-1.2360007E-2],"categories":[],"categories_nodes":[],"categories_segments":[],"categories_sizes":[],"default_left":[0,0,0,0,0,0,0],"id":52,"left_children":[1,3,5,-1,-1,-1,-1],"loss_changes":[1.0511875E3,6.049654E2,8.030273E0,0E0,0E0,0E0,0E0],"parents":[2147483647,0,0,1,1,2,2],"right_children":[2,4,6,-1,-1,-1,-1],"split_conditions":[9.0909086E-2,4.2467374E-1,9.0909086E-2,-7.458911E-3,8.367047E-3,-1.0393147E-2,-1.2360007E-2],"split_indices":[43,2,19,0,0,0,0],"split_type":[0,0,0,0,0,0,0],"sum_hessian":[8.406802E3,1.0261873E3,7.380614E3,6.3932355E2,3.868638E2,2.5453358E2,7.1260806E3],"tree_param":{"num_deleted":"0","num_feature":"45","num_nodes":"7","size_leaf_vector":"1"}},{"base_weights":[-1.0857403E0,-1.3892905E-1,-1.220938E0,5.1897382E-3,-6.9580064E-3,-1.1214887E-2,-1.2387057E-2],"categories":[],"categories_nodes":[],"categories_segments":[],"categories_sizes":[],"default_left":[0,0,0,0,0,0,0],"id":53,"left_children":[1,3,5,-1,-1,-1,-1],"loss_changes":[1.0800381E3,3.8707974E2,1.1660156E1,0E0,0E0,0E0,0E0],"parents":[2147483647,0,0,1,1,2,2],"right_children":[2,4,6,-1,-1,-1,-1],"split_conditions":[9.0909086E-2,2.8333336E-1,1.06060594E-1,5.1897382E-3,-6.9580064E-3,-1.1214887E-2,-1.2387057E-2],"split_indices":[43,42,43,0,0,0,0],"split_type":[0,0,0,0,0,0,0],"sum_hessian":[8.437697E3,1.0545486E3,7.3831494E3,4.834527E2,5.710958E2,1.1288582E3,6.254291E3],"tree_param":{"num_deleted":"0","num_feature":"45","num_nodes":"7","size_leaf_vector":"1"}},{"base_weights":[2.1866384E0,1.3468231E0,2.5423274E0,-6.232215E-4,1.6629754E-2,1.3984122E-2,2.6365332E-2],"categories":[],"categories_nodes":[],"categories_segments":[],"categories_sizes":[],"default_left":[0,0,0,0,0,0,0],"id":54,"left_children":[1,3,5,-1,-1,-1,-1],"loss_changes":[3.0216562E3,1.3433638E3,7.628281E2,0E0,0E0,0E0,0E0],"parents":[2147483647,0,0,1,1,2,2],"right_children":[2,4,6,-1,-1,-1,-1],"split_conditions":[3E-1,9.0909086E-2,9.0909086E-2,-6.232215E-4,1.6629754E-2,1.3984122E-2,2.6365332E-2],"split_indices":[42,37,40,0,0,0,0],"split_type":[0,0,0,0,0,0,0],"sum_hessian":[1.0126045E4,3.0141465E3,7.1118984E3,5.5247437E2,2.461672E3,5.4233466E2,6.569564E3],"tree_param":{"num_deleted":"0","num_feature":"45","num_nodes":"7","size_leaf_vector":"1"}},{"base_weights":[-1.0691148E0,-4.0124786E-1,-1.1624376E0,3.3721419E-3,-8.346461E-3,-1.0137045E-2,-1.1901316E-2],"categories":[],"categories_nodes":[],"categories_segments":[],"categories_sizes":[],"default_left":[0,0,0,0,0,0,0],"id":55,"left_children":[1,3,5,-1,-1,-1,-1],"loss_changes":[5.213447E2,3.2927765E2,2.9047852E1,0E0,0E0,0E0,0E0],"parents":[2147483647,0,0,1,1,2,2],"right_children":[2,4,6,-1,-1,-1,-1],"split_conditions":[9.0909086E-2,3.7603796E-1,1.06060594E-1,3.3721419E-3,-8.346461E-3,-1.0137045E-2,-1.1901316E-2],"split_indices":[31,41,34,0,0,0,0],"split_type":[0,0,0,0,0,0,0],"sum_hessian":[8.371115E3,1.0269583E3,7.3441567E3,3.7989008E2,6.470681E2,1.158725E3,6.1854316E3],"tree_param":{"num_deleted":"0","num_feature":"45","num_nodes":"7","size_leaf_vector":"1"}},{"base_weights":[-2.2863984E-1,2.0948999E-1,-6.0916144E-1,-9.955915E-3,4.404377E-3,-4.1350583E-3,-8.206778E-3],"categories":[],"categories_nodes":[],"categories_segments":[],"categories_sizes":[],"default_left":[0,0,0,0,0,0,0],"id":56,"left_children":[1,3,5,-1,-1,-1,-1],"loss_changes":[1.4749717E3,1.1450366E3,1.9560278E2,0E0,0E0,0E0,0E0],"parents":[2147483647,0,0,1,1,2,2],"right_children":[2,4,6,-1,-1,-1,-1],"split_conditions":[3.277778E-1,9.0909086E-2,3.6666667E-1,-9.955915E-3,4.404377E-3,-4.1350583E-3,-8.206778E-3],"split_indices":[42,43,15,0,0,0,0],"split_type":[0,0,0,0,0,0,0],"sum_hessian":[8.845349E3,4.111661E3,4.733688E3,6.6072064E2,3.4509404E3,2.4605764E3,2.2731116E3],"tree_param":{"num_deleted":"0","num_feature":"45","num_nodes":"7","size_leaf_vector":"1"}},{"base_weights":[-1.090946E0,2.3857337E-1,-1.1860539E0,-4.820107E-3,1.3043925E-2,-6.0279584E-3,-1.225332E-2],"categories":[],"categories_nodes":[],"categories_segments":[],"categories_sizes":[],"default_left":[0,0,0,0,0,0,0],"id":57,"left_children":[1,3,5,-1,-1,-1,-1],"loss_changes":[1.0499141E3,4.268754E2,1.7673828E2,0E0,0E0,0E0,0E0],"parents":[2147483647,0,0,1,1,2,2],"right_children":[2,4,6,-1,-1,-1,-1],"split_conditions":[7.575756E-2,4.3060493E-1,9.0909086E-2,-4.820107E-3,1.3043925E-2,-6.0279584E-3,-1.225332E-2],"split_indices":[40,2,43,0,0,0,0],"split_type":[0,0,0,0,0,0,0],"sum_hessian":[8.299903E3,5.5399976E2,7.7459033E3,3.3085886E2,2.2314087E2,4.8974902E2,7.2561543E3],"tree_param":{"num_deleted":"0","num_feature":"45","num_nodes":"7","size_leaf_vector":"1"}},{"base_weights":[-1.0761929E0,-7.227184E-2,-1.2178127E0,8.160282E-3,-5.5387574E-3,-1.0357601E-2,-1.2276054E-2],"categories":[],"categories_nodes":[],"categories_segments":[],"categories_sizes":[],"default_left":[0,0,0,0,0,0,0],"id":58,"left_children":[1,3,5,-1,-1,-1,-1],"loss_changes":[1.188918E3,4.4321313E2,1.1794922E1,0E0,0E0,0E0,0E0],"parents":[2147483647,0,0,1,1,2,2],"right_children":[2,4,6,-1,-1,-1,-1],"split_conditions":[9.0909086E-2,2.6111114E-1,9.0909086E-2,8.160282E-3,-5.5387574E-3,-1.0357601E-2,-1.2276054E-2],"split_indices":[40,39,1,0,0,0,0],"split_type":[0,0,0,0,0,0,0],"sum_hessian":[8.361961E3,1.033951E3,7.32801E3,3.63252E2,6.70699E2,3.7950717E2,6.9485024E3],"tree_param":{"num_deleted":"0","num_feature":"45","num_nodes":"7","size_leaf_vector":"1"}},{"base_weights":[2.151466E0,6.63875E-1,2.3321724E0,-3.1879097E-3,1.1966817E-2,1.8202653E-2,2.6566468E-2],"categories":[],"categories_nodes":[],"categories_segments":[],"categories_sizes":[],"default_left":[0,0,0,0,0,0,0],"id":59,"left_children":[1,3,5,-1,-1,-1,-1],"loss_changes":[2.7384531E3,5.7916797E2,1.5047422E3,0E0,0E0,0E0,0E0],"parents":[2147483647,0,0,1,1,2,2],"right_children":[2,4,6,-1,-1,-1,-1],"split_conditions":[9.0909086E-2,2.6666668E-1,3.2222223E-1,-3.1879097E-3,1.1966817E-2,1.8202653E-2,2.6566468E-2],"split_indices":[34,39,39,0,0,0,0],"split_type":[0,0,0,0,0,0,0],"sum_hessian":[1.0191787E4,1.1044595E3,9.087327E3,3.8844476E2,7.160147E2,3.527997E3,5.55933E3],"tree_param":{"num_deleted":"0","num_feature":"45","num_nodes":"7","size_leaf_vector":"1"}},{"base_weights":[-1.0669502E0,-3.7825105E-1,-1.163978E0,3.721964E-3,-8.174717E-3,-1.003024E-2,-1.1931242E-2],"categories":[],"categories_nodes":[],"categories_segments":[],"categories_sizes":[],"default_left":[0,0,0,0,0,0,0],"id":60,"left_children":[1,3,5,-1,-1,-1,-1],"loss_changes":[5.584912E2,3.4124823E2,3.3194336E1,0E0,0E0,0E0,0E0],"parents":[2147483647,0,0,1,1,2,2],"right_children":[2,4,6,-1,-1,-1,-1],"split_conditions":[9.0909086E-2,3.7129295E-1,1.06060594E-1,3.721964E-3,-8.174717E-3,-1.003024E-2,-1.1931242E-2],"split_indices":[43,41,43,0,0,0,0],"split_type":[0,0,0,0,0,0,0],"sum_hessian":[8.363374E3,1.0333795E3,7.3299946E3,3.8157587E2,6.518036E2,1.1292699E3,6.2007246E3],"tree_param":{"num_deleted":"0","num_feature":"45","num_nodes":"7","size_leaf_vector":"1"}},{"base_weights":[-2.0674251E-1,1.8806009E-1,-5.9307414E-1,5.4921107E-3,-4.9408334E-3,-3.7626508E-3,-7.816075E-3],"categories":[],"categories_nodes":[],"categories_segments":[],"categories_sizes":[],"default_left":[0,0,0,0,0,0,0],"id":61,"left_children":[1,3,5,-1,-1,-1,-1],"loss_changes":[1.3473314E3,1.0766691E3,1.8219702E2,0E0,0E0,0E0,0E0],"parents":[2147483647,0,0,1,1,2,2],"right_children":[2,4,6,-1,-1,-1,-1],"split_conditions":[3.3333334E-1,3.997627E-1,3.6111113E-1,5.4921107E-3,-4.9408334E-3,-3.7626508E-3,-7.816075E-3],"split_indices":[39,41,15,0,0,0,0],"split_type":[0,0,0,0,0,0,0],"sum_hessian":[8.831796E3,4.3682637E3,4.4635317E3,2.8562556E3,1.5120083E3,2.0774768E3,2.386055E3],"tree_param":{"num_deleted":"0","num_feature":"45","num_nodes":"7","size_leaf_vector":"1"}},{"base_weights":[-1.0882542E0,-1.5126768E-1,-1.2215252E0,-7.814926E-3,7.0090815E-3,-1.0265756E-2,-1.229873E-2],"categories":[],"categories_nodes":[],"categories_segments":[],"categories_sizes":[],"default_left":[0,0,0,0,0,0,0],"id":62,"left_children":[1,3,5,-1,-1,-1,-1],"loss_changes":[1.0365986E3,5.564145E2,1.0566406E1,0E0,0E0,0E0,0E0],"parents":[2147483647,0,0,1,1,2,2],"right_children":[2,4,6,-1,-1,-1,-1],"split_conditions":[9.0909086E-2,4.3060493E-1,9.0909086E-2,-7.814926E-3,7.0090815E-3,-1.0265756E-2,-1.229873E-2],"split_indices":[43,44,13,0,0,0,0],"split_type":[0,0,0,0,0,0,0],"sum_hessian":[8.301703E3,1.0340132E3,7.2676895E3,5.944626E2,4.3955063E2,3.0351965E2,6.96417E3],"tree_param":{"num_deleted":"0","num_feature":"45","num_nodes":"7","size_leaf_vector":"1"}},{"base_weights":[-1.074089E0,-1.4890987E-1,-1.2105712E0,4.956594E-3,-7.3066484E-3,-1.0531706E-2,-1.22610945E-2],"categories":[],"categories_nodes":[],"categories_segments":[],"categories_sizes":[],"default_left":[0,0,0,0,0,0,0],"id":63,"left_children":[1,3,5,-1,-1,-1,-1],"loss_changes":[1.0458662E3,4.001352E2,1.6365234E1,0E0,0E0,0E0,0E0],"parents":[2147483647,0,0,1,1,2,2],"right_children":[2,4,6,-1,-1,-1,-1],"split_conditions":[9.0909086E-2,2.888889E-1,2.5555557E-1,4.956594E-3,-7.3066484E-3,-1.0531706E-2,-1.22610945E-2],"split_indices":[19,42,42,0,0,0,0],"split_type":[0,0,0,0,0,0,0],"sum_hessian":[8.283175E3,1.0651143E3,7.21806E3,5.0534894E2,5.597654E2,6.54712E2,6.563348E3],"tree_param":{"num_deleted":"0","num_feature":"45","num_nodes":"7","size_leaf_vector":"1"}},{"base_weights":[2.0911114E0,1.266452E0,2.4360893E0,-1.0885207E-3,1.5752709E-2,1.3409505E-2,2.5272965E-2],"categories":[],"categories_nodes":[],"categories_segments":[],"categories_sizes":[],"default_left":[0,0,0,0,0,0,0],"id":64,"left_children":[1,3,5,-1,-1,-1,-1],"loss_changes":[2.9307383E3,1.2928994E3,7.227578E2,0E0,0E0,0E0,0E0],"parents":[2147483647,0,0,1,1,2,2],"right_children":[2,4,6,-1,-1,-1,-1],"split_conditions":[3E-1,9.0909086E-2,9.0909086E-2,-1.0885207E-3,1.5752709E-2,1.3409505E-2,2.5272965E-2],"split_indices":[42,40,31,0,0,0,0],"split_type":[0,0,0,0,0,0,0],"sum_hessian":[1.0311579E4,3.0427195E3,7.268859E3,5.580646E2,2.484655E3,5.600432E2,6.708816E3],"tree_param":{"num_deleted":"0","num_feature":"45","num_nodes":"7","size_leaf_vector":"1"}},{"base_weights":[-1.0580661E0,-3.7495643E-1,-1.1552616E0,2.4791304E-3,-9.236856E-3,-1.0161962E-2,-1.1809422E-2],"categories":[],"categories_nodes":[],"categories_segments":[],"categories_sizes":[],"default_left":[0,0,0,0,0,0,0],"id":65,"left_children":[1,3,5,-1,-1,-1,-1],"loss_changes":[5.5045703E2,3.5397177E2,2.4740234E1,0E0,0E0,0E0,0E0],"parents":[2147483647,0,0,1,1,2,2],"right_children":[2,4,6,-1,-1,-1,-1],"split_conditions":[9.0909086E-2,3.9145905E-1,1.06060594E-1,2.4791304E-3,-9.236856E-3,-1.0161962E-2,-1.1809422E-2],"split_indices":[40,32,40,0,0,0,0],"split_type":[0,0,0,0,0,0,0],"sum_hessian":[8.296151E3,1.0339812E3,7.2621704E3,4.8453152E2,5.4944965E2,1.138351E3,6.1238193E3],"tree_param":{"num_deleted":"0","num_feature":"45","num_nodes":"7","size_leaf_vector":"1"}},{"base_weights":[-2.194076E-1,2.5508973E-1,-5.8656806E-1,-1.008276E-2,5.011138E-3,-3.4848528E-3,-7.679901E-3],"categories":[],"categories_nodes":[],"categories_segments":[],"categories_sizes":[],"default_left":[0,0,0,0,0,0,0],"id":66,"left_children":[1,3,5,-1,-1,-1,-1],"loss_changes":[1.5355131E3,1.1956686E3,2.1434937E2,0E0,0E0,0E0,0E0],"parents":[2147483647,0,0,1,1,2,2],"right_children":[2,4,6,-1,-1,-1,-1],"split_conditions":[3.2222223E-1,9.0909086E-2,3.5000002E-1,-1.008276E-2,5.011138E-3,-3.4848528E-3,-7.679901E-3],"split_indices":[42,43,15,0,0,0,0],"split_type":[0,0,0,0,0,0,0],"sum_hessian":[8.811954E3,3.8442146E3,4.9677393E3,6.260856E2,3.2181292E3,2.1496472E3,2.818092E3],"tree_param":{"num_deleted":"0","num_feature":"45","num_nodes":"7","size_leaf_vector":"1"}},{"base_weights":[-1.0846586E0,-1.6473825E-1,-1.2161168E0,-5.979854E-3,1.085505E-2,-1.1368756E-2,-1.2348173E-2],"categories":[],"categories_nodes":[],"categories_segments":[],"categories_sizes":[],"default_left":[0,0,0,0,0,0,0],"id":67,"left_children":[1,3,5,-1,-1,-1,-1],"loss_changes":[1.0017324E3,5.624004E2,9.337891E0,0E0,0E0,0E0,0E0],"parents":[2147483647,0,0,1,1,2,2],"right_children":[2,4,6,-1,-1,-1,-1],"split_conditions":[9.0909086E-2,4.8398572E-1,2.8333336E-1,-5.979854E-3,1.085505E-2,-1.1368756E-2,-1.2348173E-2],"split_indices":[37,29,42,0,0,0,0],"split_type":[0,0,0,0,0,0,0],"sum_hessian":[8.28415E3,1.0360835E3,7.248067E3,7.698343E2,2.6624924E2,1.39571E3,5.852357E3],"tree_param":{"num_deleted":"0","num_feature":"45","num_nodes":"7","size_leaf_vector":"1"}},{"base_weights":[-1.067242E0,-7.707841E-2,-1.2084371E0,4.5577977E-3,-8.379714E-3,-1.1076101E-2,-1.2267446E-2],"categories":[],"categories_nodes":[],"categories_segments":[],"categories_sizes":[],"default_left":[0,0,0,0,0,0,0],"id":68,"left_children":[1,3,5,-1,-1,-1,-1],"loss_changes":[1.1542812E3,4.1862048E2,1.1980469E1,0E0,0E0,0E0,0E0],"parents":[2147483647,0,0,1,1,2,2],"right_children":[2,4,6,-1,-1,-1,-1],"split_conditions":[9.0909086E-2,4.2941868E-1,1.06060594E-1,4.5577977E-3,-8.379714E-3,-1.1076101E-2,-1.2267446E-2],"split_indices":[40,44,40,0,0,0,0],"split_type":[0,0,0,0,0,0,0],"sum_hessian":[8.255952E3,1.0305466E3,7.2254053E3,6.0633057E2,4.242161E2,1.1197834E3,6.1056216E3],"tree_param":{"num_deleted":"0","num_feature":"45","num_nodes":"7","size_leaf_vector":"1"}},{"base_weights":[2.0739124E0,1.3163568E0,2.4306939E0,-8.4795174E-5,1.589716E-2,1.3770242E-2,2.5179042E-2],"categories":[],"categories_nodes":[],"categories_segments":[],"categories_sizes":[],"default_left":[0,0,0,0,0,0,0],"id":69,"left_children":[1,3,5,-1,-1,-1,-1],"loss_changes":[2.8085703E3,1.2070708E3,6.463008E2,0E0,0E0,0E0,0E0],"parents":[2147483647,0,0,1,1,2,2],"right_children":[2,4,6,-1,-1,-1,-1],"split_conditions":[3.0555558E-1,9.0909086E-2,9.0909086E-2,-8.4795174E-5,1.589716E-2,1.3770242E-2,2.5179042E-2],"split_indices":[42,37,28,0,0,0,0],"split_type":[0,0,0,0,0,0,0],"sum_hessian":[1.040208E4,3.331974E3,7.0701055E3,5.7007465E2,2.7618994E3,5.4173254E2,6.528373E3],"tree_param":{"num_deleted":"0","num_feature":"45","num_nodes":"7","size_leaf_vector":"1"}},{"base_weights":[-1.0518873E0,-3.4963763E-1,-1.1502565E0,-8.179884E-3,2.9961427E-3,-1.009816E-2,-1.1760016E-2],"categories":[],"categories_nodes":[],"categories_segments":[],"categories_sizes":[],"default_left":[0,0,0,0,0,0,0],"id":70,"left_children":[1,3,5,-1,-1,-1,-1],"loss_changes":[5.6655664E2,3.073147E2,2.4838867E1,0E0,0E0,0E0,0E0],"parents":[2147483647,0,0,1,1,2,2],"right_children":[2,4,6,-1,-1,-1,-1],"split_conditions":[9.0909086E-2,3.0555558E-1,1.06060594E-1,-8.179884E-3,2.9961427E-3,-1.009816E-2,-1.1760016E-2],"split_indices":[40,21,40,0,0,0,0],"split_type":[0,0,0,0,0,0,0],"sum_hessian":[8.206302E3,1.0088395E3,7.1974624E3,5.859168E2,4.2292267E2,1.1212457E3,6.076217E3],"tree_param":{"num_deleted":"0","num_feature":"45","num_nodes":"7","size_leaf_vector":"1"}},{"base_weights":[-2.1315205E-1,2.4959855E-1,-5.6796324E-1,-9.712628E-3,4.848859E-3,-3.7667628E-3,-7.7149654E-3],"categories":[],"categories_nodes":[],"categories_segments":[],"categories_sizes":[],"default_left":[0,0,0,0,0,0,0],"id":71,"left_children":[1,3,5,-1,-1,-1,-1],"loss_changes":[1.4416726E3,1.0951844E3,1.9319702E2,0E0,0E0,0E0,0E0],"parents":[2147483647,0,0,1,1,2,2],"right_children":[2,4,6,-1,-1,-1,-1],"split_conditions":[3.2222223E-1,9.0909086E-2,3.6111113E-1,-9.712628E-3,4.848859E-3,-3.7667628E-3,-7.7149654E-3],"split_indices":[42,43,3,0,0,0,0],"split_type":[0,0,0,0,0,0,0],"sum_hessian":[8.778699E3,3.80997E3,4.968729E3,6.1511694E2,3.194853E3,2.5628928E3,2.4058364E3],"tree_param":{"num_deleted":"0","num_feature":"45","num_nodes":"7","size_leaf_vector":"1"}},{"base_weights":[-1.0808048E0,-1.3582437E-1,-1.217516E0,-8.251234E-3,6.796856E-3,-9.381104E-3,-1.2255541E-2],"categories":[],"categories_nodes":[],"categories_segments":[],"categories_sizes":[],"default_left":[0,0,0,0,0,0,0],"id":72,"left_children":[1,3,5,-1,-1,-1,-1],"loss_changes":[1.0624707E3,5.855739E2,1.4989258E1,0E0,0E0,0E0,0E0],"parents":[2147483647,0,0,1,1,2,2],"right_children":[2,4,6,-1,-1,-1,-1],"split_conditions":[9.0909086E-2,4.1637003E-1,9.0909086E-2,-8.251234E-3,6.796856E-3,-9.381104E-3,-1.2255541E-2],"split_indices":[43,38,25,0,0,0,0],"split_type":[0,0,0,0,0,0,0],"sum_hessian":[8.22442E3,1.0397073E3,7.184713E3,5.634483E2,4.7625903E2,2.0420558E2,6.9805073E3],"tree_param":{"num_deleted":"0","num_feature":"45","num_nodes":"7","size_leaf_vector":"1"}},{"base_weights":[-1.065771E0,-7.4486285E-2,-1.207737E0,6.4482884E-3,-6.8749827E-3,-1.1005451E-2,-1.2268586E-2],"categories":[],"categories_nodes":[],"categories_segments":[],"categories_sizes":[],"default_left":[0,0,0,0,0,0,0],"id":73,"left_children":[1,3,5,-1,-1,-1,-1],"loss_changes":[1.159249E3,4.5597906E2,1.3419922E1,0E0,0E0,0E0,0E0],"parents":[2147483647,0,0,1,1,2,2],"right_children":[2,4,6,-1,-1,-1,-1],"split_conditions":[9.0909086E-2,2.8333336E-1,1.06060594E-1,6.4482884E-3,-6.8749827E-3,-1.1005451E-2,-1.2268586E-2],"split_indices":[43,42,43,0,0,0,0],"split_type":[0,0,0,0,0,0,0],"sum_hessian":[8.237109E3,1.0320808E3,7.205028E3,4.7484293E2,5.572379E2,1.0995756E3,6.1054526E3],"tree_param":{"num_deleted":"0","num_feature":"45","num_nodes":"7","size_leaf_vector":"1"}},{"base_weights":[2.0362809E0,1.2671319E0,2.352499E0,-2.6028435E-4,1.5502054E-2,1.2891293E-2,2.4397919E-2],"categories":[],"categories_nodes":[],"categories_segments":[],"categories_sizes":[],"default_left":[0,0,0,0,0,0,0],"id":74,"left_children":[1,3,5,-1,-1,-1,-1],"loss_changes":[2.541211E3,1.1164492E3,6.8484375E2,0E0,0E0,0E0,0E0],"parents":[2147483647,0,0,1,1,2,2],"right_children":[2,4,6,-1,-1,-1,-1],"split_conditions":[3E-1,9.0909086E-2,9.0909086E-2,-2.6028435E-4,1.5502054E-2,1.2891293E-2,2.4397919E-2],"split_indices":[42,40,28,0,0,0,0],"split_type":[0,0,0,0,0,0,0],"sum_hessian":[1.0459508E4,3.0488032E3,7.410705E3,5.476932E2,2.50111E3,5.63396E2,6.847309E3],"tree_param":{"num_deleted":"0","num_feature":"45","num_nodes":"7","size_leaf_vector":"1"}},{"base_weights":[-1.0573078E0,-3.8505176E-1,-1.1520754E0,4.3822466E-3,-7.942606E-3,-1.0128019E-2,-1.1777679E-2],"categories":[],"categories_nodes":[],"categories_segments":[],"categories_sizes":[],"default_left":[0,0,0,0,0,0,0],"id":75,"left_children":[1,3,5,-1,-1,-1,-1],"loss_changes":[5.199336E2,3.4084402E2,2.4421875E1,0E0,0E0,0E0,0E0],"parents":[2147483647,0,0,1,1,2,2],"right_children":[2,4,6,-1,-1,-1,-1],"split_conditions":[9.0909086E-2,3.6298925E-1,1.06060594E-1,4.3822466E-3,-7.942606E-3,-1.0128019E-2,-1.1777679E-2],"split_indices":[37,41,37,0,0,0,0],"split_type":[0,0,0,0,0,0,0],"sum_hessian":[8.1671655E3,1.00969775E3,7.157468E3,3.3521555E2,6.744822E2,1.1210317E3,6.036436E3],"tree_param":{"num_deleted":"0","num_feature":"45","num_nodes":"7","size_leaf_vector":"1"}},{"base_weights":[-2.0516957E-1,2.2728671E-1,-5.3982437E-1,-9.823439E-3,4.6412195E-3,-3.6423604E-3,-7.6714796E-3],"categories":[],"categories_nodes":[],"categories_segments":[],"categories_sizes":[],"default_left":[0,0,0,0,0,0,0],"id":76,"left_children":[1,3,5,-1,-1,-1,-1],"loss_changes":[1.2783367E3,1.1044878E3,1.9847388E2,0E0,0E0,0E0,0E0],"parents":[2147483647,0,0,1,1,2,2],"right_children":[2,4,6,-1,-1,-1,-1],"split_conditions":[3.2222223E-1,9.0909086E-2,3.7222224E-1,-9.823439E-3,4.6412195E-3,-3.6423604E-3,-7.6714796E-3],"split_indices":[39,43,12,0,0,0,0],"split_type":[0,0,0,0,0,0,0],"sum_hessian":[8.831108E3,3.8527402E3,4.9783677E3,6.3030817E2,3.2224321E3,2.810272E3,2.1680955E3],"tree_param":{"num_deleted":"0","num_feature":"45","num_nodes":"7","size_leaf_vector":"1"}},{"base_weights":[-1.0787871E0,2.1613258E-1,-1.1712888E0,-6.849221E-3,1.0120285E-2,-6.058108E-3,-1.2099044E-2],"categories":[],"categories_nodes":[],"categories_segments":[],"categories_sizes":[],"default_left":[0,0,0,0,0,0,0],"id":77,"left_children":[1,3,5,-1,-1,-1,-1],"loss_changes":[9.734375E2,3.897636E2,1.6485449E2,0E0,0E0,0E0,0E0],"parents":[2147483647,0,0,1,1,2,2],"right_children":[2,4,6,-1,-1,-1,-1],"split_conditions":[7.575756E-2,4.1043884E-1,9.0909086E-2,-6.849221E-3,1.0120285E-2,-6.058108E-3,-1.2099044E-2],"split_indices":[40,32,43,0,0,0,0],"split_type":[0,0,0,0,0,0,0],"sum_hessian":[8.123621E3,5.4152637E2,7.5820947E3,2.5404956E2,2.8747678E2,4.8573895E2,7.096356E3],"tree_param":{"num_deleted":"0","num_feature":"45","num_nodes":"7","size_leaf_vector":"1"}},{"base_weights":[-1.0628465E0,-6.008703E-2,-1.2073672E0,4.7303317E-3,-8.001825E-3,-1.111757E-2,-1.2242726E-2],"categories":[],"categories_nodes":[],"categories_segments":[],"categories_sizes":[],"default_left":[0,0,0,0,0,0,0],"id":78,"left_children":[1,3,5,-1,-1,-1,-1],"loss_changes":[1.1769531E3,4.0446957E2,1.0113281E1,0E0,0E0,0E0,0E0],"parents":[2147483647,0,0,1,1,2,2],"right_children":[2,4,6,-1,-1,-1,-1],"split_conditions":[9.0909086E-2,4.2586E-1,1.06060594E-1,4.7303317E-3,-8.001825E-3,-1.111757E-2,-1.2242726E-2],"split_indices":[40,41,40,0,0,0,0],"split_type":[0,0,0,0,0,0,0],"sum_hessian":[8.12093E3,1.0231566E3,7.097774E3,5.9495074E2,4.2820587E2,1.0764653E3,6.0213086E3],"tree_param":{"num_deleted":"0","num_feature":"45","num_nodes":"7","size_leaf_vector":"1"}},{"base_weights":[1.9910055E0,6.24245E-1,2.1546395E0,1.0370816E-3,1.8050468E-2,1.617351E-2,2.4122752E-2],"categories":[],"categories_nodes":[],"categories_segments":[],"categories_sizes":[],"default_left":[0,0,0,0,0,0,0],"id":79,"left_children":[1,3,5,-1,-1,-1,-1],"loss_changes":[2.3609766E3,6.9485767E2,1.3018438E3,0E0,0E0,0E0,0E0],"parents":[2147483647,0,0,1,1,2,2],"right_children":[2,4,6,-1,-1,-1,-1],"split_conditions":[9.0909086E-2,9.0909086E-2,3.1111112E-1,1.0370816E-3,1.8050468E-2,1.617351E-2,2.4122752E-2],"split_indices":[43,1,39,0,0,0,0],"split_type":[0,0,0,0,0,0,0],"sum_hessian":[1.0561667E4,1.1297961E3,9.431871E3,7.8488184E2,3.449143E2,3.05924E3,6.372631E3],"tree_param":{"num_deleted":"0","num_feature":"45","num_nodes":"7","size_leaf_vector":"1"}},{"base_weights":[-1.0588822E0,-3.9148465E-1,-1.1534722E0,1.1601399E-3,-9.905404E-3,-1.00419475E-2,-1.1804742E-2],"categories":[],"categories_nodes":[],"categories_segments":[],"categories_sizes":[],"default_left":[0,0,0,0,0,0,0],"id":80,"left_children":[1,3,5,-1,-1,-1,-1],"loss_changes":[5.115537E2,3.0666147E2,2.744629E1,0E0,0E0,0E0,0E0],"parents":[2147483647,0,0,1,1,2,2],"right_children":[2,4,6,-1,-1,-1,-1],"split_conditions":[9.0909086E-2,4.139976E-1,1.06060594E-1,1.1601399E-3,-9.905404E-3,-1.00419475E-2,-1.1804742E-2],"split_indices":[43,44,43,0,0,0,0],"split_type":[0,0,0,0,0,0,0],"sum_hessian":[8.109444E3,1.0073105E3,7.1021333E3,5.457646E2,4.615459E2,1.0937318E3,6.008402E3],"tree_param":{"num_deleted":"0","num_feature":"45","num_nodes":"7","size_leaf_vector":"1"}},{"base_weights":[-2.1058723E-1,2.2725478E-1,-5.5307615E-1,5.671167E-3,-5.423733E-3,-3.079733E-3,-7.338646E-3],"categories":[],"categories_nodes":[],"categories_segments":[],"categories_sizes":[],"default_left":[0,0,0,0,0,0,0],"id":81,"left_children":[1,3,5,-1,-1,-1,-1],"loss_changes":[1.3158817E3,1.0078016E3,2.1794385E2,0E0,0E0,0E0,0E0],"parents":[2147483647,0,0,1,1,2,2],"right_children":[2,4,6,-1,-1,-1,-1],"split_conditions":[3.2222223E-1,4.1043884E-1,3.5000002E-1,5.671167E-3,-5.423733E-3,-3.079733E-3,-7.338646E-3],"split_indices":[42,44,18,0,0,0,0],"split_type":[0,0,0,0,0,0,0],"sum_hessian":[8.773279E3,3.8507585E3,4.9225205E3,2.6713665E3,1.179392E3,2.0907302E3,2.8317903E3],"tree_param":{"num_deleted":"0","num_feature":"45","num_nodes":"7","size_leaf_vector":"1"}},{"base_weights":[-1.0725118E0,-1.3104524E-1,-1.2083284E0,-7.166631E-3,8.587204E-3,-1.1395488E-2,-1.2308401E-2],"categories":[],"categories_nodes":[],"categories_segments":[],"categories_sizes":[],"default_left":[0,0,0,0,0,0,0],"id":82,"left_children":[1,3,5,-1,-1,-1,-1],"loss_changes":[1.0368389E3,5.9390375E2,9.571289E0,0E0,0E0,0E0,0E0],"parents":[2147483647,0,0,1,1,2,2],"right_children":[2,4,6,-1,-1,-1,-1],"split_conditions":[9.0909086E-2,4.3060493E-1,2.9444447E-1,-7.166631E-3,8.587204E-3,-1.1395488E-2,-1.2308401E-2],"split_indices":[40,8,42,0,0,0,0],"split_type":[0,0,0,0,0,0,0],"sum_hessian":[8.108988E3,1.02257367E3,7.086414E3,6.426253E2,3.7994833E2,1.7601876E3,5.3262266E3],"tree_param":{"num_deleted":"0","num_feature":"45","num_nodes":"7","size_leaf_vector":"1"}},{"base_weights":[-1.0642257E0,-9.904487E-2,-1.2051642E0,3.8965899E-3,-7.980894E-3,-1.1099949E-2,-1.2218571E-2],"categories":[],"categories_nodes":[],"categories_segments":[],"categories_sizes":[],"default_left":[0,0,0,0,0,0,0],"id":83,"left_children":[1,3,5,-1,-1,-1,-1],"loss_changes":[1.0971201E3,3.517917E2,9.824219E0,0E0,0E0,0E0,0E0],"parents":[2147483647,0,0,1,1,2,2],"right_children":[2,4,6,-1,-1,-1,-1],"split_conditions":[9.0909086E-2,4.3060493E-1,1.06060594E-1,3.8965899E-3,-7.980894E-3,-1.1099949E-2,-1.2218571E-2],"split_indices":[43,44,43,0,0,0,0],"split_type":[0,0,0,0,0,0,0],"sum_hessian":[8.065082E3,1.027847E3,7.037235E3,6.0519574E2,4.2265128E2,1.0602212E3,5.977014E3],"tree_param":{"num_deleted":"0","num_feature":"45","num_nodes":"7","size_leaf_vector":"1"}},{"base_weights":[1.9697446E0,1.3502675E0,2.3456428E0,6.048624E-4,1.5876241E-2,1.3826476E-2,2.4250595E-2],"categories":[],"categories_nodes":[],"categories_segments":[],"categories_sizes":[],"default_left":[0,0,0,0,0,0,0],"id":84,"left_children":[1,3,5,-1,-1,-1,-1],"loss_changes":[2.466746E3,1.2268989E3,5.0139844E2,0E0,0E0,0E0,0E0],"parents":[2147483647,0,0,1,1,2,2],"right_children":[2,4,6,-1,-1,-1,-1],"split_conditions":[3.166667E-1,9.0909086E-2,9.0909086E-2,6.048624E-4,1.5876241E-2,1.3826476E-2,2.4250595E-2],"split_indices":[42,37,22,0,0,0,0],"split_type":[0,0,0,0,0,0,0],"sum_hessian":[1.0605853E4,4.0069783E3,6.598874E3,6.229829E2,3.3839954E3,5.041412E2,6.0947324E3],"tree_param":{"num_deleted":"0","num_feature":"45","num_nodes":"7","size_leaf_vector":"1"}},{"base_weights":[-1.0493026E0,-3.4622753E-1,-1.150036E0,1.6045407E-3,-1.0186459E-2,-1.0092805E-2,-1.1758264E-2],"categories":[],"categories_nodes":[],"categories_segments":[],"categories_sizes":[],"default_left":[0,0,0,0,0,0,0],"id":85,"left_children":[1,3,5,-1,-1,-1,-1],"loss_changes":[5.712744E2,3.4529266E2,2.4441406E1,0E0,0E0,0E0,0E0],"parents":[2147483647,0,0,1,1,2,2],"right_children":[2,4,6,-1,-1,-1,-1],"split_conditions":[9.0909086E-2,4.2111504E-1,1.06060594E-1,1.6045407E-3,-1.0186459E-2,-1.0092805E-2,-1.1758264E-2],"split_indices":[43,44,43,0,0,0,0],"split_type":[0,0,0,0,0,0,0],"sum_hessian":[8.070833E3,1.0119943E3,7.058839E3,5.7755536E2,4.3443896E2,1.0993119E3,5.959527E3],"tree_param":{"num_deleted":"0","num_feature":"45","num_nodes":"7","size_leaf_vector":"1"}},{"base_weights":[-2.0274493E-1,2.0925815E-1,-5.6688905E-1,5.808377E-3,-4.8589897E-3,-3.0537758E-3,-7.2896215E-3],"categories":[],"categories_nodes":[],"categories_segments":[],"categories_sizes":[],"default_left":[0,0,0,0,0,0,0],"id":86,"left_children":[1,3,5,-1,-1,-1,-1],"loss_changes":[1.3056984E3,1.0550852E3,1.9557751E2,0E0,0E0,0E0,0E0],"parents":[2147483647,0,0,1,1,2,2],"right_children":[2,4,6,-1,-1,-1,-1],"split_conditions":[3.277778E-1,3.997627E-1,3.388889E-1,5.808377E-3,-4.8589897E-3,-3.0537758E-3,-7.2896215E-3],"split_indices":[42,44,3,0,0,0,0],"split_type":[0,0,0,0,0,0,0],"sum_hessian":[8.701212E3,4.0825374E3,4.618675E3,2.6605623E3,1.4219752E3,1.7683138E3,2.8503608E3],"tree_param":{"num_deleted":"0","num_feature":"45","num_nodes":"7","size_leaf_vector":"1"}},{"base_weights":[-1.0686706E0,-1.165693E-1,-1.2061719E0,-7.2004753E-3,8.025755E-3,-1.0209043E-2,-1.2136158E-2],"categories":[],"categories_nodes":[],"categories_segments":[],"categories_sizes":[],"default_left":[0,0,0,0,0,0,0],"id":87,"left_children":[1,3,5,-1,-1,-1,-1],"loss_changes":[1.0489541E3,5.621221E2,8.417969E0,0E0,0E0,0E0,0E0],"parents":[2147483647,0,0,1,1,2,2],"right_children":[2,4,6,-1,-1,-1,-1],"split_conditions":[9.0909086E-2,4.3653613E-1,9.0909086E-2,-7.2004753E-3,8.025755E-3,-1.0209043E-2,-1.2136158E-2],"split_indices":[40,32,13,0,0,0,0],"split_type":[0,0,0,0,0,0,0],"sum_hessian":[8.0125435E3,1.011368E3,7.0011753E3,6.106519E2,4.00716E2,2.7577246E2,6.725403E3],"tree_param":{"num_deleted":"0","num_feature":"45","num_nodes":"7","size_leaf_vector":"1"}},{"base_weights":[-1.0535485E0,-6.870697E-2,-1.198392E0,4.0191836E-3,-8.08976E-3,-9.905332E-3,-1.2078256E-2],"categories":[],"categories_nodes":[],"categories_segments":[],"categories_sizes":[],"default_left":[0,0,0,0,0,0,0],"id":88,"left_children":[1,3,5,-1,-1,-1,-1],"loss_changes":[1.1483828E3,3.6032724E2,1.2566406E1,0E0,0E0,0E0,0E0],"parents":[2147483647,0,0,1,1,2,2],"right_children":[2,4,6,-1,-1,-1,-1],"split_conditions":[9.0909086E-2,4.3416363E-1,9.0909086E-2,4.0191836E-3,-8.08976E-3,-9.905332E-3,-1.2078256E-2],"split_indices":[40,38,10,0,0,0,0],"split_type":[0,0,0,0,0,0,0],"sum_hessian":[8.050042E3,1.0323326E3,7.0177095E3,6.3138635E2,4.009462E2,3.0927426E2,6.708435E3],"tree_param":{"num_deleted":"0","num_feature":"45","num_nodes":"7","size_leaf_vector":"1"}},{"base_weights":[1.9269772E0,1.2941285E0,2.2655678E0,4.4707404E-4,1.531962E-2,1.335099E-2,2.3421494E-2],"categories":[],"categories_nodes":[],"categories_segments":[],"categories_sizes":[],"default_left":[0,0,0,0,0,0,0],"id":89,"left_children":[1,3,5,-1,-1,-1,-1],"loss_changes":[2.299914E3,1.1137183E3,4.9566797E2,0E0,0E0,0E0,0E0],"parents":[2147483647,0,0,1,1,2,2],"right_children":[2,4,6,-1,-1,-1,-1],"split_conditions":[3.1111112E-1,9.0909086E-2,9.0909086E-2,4.4707404E-4,1.531962E-2,1.335099E-2,2.3421494E-2],"split_indices":[42,40,28,0,0,0,0],"split_type":[0,0,0,0,0,0,0],"sum_hessian":[1.0746078E4,3.747176E3,6.9989023E3,5.994177E2,3.1477583E3,5.336366E2,6.4652656E3],"tree_param":{"num_deleted":"0","num_feature":"45","num_nodes":"7","size_leaf_vector":"1"}},{"base_weights":[-1.041345E0,-3.554676E-1,-1.1391135E0,4.6030795E-3,-7.857619E-3,-1.0052664E-2,-1.16394125E-2],"categories":[],"categories_nodes":[],"categories_segments":[],"categories_sizes":[],"default_left":[0,0,0,0,0,0,0],"id":90,"left_children":[1,3,5,-1,-1,-1,-1],"loss_changes":[5.4028125E2,3.5398602E2,2.2280273E1,0E0,0E0,0E0,0E0],"parents":[2147483647,0,0,1,1,2,2],"right_children":[2,4,6,-1,-1,-1,-1],"split_conditions":[9.0909086E-2,3.6298925E-1,1.06060594E-1,4.6030795E-3,-7.857619E-3,-1.0052664E-2,-1.16394125E-2],"split_indices":[40,41,40,0,0,0,0],"split_type":[0,0,0,0,0,0,0],"sum_hessian":[8.0620557E3,1.0064092E3,7.0556465E3,3.475103E2,6.5889886E2,1.110485E3,5.9451616E3],"tree_param":{"num_deleted":"0","num_feature":"45","num_nodes":"7","size_leaf_vector":"1"}},{"base_weights":[-2.1225888E-1,1.6346538E-1,-5.9383386E-1,4.6205497E-3,-6.0151457E-3,-3.7446036E-3,-7.754506E-3],"categories":[],"categories_nodes":[],"categories_segments":[],"categories_sizes":[],"default_left":[0,0,0,0,0,0,0],"id":91,"left_children":[1,3,5,-1,-1,-1,-1],"loss_changes":[1.2576417E3,1.0099689E3,1.731051E2,0E0,0E0,0E0,0E0],"parents":[2147483647,0,0,1,1,2,2],"right_children":[2,4,6,-1,-1,-1,-1],"split_conditions":[3.3333334E-1,4.1637003E-1,3.5555556E-1,4.6205497E-3,-6.0151457E-3,-3.7446036E-3,-7.754506E-3],"split_indices":[42,44,12,0,0,0,0],"split_type":[0,0,0,0,0,0,0],"sum_hessian":[8.770508E3,4.419422E3,4.3510864E3,3.1789854E3,1.2404365E3,1.9720837E3,2.3790027E3],"tree_param":{"num_deleted":"0","num_feature":"45","num_nodes":"7","size_leaf_vector":"1"}},{"base_weights":[-1.0594553E0,-1.0094877E-1,-1.2015114E0,-6.3863564E-3,9.720923E-3,-9.89694E-3,-1.2109916E-2],"categories":[],"categories_nodes":[],"categories_segments":[],"categories_sizes":[],"default_left":[0,0,0,0,0,0,0],"id":92,"left_children":[1,3,5,-1,-1,-1,-1],"loss_changes":[1.0870117E3,5.958417E2,1.2764648E1,0E0,0E0,0E0,0E0],"parents":[2147483647,0,0,1,1,2,2],"right_children":[2,4,6,-1,-1,-1,-1],"split_conditions":[9.0909086E-2,4.5077097E-1,9.0909086E-2,-6.3863564E-3,9.720923E-3,-9.89694E-3,-1.2109916E-2],"split_indices":[43,29,13,0,0,0,0],"split_type":[0,0,0,0,0,0,0],"sum_hessian":[7.9831304E3,1.0306499E3,6.9524805E3,6.868721E2,3.437778E2,3.0235468E2,6.6501255E3],"tree_param":{"num_deleted":"0","num_feature":"45","num_nodes":"7","size_leaf_vector":"1"}},{"base_weights":[-1.0557792E0,-1.02762446E-1,-1.196513E0,5.2780616E-3,-6.6064424E-3,-1.0889334E-2,-1.21602435E-2],"categories":[],"categories_nodes":[],"categories_segments":[],"categories_sizes":[],"default_left":[0,0,0,0,0,0,0],"id":93,"left_children":[1,3,5,-1,-1,-1,-1],"loss_changes":[1.0703711E3,3.620107E2,1.3274414E1,0E0,0E0,0E0,0E0],"parents":[2147483647,0,0,1,1,2,2],"right_children":[2,4,6,-1,-1,-1,-1],"split_conditions":[9.0909086E-2,2.8333336E-1,1.06060594E-1,5.2780616E-3,-6.6064424E-3,-1.0889334E-2,-1.21602435E-2],"split_indices":[43,42,43,0,0,0,0],"split_type":[0,0,0,0,0,0,0],"sum_hessian":[7.9805225E3,1.0270835E3,6.953439E3,4.8215833E2,5.449252E2,1.0762341E3,5.8772046E3],"tree_param":{"num_deleted":"0","num_feature":"45","num_nodes":"7","size_leaf_vector":"1"}},{"base_weights":[1.9012066E0,1.1661292E0,2.2023306E0,-8.611474E-4,1.4394344E-2,1.2925633E-2,2.2836126E-2],"categories":[],"categories_nodes":[],"categories_segments":[],"categories_sizes":[],"default_left":[0,0,0,0,0,0,0],"id":94,"left_children":[1,3,5,-1,-1,-1,-1],"loss_changes":[2.3718164E3,1.0677192E3,5.596797E2,0E0,0E0,0E0,0E0],"parents":[2147483647,0,0,1,1,2,2],"right_children":[2,4,6,-1,-1,-1,-1],"split_conditions":[3E-1,9.0909086E-2,9.0909086E-2,-8.611474E-4,1.4394344E-2,1.2925633E-2,2.2836126E-2],"split_indices":[42,37,16,0,0,0,0],"split_type":[0,0,0,0,0,0,0],"sum_hessian":[1.0725864E4,3.1183923E3,7.607472E3,5.5878876E2,2.5596038E3,6.253224E2,6.98215E3],"tree_param":{"num_deleted":"0","num_feature":"45","num_nodes":"7","size_leaf_vector":"1"}},{"base_weights":[-1.0381347E0,-3.3184254E-1,-1.1395164E0,1.9482354E-3,-9.8563535E-3,-9.846176E-3,-1.1678702E-2],"categories":[],"categories_nodes":[],"categories_segments":[],"categories_sizes":[],"default_left":[0,0,0,0,0,0,0],"id":95,"left_children":[1,3,5,-1,-1,-1,-1],"loss_changes":[5.7135254E2,3.4577924E2,2.9514648E1,0E0,0E0,0E0,0E0],"parents":[2147483647,0,0,1,1,2,2],"right_children":[2,4,6,-1,-1,-1,-1],"split_conditions":[9.0909086E-2,4.1637003E-1,1.06060594E-1,1.9482354E-3,-9.8563535E-3,-9.846176E-3,-1.1678702E-2],"split_indices":[43,44,43,0,0,0,0],"split_type":[0,0,0,0,0,0,0],"sum_hessian":[7.983504E3,1.0026496E3,6.9808545E3,5.5570264E2,4.46947E2,1.0856471E3,5.895207E3],"tree_param":{"num_deleted":"0","num_feature":"45","num_nodes":"7","size_leaf_vector":"1"}},{"base_weights":[-2.0566848E-1,1.9620004E-1,-5.2246517E-1,-9.737924E-3,4.2547546E-3,-2.8097257E-3,-6.9388477E-3],"categories":[],"categories_nodes":[],"categories_segments":[],"categories_sizes":[],"default_left":[0,0,0,0,0,0,0],"id":96,"left_children":[1,3,5,-1,-1,-1,-1],"loss_changes":[1.1136874E3,1.0349255E3,2.0229541E2,0E0,0E0,0E0,0E0],"parents":[2147483647,0,0,1,1,2,2],"right_children":[2,4,6,-1,-1,-1,-1],"split_conditions":[3.2222223E-1,9.0909086E-2,3.5000002E-1,-9.737924E-3,4.2547546E-3,-2.8097257E-3,-6.9388477E-3],"split_indices":[39,43,18,0,0,0,0],"split_type":[0,0,0,0,0,0,0],"sum_hessian":[8.745991E3,3.855511E3,4.89048E3,6.3120825E2,3.2243027E3,2.031368E3,2.859112E3],"tree_param":{"num_deleted":"0","num_feature":"45","num_nodes":"7","size_leaf_vector":"1"}},{"base_weights":[-1.0627822E0,-1.3854562E-1,-1.1999458E0,-7.250164E-3,7.5619756E-3,-1.0354123E-2,-1.2073575E-2],"categories":[],"categories_nodes":[],"categories_segments":[],"categories_sizes":[],"default_left":[0,0,0,0,0,0,0],"id":97,"left_children":[1,3,5,-1,-1,-1,-1],"loss_changes":[1.0065293E3,5.396356E2,7.182617E0,0E0,0E0,0E0,0E0],"parents":[2147483647,0,0,1,1,2,2],"right_children":[2,4,6,-1,-1,-1,-1],"split_conditions":[9.0909086E-2,4.2823243E-1,9.0909086E-2,-7.250164E-3,7.5619756E-3,-1.0354123E-2,-1.2073575E-2],"split_indices":[37,14,7,0,0,0,0],"split_type":[0,0,0,0,0,0,0],"sum_hessian":[7.940023E3,1.0263403E3,6.9136826E3,6.200865E2,4.0625388E2,3.0408176E2,6.6096006E3],"tree_param":{"num_deleted":"0","num_feature":"45","num_nodes":"7","size_leaf_vector":"1"}},{"base_weights":[-1.0522585E0,-1.0990644E-1,-1.1938983E0,7.480388E-3,-5.2250708E-3,-1.0917077E-2,-1.2122883E-2],"categories":[],"categories_nodes":[],"categories_segments":[],"categories_sizes":[],"default_left":[0,0,0,0,0,0,0],"id":98,"left_children":[1,3,5,-1,-1,-1,-1],"loss_changes":[1.0602832E3,3.682543E2,1.165625E1,0E0,0E0,0E0,0E0],"parents":[2147483647,0,0,1,1,2,2],"right_children":[2,4,6,-1,-1,-1,-1],"split_conditions":[9.0909086E-2,2.5555557E-1,1.06060594E-1,7.480388E-3,-5.2250708E-3,-1.0917077E-2,-1.2122883E-2],"split_indices":[43,39,43,0,0,0,0],"split_type":[0,0,0,0,0,0,0],"sum_hessian":[7.943697E3,1.0381952E3,6.905502E3,3.3688242E2,7.013128E2,1.0623822E3,5.8431196E3],"tree_param":{"num_deleted":"0","num_feature":"45","num_nodes":"7","size_leaf_vector":"1"}},{"base_weights":[1.8601176E0,1.1389377E0,2.153254E0,-8.074022E-4,1.3949811E-2,1.22911865E-2,2.227931E-2],"categories":[],"categories_nodes":[],"categories_segments":[],"categories_sizes":[],"default_left":[0,0,0,0,0,0,0],"id":99,"left_children":[1,3,5,-1,-1,-1,-1],"loss_changes":[2.2734766E3,9.724055E2,5.254375E2,0E0,0E0,0E0,0E0],"parents":[2147483647,0,0,1,1,2,2],"right_children":[2,4,6,-1,-1,-1,-1],"split_conditions":[3E-1,9.0909086E-2,9.0909086E-2,-8.074022E-4,1.3949811E-2,1.22911865E-2,2.227931E-2],"split_indices":[42,34,34,0,0,0,0],"split_type":[0,0,0,0,0,0,0],"sum_hessian":[1.0764784E4,3.1124238E3,7.65236E3,5.401365E2,2.5722874E3,5.734412E2,7.0789185E3],"tree_param":{"num_deleted":"0","num_feature":"45","num_nodes":"7","size_leaf_vector":"1"}},{"base_weights":[-1.0358359E0,-3.5499716E-1,-1.1341896E0,1.5459217E-3,-9.773573E-3,-9.736715E-3,-1.1637015E-2],"categories":[],"categories_nodes":[],"categories_segments":[],"categories_sizes":[],"default_left":[0,0,0,0,0,0,0],"id":100,"left_children":[1,3,5,-1,-1,-1,-1],"loss_changes":[5.3233984E2,3.1909872E2,3.1794922E1,0E0,0E0,0E0,0E0],"parents":[2147483647,0,0,1,1,2,2],"right_children":[2,4,6,-1,-1,-1,-1],"split_conditions":[9.0909086E-2,4.139976E-1,1.06060594E-1,1.5459217E-3,-9.773573E-3,-9.736715E-3,-1.1637015E-2],"split_indices":[43,44,43,0,0,0,0],"split_type":[0,0,0,0,0,0,0],"sum_hessian":[7.9547686E3,1.004674E3,6.9500947E3,5.527958E2,4.5187827E2,1.0846393E3,5.8654556E3],"tree_param":{"num_deleted":"0","num_feature":"45","num_nodes":"7","size_leaf_vector":"1"}},{"base_weights":[-2.1409324E-1,1.6300908E-1,-5.933565E-1,-1.0016255E-2,3.6728887E-3,-4.0763607E-3,-8.029622E-3],"categories":[],"categories_nodes":[],"categories_segments":[],"categories_sizes":[],"default_left":[0,0,0,0,0,0,0],"id":101,"left_children":[1,3,5,-1,-1,-1,-1],"loss_changes":[1.2508276E3,1.043804E3,1.6940955E2,0E0,0E0,0E0,0E0],"parents":[2147483647,0,0,1,1,2,2],"right_children":[2,4,6,-1,-1,-1,-1],"split_conditions":[3.3333334E-1,9.0909086E-2,3.6666667E-1,-1.0016255E-2,3.6728887E-3,-4.0763607E-3,-8.029622E-3],"split_indices":[42,43,3,0,0,0,0],"split_type":[0,0,0,0,0,0,0],"sum_hessian":[8.744084E3,4.384819E3,4.3592656E3,6.537535E2,3.7310654E3,2.3128857E3,2.0463796E3],"tree_param":{"num_deleted":"0","num_feature":"45","num_nodes":"7","size_leaf_vector":"1"}},{"base_weights":[-1.0617238E0,-1.63843E-1,-1.1986448E0,-7.2435783E-3,7.9376595E-3,-1.1202396E-2,-1.2174347E-2],"categories":[],"categories_nodes":[],"categories_segments":[],"categories_sizes":[],"default_left":[0,0,0,0,0,0,0],"id":102,"left_children":[1,3,5,-1,-1,-1,-1],"loss_changes":[9.7116797E2,5.6235077E2,8.737305E0,0E0,0E0,0E0,0E0],"parents":[2147483647,0,0,1,1,2,2],"right_children":[2,4,6,-1,-1,-1,-1],"split_conditions":[9.0909086E-2,4.317912E-1,2.8333336E-1,-7.2435783E-3,7.9376595E-3,-1.1202396E-2,-1.2174347E-2],"split_indices":[40,2,42,0,0,0,0],"split_type":[0,0,0,0,0,0,0],"sum_hessian":[7.900216E3,1.0456168E3,6.854599E3,6.597125E2,3.859043E2,1.3368647E3,5.5177344E3],"tree_param":{"num_deleted":"0","num_feature":"45","num_nodes":"7","size_leaf_vector":"1"}},{"base_weights":[-1.0389868E0,-6.235623E-2,-1.186211E0,5.6848642E-3,-6.889258E-3,-1.0808064E-2,-1.2054138E-2],"categories":[],"categories_nodes":[],"categories_segments":[],"categories_sizes":[],"default_left":[0,0,0,0,0,0,0],"id":103,"left_children":[1,3,5,-1,-1,-1,-1],"loss_changes":[1.1340195E3,4.0922125E2,1.2571289E1,0E0,0E0,0E0,0E0],"parents":[2147483647,0,0,1,1,2,2],"right_children":[2,4,6,-1,-1,-1,-1],"split_conditions":[9.0909086E-2,4.0450764E-1,1.06060594E-1,5.6848642E-3,-6.889258E-3,-1.0808064E-2,-1.2054138E-2],"split_indices":[40,44,40,0,0,0,0],"split_type":[0,0,0,0,0,0,0],"sum_hessian":[7.8865034E3,1.033313E3,6.8531904E3,5.149469E2,5.183661E2,1.0649465E3,5.7882437E3],"tree_param":{"num_deleted":"0","num_feature":"45","num_nodes":"7","size_leaf_vector":"1"}},{"base_weights":[1.8434384E0,1.1543033E0,2.1230357E0,-1.4676467E-4,1.4031834E-2,1.2931822E-2,2.1959998E-2],"categories":[],"categories_nodes":[],"categories_segments":[],"categories_sizes":[],"default_left":[0,0,0,0,0,0,0],"id":104,"left_children":[1,3,5,-1,-1,-1,-1],"loss_changes":[2.1013477E3,9.1749805E2,4.6739062E2,0E0,0E0,0E0,0E0],"parents":[2147483647,0,0,1,1,2,2],"right_children":[2,4,6,-1,-1,-1,-1],"split_conditions":[3E-1,9.0909086E-2,9.0909086E-2,-1.4676467E-4,1.4031834E-2,1.2931822E-2,2.1959998E-2],"split_indices":[42,40,19,0,0,0,0],"split_type":[0,0,0,0,0,0,0],"sum_hessian":[1.09176E4,3.152536E3,7.7650635E3,5.53537E2,2.5989988E3,6.290729E2,7.1359907E3],"tree_param":{"num_deleted":"0","num_feature":"45","num_nodes":"7","size_leaf_vector":"1"}},{"base_weights":[-1.0271916E0,-3.1053334E-1,-1.1311193E0,2.2361856E-3,-9.636979E-3,-9.753304E-3,-1.1599759E-2],"categories":[],"categories_nodes":[],"categories_segments":[],"categories_sizes":[],"default_left":[0,0,0,0,0,0,0],"id":105,"left_children":[1,3,5,-1,-1,-1,-1],"loss_changes":[5.8531445E2,3.4815363E2,2.9740234E1,0E0,0E0,0E0,0E0],"parents":[2147483647,0,0,1,1,2,2],"right_children":[2,4,6,-1,-1,-1,-1],"split_conditions":[9.0909086E-2,4.139976E-1,1.06060594E-1,2.2361856E-3,-9.636979E-3,-9.753304E-3,-1.1599759E-2],"split_indices":[43,44,43,0,0,0,0],"split_type":[0,0,0,0,0,0,0],"sum_hessian":[7.862344E3,9.962744E2,6.86607E3,5.484306E2,4.4784384E2,1.0784764E3,5.7875933E3],"tree_param":{"num_deleted":"0","num_feature":"45","num_nodes":"7","size_leaf_vector":"1"}},{"base_weights":[-1.9387849E-1,1.8602017E-1,-5.820711E-1,4.68397E-3,-6.6801226E-3,-3.1529064E-3,-7.410457E-3],"categories":[],"categories_nodes":[],"categories_segments":[],"categories_sizes":[],"default_left":[0,0,0,0,0,0,0],"id":106,"left_children":[1,3,5,-1,-1,-1,-1],"loss_changes":[1.2911912E3,1.0675266E3,1.8342029E2,0E0,0E0,0E0,0E0],"parents":[2147483647,0,0,1,1,2,2],"right_children":[2,4,6,-1,-1,-1,-1],"split_conditions":[3.3333334E-1,4.2467374E-1,3.388889E-1,4.68397E-3,-6.6801226E-3,-3.1529064E-3,-7.410457E-3],"split_indices":[42,41,3,0,0,0,0],"split_type":[0,0,0,0,0,0,0],"sum_hessian":[8.753656E3,4.424353E3,4.329303E3,3.3253218E3,1.0990312E3,1.6176523E3,2.711651E3],"tree_param":{"num_deleted":"0","num_feature":"45","num_nodes":"7","size_leaf_vector":"1"}},{"base_weights":[-1.059538E0,2.3244691E-1,-1.1596403E0,-2.4936046E-3,1.6485345E-2,-6.337743E-3,-1.1956793E-2],"categories":[],"categories_nodes":[],"categories_segments":[],"categories_sizes":[],"default_left":[0,0,0,0,0,0,0],"id":107,"left_children":[1,3,5,-1,-1,-1,-1],"loss_changes":[1.01305273E3,3.851784E2,1.3698242E2,0E0,0E0,0E0,0E0],"parents":[2147483647,0,0,1,1,2,2],"right_children":[2,4,6,-1,-1,-1,-1],"split_conditions":[7.575756E-2,5.0059307E-1,9.0909086E-2,-2.4936046E-3,1.6485345E-2,-6.337743E-3,-1.1956793E-2],"split_indices":[43,26,43,0,0,0,0],"split_type":[0,0,0,0,0,0,0],"sum_hessian":[7.829953E3,5.629422E2,7.267011E3,4.2064615E2,1.4229605E2,4.6727747E2,6.799734E3],"tree_param":{"num_deleted":"0","num_feature":"45","num_nodes":"7","size_leaf_vector":"1"}},{"base_weights":[-1.0380174E0,-8.33908E-2,-1.1806931E0,6.9310116E-3,-5.746067E-3,-1.076085E-2,-1.20594045E-2],"categories":[],"categories_nodes":[],"categories_segments":[],"categories_sizes":[],"default_left":[0,0,0,0,0,0,0],"id":108,"left_children":[1,3,5,-1,-1,-1,-1],"loss_changes":[1.0736367E3,3.9178143E2,1.681543E1,0E0,0E0,0E0,0E0],"parents":[2147483647,0,0,1,1,2,2],"right_children":[2,4,6,-1,-1,-1,-1],"split_conditions":[9.0909086E-2,2.6666668E-1,2.8333336E-1,6.9310116E-3,-5.746067E-3,-1.076085E-2,-1.20594045E-2],"split_indices":[37,42,42,0,0,0,0],"split_type":[0,0,0,0,0,0,0],"sum_hessian":[7.8823975E3,1.0251073E3,6.85729E3,3.9705295E2,6.280544E2,1.3417231E3,5.515567E3],"tree_param":{"num_deleted":"0","num_feature":"45","num_nodes":"7","size_leaf_vector":"1"}},{"base_weights":[1.8025748E0,1.2488048E0,2.1359076E0,5.5484154E-4,1.4620739E-2,1.2224944E-2,2.2083048E-2],"categories":[],"categories_nodes":[],"categories_segments":[],"categories_sizes":[],"default_left":[0,0,0,0,0,0,0],"id":109,"left_children":[1,3,5,-1,-1,-1,-1],"loss_changes":[2.0224609E3,1.0496733E3,4.500957E2,0E0,0E0,0E0,0E0],"parents":[2147483647,0,0,1,1,2,2],"right_children":[2,4,6,-1,-1,-1,-1],"split_conditions":[3.166667E-1,9.0909086E-2,9.0909086E-2,5.5484154E-4,1.4620739E-2,1.2224944E-2,2.2083048E-2],"split_indices":[42,40,28,0,0,0,0],"split_type":[0,0,0,0,0,0,0],"sum_hessian":[1.0969968E4,4.123798E3,6.8461694E3,6.25447E2,3.498351E3,5.040907E2,6.3420786E3],"tree_param":{"num_deleted":"0","num_feature":"45","num_nodes":"7","size_leaf_vector":"1"}},{"base_weights":[-1.0244488E0,-3.093454E-1,-1.1270528E0,1.9588869E-3,-9.557608E-3,-9.752022E-3,-1.15528E-2],"categories":[],"categories_nodes":[],"categories_segments":[],"categories_sizes":[],"default_left":[0,0,0,0,0,0,0],"id":110,"left_children":[1,3,5,-1,-1,-1,-1],"loss_changes":[5.728584E2,3.2078387E2,2.8157227E1,0E0,0E0,0E0,0E0],"parents":[2147483647,0,0,1,1,2,2],"right_children":[2,4,6,-1,-1,-1,-1],"split_conditions":[9.0909086E-2,4.1874254E-1,1.06060594E-1,1.9588869E-3,-9.557608E-3,-9.752022E-3,-1.15528E-2],"split_indices":[43,44,43,0,0,0,0],"split_type":[0,0,0,0,0,0,0],"sum_hessian":[7.811284E3,9.806453E2,6.8306387E3,5.508228E2,4.2982254E2,1.0762816E3,5.754357E3],"tree_param":{"num_deleted":"0","num_feature":"45","num_nodes":"7","size_leaf_vector":"1"}},{"base_weights":[-1.9042218E-1,1.9672474E-1,-5.871183E-1,5.38863E-3,-4.796702E-3,-3.370226E-3,-7.364786E-3],"categories":[],"categories_nodes":[],"categories_segments":[],"categories_sizes":[],"default_left":[0,0,0,0,0,0,0],"id":111,"left_children":[1,3,5,-1,-1,-1,-1],"loss_changes":[1.3363495E3,1.0194445E3,1.6028406E2,0E0,0E0,0E0,0E0],"parents":[2147483647,0,0,1,1,2,2],"right_children":[2,4,6,-1,-1,-1,-1],"split_conditions":[3.3333334E-1,4.0094894E-1,3.388889E-1,5.38863E-3,-4.796702E-3,-3.370226E-3,-7.364786E-3],"split_indices":[42,41,3,0,0,0,0],"split_type":[0,0,0,0,0,0,0],"sum_hessian":[8.69959E3,4.403042E3,4.296548E3,2.924139E3,1.4789028E3,1.6077365E3,2.6888115E3],"tree_param":{"num_deleted":"0","num_feature":"45","num_nodes":"7","size_leaf_vector":"1"}},{"base_weights":[-1.0515198E0,2.5921604E-1,-1.1522496E0,-6.917835E-3,9.738196E-3,-5.8541074E-3,-1.1918876E-2],"categories":[],"categories_nodes":[],"categories_segments":[],"categories_sizes":[],"default_left":[0,0,0,0,0,0,0],"id":112,"left_children":[1,3,5,-1,-1,-1,-1],"loss_changes":[1.02383594E3,3.772081E2,1.610586E2,0E0,0E0,0E0,0E0],"parents":[2147483647,0,0,1,1,2,2],"right_children":[2,4,6,-1,-1,-1,-1],"split_conditions":[7.575756E-2,4.021352E-1,9.0909086E-2,-6.917835E-3,9.738196E-3,-5.8541074E-3,-1.1918876E-2],"split_indices":[40,32,43,0,0,0,0],"split_type":[0,0,0,0,0,0,0],"sum_hessian":[7.751302E3,5.53063E2,7.1982393E3,2.3729759E2,3.1576538E2,4.7149243E2,6.7267466E3],"tree_param":{"num_deleted":"0","num_feature":"45","num_nodes":"7","size_leaf_vector":"1"}},{"base_weights":[-1.0329044E0,-6.1060447E-2,-1.1814489E0,4.60804E-3,-8.076725E-3,-1.0833125E-2,-1.2047642E-2],"categories":[],"categories_nodes":[],"categories_segments":[],"categories_sizes":[],"default_left":[0,0,0,0,0,0,0],"id":113,"left_children":[1,3,5,-1,-1,-1,-1],"loss_changes":[1.1235244E3,4.0284967E2,1.4142578E1,0E0,0E0,0E0,0E0],"parents":[2147483647,0,0,1,1,2,2],"right_children":[2,4,6,-1,-1,-1,-1],"split_conditions":[9.0909086E-2,4.2941868E-1,2.8333336E-1,4.60804E-3,-8.076725E-3,-1.0833125E-2,-1.2047642E-2],"split_indices":[43,44,42,0,0,0,0],"split_type":[0,0,0,0,0,0,0],"sum_hessian":[7.7821875E3,1.0319729E3,6.750215E3,6.076338E2,4.243391E2,1.3049647E3,5.44525E3],"tree_param":{"num_deleted":"0","num_feature":"45","num_nodes":"7","size_leaf_vector":"1"}},{"base_weights":[1.774615E0,5.5648565E-1,1.9155204E0,-2.9297704E-3,1.0055343E-2,1.5260392E-2,2.195193E-2],"categories":[],"categories_nodes":[],"categories_segments":[],"categories_sizes":[],"default_left":[0,0,0,0,0,0,0],"id":114,"left_children":[1,3,5,-1,-1,-1,-1],"loss_changes":[1.8889844E3,4.3633084E2,1.071707E3,0E0,0E0,0E0,0E0],"parents":[2147483647,0,0,1,1,2,2],"right_children":[2,4,6,-1,-1,-1,-1],"split_conditions":[9.0909086E-2,2.6666668E-1,3.277778E-1,-2.9297704E-3,1.0055343E-2,1.5260392E-2,2.195193E-2],"split_indices":[31,39,39,0,0,0,0],"split_type":[0,0,0,0,0,0,0],"sum_hessian":[1.1010642E4,1.1421017E3,9.86854E3,3.9507962E2,7.470221E2,4.1272505E3,5.7412896E3],"tree_param":{"num_deleted":"0","num_feature":"45","num_nodes":"7","size_leaf_vector":"1"}},{"base_weights":[-1.0243975E0,-3.4767276E-1,-1.1248642E0,3.3918472E-3,-8.364755E-3,-9.480989E-3,-1.1574377E-2],"categories":[],"categories_nodes":[],"categories_segments":[],"categories_sizes":[],"default_left":[0,0,0,0,0,0,0],"id":115,"left_children":[1,3,5,-1,-1,-1,-1],"loss_changes":[5.2933887E2,3.389239E2,3.7963867E1,0E0,0E0,0E0,0E0],"parents":[2147483647,0,0,1,1,2,2],"right_children":[2,4,6,-1,-1,-1,-1],"split_conditions":[9.0909086E-2,3.7603796E-1,1.06060594E-1,3.3918472E-3,-8.364755E-3,-9.480989E-3,-1.1574377E-2],"split_indices":[43,38,43,0,0,0,0],"split_type":[0,0,0,0,0,0,0],"sum_hessian":[7.7904863E3,1.00764465E3,6.7828413E3,4.190744E2,5.885703E2,1.0601075E3,5.722734E3],"tree_param":{"num_deleted":"0","num_feature":"45","num_nodes":"7","size_leaf_vector":"1"}},{"base_weights":[-2.0763129E-1,1.7595169E-1,-5.538964E-1,5.0897617E-3,-4.9836226E-3,-3.3777233E-3,-7.5388136E-3],"categories":[],"categories_nodes":[],"categories_segments":[],"categories_sizes":[],"default_left":[0,0,0,0,0,0,0],"id":116,"left_children":[1,3,5,-1,-1,-1,-1],"loss_changes":[1.154147E3,9.261254E2,1.9712683E2,0E0,0E0,0E0,0E0],"parents":[2147483647,0,0,1,1,2,2],"right_children":[2,4,6,-1,-1,-1,-1],"split_conditions":[3.277778E-1,4.0332144E-1,3.5555556E-1,5.0897617E-3,-4.9836226E-3,-3.3777233E-3,-7.5388136E-3],"split_indices":[42,35,0,0,0,0,0],"split_type":[0,0,0,0,0,0,0],"sum_hessian":[8.68773E3,4.1219927E3,4.565738E3,2.7594326E3,1.36256E3,2.1956182E3,2.3701199E3],"tree_param":{"num_deleted":"0","num_feature":"45","num_nodes":"7","size_leaf_vector":"1"}},{"base_weights":[-1.0493934E0,2.2528838E-1,-1.1454226E0,-5.3803567E-3,1.0304955E-2,-5.9167305E-3,-1.18391635E-2],"categories":[],"categories_nodes":[],"categories_segments":[],"categories_sizes":[],"default_left":[0,0,0,0,0,0,0],"id":117,"left_children":[1,3,5,-1,-1,-1,-1],"loss_changes":[9.4520703E2,3.3348062E2,1.5232812E2,0E0,0E0,0E0,0E0],"parents":[2147483647,0,0,1,1,2,2],"right_children":[2,4,6,-1,-1,-1,-1],"split_conditions":[7.575756E-2,4.1874254E-1,9.0909086E-2,-5.3803567E-3,1.0304955E-2,-5.9167305E-3,-1.18391635E-2],"split_indices":[34,8,34,0,0,0,0],"split_type":[0,0,0,0,0,0,0],"sum_hessian":[7.7187554E3,5.406658E2,7.17809E3,2.7772168E2,2.629441E2,4.6761465E2,6.710475E3],"tree_param":{"num_deleted":"0","num_feature":"45","num_nodes":"7","size_leaf_vector":"1"}},{"base_weights":[-1.0295532E0,-4.791421E-2,-1.1789795E0,4.598656E-3,-7.377866E-3,-1.0670545E-2,-1.199006E-2],"categories":[],"categories_nodes":[],"categories_segments":[],"categories_sizes":[],"default_left":[0,0,0,0,0,0,0],"id":118,"left_children":[1,3,5,-1,-1,-1,-1],"loss_changes":[1.1326636E3,3.5808185E2,1.3743164E1,0E0,0E0,0E0,0E0],"parents":[2147483647,0,0,1,1,2,2],"right_children":[2,4,6,-1,-1,-1,-1],"split_conditions":[9.0909086E-2,4.2111504E-1,1.06060594E-1,4.598656E-3,-7.377866E-3,-1.0670545E-2,-1.199006E-2],"split_indices":[43,41,43,0,0,0,0],"split_type":[0,0,0,0,0,0,0],"sum_hessian":[7.72124E3,1.0202365E3,6.7010034E3,5.878693E2,4.3236716E2,1.0252618E3,5.6757417E3],"tree_param":{"num_deleted":"0","num_feature":"45","num_nodes":"7","size_leaf_vector":"1"}},{"base_weights":[1.7531703E0,1.0928895E0,1.9870665E0,-1.3581845E-4,1.342712E-2,1.1335063E-2,2.0595763E-2],"categories":[],"categories_nodes":[],"categories_segments":[],"categories_sizes":[],"default_left":[0,0,0,0,0,0,0],"id":119,"left_children":[1,3,5,-1,-1,-1,-1],"loss_changes":[1.7113633E3,8.028877E2,5.0467188E2,0E0,0E0,0E0,0E0],"parents":[2147483647,0,0,1,1,2,2],"right_children":[2,4,6,-1,-1,-1,-1],"split_conditions":[2.9444447E-1,9.0909086E-2,9.0909086E-2,-1.3581845E-4,1.342712E-2,1.1335063E-2,2.0595763E-2],"split_indices":[39,43,22,0,0,0,0],"split_type":[0,0,0,0,0,0,0],"sum_hessian":[1.1094357E4,2.903514E3,8.1908433E3,5.349869E2,2.368527E3,6.426314E2,7.5482114E3],"tree_param":{"num_deleted":"0","num_feature":"45","num_nodes":"7","size_leaf_vector":"1"}},{"base_weights":[-1.0217782E0,-3.447762E-1,-1.1201602E0,1.225049E-3,-1.0126685E-2,-9.517143E-3,-1.1509279E-2],"categories":[],"categories_nodes":[],"categories_segments":[],"categories_sizes":[],"default_left":[0,0,0,0,0,0,0],"id":120,"left_children":[1,3,5,-1,-1,-1,-1],"loss_changes":[5.126343E2,3.0558426E2,3.3756836E1,0E0,0E0,0E0,0E0],"parents":[2147483647,0,0,1,1,2,2],"right_children":[2,4,6,-1,-1,-1,-1],"split_conditions":[9.0909086E-2,4.2586E-1,1.06060594E-1,1.225049E-3,-1.0126685E-2,-9.517143E-3,-1.1509279E-2],"split_indices":[43,44,43,0,0,0,0],"split_type":[0,0,0,0,0,0,0],"sum_hessian":[7.7014624E3,9.77746E2,6.7237163E3,5.757485E2,4.0199747E2,1.0433807E3,5.680336E3],"tree_param":{"num_deleted":"0","num_feature":"45","num_nodes":"7","size_leaf_vector":"1"}},{"base_weights":[-1.9517808E-1,1.8365237E-1,-5.823675E-1,-9.560943E-3,3.8367468E-3,-3.333037E-3,-7.332775E-3],"categories":[],"categories_nodes":[],"categories_segments":[],"categories_sizes":[],"default_left":[0,0,0,0,0,0,0],"id":121,"left_children":[1,3,5,-1,-1,-1,-1],"loss_changes":[1.2698595E3,9.980587E2,1.606753E2,0E0,0E0,0E0,0E0],"parents":[2147483647,0,0,1,1,2,2],"right_children":[2,4,6,-1,-1,-1,-1],"split_conditions":[3.3333334E-1,9.0909086E-2,3.388889E-1,-9.560943E-3,3.8367468E-3,-3.333037E-3,-7.332775E-3],"split_indices":[42,43,3,0,0,0,0],"split_type":[0,0,0,0,0,0,0],"sum_hessian":[8.655669E3,4.375326E3,4.280343E3,6.5265497E2,3.7226714E3,1.6161829E3,2.6641597E3],"tree_param":{"num_deleted":"0","num_feature":"45","num_nodes":"7","size_leaf_vector":"1"}},{"base_weights":[-1.0416719E0,-9.3699865E-2,-1.1868147E0,6.0644257E-3,-8.664292E-3,-9.894341E-3,-1.1955447E-2],"categories":[],"categories_nodes":[],"categories_segments":[],"categories_sizes":[],"default_left":[0,0,0,0,0,0,0],"id":122,"left_children":[1,3,5,-1,-1,-1,-1],"loss_changes":[1.057998E3,5.5355005E2,1.0307617E1,0E0,0E0,0E0,0E0],"parents":[2147483647,0,0,1,1,2,2],"right_children":[2,4,6,-1,-1,-1,-1],"split_conditions":[9.0909086E-2,3E-1,9.0909086E-2,6.0644257E-3,-8.664292E-3,-9.894341E-3,-1.1955447E-2],"split_indices":[43,42,13,0,0,0,0],"split_type":[0,0,0,0,0,0,0],"sum_hessian":[7.689231E3,1.02118774E3,6.668043E3,5.358701E2,4.8531757E2,2.8727374E2,6.3807695E3],"tree_param":{"num_deleted":"0","num_feature":"45","num_nodes":"7","size_leaf_vector":"1"}},{"base_weights":[-1.0277535E0,-7.117252E-2,-1.1766098E0,3.9515463E-3,-8.208341E-3,-9.417231E-3,-1.1860528E-2],"categories":[],"categories_nodes":[],"categories_segments":[],"categories_sizes":[],"default_left":[0,0,0,0,0,0,0],"id":123,"left_children":[1,3,5,-1,-1,-1,-1],"loss_changes":[1.0993472E3,3.6416562E2,1.3701172E1,0E0,0E0,0E0,0E0],"parents":[2147483647,0,0,1,1,2,2],"right_children":[2,4,6,-1,-1,-1,-1],"split_conditions":[9.0909086E-2,4.317912E-1,9.0909086E-2,3.9515463E-3,-8.208341E-3,-9.417231E-3,-1.1860528E-2],"split_indices":[43,41,16,0,0,0,0],"split_type":[0,0,0,0,0,0,0],"sum_hessian":[7.72009E3,1.039773E3,6.680317E3,6.413154E2,3.9845752E2,2.6207837E2,6.418239E3],"tree_param":{"num_deleted":"0","num_feature":"45","num_nodes":"7","size_leaf_vector":"1"}},{"base_weights":[1.7175044E0,5.522308E-1,1.8523866E0,6.7911734E-4,1.6088609E-2,1.4972577E-2,2.141196E-2],"categories":[],"categories_nodes":[],"categories_segments":[],"categories_sizes":[],"default_left":[0,0,0,0,0,0,0],"id":124,"left_children":[1,3,5,-1,-1,-1,-1],"loss_changes":[1.757375E3,5.945703E2,1.0251641E3,0E0,0E0,0E0,0E0],"parents":[2147483647,0,0,1,1,2,2],"right_children":[2,4,6,-1,-1,-1,-1],"split_conditions":[9.0909086E-2,9.0909086E-2,3.3333334E-1,6.7911734E-4,1.6088609E-2,1.4972577E-2,2.141196E-2],"split_indices":[43,1,39,0,0,0,0],"split_type":[0,0,0,0,0,0,0],"sum_hessian":[1.1186579E4,1.1610598E3,1.002552E4,7.9686945E2,3.6419037E2,4.4992676E3,5.526252E3],"tree_param":{"num_deleted":"0","num_feature":"45","num_nodes":"7","size_leaf_vector":"1"}},{"base_weights":[-1.0159187E0,-3.367158E-1,-1.1163176E0,4.463103E-3,-7.5543886E-3,-9.638984E-3,-1.1447755E-2],"categories":[],"categories_nodes":[],"categories_segments":[],"categories_sizes":[],"default_left":[0,0,0,0,0,0,0],"id":125,"left_children":[1,3,5,-1,-1,-1,-1],"loss_changes":[5.2203125E2,3.2428183E2,2.7845703E1,0E0,0E0,0E0,0E0],"parents":[2147483647,0,0,1,1,2,2],"right_children":[2,4,6,-1,-1,-1,-1],"split_conditions":[9.0909086E-2,3.6298925E-1,1.06060594E-1,4.463103E-3,-7.5543886E-3,-9.638984E-3,-1.1447755E-2],"split_indices":[40,41,40,0,0,0,0],"split_type":[0,0,0,0,0,0,0],"sum_hessian":[7.6599365E3,9.870244E2,6.6729126E3,3.43884E2,6.431404E2,1.0553513E3,5.617561E3],"tree_param":{"num_deleted":"0","num_feature":"45","num_nodes":"7","size_leaf_vector":"1"}},{"base_weights":[-1.9481818E-1,1.7897433E-1,-4.9206397E-1,-9.567569E-3,4.0372745E-3,-2.9663623E-3,-7.094956E-3],"categories":[],"categories_nodes":[],"categories_segments":[],"categories_sizes":[],"default_left":[0,0,0,0,0,0,0],"id":126,"left_children":[1,3,5,-1,-1,-1,-1],"loss_changes":[9.6035144E2,9.777965E2,2.0436829E2,0E0,0E0,0E0,0E0],"parents":[2147483647,0,0,1,1,2,2],"right_children":[2,4,6,-1,-1,-1,-1],"split_conditions":[3.2222223E-1,9.0909086E-2,3.6666667E-1,-9.567569E-3,4.0372745E-3,-2.9663623E-3,-7.094956E-3],"split_indices":[33,43,9,0,0,0,0],"split_type":[0,0,0,0,0,0,0],"sum_hessian":[8.641593E3,3.8280903E3,4.813502E3,6.318656E2,3.1962249E3,2.536267E3,2.2772349E3],