{"learner":{"attributes":{"scikit_learn":"{\"_estimator_type\": \"regressor\"}"},"feature_names":[],"feature_types":[],"gradient_booster":{"model":{"gbtree_model_param":{"num_parallel_tree":"1","num_trees":"150"},"iteration_indptr":[0,1,2,3,4,5,6,7,8,9,10,11,12,13,14,15,16,17,18,19,20,21,22,23,24,25,26,27,28,29,30,31,32,33,34,35,36,37,38,39,40,41,42,43,44,45,46,47,48,49,50,51,52,53,54,55,56,57,58,59,60,61,62,63,64,65,66,67,68,69,70,71,72,73,74,75,76,77,78,79,80,81,82,83,84,85,86,87,88,89,90,91,92,93,94,95,96,97,98,99,100,101,102,103,104,105,106,107,108,109,110,111,112,113,114,115,116,117,118,119,120,121,122,123,124,125,126,127,128,129,130,131,132,133,134,135,136,137,138,139,140,141,142,143,144,145,146,147,148,149,150],"tree_info":[0,0,0,0,0,0,0,0,0,0,0,0,0,0,0,0,0,0,0,0,0,0,0,0,0,0,0,0,0,0,0,0,0,0,0,0,0,0,0,0,0,0,0,0,0,0,0,0,0,0,0,0,0,0,0,0,0,0,0,0,0,0,0,0,0,0,0,0,0,0,0,0,0,0,0,0,0,0,0,0,0,0,0,0,0,0,0,0,0,0,0,0,0,0,0,0,0,0,0,0,0,0,0,0,0,0,0,0,0,0,0,0,0,0,0,0,0,0,0,0,0,0,0,0,0,0,0,0,0,0,0,0,0,0,0,0,0,0,0,0,0,0,0,0,0,0,0,0,0,0],"trees":[{"base_weights":[-1.7764364E-4,-3.7956435E-2,6.65327E-2,-7.934587E-2,-1.5697652E-2,4.293004E-2,1.1300543E-1,-1.0406816E-3,-6.2569533E-4,-3.298935E-4,1.9020401E-5,2.5289133E-4,5.855108E-4,8.529103E-4,1.3722709E-3],"categories":[],"categories_nodes":[],"categories_segments":[],"categories_sizes":[],"default_left":[0,0,0,0,0,0,0,0,0,0,0,0,0,0,0],"id":0,"left_children":[1,3,5,7,9,11,13,-1,-1,-1,-1,-1,-1,-1,-1],"loss_changes":[1.3057848E2,3.0473724E1,2.0543E1,4.791313E0,6.5467787E0,3.4224682E0,4.2234497E0,0E0,0E0,0E0,0E0,0E0,0E0,0E0,0E0],"parents":[2147483647,0,0,1,1,2,2,3,3,4,4,5,5,6,6],"right_children":[2,4,6,8,10,12,14,-1,-1,-1,-1,-1,-1,-1,-1],"split_conditions":[3.9145905E-1,2.9537368E-1,4.7568202E-1,2.6097268E-1,3.4994066E-1,4.1518384E-1,5.05338E-1,-1.0406816E-3,-6.2569533E-4,-3.298935E-4,1.9020401E-5,2.5289133E-4,5.855108E-4,8.529103E-4,1.3722709E-3],"split_indices":[26,26,26,8,17,23,23,0,0,0,0,0,0,0,0],"split_type":[0,0,0,0,0,0,0,0,0,0,0,0,0,0,0],"sum_hessian":[5.181E4,3.3078E4,1.8732E4,1.1567E4,2.1511E4,1.2424E4,6.308E3,4.674E3,6.893E3,1.085E4,1.0661E4,5.836E3,6.588E3,2.944E3,3.364E3],"tree_param":{"num_deleted":"0","num_feature":"30","num_nodes":"15","size_leaf_vector":"1"}},{"base_weights":[1.0123255E-5,-3.9979294E-2,6.544865E-2,-7.690659E-2,-1.5523504E-2,4.0017467E-2,1.10378124E-1,-9.838126E-4,-5.828294E-4,-3.0591703E-4,1.2428047E-5,2.3952886E-4,5.837878E-4,8.498045E-4,1.3929186E-3],"categories":[],"categories_nodes":[],"categories_segments":[],"categories_sizes":[],"default_left":[0,0,0,0,0,0,0,0,0,0,0,0,0,0,0],"id":1,"left_children":[1,3,5,7,9,11,13,-1,-1,-1,-1,-1,-1,-1,-1],"loss_changes":[1.3530417E2,2.8981556E1,2.2404457E1,5.107849E0,4.877974E0,3.6930637E0,5.1931763E0,0E0,0E0,0E0,0E0,0E0,0E0,0E0,0E0],"parents":[2147483647,0,0,1,1,2,2,3,3,4,4,5,5,6,6],"right_children":[2,4,6,8,10,12,14,-1,-1,-1,-1,-1,-1,-1,-1],"split_conditions":[3.8671404E-1,3.0130488E-1,4.6619213E-1,2.7402133E-1,3.5349935E-1,4.175563E-1,5.112692E-1,-9.838126E-4,-5.828294E-4,-3.0591703E-4,1.2428047E-5,2.3952886E-4,5.837878E-4,8.498045E-4,1.3929186E-3],"split_indices":[29,29,29,5,17,26,26,0,0,0,0,0,0,0,0],"split_type":[0,0,0,0,0,0,0,0,0,0,0,0,0,0,0],"sum_hessian":[5.1703E4,3.2092E4,1.9611E4,1.2785E4,1.9307E4,1.2524E4,7.087E3,5.936E3,6.849E3,1.0168E4,9.139E3,6.681E3,5.843E3,3.775E3,3.312E3],"tree_param":{"num_deleted":"0","num_feature":"30","num_nodes":"15","size_leaf_vector":"1"}},{"base_weights":[-7.238381E-5,-3.794681E-2,5.735103E-2,-7.494647E-2,-1.7415393E-2,3.746814E-2,1.0240306E-1,-9.380154E-4,-5.6704984E-4,-2.945828E-4,3.7931055E-5,1.9047518E-4,5.5346516E-4,8.128208E-4,1.2602207E-3],"categories":[],"categories_nodes":[],"categories_segments":[],"categories_sizes":[],"default_left":[0,0,0,0,0,0,0,0,0,0,0,0,0,0,0],"id":2,"left_children":[1,3,5,7,9,11,13,-1,-1,-1,-1,-1,-1,-1,-1],"loss_changes":[1.124782E2,2.3671837E1,1.8407715E1,3.8196907E0,5.119326E0,4.6958637E0,3.1290588E0,0E0,0E0,0E0,0E0,0E0,0E0,0E0,0E0],"parents":[2147483647,0,0,1,1,2,2,3,3,4,4,5,5,6,6],"right_children":[2,4,6,8,10,12,14,-1,-1,-1,-1,-1,-1,-1,-1],"split_conditions":[3.8315535E-1,2.9300117E-1,4.7686827E-1,2.6927638E-1,3.6180305E-1,4.1043884E-1,5.077105E-1,-9.380154E-4,-5.6704984E-4,-2.945828E-4,3.7931055E-5,1.9047518E-4,5.5346516E-4,8.128208E-4,1.2602207E-3],"split_indices":[14,14,14,2,5,2,2,0,0,0,0,0,0,0,0],"split_type":[0,0,0,0,0,0,0,0,0,0,0,0,0,0,0],"sum_hessian":[5.1715E4,3.1162E4,2.0553E4,1.112E4,2.0042E4,1.4261E4,6.292E3,5.466E3,5.654E3,1.2783E4,7.259E3,7.025E3,7.236E3,3.324E3,2.968E3],"tree_param":{"num_deleted":"0","num_feature":"30","num_nodes":"15","size_leaf_vector":"1"}},{"base_weights":[2.0114845E-4,-3.9411385E-2,6.483685E-2,-7.56233E-2,-1.5681822E-2,3.9390396E-2,1.0921369E-1,-9.845162E-4,-5.83018E-4,-2.9168633E-4,2.7538537E-5,1.9741573E-4,5.427519E-4,9.0583024E-4,1.5065889E-3],"categories":[],"categories_nodes":[],"categories_segments":[],"categories_sizes":[],"default_left":[0,0,0,0,0,0,0,0,0,0,0,0,0,0,0],"id":3,"left_children":[1,3,5,7,9,11,13,-1,-1,-1,-1,-1,-1,-1,-1],"loss_changes":[1.3340881E2,2.7759132E1,2.2353378E1,5.0513E0,4.853007E0,3.6796474E0,5.557434E0,0E0,0E0,0E0,0E0,0E0,0E0,0E0,0E0],"parents":[2147483647,0,0,1,1,2,2,3,3,4,4,5,5,6,6],"right_children":[2,4,6,8,10,12,14,-1,-1,-1,-1,-1,-1,-1,-1],"split_conditions":[3.8671404E-1,3.0130488E-1,4.6619213E-1,2.7046257E-1,3.5824436E-1,4.056939E-1,5.5041516E-1,-9.845162E-4,-5.83018E-4,-2.9168633E-4,2.7538537E-5,1.9741573E-4,5.427519E-4,9.0583024E-4,1.5065889E-3],"split_indices":[29,29,29,2,26,26,29,0,0,0,0,0,0,0,0],"split_type":[0,0,0,0,0,0,0,0,0,0,0,0,0,0,0],"sum_hessian":[5.2103E4,3.2305E4,1.9798E4,1.2788E4,1.9517E4,1.2584E4,7.214E3,5.515E3,7.273E3,1.1271E4,8.246E3,5.425E3,7.159E3,4.979E3,2.235E3],"tree_param":{"num_deleted":"0","num_feature":"30","num_nodes":"15","size_leaf_vector":"1"}},{"base_weights":[1.7312732E-4,-3.862332E-2,6.31353E-2,-7.786106E-2,-1.660219E-2,3.781919E-2,1.07451744E-1,-9.7233563E-4,-5.799124E-4,-3.862412E-4,-3.8713373E-5,1.667032E-4,5.1285414E-4,8.8347937E-4,1.4645634E-3],"categories":[],"categories_nodes":[],"categories_segments":[],"categories_sizes":[],"default_left":[0,0,0,0,0,0,0,0,0,0,0,0,0,0,0],"id":4,"left_children":[1,3,5,7,9,11,13,-1,-1,-1,-1,-1,-1,-1,-1],"loss_changes":[1.2648589E2,2.7682308E1,2.2144882E1,4.427582E0,5.7536373E0,3.5778828E0,5.3349E0,0E0,0E0,0E0,0E0,0E0,0E0,0E0,0E0],"parents":[2147483647,0,0,1,1,2,2,3,3,4,4,5,5,6,6],"right_children":[2,4,6,8,10,12,14,-1,-1,-1,-1,-1,-1,-1,-1],"split_conditions":[3.8671404E-1,2.9537368E-1,4.6619213E-1,2.7758008E-1,3.3096087E-1,3.997627E-1,5.3973895E-1,-9.7233563E-4,-5.799124E-4,-3.862412E-4,-3.8713373E-5,1.667032E-4,5.1285414E-4,8.8347937E-4,1.4645634E-3],"split_indices":[29,29,29,2,26,26,26,0,0,0,0,0,0,0,0],"split_type":[0,0,0,0,0,0,0,0,0,0,0,0,0,0,0],"sum_hessian":[5.1779E4,3.2038E4,1.9741E4,1.1516E4,2.0522E4,1.2565E4,7.176E3,5.829E3,5.687E3,7.517E3,1.3005E4,4.889E3,7.676E3,4.819E3,2.357E3],"tree_param":{"num_deleted":"0","num_feature":"30","num_nodes":"15","size_leaf_vector":"1"}},{"base_weights":[-2.975358E-4,-3.64902E-2,6.677145E-2,-7.464559E-2,-1.3846574E-2,4.7717713E-2,1.2184161E-1,-1.0412927E-3,-6.187752E-4,-2.8243745E-4,3.9506558E-5,3.0863265E-4,6.6903344E-4,1.068716E-3,1.6489574E-3],"categories":[],"categories_nodes":[],"categories_segments":[],"categories_sizes":[],"default_left":[0,0,0,0,0,0,0,0,0,0,0,0,0,0,0],"id":5,"left_children":[1,3,5,7,9,11,13,-1,-1,-1,-1,-1,-1,-1,-1],"loss_changes":[1.25839096E2,2.9089916E1,1.9059822E1,4.714226E0,5.4147606E0,4.363661E0,2.9922867E0,0E0,0E0,0E0,0E0,0E0,0E0,0E0,0E0],"parents":[2147483647,0,0,1,1,2,2,3,3,4,4,5,5,6,6],"right_children":[2,4,6,8,10,12,14,-1,-1,-1,-1,-1,-1,-1,-1],"split_conditions":[3.938315E-1,3.0011857E-1,4.9822056E-1,2.4673782E-1,3.5943055E-1,4.2941868E-1,5.8956105E-1,-1.0412927E-3,-6.187752E-4,-2.8243745E-4,3.9506558E-5,3.0863265E-4,6.6903344E-4,1.068716E-3,1.6489574E-3],"split_indices":[29,29,29,26,8,26,29,0,0,0,0,0,0,0,0],"split_type":[0,0,0,0,0,0,0,0,0,0,0,0,0,0,0],"sum_hessian":[5.1839E4,3.367E4,1.8169E4,1.2539E4,2.1131E4,1.35E4,4.669E3,3.787E3,8.752E3,1.1681E4,9.45E3,7.188E3,6.312E3,3.467E3,1.202E3],"tree_param":{"num_deleted":"0","num_feature":"30","num_nodes":"15","size_leaf_vector":"1"}},{"base_weights":[7.691831E-5,-3.967785E-2,5.536494E-2,-7.325597E-2,-1.8801253E-2,3.259881E-2,9.768233E-2,-9.050908E-4,-5.3111394E-4,-3.5860008E-4,-6.25023E-5,1.5041108E-4,4.7128936E-4,8.271271E-4,1.3410934E-3],"categories":[],"categories_nodes":[],"categories_segments":[],"categories_sizes":[],"default_left":[0,0,0,0,0,0,0,0,0,0,0,0,0,0,0],"id":6,"left_children":[1,3,5,7,9,11,13,-1,-1,-1,-1,-1,-1,-1,-1],"loss_changes":[1.1355994E2,2.1067081E1,2.0816925E1,3.9997406E0,3.9679947E0,3.5844307E0,4.110817E0,0E0,0E0,0E0,0E0,0E0,0E0,0E0,0E0],"parents":[2147483647,0,0,1,1,2,2,3,3,4,4,5,5,6,6],"right_children":[2,4,6,8,10,12,14,-1,-1,-1,-1,-1,-1,-1,-1],"split_conditions":[3.784104E-1,2.9537368E-1,4.6263337E-1,2.8113878E-1,3.3451957E-1,3.997627E-1,5.5160135E-1,-9.050908E-4,-5.3111394E-4,-3.5860008E-4,-6.25023E-5,1.5041108E-4,4.7128936E-4,8.271271E-4,1.3410934E-3],"split_indices":[23,23,23,2,11,14,23,0,0,0,0,0,0,0,0],"split_type":[0,0,0,0,0,0,0,0,0,0,0,0,0,0,0],"sum_hessian":[5.1664E4,3.0054E4,2.161E4,1.1521E4,1.8533E4,1.4052E4,7.558E3,6.204E3,5.317E3,7.855E3,1.0678E4,6.364E3,7.688E3,5.359E3,2.199E3],"tree_param":{"num_deleted":"0","num_feature":"30","num_nodes":"15","size_leaf_vector":"1"}},{"base_weights":[5.417961E-5,-3.789983E-2,6.1659653E-2,-7.568923E-2,-1.6404072E-2,3.749003E-2,1.03902414E-1,-9.5777604E-4,-5.8346044E-4,-3.1114556E-4,1.0603754E-5,2.491358E-4,5.4956693E-4,9.1862574E-4,1.6110971E-3],"categories":[],"categories_nodes":[],"categories_segments":[],"categories_sizes":[],"default_left":[0,0,0,0,0,0,0,0,0,0,0,0,0,0,0],"id":7,"left_children":[1,3,5,7,9,11,13,-1,-1,-1,-1,-1,-1,-1,-1],"loss_changes":[1.2091402E2,2.5991917E1,2.0123932E1,4.036499E0,5.2404933E0,2.7534943E0,4.9264145E0,0E0,0E0,0E0,0E0,0E0,0E0,0E0,0E0],"parents":[2147483647,0,0,1,1,2,2,3,3,4,4,5,5,6,6],"right_children":[2,4,6,8,10,12,14,-1,-1,-1,-1,-1,-1,-1,-1],"split_conditions":[3.8671404E-1,2.9537368E-1,4.6619213E-1,2.7046257E-1,3.5349935E-1,4.2230123E-1,5.8956105E-1,-9.5777604E-4,-5.8346044E-4,-3.1114556E-4,1.0603754E-5,2.491358E-4,5.4956693E-4,9.1862574E-4,1.6110971E-3],"split_indices":[29,29,29,8,17,14,29,0,0,0,0,0,0,0,0],"split_type":[0,0,0,0,0,0,0,0,0,0,0,0,0,0,0],"sum_hessian":[5.1711E4,3.1998E4,1.9713E4,1.1601E4,2.0397E4,1.254E4,7.173E3,5.373E3,6.228E3,1.1071E4,9.326E3,7.292E3,5.248E3,5.928E3,1.245E3],"tree_param":{"num_deleted":"0","num_feature":"30","num_nodes":"15","size_leaf_vector":"1"}},{"base_weights":[-9.0567584E-5,-3.4650348E-2,5.9556156E-2,-7.4299574E-2,-1.5748825E-2,3.9030705E-2,1.0125576E-1,-9.335769E-4,-5.556647E-4,-3.0498527E-4,1.753748E-5,2.298903E-4,5.421321E-4,8.320464E-4,1.298663E-3],"categories":[],"categories_nodes":[],"categories_segments":[],"categories_sizes":[],"default_left":[0,0,0,0,0,0,0,0,0,0,0,0,0,0,0],"id":8,"left_children":[1,3,5,7,9,11,13,-1,-1,-1,-1,-1,-1,-1,-1],"loss_changes":[1.0678555E2,2.4579407E1,1.6261635E1,3.7749138E0,5.734253E0,3.1008873E0,3.2263107E0,0E0,0E0,0E0,0E0,0E0,0E0,0E0,0E0],"parents":[2147483647,0,0,1,1,2,2,3,3,4,4,5,5,6,6],"right_children":[2,4,6,8,10,12,14,-1,-1,-1,-1,-1,-1,-1,-1],"split_conditions":[3.902728E-1,2.9062867E-1,4.7686827E-1,2.6809013E-1,3.5231316E-1,4.139976E-1,5.3024906E-1,-9.335769E-4,-5.556647E-4,-3.0498527E-4,1.753748E-5,2.298903E-4,5.421321E-4,8.320464E-4,1.298663E-3],"split_indices":[20,20,20,8,11,8,11,0,0,0,0,0,0,0,0],"split_type":[0,0,0,0,0,0,0,0,0,0,0,0,0,0,0],"sum_hessian":[5.1801E4,3.2798E4,1.9003E4,1.0587E4,2.2211E4,1.2736E4,6.267E3,5.246E3,5.341E3,1.2053E4,1.0158E4,6.194E3,6.542E3,3.845E3,2.422E3],"tree_param":{"num_deleted":"0","num_feature":"30","num_nodes":"15","size_leaf_vector":"1"}},{"base_weights":[-1.2386474E-4,-4.1674018E-2,5.393693E-2,-7.471789E-2,-2.0243743E-2,3.2286707E-2,1.0422882E-1,-1.0056644E-3,-5.9960247E-4,-3.485124E-4,-6.212576E-5,1.4636882E-4,5.0265196E-4,8.618785E-4,1.4080472E-3],"categories":[],"categories_nodes":[],"categories_segments":[],"categories_sizes":[],"default_left":[0,0,0,0,0,0,0,0,0,0,0,0,0,0,0],"id":9,"left_children":[1,3,5,7,9,11,13,-1,-1,-1,-1,-1,-1,-1,-1],"loss_changes":[1.16354935E2,2.073917E1,2.4507294E1,4.3891907E0,3.6415172E0,4.993202E0,4.4577866E0,0E0,0E0,0E0,0E0,0E0,0E0,0E0,0E0],"parents":[2147483647,0,0,1,1,2,2,3,3,4,4,5,5,6,6],"right_children":[2,4,6,8,10,12,14,-1,-1,-1,-1,-1,-1,-1,-1],"split_conditions":[3.7485164E-1,2.9655987E-1,4.7093707E-1,2.5148278E-1,3.3451957E-1,4.080664E-1,5.5041516E-1,-1.0056644E-3,-5.9960247E-4,-3.485124E-4,-6.212576E-5,1.4636882E-4,5.0265196E-4,8.618785E-4,1.4080472E-3],"split_indices":[29,26,29,29,29,26,29,0,0,0,0,0,0,0,0],"split_type":[0,0,0,0,0,0,0,0,0,0,0,0,0,0,0],"sum_hessian":[5.1798E4,2.9288E4,2.251E4,1.1521E4,1.7767E4,1.5737E4,6.773E3,4.185E3,7.336E3,8.704E3,9.063E3,7.942E3,7.795E3,4.538E3,2.235E3],"tree_param":{"num_deleted":"0","num_feature":"30","num_nodes":"15","size_leaf_vector":"1"}},{"base_weights":[-8.057904E-4,-4.08542E-2,5.2479114E-2,-7.587565E-2,-2.093912E-2,3.123192E-2,9.96981E-2,-9.511249E-4,-5.889483E-4,-3.6722876E-4,-9.22062E-5,1.2943371E-4,4.6219086E-4,8.061063E-4,1.2896678E-3],"categories":[],"categories_nodes":[],"categories_segments":[],"categories_sizes":[],"default_left":[0,0,0,0,0,0,0,0,0,0,0,0,0,0,0],"id":10,"left_children":[1,3,5,7,9,11,13,-1,-1,-1,-1,-1,-1,-1,-1],"loss_changes":[1.110329E2,2.071632E1,2.2395916E1,3.5118408E0,3.502471E0,4.220167E0,3.8600311E0,0E0,0E0,0E0,0E0,0E0,0E0,0E0,0E0],"parents":[2147483647,0,0,1,1,2,2,3,3,4,4,5,5,6,6],"right_children":[2,4,6,8,10,12,14,-1,-1,-1,-1,-1,-1,-1,-1],"split_conditions":[3.7603796E-1,2.9062867E-1,4.6975082E-1,2.6927638E-1,3.333333E-1,4.0094894E-1,5.290628E-1,-9.511249E-4,-5.889483E-4,-3.6722876E-4,-9.22062E-5,1.2943371E-4,4.6219086E-4,8.061063E-4,1.2896678E-3],"split_indices":[26,26,26,2,2,23,23,0,0,0,0,0,0,0,0],"split_type":[0,0,0,0,0,0,0,0,0,0,0,0,0,0,0],"sum_hessian":[5.2029E4,2.9704E4,2.2325E4,1.0767E4,1.8937E4,1.5398E4,6.927E3,5.046E3,5.721E3,8.068E3,1.0869E4,6.936E3,8.462E3,4.195E3,2.732E3],"tree_param":{"num_deleted":"0","num_feature":"30","num_nodes":"15","size_leaf_vector":"1"}},{"base_weights":[-2.631926E-4,-3.879229E-2,5.069004E-2,-7.1838364E-2,-1.9369403E-2,3.237322E-2,9.7722605E-2,-9.132122E-4,-5.508447E-4,-3.0177052E-4,-1.2721144E-5,1.3573856E-4,4.738933E-4,8.034895E-4,1.2497276E-3],"categories":[],"categories_nodes":[],"categories_segments":[],"categories_sizes":[],"default_left":[0,0,0,0,0,0,0,0,0,0,0,0,0,0,0],"id":11,"left_children":[1,3,5,7,9,11,13,-1,-1,-1,-1,-1,-1,-1,-1],"loss_changes":[1.019029E2,1.896978E1,1.9251068E1,3.5662575E0,3.6412444E0,4.5406094E0,2.955555E0,0E0,0E0,0E0,0E0,0E0,0E0,0E0,0E0],"parents":[2147483647,0,0,1,1,2,2,3,3,4,4,5,5,6,6],"right_children":[2,4,6,8,10,12,14,-1,-1,-1,-1,-1,-1,-1,-1],"split_conditions":[3.7603796E-1,2.9181492E-1,4.7686827E-1,2.6809013E-1,3.5943055E-1,3.997627E-1,5.3024906E-1,-9.132122E-4,-5.508447E-4,-3.0177052E-4,-1.2721144E-5,1.3573856E-4,4.738933E-4,8.034895E-4,1.2497276E-3],"split_indices":[20,20,20,2,2,11,11,0,0,0,0,0,0,0,0],"split_type":[0,0,0,0,0,0,0,0,0,0,0,0,0,0,0],"sum_hessian":[5.1905E4,2.9556E4,2.2349E4,1.094E4,1.8616E4,1.6086E4,6.263E3,5.056E3,5.884E3,1.1655E4,6.961E3,7.144E3,8.942E3,3.827E3,2.436E3],"tree_param":{"num_deleted":"0","num_feature":"30","num_nodes":"15","size_leaf_vector":"1"}},{"base_weights":[2.7220036E-4,-3.4616474E-2,6.0313847E-2,-6.874927E-2,-1.2436076E-2,4.4848505E-2,1.1589068E-1,-8.833853E-4,-5.127661E-4,-2.524321E-4,2.3168486E-5,2.9157268E-4,6.385111E-4,1.0086021E-3,1.5674771E-3],"categories":[],"categories_nodes":[],"categories_segments":[],"categories_sizes":[],"default_left":[0,0,0,0,0,0,0,0,0,0,0,0,0,0,0],"id":12,"left_children":[1,3,5,7,9,11,13,-1,-1,-1,-1,-1,-1,-1,-1],"loss_changes":[1.0825578E2,2.4745033E1,1.6319572E1,4.4019394E0,3.7435808E0,4.4290123E0,2.5228806E0,0E0,0E0,0E0,0E0,0E0,0E0,0E0,0E0],"parents":[2147483647,0,0,1,1,2,2,3,3,4,4,5,5,6,6],"right_children":[2,4,6,8,10,12,14,-1,-1,-1,-1,-1,-1,-1,-1],"split_conditions":[3.902728E-1,3.0249107E-1,5.077105E-1,2.7639377E-1,3.5587186E-1,4.3060493E-1,5.8956105E-1,-8.833853E-4,-5.127661E-4,-2.524321E-4,2.3168486E-5,2.9157268E-4,6.385111E-4,1.0086021E-3,1.5674771E-3],"split_indices":[26,26,26,2,20,20,23,0,0,0,0,0,0,0,0],"split_type":[0,0,0,0,0,0,0,0,0,0,0,0,0,0,0],"sum_hessian":[5.1677E4,3.2685E4,1.8992E4,1.2873E4,1.9812E4,1.4859E4,4.133E3,6.067E3,6.806E3,1.0605E4,9.207E3,8.14E3,6.719E3,3.024E3,1.109E3],"tree_param":{"num_deleted":"0","num_feature":"30","num_nodes":"15","size_leaf_vector":"1"}},{"base_weights":[-1.4155709E-5,-3.9127447E-2,5.1744826E-2,-7.5544186E-2,-2.0668058E-2,3.1332534E-2,9.8326966E-2,-9.152943E-4,-5.6204334E-4,-3.6555497E-4,-7.585749E-5,1.3098675E-4,4.6963102E-4,8.221279E-4,1.3501644E-3],"categories":[],"categories_nodes":[],"categories_segments":[],"categories_sizes":[],"default_left":[0,0,0,0,0,0,0,0,0,0,0,0,0,0,0],"id":13,"left_children":[1,3,5,7,9,11,13,-1,-1,-1,-1,-1,-1,-1,-1],"loss_changes":[1.0494822E2,1.9847393E1,2.1213196E1,3.065361E0,4.0726433E0,4.4215326E0,4.0080185E0,0E0,0E0,0E0,0E0,0E0,0E0,0E0,0E0],"parents":[2147483647,0,0,1,1,2,2,3,3,4,4,5,5,6,6],"right_children":[2,4,6,8,10,12,14,-1,-1,-1,-1,-1,-1,-1,-1],"split_conditions":[3.7603796E-1,2.8588372E-1,4.7212332E-1,2.7758008E-1,3.3214706E-1,4.0094894E-1,5.4567015E-1,-9.152943E-4,-5.6204334E-4,-3.6555497E-4,-7.585749E-5,1.3098675E-4,4.6963102E-4,8.221279E-4,1.3501644E-3],"split_indices":[26,26,26,2,23,17,17,0,0,0,0,0,0,0,0],"split_type":[0,0,0,0,0,0,0,0,0,0,0,0,0,0,0],"sum_hessian":[5.1838E4,2.9526E4,2.2312E4,9.931E3,1.9595E4,1.5515E4,6.797E3,5.435E3,4.496E3,8.848E3,1.0747E4,7.162E3,8.353E3,4.725E3,2.072E3],"tree_param":{"num_deleted":"0","num_feature":"30","num_nodes":"15","size_leaf_vector":"1"}},{"base_weights":[1.8435885E-4,-3.3298515E-2,5.8763757E-2,-6.707306E-2,-1.1647629E-2,3.6031343E-2,9.412142E-2,-8.702255E-4,-5.100513E-4,-2.5126644E-4,3.1165266E-5,2.578495E-4,5.429471E-4,7.4158784E-4,1.2773054E-3],"categories":[],"categories_nodes":[],"categories_segments":[],"categories_sizes":[],"default_left":[0,0,0,0,0,0,0,0,0,0,0,0,0,0,0],"id":14,"left_children":[1,3,5,7,9,11,13,-1,-1,-1,-1,-1,-1,-1,-1],"loss_changes":[1.0113405E2,2.3990765E1,1.5069611E1,4.1036873E0,3.9790106E0,2.1349163E0,4.9137955E0,0E0,0E0,0E0,0E0,0E0,0E0,0E0,0E0],"parents":[2147483647,0,0,1,1,2,2,3,3,4,4,5,5,6,6],"right_children":[2,4,6,8,10,12,14,-1,-1,-1,-1,-1,-1,-1,-1],"split_conditions":[3.9145905E-1,3.0249107E-1,4.6144718E-1,2.6927638E-1,3.5349935E-1,4.3890864E-1,5.290628E-1,-8.702255E-4,-5.100513E-4,-2.5126644E-4,3.1165266E-5,2.578495E-4,5.429471E-4,7.4158784E-4,1.2773054E-3],"split_indices":[26,26,23,14,23,26,26,0,0,0,0,0,0,0,0],"split_type":[0,0,0,0,0,0,0,0,0,0,0,0,0,0,0],"sum_hessian":[5.156E4,3.2808E4,1.8752E4,1.2815E4,1.9993E4,1.1415E4,7.337E3,5.715E3,7.1E3,1.0451E4,9.542E3,7.314E3,4.101E3,4.605E3,2.732E3],"tree_param":{"num_deleted":"0","num_feature":"30","num_nodes":"15","size_leaf_vector":"1"}},{"base_weights":[1.5163077E-4,-3.294283E-2,5.8131162E-2,-6.2207557E-2,-8.387111E-3,4.3267712E-2,1.1092175E-1,-8.2981796E-4,-4.5106042E-4,-2.283615E-4,4.1289397E-5,2.6305884E-4,5.95509E-4,9.3765627E-4,1.4453905E-3],"categories":[],"categories_nodes":[],"categories_segments":[],"categories_sizes":[],"default_left":[0,0,0,0,0,0,0,0,0,0,0,0,0,0,0],"id":15,"left_children":[1,3,5,7,9,11,13,-1,-1,-1,-1,-1,-1,-1,-1],"loss_changes":[9.930373E1,2.3675732E1,1.4751331E1,5.336693E0,3.2401123E0,4.051838E0,2.3689728E0,0E0,0E0,0E0,0E0,0E0,0E0,0E0,0E0],"parents":[2147483647,0,0,1,1,2,2,3,3,4,4,5,5,6,6],"right_children":[2,4,6,8,10,12,14,-1,-1,-1,-1,-1,-1,-1,-1],"split_conditions":[3.9145905E-1,3.1435347E-1,5.077105E-1,2.7639377E-1,3.5231316E-1,4.2230123E-1,5.6465E-1,-8.2981796E-4,-4.5106042E-4,-2.283615E-4,4.1289397E-5,2.6305884E-4,5.95509E-4,9.3765627E-4,1.4453905E-3],"split_indices":[26,26,26,11,11,14,17,0,0,0,0,0,0,0,0],"split_type":[0,0,0,0,0,0,0,0,0,0,0,0,0,0,0],"sum_hessian":[5.1751E4,3.2946E4,1.8805E4,1.5031E4,1.7915E4,1.4675E4,4.13E3,6.785E3,8.246E3,8.315E3,9.6E3,7.189E3,7.486E3,2.737E3,1.393E3],"tree_param":{"num_deleted":"0","num_feature":"30","num_nodes":"15","size_leaf_vector":"1"}},{"base_weights":[4.2928106E-4,-3.4869764E-2,5.7819713E-2,-6.570283E-2,-1.217022E-2,3.5501253E-2,9.665762E-2,-8.930644E-4,-5.0972146E-4,-2.441653E-4,3.3227014E-5,2.0863509E-4,5.1639014E-4,8.212528E-4,1.3230577E-3],"categories":[],"categories_nodes":[],"categories_segments":[],"categories_sizes":[],"default_left":[0,0,0,0,0,0,0,0,0,0,0,0,0,0,0],"id":16,"left_children":[1,3,5,7,9,11,13,-1,-1,-1,-1,-1,-1,-1,-1],"loss_changes":[1.057887E2,2.2628956E1,1.7234673E1,4.7623825E0,3.5336335E0,2.982624E0,3.7486267E0,0E0,0E0,0E0,0E0,0E0,0E0,0E0,0E0],"parents":[2147483647,0,0,1,1,2,2,3,3,4,4,5,5,6,6],"right_children":[2,4,6,8,10,12,14,-1,-1,-1,-1,-1,-1,-1,-1],"split_conditions":[3.8671404E-1,3.0604976E-1,4.6619213E-1,2.5978643E-1,3.5824436E-1,4.175563E-1,5.5634636E-1,-8.930644E-4,-5.0972146E-4,-2.441653E-4,3.3227014E-5,2.0863509E-4,5.1639014E-4,8.212528E-4,1.3230577E-3],"split_indices":[29,29,29,26,20,26,29,0,0,0,0,0,0,0,0],"split_type":[0,0,0,0,0,0,0,0,0,0,0,0,0,0,0],"sum_hessian":[5.2218E4,3.2332E4,1.9886E4,1.3709E4,1.8623E4,1.263E4,7.256E3,5.266E3,8.443E3,1.0401E4,8.222E3,6.624E3,6.006E3,5.157E3,2.099E3],"tree_param":{"num_deleted":"0","num_feature":"30","num_nodes":"15","size_leaf_vector":"1"}},{"base_weights":[4.6906507E-4,-2.9826503E-2,6.505301E-2,-6.359784E-2,-7.885699E-3,4.656348E-2,1.10960715E-1,-8.407587E-4,-4.604769E-4,-2.2718654E-4,7.335836E-5,3.3556423E-4,6.402052E-4,9.395472E-4,1.4085142E-3],"categories":[],"categories_nodes":[],"categories_segments":[],"categories_sizes":[],"default_left":[0,0,0,0,0,0,0,0,0,0,0,0,0,0,0],"id":17,"left_children":[1,3,5,7,9,11,13,-1,-1,-1,-1,-1,-1,-1,-1],"loss_changes":[1.01774864E2,2.623504E1,1.4092758E1,5.0074997E0,4.8463163E0,2.6867523E0,2.4104424E0,0E0,0E0,0E0,0E0,0E0,0E0,0E0,0E0],"parents":[2147483647,0,0,1,1,2,2,3,3,4,4,5,5,6,6],"right_children":[2,4,6,8,10,12,14,-1,-1,-1,-1,-1,-1,-1,-1],"split_conditions":[4.021352E-1,3.0723608E-1,4.9822056E-1,2.7520758E-1,3.5824436E-1,4.3416363E-1,5.5160135E-1,-8.407587E-4,-4.604769E-4,-2.2718654E-4,7.335836E-5,3.3556423E-4,6.402052E-4,9.395472E-4,1.4085142E-3],"split_indices":[29,29,29,14,17,5,17,0,0,0,0,0,0,0,0],"split_type":[0,0,0,0,0,0,0,0,0,0,0,0,0,0,0],"sum_hessian":[5.2014E4,3.5406E4,1.6608E4,1.3943E4,2.1463E4,1.1841E4,4.767E3,6.433E3,7.51E3,1.087E4,1.0593E4,6.787E3,5.054E3,3.041E3,1.726E3],"tree_param":{"num_deleted":"0","num_feature":"30","num_nodes":"15","size_leaf_vector":"1"}},{"base_weights":[1.0875696E-4,-3.4611676E-2,5.636315E-2,-6.4772554E-2,-1.2330396E-2,3.8493562E-2,1.049675E-1,-8.578599E-4,-4.8871443E-4,-2.3983176E-4,3.1510725E-5,2.1647017E-4,5.418534E-4,8.477259E-4,1.3422536E-3],"categories":[],"categories_nodes":[],"categories_segments":[],"categories_sizes":[],"default_left":[0,0,0,0,0,0,0,0,0,0,0,0,0,0,0],"id":18,"left_children":[1,3,5,7,9,11,13,-1,-1,-1,-1,-1,-1,-1,-1],"loss_changes":[1.0083472E2,2.145219E1,1.7108795E1,4.527706E0,3.3124392E0,3.8076172E0,3.117817E0,0E0,0E0,0E0,0E0,0E0,0E0,0E0,0E0],"parents":[2147483647,0,0,1,1,2,2,3,3,4,4,5,5,6,6],"right_children":[2,4,6,8,10,12,14,-1,-1,-1,-1,-1,-1,-1,-1],"split_conditions":[3.8671404E-1,3.0604976E-1,4.8873067E-1,2.6809013E-1,3.5943055E-1,4.175563E-1,5.3973895E-1,-8.578599E-4,-4.8871443E-4,-2.3983176E-4,3.1510725E-5,2.1647017E-4,5.418534E-4,8.477259E-4,1.3422536E-3],"split_indices":[29,29,29,20,20,26,26,0,0,0,0,0,0,0,0],"split_type":[0,0,0,0,0,0,0,0,0,0,0,0,0,0,0],"sum_hessian":[5.1624E4,3.1922E4,1.9702E4,1.3562E4,1.836E4,1.4407E4,5.295E3,5.84E3,7.722E3,1.0475E4,7.885E3,6.949E3,7.458E3,3.135E3,2.16E3],"tree_param":{"num_deleted":"0","num_feature":"30","num_nodes":"15","size_leaf_vector":"1"}},{"base_weights":[-1.5945149E-4,-3.412965E-2,5.48018E-2,-6.088857E-2,-1.0802256E-2,3.2539833E-2,9.401613E-2,-8.027735E-4,-4.364774E-4,-2.524981E-4,1.6626153E-5,1.6964284E-4,4.5662228E-4,7.79863E-4,1.2934301E-3],"categories":[],"categories_nodes":[],"categories_segments":[],"categories_sizes":[],"default_left":[0,0,0,0,0,0,0,0,0,0,0,0,0,0,0],"id":19,"left_children":[1,3,5,7,9,11,13,-1,-1,-1,-1,-1,-1,-1,-1],"loss_changes":[9.663637E1,1.9966755E1,1.7256786E1,4.9765816E0,3.0779085E0,2.577178E0,4.0439415E0,0E0,0E0,0E0,0E0,0E0,0E0,0E0,0E0],"parents":[2147483647,0,0,1,1,2,2,3,3,4,4,5,5,6,6],"right_children":[2,4,6,8,10,12,14,-1,-1,-1,-1,-1,-1,-1,-1],"split_conditions":[3.8552785E-1,3.1435347E-1,4.6619213E-1,2.7402133E-1,3.4400946E-1,4.0688014E-1,5.4448396E-1,-8.027735E-4,-4.364774E-4,-2.524981E-4,1.6626153E-5,1.6964284E-4,4.5662228E-4,7.79863E-4,1.2934301E-3],"split_indices":[29,26,29,29,29,26,26,0,0,0,0,0,0,0,0],"split_type":[0,0,0,0,0,0,0,0,0,0,0,0,0,0,0],"sum_hessian":[5.1757E4,3.1987E4,1.977E4,1.4897E4,1.709E4,1.2612E4,7.158E3,7.01E3,7.887E3,7.915E3,9.175E3,5.768E3,6.844E3,4.926E3,2.232E3],"tree_param":{"num_deleted":"0","num_feature":"30","num_nodes":"15","size_leaf_vector":"1"}},{"base_weights":[1.6682217E-5,-3.3850722E-2,5.535896E-2,-6.612617E-2,-1.4922419E-2,3.495752E-2,9.648538E-2,-9.423535E-4,-5.6527636E-4,-3.36751E-4,-4.284287E-5,2.3873417E-4,5.566297E-4,7.825883E-4,1.2970341E-3],"categories":[],"categories_nodes":[],"categories_segments":[],"categories_sizes":[],"default_left":[0,0,0,0,0,0,0,0,0,0,0,0,0,0,0],"id":20,"left_children":[1,3,5,7,9,11,13,-1,-1,-1,-1,-1,-1,-1,-1],"loss_changes":[9.698374E1,1.9609524E1,1.6478695E1,3.1962013E0,4.036607E0,3.0124817E0,3.9331474E0,0E0,0E0,0E0,0E0,0E0,0E0,0E0,0E0],"parents":[2147483647,0,0,1,1,2,2,3,3,4,4,5,5,6,6],"right_children":[2,4,6,8,10,12,14,-1,-1,-1,-1,-1,-1,-1,-1],"split_conditions":[3.8671404E-1,2.9655987E-1,4.7330958E-1,2.3487543E-1,3.3096087E-1,4.3534988E-1,5.3973895E-1,-9.423535E-4,-5.6527636E-4,-3.36751E-4,-4.284287E-5,2.3873417E-4,5.566297E-4,7.825883E-4,1.2970341E-3],"split_indices":[29,29,29,29,26,26,26,0,0,0,0,0,0,0,0],"split_type":[0,0,0,0,0,0,0,0,0,0,0,0,0,0,0],"sum_hessian":[5.1742E4,3.2099E4,1.9643E4,1.1865E4,2.0234E4,1.3131E4,6.512E3,3.018E3,8.847E3,7.323E3,1.2911E4,8.554E3,4.577E3,4.207E3,2.305E3],"tree_param":{"num_deleted":"0","num_feature":"30","num_nodes":"15","size_leaf_vector":"1"}},{"base_weights":[-1.0432873E-4,-3.3329826E-2,5.525665E-2,-6.339584E-2,-1.1435671E-2,3.581744E-2,9.4798945E-2,-8.6312846E-4,-4.8549398E-4,-2.2378877E-4,4.746291E-5,2.3478678E-4,5.3680857E-4,7.481714E-4,1.256414E-3],"categories":[],"categories_nodes":[],"categories_segments":[],"categories_sizes":[],"default_left":[0,0,0,0,0,0,0,0,0,0,0,0,0,0,0],"id":21,"left_children":[1,3,5,7,9,11,13,-1,-1,-1,-1,-1,-1,-1,-1],"loss_changes":[9.506366E1,2.1260082E1,1.4896519E1,4.6260796E0,3.3097787E0,2.8634396E0,3.9274445E0,0E0,0E0,0E0,0E0,0E0,0E0,0E0,0E0],"parents":[2147483647,0,0,1,1,2,2,3,3,4,4,5,5,6,6],"right_children":[2,4,6,8,10,12,14,-1,-1,-1,-1,-1,-1,-1,-1],"split_conditions":[3.879003E-1,3.0604976E-1,4.7330958E-1,2.6097268E-1,3.6536175E-1,4.3416363E-1,5.3380775E-1,-8.6312846E-4,-4.8549398E-4,-2.2378877E-4,4.746291E-5,2.3478678E-4,5.3680857E-4,7.481714E-4,1.256414E-3],"split_indices":[29,29,26,26,2,29,29,0,0,0,0,0,0,0,0],"split_type":[0,0,0,0,0,0,0,0,0,0,0,0,0,0,0],"sum_hessian":[5.168E4,3.2297E4,1.9383E4,1.3608E4,1.8689E4,1.2996E4,6.387E3,5.348E3,8.26E3,1.1149E4,7.54E3,7.688E3,5.308E3,3.878E3,2.509E3],"tree_param":{"num_deleted":"0","num_feature":"30","num_nodes":"15","size_leaf_vector":"1"}},{"base_weights":[-1.639261E-4,-4.0216044E-2,4.3459002E-2,-7.132554E-2,-2.3556037E-2,2.266667E-2,8.412199E-2,-9.0190454E-4,-5.6393543E-4,-3.4505015E-4,-7.8949706E-5,9.799687E-5,4.0914776E-4,6.816843E-4,1.1913794E-3],"categories":[],"categories_nodes":[],"categories_segments":[],"categories_sizes":[],"default_left":[0,0,0,0,0,0,0,0,0,0,0,0,0,0,0],"id":22,"left_children":[1,3,5,7,9,11,13,-1,-1,-1,-1,-1,-1,-1,-1],"loss_changes":[9.056388E1,1.4003918E1,2.0975254E1,2.6495705E0,3.0176468E0,3.8545141E0,4.6810036E0,0E0,0E0,0E0,0E0,0E0,0E0,0E0,0E0],"parents":[2147483647,0,0,1,1,2,2,3,3,4,4,5,5,6,6],"right_children":[2,4,6,8,10,12,14,-1,-1,-1,-1,-1,-1,-1,-1],"split_conditions":[3.6536175E-1,2.8351128E-1,4.5432973E-1,2.6097268E-1,3.451957E-1,4.0688014E-1,5.3973895E-1,-9.0190454E-4,-5.6393543E-4,-3.4505015E-4,-7.8949706E-5,9.799687E-5,4.0914776E-4,6.816843E-4,1.1913794E-3],"split_indices":[29,29,29,8,17,14,29,0,0,0,0,0,0,0,0],"split_type":[0,0,0,0,0,0,0,0,0,0,0,0,0,0,0],"sum_hessian":[5.1832E4,2.7022E4,2.481E4,9.423E3,1.7599E4,1.6417E4,8.393E3,4.161E3,5.262E3,1.0357E4,7.242E3,9.629E3,6.788E3,5.768E3,2.625E3],"tree_param":{"num_deleted":"0","num_feature":"30","num_nodes":"15","size_leaf_vector":"1"}},{"base_weights":[2.8058552E-4,-3.128835E-2,5.4643847E-2,-6.5650225E-2,-1.237164E-2,3.54826E-2,9.248093E-2,-8.9257996E-4,-5.3496304E-4,-2.3028476E-4,5.754879E-5,1.9671123E-4,4.7660086E-4,8.212372E-4,1.3770828E-3],"categories":[],"categories_nodes":[],"categories_segments":[],"categories_sizes":[],"default_left":[0,0,0,0,0,0,0,0,0,0,0,0,0,0,0],"id":23,"left_children":[1,3,5,7,9,11,13,-1,-1,-1,-1,-1,-1,-1,-1],"loss_changes":[8.879224E1,2.127478E1,1.3776901E1,3.3296013E0,4.0781727E0,2.4287767E0,2.9814835E0,0E0,0E0,0E0,0E0,0E0,0E0,0E0,0E0],"parents":[2147483647,0,0,1,1,2,2,3,3,4,4,5,5,6,6],"right_children":[2,4,6,8,10,12,14,-1,-1,-1,-1,-1,-1,-1,-1],"split_conditions":[3.902728E-1,2.9537368E-1,4.7568202E-1,2.4436535E-1,3.66548E-1,4.0450764E-1,5.8956105E-1,-8.9257996E-4,-5.3496304E-4,-2.3028476E-4,5.754879E-5,1.9671123E-4,4.7660086E-4,8.212372E-4,1.3770828E-3],"split_indices":[26,26,26,26,5,5,23,0,0,0,0,0,0,0,0],"split_type":[0,0,0,0,0,0,0,0,0,0,0,0,0,0,0],"sum_hessian":[5.1736E4,3.273E4,1.9006E4,1.162E4,2.111E4,1.2618E4,6.388E3,3.947E3,7.673E3,1.3294E4,7.816E3,5.491E3,7.127E3,5.2E3,1.188E3],"tree_param":{"num_deleted":"0","num_feature":"30","num_nodes":"15","size_leaf_vector":"1"}},{"base_weights":[-5.138765E-5,-3.0725323E-2,5.429944E-2,-6.4786114E-2,-1.2594648E-2,3.870159E-2,9.813462E-2,-8.5037085E-4,-5.1316E-4,-2.723145E-4,1.0030823E-5,2.3161023E-4,5.3861976E-4,8.241607E-4,1.259028E-3],"categories":[],"categories_nodes":[],"categories_segments":[],"categories_sizes":[],"default_left":[0,0,0,0,0,0,0,0,0,0,0,0,0,0,0],"id":24,"left_children":[1,3,5,7,9,11,13,-1,-1,-1,-1,-1,-1,-1,-1],"loss_changes":[8.676702E1,2.0544292E1,1.2834E1,3.1481934E0,4.3215075E0,3.2618275E0,2.1401367E0,0E0,0E0,0E0,0E0,0E0,0E0,0E0,0E0],"parents":[2147483647,0,0,1,1,2,2,3,3,4,4,5,5,6,6],"right_children":[2,4,6,8,10,12,14,-1,-1,-1,-1,-1,-1,-1,-1],"split_conditions":[3.9145905E-1,2.9537368E-1,4.9466187E-1,2.6097268E-1,3.4756815E-1,4.2230123E-1,5.5160135E-1,-8.5037085E-4,-5.1316E-4,-2.723145E-4,1.0030823E-5,2.3161023E-4,5.3861976E-4,8.241607E-4,1.259028E-3],"split_indices":[26,26,26,8,11,23,17,0,0,0,0,0,0,0,0],"split_type":[0,0,0,0,0,0,0,0,0,0,0,0,0,0,0],"sum_hessian":[5.2043E4,3.3268E4,1.8775E4,1.1556E4,2.1712E4,1.3849E4,4.926E3,4.614E3,6.942E3,1.0456E4,1.1256E4,6.84E3,7.009E3,3.148E3,1.778E3],"tree_param":{"num_deleted":"0","num_feature":"30","num_nodes":"15","size_leaf_vector":"1"}},{"base_weights":[3.4964428E-4,-3.6939602E-2,4.520811E-2,-6.7127034E-2,-2.0519834E-2,2.628719E-2,8.963454E-2,-9.251272E-4,-5.7599467E-4,-3.3215314E-4,-7.7221775E-5,1.4404942E-4,4.4144364E-4,7.404305E-4,1.2248581E-3],"categories":[],"categories_nodes":[],"categories_segments":[],"categories_sizes":[],"default_left":[0,0,0,0,0,0,0,0,0,0,0,0,0,0,0],"id":25,"left_children":[1,3,5,7,9,11,13,-1,-1,-1,-1,-1,-1,-1,-1],"loss_changes":[8.684857E1,1.4051876E1,1.980864E1,2.410408E0,2.9835496E0,3.5067558E0,3.596302E0,0E0,0E0,0E0,0E0,0E0,0E0,0E0,0E0],"parents":[2147483647,0,0,1,1,2,2,3,3,4,4,5,5,6,6],"right_children":[2,4,6,8,10,12,14,-1,-1,-1,-1,-1,-1,-1,-1],"split_conditions":[3.7129295E-1,2.8825617E-1,4.6856457E-1,2.3487543E-1,3.3096087E-1,4.175563E-1,5.5041516E-1,-9.251272E-4,-5.7599467E-4,-3.3215314E-4,-7.7221775E-5,1.4404942E-4,4.4144364E-4,7.404305E-4,1.2248581E-3],"split_indices":[29,26,29,29,29,26,29,0,0,0,0,0,0,0,0],"split_type":[0,0,0,0,0,0,0,0,0,0,0,0,0,0,0],"sum_hessian":[5.1918E4,2.8351E4,2.3567E4,9.987E3,1.8364E4,1.6529E4,7.038E3,2.723E3,7.264E3,9.218E3,9.146E3,9.926E3,6.603E3,4.775E3,2.263E3],"tree_param":{"num_deleted":"0","num_feature":"30","num_nodes":"15","size_leaf_vector":"1"}},{"base_weights":[-2.0064824E-6,-3.807792E-2,4.0769577E-2,-6.253439E-2,-1.9821627E-2,2.2379499E-2,8.1901506E-2,-9.068429E-4,-5.305502E-4,-2.8973795E-4,-2.6402047E-5,8.277696E-5,3.8124892E-4,6.2910037E-4,1.0651015E-3],"categories":[],"categories_nodes":[],"categories_segments":[],"categories_sizes":[],"default_left":[0,0,0,0,0,0,0,0,0,0,0,0,0,0,0],"id":26,"left_children":[1,3,5,7,9,11,13,-1,-1,-1,-1,-1,-1,-1,-1],"loss_changes":[8.037165E1,1.1951595E1,1.8909405E1,3.0484085E0,2.410524E0,3.8360643E0,3.6031456E0,0E0,0E0,0E0,0E0,0E0,0E0,0E0,0E0],"parents":[2147483647,0,0,1,1,2,2,3,3,4,4,5,5,6,6],"right_children":[2,4,6,8,10,12,14,-1,-1,-1,-1,-1,-1,-1,-1],"split_conditions":[3.6536175E-1,2.9774612E-1,4.6144718E-1,2.372479E-1,3.606168E-1,4.021352E-1,5.1245546E-1,-9.068429E-4,-5.305502E-4,-2.8973795E-4,-2.6402047E-5,8.277696E-5,3.8124892E-4,6.2910037E-4,1.0651015E-3],"split_indices":[23,17,23,23,5,17,20,0,0,0,0,0,0,0,0],"split_type":[0,0,0,0,0,0,0,0,0,0,0,0,0,0,0],"sum_hessian":[5.177E4,2.677E4,2.5E4,1.1441E4,1.5329E4,1.7277E4,7.723E3,2.88E3,8.561E3,1.0001E4,5.328E3,9.115E3,8.162E3,4.361E3,3.362E3],"tree_param":{"num_deleted":"0","num_feature":"30","num_nodes":"15","size_leaf_vector":"1"}},{"base_weights":[-1.7454497E-5,-3.154985E-2,5.1564008E-2,-5.9079114E-2,-1.1349371E-2,3.6344394E-2,1.0018522E-1,-7.9997926E-4,-4.440146E-4,-2.1566624E-4,4.4344284E-5,2.2025741E-4,5.3241116E-4,8.1223744E-4,1.2367263E-3],"categories":[],"categories_nodes":[],"categories_segments":[],"categories_sizes":[],"default_left":[0,0,0,0,0,0,0,0,0,0,0,0,0,0,0],"id":27,"left_children":[1,3,5,7,9,11,13,-1,-1,-1,-1,-1,-1,-1,-1],"loss_changes":[8.386492E1,1.7794664E1,1.4472164E1,4.154682E0,2.9767635E0,3.6037083E0,2.0666504E0,0E0,0E0,0E0,0E0,0E0,0E0,0E0,0E0],"parents":[2147483647,0,0,1,1,2,2,3,3,4,4,5,5,6,6],"right_children":[2,4,6,8,10,12,14,-1,-1,-1,-1,-1,-1,-1,-1],"split_conditions":[3.8671404E-1,3.0604976E-1,4.9822056E-1,2.7046257E-1,3.66548E-1,4.3060493E-1,5.3973895E-1,-7.9997926E-4,-4.440146E-4,-2.1566624E-4,4.4344284E-5,2.2025741E-4,5.3241116E-4,8.1223744E-4,1.2367263E-3],"split_indices":[29,29,29,2,2,29,26,0,0,0,0,0,0,0,0],"split_type":[0,0,0,0,0,0,0,0,0,0,0,0,0,0,0],"sum_hessian":[5.156E4,3.1999E4,1.9561E4,1.3542E4,1.8457E4,1.4899E4,4.662E3,5.582E3,7.96E3,1.1204E4,7.253E3,8.066E3,6.833E3,2.582E3,2.08E3],"tree_param":{"num_deleted":"0","num_feature":"30","num_nodes":"15","size_leaf_vector":"1"}},{"base_weights":[-8.276606E-5,-3.8482286E-2,4.1069116E-2,-6.817589E-2,-2.393122E-2,2.063955E-2,8.1957646E-2,-9.626455E-4,-5.70488E-4,-3.649138E-4,-1.1157209E-4,5.7866513E-5,3.3399518E-4,6.8783946E-4,1.2742683E-3],"categories":[],"categories_nodes":[],"categories_segments":[],"categories_sizes":[],"default_left":[0,0,0,0,0,0,0,0,0,0,0,0,0,0,0],"id":28,"left_children":[1,3,5,7,9,11,13,-1,-1,-1,-1,-1,-1,-1,-1],"loss_changes":[8.189135E1,1.1581394E1,2.0894215E1,2.7499046E0,2.8864555E0,3.1614218E0,4.9832764E0,0E0,0E0,0E0,0E0,0E0,0E0,0E0,0E0],"parents":[2147483647,0,0,1,1,2,2,3,3,4,4,5,5,6,6],"right_children":[2,4,6,8,10,12,14,-1,-1,-1,-1,-1,-1,-1,-1],"split_conditions":[3.6536175E-1,2.7995253E-1,4.5432973E-1,2.3843415E-1,3.3451957E-1,3.9145905E-1,5.6346375E-1,-9.626455E-4,-5.70488E-4,-3.649138E-4,-1.1157209E-4,5.7866513E-5,3.3399518E-4,6.8783946E-4,1.2742683E-3],"split_indices":[29,29,29,5,8,23,29,0,0,0,0,0,0,0,0],"split_type":[0,0,0,0,0,0,0,0,0,0,0,0,0,0,0],"sum_hessian":[5.1821E4,2.6807E4,2.5014E4,8.815E3,1.7992E4,1.6681E4,8.333E3,2.499E3,6.316E3,9.071E3,8.921E3,7.709E3,8.972E3,6.463E3,1.87E3],"tree_param":{"num_deleted":"0","num_feature":"30","num_nodes":"15","size_leaf_vector":"1"}},{"base_weights":[-5.1705152E-5,-3.568082E-2,4.276976E-2,-6.5290324E-2,-1.978486E-2,2.0250175E-2,7.542316E-2,-9.3295705E-4,-5.6698517E-4,-3.263062E-4,-7.451971E-5,3.641311E-5,3.0685065E-4,6.106401E-4,1.0858388E-3],"categories":[],"categories_nodes":[],"categories_segments":[],"categories_sizes":[],"default_left":[0,0,0,0,0,0,0,0,0,0,0,0,0,0,0],"id":29,"left_children":[1,3,5,7,9,11,13,-1,-1,-1,-1,-1,-1,-1,-1],"loss_changes":[7.916353E1,1.3329071E1,1.7326782E1,2.3751297E0,2.9195356E0,2.4172397E0,4.573078E0,0E0,0E0,0E0,0E0,0E0,0E0,0E0,0E0],"parents":[2147483647,0,0,1,1,2,2,3,3,4,4,5,5,6,6],"right_children":[2,4,6,8,10,12,14,-1,-1,-1,-1,-1,-1,-1,-1],"split_conditions":[3.7129295E-1,2.8588372E-1,4.4483984E-1,2.336892E-1,3.3451957E-1,3.8315535E-1,5.290628E-1,-9.3295705E-4,-5.6698517E-4,-3.263062E-4,-7.451971E-5,3.641311E-5,3.0685065E-4,6.106401E-4,1.0858388E-3],"split_indices":[26,26,26,2,23,23,23,0,0,0,0,0,0,0,0],"split_type":[0,0,0,0,0,0,0,0,0,0,0,0,0,0,0],"sum_hessian":[5.1885E4,2.8321E4,2.3564E4,9.892E3,1.8429E4,1.3947E4,9.617E3,2.32E3,7.572E3,9.026E3,9.403E3,5.382E3,8.565E3,6.713E3,2.904E3],"tree_param":{"num_deleted":"0","num_feature":"30","num_nodes":"15","size_leaf_vector":"1"}},{"base_weights":[-2.0046018E-4,-3.6103483E-2,4.168616E-2,-6.465009E-2,-2.107821E-2,1.9440673E-2,7.482825E-2,-8.47552E-4,-5.396986E-4,-3.1336892E-4,-7.130419E-5,2.8338336E-5,2.999709E-4,6.03727E-4,1.0675652E-3],"categories":[],"categories_nodes":[],"categories_segments":[],"categories_sizes":[],"default_left":[0,0,0,0,0,0,0,0,0,0,0,0,0,0,0],"id":30,"left_children":[1,3,5,7,9,11,13,-1,-1,-1,-1,-1,-1,-1,-1],"loss_changes":[7.771478E1,1.1933777E1,1.7582973E1,2.0557327E0,2.6085205E0,2.5020962E0,4.414654E0,0E0,0E0,0E0,0E0,0E0,0E0,0E0,0E0],"parents":[2147483647,0,0,1,1,2,2,3,3,4,4,5,5,6,6],"right_children":[2,4,6,8,10,12,14,-1,-1,-1,-1,-1,-1,-1,-1],"split_conditions":[3.7010676E-1,2.8469747E-1,4.4483984E-1,2.4792404E-1,3.4638196E-1,3.8315535E-1,5.255041E-1,-8.47552E-4,-5.396986E-4,-3.1336892E-4,-7.130419E-5,2.8338336E-5,2.999709E-4,6.03727E-4,1.0675652E-3],"split_indices":[26,26,26,11,11,23,23,0,0,0,0,0,0,0,0],"split_type":[0,0,0,0,0,0,0,0,0,0,0,0,0,0,0],"sum_hessian":[5.1675E4,2.7825E4,2.385E4,9.594E3,1.8231E4,1.4272E4,9.578E3,3.326E3,6.268E3,1.0504E4,7.727E3,5.547E3,8.725E3,6.595E3,2.983E3],"tree_param":{"num_deleted":"0","num_feature":"30","num_nodes":"15","size_leaf_vector":"1"}},{"base_weights":[3.2756114E-4,-2.7432946E-2,5.324518E-2,-5.2776344E-2,-5.911562E-3,3.8791895E-2,9.537639E-2,-7.430513E-4,-4.0270324E-4,-1.5597756E-4,9.442265E-5,2.5386244E-4,5.3898536E-4,8.216932E-4,1.3573985E-3],"categories":[],"categories_nodes":[],"categories_segments":[],"categories_sizes":[],"default_left":[0,0,0,0,0,0,0,0,0,0,0,0,0,0,0],"id":31,"left_children":[1,3,5,7,9,11,13,-1,-1,-1,-1,-1,-1,-1,-1],"loss_changes":[7.5844025E1,1.8469957E1,1.0814014E1,4.1839523E0,2.7238078E0,2.6776943E0,2.407444E0,0E0,0E0,0E0,0E0,0E0,0E0,0E0,0E0],"parents":[2147483647,0,0,1,1,2,2,3,3,4,4,5,5,6,6],"right_children":[2,4,6,8,10,12,14,-1,-1,-1,-1,-1,-1,-1,-1],"split_conditions":[3.96204E-1,3.1672597E-1,5.0059307E-1,2.6809013E-1,3.7129295E-1,4.3060493E-1,5.8956105E-1,-7.430513E-4,-4.0270324E-4,-1.5597756E-4,9.442265E-5,2.5386244E-4,5.3898536E-4,8.216932E-4,1.3573985E-3],"split_indices":[26,26,26,8,11,20,23,0,0,0,0,0,0,0,0],"split_type":[0,0,0,0,0,0,0,0,0,0,0,0,0,0,0],"sum_hessian":[5.1627E4,3.3863E4,1.7764E4,1.555E4,1.8313E4,1.3228E4,4.536E3,5.712E3,9.838E3,1.1229E4,7.084E3,7.01E3,6.218E3,3.42E3,1.116E3],"tree_param":{"num_deleted":"0","num_feature":"30","num_nodes":"15","size_leaf_vector":"1"}},{"base_weights":[3.1811147E-4,-3.699555E-2,4.126366E-2,-6.598161E-2,-2.1593735E-2,2.149083E-2,7.985244E-2,-8.803769E-4,-5.367621E-4,-3.4332866E-4,-9.629722E-5,9.374049E-5,3.6880653E-4,6.5329694E-4,1.1606204E-3],"categories":[],"categories_nodes":[],"categories_segments":[],"categories_sizes":[],"default_left":[0,0,0,0,0,0,0,0,0,0,0,0,0,0,0],"id":32,"left_children":[1,3,5,7,9,11,13,-1,-1,-1,-1,-1,-1,-1,-1],"loss_changes":[7.897802E1,1.2072941E1,1.8804173E1,2.5421715E0,2.6917076E0,3.038826E0,4.3833733E0,0E0,0E0,0E0,0E0,0E0,0E0,0E0,0E0],"parents":[2147483647,0,0,1,1,2,2,3,3,4,4,5,5,6,6],"right_children":[2,4,6,8,10,12,14,-1,-1,-1,-1,-1,-1,-1,-1],"split_conditions":[3.66548E-1,2.8351128E-1,4.5432973E-1,2.4436535E-1,3.3214706E-1,4.0332144E-1,5.4448396E-1,-8.803769E-4,-5.367621E-4,-3.4332866E-4,-9.629722E-5,9.374049E-5,3.6880653E-4,6.5329694E-4,1.1606204E-3],"split_indices":[29,29,29,26,20,8,29,0,0,0,0,0,0,0,0],"split_type":[0,0,0,0,0,0,0,0,0,0,0,0,0,0,0],"sum_hessian":[5.1691E4,2.7045E4,2.4646E4,9.383E3,1.7662E4,1.6297E4,8.349E3,3.358E3,6.025E3,8.553E3,9.109E3,9.119E3,7.178E3,5.961E3,2.388E3],"tree_param":{"num_deleted":"0","num_feature":"30","num_nodes":"15","size_leaf_vector":"1"}},{"base_weights":[-3.209292E-4,-3.463893E-2,4.121337E-2,-6.2778085E-2,-1.9615501E-2,1.9867048E-2,7.2425455E-2,-8.320787E-4,-5.1354856E-4,-2.8643708E-4,-4.552632E-5,4.0466384E-5,2.987404E-4,5.4930587E-4,1.0183764E-3],"categories":[],"categories_nodes":[],"categories_segments":[],"categories_sizes":[],"default_left":[0,0,0,0,0,0,0,0,0,0,0,0,0,0,0],"id":33,"left_children":[1,3,5,7,9,11,13,-1,-1,-1,-1,-1,-1,-1,-1],"loss_changes":[7.38187E1,1.1987019E1,1.5609776E1,2.2991257E0,2.5142016E0,2.2029862E0,4.89098E0,0E0,0E0,0E0,0E0,0E0,0E0,0E0,0E0],"parents":[2147483647,0,0,1,1,2,2,3,3,4,4,5,5,6,6],"right_children":[2,4,6,8,10,12,14,-1,-1,-1,-1,-1,-1,-1,-1],"split_conditions":[3.7129295E-1,2.8588372E-1,4.4483984E-1,2.4673782E-1,3.5349935E-1,3.8315535E-1,5.0889677E-1,-8.320787E-4,-5.1354856E-4,-2.8643708E-4,-4.552632E-5,4.0466384E-5,2.987404E-4,5.4930587E-4,1.0183764E-3],"split_indices":[26,26,26,20,14,23,20,0,0,0,0,0,0,0,0],"split_type":[0,0,0,0,0,0,0,0,0,0,0,0,0,0,0],"sum_hessian":[5.1787E4,2.8357E4,2.343E4,9.869E3,1.8488E4,1.3915E4,9.515E3,3.537E3,6.332E3,1.1559E4,6.929E3,5.392E3,8.523E3,5.968E3,3.547E3],"tree_param":{"num_deleted":"0","num_feature":"30","num_nodes":"15","size_leaf_vector":"1"}},{"base_weights":[-1.8316957E-4,-2.9383091E-2,4.4869542E-2,-5.9916243E-2,-1.3760271E-2,2.7498392E-2,7.826378E-2,-7.614502E-4,-4.4822114E-4,-2.529626E-4,-8.215043E-6,1.5492568E-4,4.1355606E-4,6.3205906E-4,1.0460794E-3],"categories":[],"categories_nodes":[],"categories_segments":[],"categories_sizes":[],"default_left":[0,0,0,0,0,0,0,0,0,0,0,0,0,0,0],"id":34,"left_children":[1,3,5,7,9,11,13,-1,-1,-1,-1,-1,-1,-1,-1],"loss_changes":[6.81066E1,1.4983135E1,1.1808033E1,2.600994E0,3.1017818E0,2.2276812E0,2.7567139E0,0E0,0E0,0E0,0E0,0E0,0E0,0E0,0E0],"parents":[2147483647,0,0,1,1,2,2,3,3,4,4,5,5,6,6],"right_children":[2,4,6,8,10,12,14,-1,-1,-1,-1,-1,-1,-1,-1],"split_conditions":[3.8315535E-1,2.9062867E-1,4.6737838E-1,2.6809013E-1,3.4875447E-1,4.139976E-1,5.231316E-1,-7.614502E-4,-4.4822114E-4,-2.529626E-4,-8.215043E-6,1.5492568E-4,4.1355606E-4,6.3205906E-4,1.0460794E-3],"split_indices":[23,23,23,8,11,8,8,0,0,0,0,0,0,0,0],"split_type":[0,0,0,0,0,0,0,0,0,0,0,0,0,0,0],"sum_hessian":[5.1769E4,3.1411E4,2.0358E4,1.0631E4,2.078E4,1.3393E4,6.965E3,5.121E3,5.51E3,1.0985E4,9.795E3,7.177E3,6.216E3,4.434E3,2.531E3],"tree_param":{"num_deleted":"0","num_feature":"30","num_nodes":"15","size_leaf_vector":"1"}},{"base_weights":[5.1799865E-4,-2.7150933E-2,5.1680453E-2,-5.432369E-2,-8.982256E-3,3.7521925E-2,9.937818E-2,-8.1124424E-4,-4.4493593E-4,-1.9969934E-4,4.1534033E-5,2.3308414E-4,5.127327E-4,2.7540838E-3,9.62981E-4],"categories":[],"categories_nodes":[],"categories_segments":[],"categories_sizes":[],"default_left":[0,0,0,0,0,0,0,0,0,0,0,0,0,0,0],"id":35,"left_children":[1,3,5,7,9,11,13,-1,-1,-1,-1,-1,-1,-1,-1],"loss_changes":[7.331162E1,1.6593029E1,1.227174E1,3.5445862E0,2.9074745E0,2.7386932E0,2.2289772E0,0E0,0E0,0E0,0E0,0E0,0E0,0E0,0E0],"parents":[2147483647,0,0,1,1,2,2,3,3,4,4,5,5,6,6],"right_children":[2,4,6,8,10,12,14,-1,-1,-1,-1,-1,-1,-1,-1],"split_conditions":[3.938315E-1,3.0604976E-1,5.0889677E-1,2.4436535E-1,3.606168E-1,4.3297744E-1,3.030303E-2,-8.1124424E-4,-4.4493593E-4,-1.9969934E-4,4.1534033E-5,2.3308414E-4,5.127327E-4,2.7540838E-3,9.62981E-4],"split_indices":[29,29,29,26,8,29,28,0,0,0,0,0,0,0,0],"split_type":[0,0,0,0,0,0,0,0,0,0,0,0,0,0,0],"sum_hessian":[5.1786E4,3.361E4,1.8176E4,1.3467E4,2.0143E4,1.4017E4,4.159E3,3.612E3,9.855E3,1.0968E4,9.175E3,6.894E3,7.123E3,7E1,4.089E3],"tree_param":{"num_deleted":"0","num_feature":"30","num_nodes":"15","size_leaf_vector":"1"}},{"base_weights":[3.4712164E-5,-2.5728626E-2,5.4095965E-2,-5.447464E-2,-7.406704E-3,4.0687684E-2,9.7900346E-2,-6.988664E-4,-3.7270936E-4,-1.8634662E-4,7.621068E-5,2.9333777E-4,5.587616E-4,8.559729E-4,1.3342805E-3],"categories":[],"categories_nodes":[],"categories_segments":[],"categories_sizes":[],"default_left":[0,0,0,0,0,0,0,0,0,0,0,0,0,0,0],"id":36,"left_children":[1,3,5,7,9,11,13,-1,-1,-1,-1,-1,-1,-1,-1],"loss_changes":[7.21581E1,1.847929E1,9.816952E0,3.6187286E0,3.6160517E0,2.2063923E0,1.7011337E0,0E0,0E0,0E0,0E0,0E0,0E0,0E0,0E0],"parents":[2147483647,0,0,1,1,2,2,3,3,4,4,5,5,6,6],"right_children":[2,4,6,8,10,12,14,-1,-1,-1,-1,-1,-1,-1,-1],"split_conditions":[4.0094894E-1,3.0604976E-1,5.1245546E-1,2.8706998E-1,3.66548E-1,4.3772238E-1,5.8956105E-1,-6.988664E-4,-3.7270936E-4,-1.8634662E-4,7.621068E-5,2.9333777E-4,5.587616E-4,8.559729E-4,1.3342805E-3],"split_indices":[29,29,29,2,2,11,23,0,0,0,0,0,0,0,0],"split_type":[0,0,0,0,0,0,0,0,0,0,0,0,0,0,0],"sum_hessian":[5.1806E4,3.5086E4,1.672E4,1.3657E4,2.1429E4,1.2803E4,3.917E3,7.202E3,6.455E3,1.2265E4,9.164E3,7.328E3,5.475E3,2.912E3,1.005E3],"tree_param":{"num_deleted":"0","num_feature":"30","num_nodes":"15","size_leaf_vector":"1"}},{"base_weights":[1.0990596E-4,-2.8349964E-2,4.6860322E-2,-5.710454E-2,-1.2054466E-2,2.545546E-2,7.529036E-2,-8.05482E-4,-4.6686127E-4,-2.3841021E-4,2.3639572E-5,1.185116E-4,3.5419295E-4,6.6528586E-4,1.2670518E-3],"categories":[],"categories_nodes":[],"categories_segments":[],"categories_sizes":[],"default_left":[0,0,0,0,0,0,0,0,0,0,0,0,0,0,0],"id":37,"left_children":[1,3,5,7,9,11,13,-1,-1,-1,-1,-1,-1,-1,-1],"loss_changes":[6.8940414E1,1.5091019E1,1.1929749E1,2.8416977E0,3.4939258E0,1.5159898E0,3.7851028E0,0E0,0E0,0E0,0E0,0E0,0E0,0E0,0E0],"parents":[2147483647,0,0,1,1,2,2,3,3,4,4,5,5,6,6],"right_children":[2,4,6,8,10,12,14,-1,-1,-1,-1,-1,-1,-1,-1],"split_conditions":[3.8671404E-1,2.9537368E-1,4.5432973E-1,2.4673782E-1,3.5587186E-1,3.9857644E-1,5.8956105E-1,-8.05482E-4,-4.6686127E-4,-2.3841021E-4,2.3639572E-5,1.185116E-4,3.5419295E-4,6.6528586E-4,1.2670518E-3],"split_indices":[29,29,29,20,8,20,29,0,0,0,0,0,0,0,0],"split_type":[0,0,0,0,0,0,0,0,0,0,0,0,0,0,0],"sum_hessian":[5.1813E4,3.2207E4,1.9606E4,1.1649E4,2.0558E4,1.1186E4,8.42E3,3.582E3,8.067E3,1.1311E4,9.247E3,4.73E3,6.456E3,7.196E3,1.224E3],"tree_param":{"num_deleted":"0","num_feature":"30","num_nodes":"15","size_leaf_vector":"1"}},{"base_weights":[-1.6405994E-4,-3.0757196E-2,4.1119438E-2,-5.634824E-2,-1.4445504E-2,2.4274154E-2,7.677733E-2,-6.9364515E-4,-3.9523665E-4,-2.2203158E-4,1.43971965E-5,1.1423503E-4,3.672857E-4,6.869957E-4,1.1469339E-3],"categories":[],"categories_nodes":[],"categories_segments":[],"categories_sizes":[],"default_left":[0,0,0,0,0,0,0,0,0,0,0,0,0,0,0],"id":38,"left_children":[1,3,5,7,9,11,13,-1,-1,-1,-1,-1,-1,-1,-1],"loss_changes":[6.553916E1,1.2440781E1,1.3265072E1,2.538021E0,2.2433488E0,2.4006128E0,2.1623993E0,0E0,0E0,0E0,0E0,0E0,0E0,0E0,0E0],"parents":[2147483647,0,0,1,1,2,2,3,3,4,4,5,5,6,6],"right_children":[2,4,6,8,10,12,14,-1,-1,-1,-1,-1,-1,-1,-1],"split_conditions":[3.7722415E-1,2.9537368E-1,4.6737838E-1,2.8232497E-1,3.6536175E-1,4.0332144E-1,5.8956105E-1,-6.9364515E-4,-3.9523665E-4,-2.2203158E-4,1.43971965E-5,1.1423503E-4,3.672857E-4,6.869957E-4,1.1469339E-3],"split_indices":[23,23,23,5,11,5,23,0,0,0,0,0,0,0,0],"split_type":[0,0,0,0,0,0,0,0,0,0,0,0,0,0,0],"sum_hessian":[5.189E4,2.9804E4,2.2086E4,1.1601E4,1.8203E4,1.5001E4,7.085E3,6.539E3,5.062E3,1.223E4,5.973E3,7.384E3,7.617E3,5.843E3,1.242E3],"tree_param":{"num_deleted":"0","num_feature":"30","num_nodes":"15","size_leaf_vector":"1"}},{"base_weights":[2.0602776E-4,-2.930443E-2,4.5344997E-2,-5.3396225E-2,-1.0532196E-2,2.6813596E-2,7.9928875E-2,-7.2870334E-4,-4.0680522E-4,-2.0164614E-4,3.1787593E-5,1.5975103E-4,3.9512047E-4,6.533747E-4,1.1130889E-3],"categories":[],"categories_nodes":[],"categories_segments":[],"categories_sizes":[],"default_left":[0,0,0,0,0,0,0,0,0,0,0,0,0,0,0],"id":39,"left_children":[1,3,5,7,9,11,13,-1,-1,-1,-1,-1,-1,-1,-1],"loss_changes":[6.905992E1,1.4177237E1,1.3132847E1,3.3967056E0,2.3272636E0,1.8362064E0,3.2665634E0,0E0,0E0,0E0,0E0,0E0,0E0,0E0,0E0],"parents":[2147483647,0,0,1,1,2,2,3,3,4,4,5,5,6,6],"right_children":[2,4,6,8,10,12,14,-1,-1,-1,-1,-1,-1,-1,-1],"split_conditions":[3.8315535E-1,3.0604976E-1,4.6619213E-1,2.6809013E-1,3.606168E-1,4.139976E-1,5.5041516E-1,-7.2870334E-4,-4.0680522E-4,-2.0164614E-4,3.1787593E-5,1.5975103E-4,3.9512047E-4,6.533747E-4,1.1130889E-3],"split_indices":[29,29,29,2,17,17,29,0,0,0,0,0,0,0,0],"split_type":[0,0,0,0,0,0,0,0,0,0,0,0,0,0,0],"sum_hessian":[5.1842E4,3.1348E4,2.0494E4,1.3728E4,1.762E4,1.3345E4,7.149E3,5.421E3,8.307E3,1.0349E4,7.271E3,7.201E3,6.144E3,4.882E3,2.267E3],"tree_param":{"num_deleted":"0","num_feature":"30","num_nodes":"15","size_leaf_vector":"1"}},{"base_weights":[1.6348873E-4,-2.7203262E-2,4.449781E-2,-5.8206197E-2,-1.2842376E-2,2.8709102E-2,7.723783E-2,-7.344789E-4,-4.3447534E-4,-2.351515E-4,3.225717E-5,1.5647413E-4,3.9215045E-4,6.5723155E-4,1.1074604E-3],"categories":[],"categories_nodes":[],"categories_segments":[],"categories_sizes":[],"default_left":[0,0,0,0,0,0,0,0,0,0,0,0,0,0,0],"id":40,"left_children":[1,3,5,7,9,11,13,-1,-1,-1,-1,-1,-1,-1,-1],"loss_changes":[6.27912E1,1.4246597E1,1.0208561E1,2.2755241E0,3.7507582E0,1.8283262E0,2.4720993E0,0E0,0E0,0E0,0E0,0E0,0E0,0E0,0E0],"parents":[2147483647,0,0,1,1,2,2,3,3,4,4,5,5,6,6],"right_children":[2,4,6,8,10,12,14,-1,-1,-1,-1,-1,-1,-1,-1],"split_conditions":[3.8671404E-1,2.8825617E-1,4.7568202E-1,2.6927638E-1,3.5943055E-1,4.080664E-1,5.7295364E-1,-7.344789E-4,-4.3447534E-4,-2.351515E-4,3.225717E-5,1.5647413E-4,3.9215045E-4,6.5723155E-4,1.1074604E-3],"split_indices":[26,26,26,8,8,20,26,0,0,0,0,0,0,0,0],"split_type":[0,0,0,0,0,0,0,0,0,0,0,0,0,0,0],"sum_hessian":[5.1751E4,3.1999E4,1.9752E4,1.0129E4,2.187E4,1.3327E4,6.425E3,4.981E3,5.148E3,1.3141E4,8.729E3,5.942E3,7.385E3,4.784E3,1.641E3],"tree_param":{"num_deleted":"0","num_feature":"30","num_nodes":"15","size_leaf_vector":"1"}},{"base_weights":[4.0878088E-4,-2.5907623E-2,4.6622455E-2,-5.4374803E-2,-1.0351148E-2,3.3998877E-2,8.92052E-2,-7.474257E-4,-4.4073738E-4,-2.1629102E-4,2.63508E-5,2.169351E-4,4.7593677E-4,1.9953977E-3,8.539467E-4],"categories":[],"categories_nodes":[],"categories_segments":[],"categories_sizes":[],"default_left":[0,0,0,0,0,0,0,0,0,0,0,0,0,0,0],"id":41,"left_children":[1,3,5,7,9,11,13,-1,-1,-1,-1,-1,-1,-1,-1],"loss_changes":[6.312934E1,1.4646223E1,1.0121124E1,2.4487534E0,3.1325026E0,2.4295082E0,1.7933464E0,0E0,0E0,0E0,0E0,0E0,0E0,0E0,0E0],"parents":[2147483647,0,0,1,1,2,2,3,3,4,4,5,5,6,6],"right_children":[2,4,6,8,10,12,14,-1,-1,-1,-1,-1,-1,-1,-1],"split_conditions":[3.9145905E-1,2.9655987E-1,5.0415176E-1,2.4436535E-1,3.5587186E-1,4.2823243E-1,4.545454E-2,-7.474257E-4,-4.4073738E-4,-2.1629102E-4,2.63508E-5,2.169351E-4,4.7593677E-4,1.9953977E-3,8.539467E-4],"split_indices":[26,26,26,26,8,20,28,0,0,0,0,0,0,0,0],"split_type":[0,0,0,0,0,0,0,0,0,0,0,0,0,0,0],"sum_hessian":[5.1906E4,3.3073E4,1.8833E4,1.1686E4,2.1387E4,1.4528E4,4.305E3,3.923E3,7.763E3,1.1446E4,9.941E3,7.627E3,6.901E3,1.42E2,4.163E3],"tree_param":{"num_deleted":"0","num_feature":"30","num_nodes":"15","size_leaf_vector":"1"}},{"base_weights":[-2.0651091E-4,-2.6649404E-2,4.6941917E-2,-5.4762762E-2,-1.1406096E-2,3.509261E-2,9.242838E-2,-7.1130384E-4,-3.9399898E-4,-2.1845508E-4,2.6118078E-5,1.9064652E-4,4.6900348E-4,1.9656122E-3,8.8540534E-4],"categories":[],"categories_nodes":[],"categories_segments":[],"categories_sizes":[],"default_left":[0,0,0,0,0,0,0,0,0,0,0,0,0,0,0],"id":42,"left_children":[1,3,5,7,9,11,13,-1,-1,-1,-1,-1,-1,-1,-1],"loss_changes":[6.47657E1,1.426206E1,1.0057415E1,2.939457E0,3.158338E0,2.801958E0,1.5441132E0,0E0,0E0,0E0,0E0,0E0,0E0,0E0,0E0],"parents":[2147483647,0,0,1,1,2,2,3,3,4,4,5,5,6,6],"right_children":[2,4,6,8,10,12,14,-1,-1,-1,-1,-1,-1,-1,-1],"split_conditions":[3.9145905E-1,2.9537368E-1,5.1245546E-1,2.6927638E-1,3.5824436E-1,4.175563E-1,4.545454E-2,-7.1130384E-4,-3.9399898E-4,-2.1845508E-4,2.6118078E-5,1.9064652E-4,4.6900348E-4,1.9656122E-3,8.8540534E-4],"split_indices":[29,29,29,20,20,26,28,0,0,0,0,0,0,0,0],"split_type":[0,0,0,0,0,0,0,0,0,0,0,0,0,0,0],"sum_hessian":[5.1946E4,3.3281E4,1.8665E4,1.17E4,2.1581E4,1.4809E4,3.856E3,5.663E3,6.037E3,1.2369E4,9.212E3,6.283E3,8.526E3,1.37E2,3.719E3],"tree_param":{"num_deleted":"0","num_feature":"30","num_nodes":"15","size_leaf_vector":"1"}},{"base_weights":[1.7509593E-4,-3.36148E-2,3.6545575E-2,-5.7326123E-2,-1.8624002E-2,1.857876E-2,7.161882E-2,-7.751717E-4,-4.7096697E-4,-2.7796786E-4,-6.565021E-5,8.161923E-5,3.2643147E-4,5.8537954E-4,1.0318041E-3],"categories":[],"categories_nodes":[],"categories_segments":[],"categories_sizes":[],"default_left":[0,0,0,0,0,0,0,0,0,0,0,0,0,0,0],"id":43,"left_children":[1,3,5,7,9,11,13,-1,-1,-1,-1,-1,-1,-1,-1],"loss_changes":[6.3717617E1,9.552408E0,1.57336235E1,2.1464615E0,1.8214164E0,2.4189935E0,3.4858704E0,0E0,0E0,0E0,0E0,0E0,0E0,0E0,0E0],"parents":[2147483647,0,0,1,1,2,2,3,3,4,4,5,5,6,6],"right_children":[2,4,6,8,10,12,14,-1,-1,-1,-1,-1,-1,-1,-1],"split_conditions":[3.6536175E-1,2.9062867E-1,4.5432973E-1,2.5029653E-1,3.333333E-1,4.0450764E-1,5.4448396E-1,-7.751717E-4,-4.7096697E-4,-2.7796786E-4,-6.565021E-5,8.161923E-5,3.2643147E-4,5.8537954E-4,1.0318041E-3],"split_indices":[29,26,29,5,29,5,29,0,0,0,0,0,0,0,0],"split_type":[0,0,0,0,0,0,0,0,0,0,0,0,0,0,0],"sum_hessian":[5.1845E4,2.6876E4,2.4969E4,1.0409E4,1.6467E4,1.6512E4,8.457E3,3.498E3,6.911E3,9.352E3,7.115E3,9.487E3,7.025E3,5.981E3,2.476E3],"tree_param":{"num_deleted":"0","num_feature":"30","num_nodes":"15","size_leaf_vector":"1"}},{"base_weights":[2.4763137E-4,-3.32193E-2,3.5972215E-2,-6.1048094E-2,-2.0528244E-2,1.7888311E-2,7.055624E-2,-7.964799E-4,-4.960346E-4,-3.2343544E-4,-9.229817E-5,5.6474313E-5,2.9800806E-4,5.35407E-4,9.375559E-4],"categories":[],"categories_nodes":[],"categories_segments":[],"categories_sizes":[],"default_left":[0,0,0,0,0,0,0,0,0,0,0,0,0,0,0],"id":44,"left_children":[1,3,5,7,9,11,13,-1,-1,-1,-1,-1,-1,-1,-1],"loss_changes":[6.2144493E1,9.47695E0,1.5722271E1,1.7852116E0,2.4604015E0,2.40731E0,3.402462E0,0E0,0E0,0E0,0E0,0E0,0E0,0E0,0E0],"parents":[2147483647,0,0,1,1,2,2,3,3,4,4,5,5,6,6],"right_children":[2,4,6,8,10,12,14,-1,-1,-1,-1,-1,-1,-1,-1],"split_conditions":[3.6536175E-1,2.7758008E-1,4.5314348E-1,2.5029653E-1,3.2858837E-1,3.938315E-1,5.077105E-1,-7.964799E-4,-4.960346E-4,-3.2343544E-4,-9.229817E-5,5.6474313E-5,2.9800806E-4,5.35407E-4,9.375559E-4],"split_indices":[29,29,29,5,26,17,26,0,0,0,0,0,0,0,0],"split_type":[0,0,0,0,0,0,0,0,0,0,0,0,0,0,0],"sum_hessian":[5.1976E4,2.6836E4,2.514E4,8.404E3,1.8432E4,1.6509E4,8.631E3,3.199E3,5.205E3,9.009E3,9.423E3,8.143E3,8.366E3,4.981E3,3.65E3],"tree_param":{"num_deleted":"0","num_feature":"30","num_nodes":"15","size_leaf_vector":"1"}},{"base_weights":[3.981746E-5,-2.511908E-2,4.6936523E-2,-4.88686E-2,-6.4756405E-3,3.3831965E-2,8.701588E-2,-7.713993E-4,-4.0316876E-4,-1.7216706E-4,4.284319E-5,1.8976176E-4,4.470857E-4,2.0146067E-3,8.2873204E-4],"categories":[],"categories_nodes":[],"categories_segments":[],"categories_sizes":[],"default_left":[0,0,0,0,0,0,0,0,0,0,0,0,0,0,0],"id":45,"left_children":[1,3,5,7,9,11,13,-1,-1,-1,-1,-1,-1,-1,-1],"loss_changes":[6.113257E1,1.4930866E1,9.498856E0,3.5823212E0,2.1836028E0,2.202302E0,2.096405E0,0E0,0E0,0E0,0E0,0E0,0E0,0E0,0E0],"parents":[2147483647,0,0,1,1,2,2,3,3,4,4,5,5,6,6],"right_children":[2,4,6,8,10,12,14,-1,-1,-1,-1,-1,-1,-1,-1],"split_conditions":[3.938315E-1,3.1198096E-1,5.017793E-1,2.396204E-1,3.5705805E-1,4.175563E-1,4.545454E-2,-7.713993E-4,-4.0316876E-4,-1.7216706E-4,4.284319E-5,1.8976176E-4,4.470857E-4,2.0146067E-3,8.2873204E-4],"split_indices":[29,29,29,29,14,26,28,0,0,0,0,0,0,0,0],"split_type":[0,0,0,0,0,0,0,0,0,0,0,0,0,0,0],"sum_hessian":[5.1811E4,3.3721E4,1.809E4,1.4829E4,1.8892E4,1.3634E4,4.456E3,3.442E3,1.1387E4,9.454E3,9.438E3,5.764E3,7.87E3,1.54E2,4.302E3],"tree_param":{"num_deleted":"0","num_feature":"30","num_nodes":"15","size_leaf_vector":"1"}},{"base_weights":[6.1066065E-4,-3.3058174E-2,3.6612887E-2,-6.293921E-2,-2.1382194E-2,2.0751104E-2,7.516498E-2,-8.4471254E-4,-5.2377774E-4,-3.0060162E-4,-6.4272535E-5,7.814771E-5,3.2705165E-4,6.2756275E-4,1.0710568E-3],"categories":[],"categories_nodes":[],"categories_segments":[],"categories_sizes":[],"default_left":[0,0,0,0,0,0,0,0,0,0,0,0,0,0,0],"id":46,"left_children":[1,3,5,7,9,11,13,-1,-1,-1,-1,-1,-1,-1,-1],"loss_changes":[6.2938614E1,9.359732E0,1.5342323E1,1.7097855E0,2.5037537E0,2.7491202E0,2.8921318E0,0E0,0E0,0E0,0E0,0E0,0E0,0E0,0E0],"parents":[2147483647,0,0,1,1,2,2,3,3,4,4,5,5,6,6],"right_children":[2,4,6,8,10,12,14,-1,-1,-1,-1,-1,-1,-1,-1],"split_conditions":[3.6536175E-1,2.7164888E-1,4.6619213E-1,2.3487543E-1,3.4875447E-1,3.9739025E-1,5.5634636E-1,-8.4471254E-4,-5.2377774E-4,-3.0060162E-4,-6.4272535E-5,7.814771E-5,3.2705165E-4,6.2756275E-4,1.0710568E-3],"split_indices":[29,29,29,23,11,23,29,0,0,0,0,0,0,0,0],"split_type":[0,0,0,0,0,0,0,0,0,0,0,0,0,0,0],"sum_hessian":[5.1921E4,2.683E4,2.5091E4,7.537E3,1.9293E4,1.7778E4,7.313E3,2.478E3,5.059E3,1.2208E4,7.085E3,8.539E3,9.239E3,5.269E3,2.044E3],"tree_param":{"num_deleted":"0","num_feature":"30","num_nodes":"15","size_leaf_vector":"1"}},{"base_weights":[2.3728615E-4,-3.11304E-2,3.676212E-2,-5.6180704E-2,-1.7159699E-2,1.947997E-2,6.888353E-2,-8.1403897E-4,-4.659782E-4,-2.9174343E-4,-6.846811E-5,6.0154085E-5,2.969184E-4,5.623055E-4,1.0314953E-3],"categories":[],"categories_nodes":[],"categories_segments":[],"categories_sizes":[],"default_left":[0,0,0,0,0,0,0,0,0,0,0,0,0,0,0],"id":47,"left_children":[1,3,5,7,9,11,13,-1,-1,-1,-1,-1,-1,-1,-1],"loss_changes":[5.9335777E1,9.749914E0,1.3281734E1,2.4072723E0,2.2162251E0,2.1391597E0,3.6231575E0,0E0,0E0,0E0,0E0,0E0,0E0,0E0,0E0],"parents":[2147483647,0,0,1,1,2,2,3,3,4,4,5,5,6,6],"right_children":[2,4,6,8,10,12,14,-1,-1,-1,-1,-1,-1,-1,-1],"split_conditions":[3.6892045E-1,2.8825617E-1,4.5432973E-1,2.372479E-1,3.3096087E-1,3.9145905E-1,5.5041516E-1,-8.1403897E-4,-4.659782E-4,-2.9174343E-4,-6.846811E-5,6.0154085E-5,2.969184E-4,5.623055E-4,1.0314953E-3],"split_indices":[29,20,29,29,26,26,29,0,0,0,0,0,0,0,0],"split_type":[0,0,0,0,0,0,0,0,0,0,0,0,0,0,0],"sum_hessian":[5.1788E4,2.7861E4,2.3927E4,9.974E3,1.7887E4,1.5558E4,8.369E3,2.744E3,7.23E3,8.261E3,9.626E3,6.711E3,8.847E3,6.114E3,2.255E3],"tree_param":{"num_deleted":"0","num_feature":"30","num_nodes":"15","size_leaf_vector":"1"}},{"base_weights":[-2.4137056E-5,-3.2423273E-2,3.47873E-2,-5.4786716E-2,-1.7661449E-2,1.7731529E-2,6.785765E-2,-8.259775E-4,-4.775478E-4,-2.6197184E-4,-5.6993966E-5,7.385495E-5,3.0985015E-4,5.540582E-4,1.027225E-3],"categories":[],"categories_nodes":[],"categories_segments":[],"categories_sizes":[],"default_left":[0,0,0,0,0,0,0,0,0,0,0,0,0,0,0],"id":48,"left_children":[1,3,5,7,9,11,13,-1,-1,-1,-1,-1,-1,-1,-1],"loss_changes":[5.8354378E1,8.845726E0,1.4066526E1,2.0798035E0,1.6482325E0,2.2562346E0,3.6783485E0,0E0,0E0,0E0,0E0,0E0,0E0,0E0,0E0],"parents":[2147483647,0,0,1,1,2,2,3,3,4,4,5,5,6,6],"right_children":[2,4,6,8,10,12,14,-1,-1,-1,-1,-1,-1,-1,-1],"split_conditions":[3.6536175E-1,2.9418737E-1,4.5314348E-1,2.2657175E-1,3.3451957E-1,4.0332144E-1,5.5041516E-1,-8.259775E-4,-4.775478E-4,-2.6197184E-4,-5.6993966E-5,7.385495E-5,3.0985015E-4,5.540582E-4,1.027225E-3],"split_indices":[29,20,29,26,29,2,29,0,0,0,0,0,0,0,0],"split_type":[0,0,0,0,0,0,0,0,0,0,0,0,0,0,0],"sum_hessian":[5.1737E4,2.6797E4,2.494E4,1.0654E4,1.6143E4,1.6455E4,8.485E3,2.148E3,8.506E3,9.42E3,6.723E3,9.242E3,7.213E3,6.254E3,2.231E3],"tree_param":{"num_deleted":"0","num_feature":"30","num_nodes":"15","size_leaf_vector":"1"}},{"base_weights":[1.361413E-4,-2.267659E-2,4.803727E-2,-4.293149E-2,-1.752259E-3,3.5880182E-2,8.563499E-2,-6.102442E-4,-3.0643886E-4,-1.2302796E-4,7.623749E-5,2.5304346E-4,4.861257E-4,7.385375E-4,1.1243381E-3],"categories":[],"categories_nodes":[],"categories_segments":[],"categories_sizes":[],"default_left":[0,0,0,0,0,0,0,0,0,0,0,0,0,0,0],"id":49,"left_children":[1,3,5,7,9,11,13,-1,-1,-1,-1,-1,-1,-1,-1],"loss_changes":[5.657086E1,1.486245E1,7.630596E0,3.959629E0,1.7064971E0,1.6983948E0,1.2798481E0,0E0,0E0,0E0,0E0,0E0,0E0,0E0,0E0],"parents":[2147483647,0,0,1,1,2,2,3,3,4,4,5,5,6,6],"right_children":[2,4,6,8,10,12,14,-1,-1,-1,-1,-1,-1,-1,-1],"split_conditions":[4.0094894E-1,3.274021E-1,5.0889677E-1,2.7758008E-1,3.606168E-1,4.3653613E-1,5.8956105E-1,-6.102442E-4,-3.0643886E-4,-1.2302796E-4,7.623749E-5,2.5304346E-4,4.861257E-4,7.385375E-4,1.1243381E-3],"split_indices":[29,29,29,11,14,20,29,0,0,0,0,0,0,0,0],"split_type":[0,0,0,0,0,0,0,0,0,0,0,0,0,0,0],"sum_hessian":[5.1767E4,3.5067E4,1.67E4,1.7818E4,1.7249E4,1.2621E4,4.079E3,7.205E3,1.0613E4,8.116E3,9.133E3,6.896E3,5.725E3,2.836E3,1.243E3],"tree_param":{"num_deleted":"0","num_feature":"30","num_nodes":"15","size_leaf_vector":"1"}},{"base_weights":[3.7672773E-5,-2.3274392E-2,4.3524705E-2,-4.8303775E-2,-7.864949E-3,2.9166803E-2,7.285722E-2,-6.454833E-4,-3.6038848E-4,-1.598088E-4,7.374919E-5,1.3099785E-4,3.6715856E-4,6.176265E-4,1.0673576E-3],"categories":[],"categories_nodes":[],"categories_segments":[],"categories_sizes":[],"default_left":[0,0,0,0,0,0,0,0,0,0,0,0,0,0,0],"id":50,"left_children":[1,3,5,7,9,11,13,-1,-1,-1,-1,-1,-1,-1,-1],"loss_changes":[5.2476925E1,1.2996948E1,7.6060143E0,2.5560932E0,2.5800784E0,1.4707766E0,2.2245579E0,0E0,0E0,0E0,0E0,0E0,0E0,0E0,0E0],"parents":[2147483647,0,0,1,1,2,2,3,3,4,4,5,5,6,6],"right_children":[2,4,6,8,10,12,14,-1,-1,-1,-1,-1,-1,-1,-1],"split_conditions":[3.9501774E-1,3.0249107E-1,4.7805452E-1,2.6927638E-1,3.724792E-1,3.96204E-1,5.7295364E-1,-6.454833E-4,-3.6038848E-4,-1.598088E-4,7.374919E-5,1.3099785E-4,3.6715856E-4,6.176265E-4,1.0673576E-3],"split_indices":[26,26,23,8,8,23,26,0,0,0,0,0,0,0,0],"split_type":[0,0,0,0,0,0,0,0,0,0,0,0,0,0,0],"sum_hessian":[5.1762E4,3.3698E4,1.8064E4,1.284E4,2.0858E4,1.2129E4,5.935E3,5.522E3,7.318E3,1.361E4,7.248E3,3.878E3,8.251E3,4.473E3,1.462E3],"tree_param":{"num_deleted":"0","num_feature":"30","num_nodes":"15","size_leaf_vector":"1"}},{"base_weights":[1.8004986E-4,-2.3514537E-2,4.525891E-2,-5.0033897E-2,-9.228711E-3,3.3875052E-2,8.358445E-2,-6.928645E-4,-3.871612E-4,-2.054458E-4,2.54901E-5,2.079074E-4,4.6357847E-4,7.2315324E-4,1.1822269E-3],"categories":[],"categories_nodes":[],"categories_segments":[],"categories_sizes":[],"default_left":[0,0,0,0,0,0,0,0,0,0,0,0,0,0,0],"id":51,"left_children":[1,3,5,7,9,11,13,-1,-1,-1,-1,-1,-1,-1,-1],"loss_changes":[5.5134468E1,1.2817581E1,7.756199E0,2.5782986E0,2.9307733E0,2.2387629E0,1.580925E0,0E0,0E0,0E0,0E0,0E0,0E0,0E0,0E0],"parents":[2147483647,0,0,1,1,2,2,3,3,4,4,5,5,6,6],"right_children":[2,4,6,8,10,12,14,-1,-1,-1,-1,-1,-1,-1,-1],"split_conditions":[3.9501774E-1,2.9655987E-1,5.0889677E-1,2.5978643E-1,3.5231316E-1,4.2111504E-1,5.8956105E-1,-6.928645E-4,-3.871612E-4,-2.054458E-4,2.54901E-5,2.079074E-4,4.6357847E-4,7.2315324E-4,1.1822269E-3],"split_indices":[29,29,29,5,23,5,23,0,0,0,0,0,0,0,0],"split_type":[0,0,0,0,0,0,0,0,0,0,0,0,0,0,0],"sum_hessian":[5.1616E4,3.3833E4,1.7783E4,1.1844E4,2.1989E4,1.3712E4,4.071E3,4.383E3,7.461E3,1.1214E4,1.0775E4,6.696E3,7.016E3,3.074E3,9.97E2],"tree_param":{"num_deleted":"0","num_feature":"30","num_nodes":"15","size_leaf_vector":"1"}},{"base_weights":[-1.5560923E-4,-2.9842576E-2,3.2505844E-2,-5.1591735E-2,-1.560774E-2,1.9830622E-2,7.038054E-2,-7.417602E-4,-4.4035673E-4,-2.777238E-4,-7.884471E-5,8.774043E-5,3.4316976E-4,6.1879156E-4,1.0812487E-3],"categories":[],"categories_nodes":[],"categories_segments":[],"categories_sizes":[],"default_left":[0,0,0,0,0,0,0,0,0,0,0,0,0,0,0],"id":52,"left_children":[1,3,5,7,9,11,13,-1,-1,-1,-1,-1,-1,-1,-1],"loss_changes":[5.016036E1,8.389236E0,1.1823692E1,1.8260841E0,1.5387888E0,2.9559484E0,1.9750538E0,0E0,0E0,0E0,0E0,0E0,0E0,0E0,0E0],"parents":[2147483647,0,0,1,1,2,2,3,3,4,4,5,5,6,6],"right_children":[2,4,6,8,10,12,14,-1,-1,-1,-1,-1,-1,-1,-1],"split_conditions":[3.66548E-1,2.9418737E-1,4.7686827E-1,2.3487543E-1,3.2265717E-1,4.1043884E-1,5.8956105E-1,-7.417602E-4,-4.4035673E-4,-2.777238E-4,-7.884471E-5,8.774043E-5,3.4316976E-4,6.1879156E-4,1.0812487E-3],"split_indices":[23,14,20,23,20,20,23,0,0,0,0,0,0,0,0],"split_type":[0,0,0,0,0,0,0,0,0,0,0,0,0,0,0],"sum_hessian":[5.173E4,2.7099E4,2.4631E4,1.0719E4,1.638E4,1.8456E4,6.175E3,2.685E3,8.034E3,6.36E3,1.002E4,1.0468E4,7.988E3,5.042E3,1.133E3],"tree_param":{"num_deleted":"0","num_feature":"30","num_nodes":"15","size_leaf_vector":"1"}},{"base_weights":[-5.31572E-4,-3.0392246E-2,3.1679586E-2,-5.519551E-2,-1.8910998E-2,1.6834829E-2,6.348739E-2,-6.757804E-4,-4.0522343E-4,-2.8088846E-4,-7.836987E-5,7.189855E-5,3.0013997E-4,5.563973E-4,1.0657829E-3],"categories":[],"categories_nodes":[],"categories_segments":[],"categories_sizes":[],"default_left":[0,0,0,0,0,0,0,0,0,0,0,0,0,0,0],"id":53,"left_children":[1,3,5,7,9,11,13,-1,-1,-1,-1,-1,-1,-1,-1],"loss_changes":[4.9887154E1,7.6636066E0,1.1780272E1,1.5445404E0,1.869875E0,2.1623526E0,2.6787434E0,0E0,0E0,0E0,0E0,0E0,0E0,0E0,0E0],"parents":[2147483647,0,0,1,1,2,2,3,3,4,4,5,5,6,6],"right_children":[2,4,6,8,10,12,14,-1,-1,-1,-1,-1,-1,-1,-1],"split_conditions":[3.6536175E-1,2.7758008E-1,4.5907468E-1,2.6809013E-1,3.3570576E-1,4.0688014E-1,5.8956105E-1,-6.757804E-4,-4.0522343E-4,-2.8088846E-4,-7.836987E-5,7.189855E-5,3.0013997E-4,5.563973E-4,1.0657829E-3],"split_indices":[23,23,23,8,17,8,23,0,0,0,0,0,0,0,0],"split_type":[0,0,0,0,0,0,0,0,0,0,0,0,0,0,0],"sum_hessian":[5.1864E4,2.6914E4,2.495E4,8.515E3,1.8399E4,1.7012E4,7.938E3,4.616E3,3.899E3,1.006E4,8.339E3,9.824E3,7.188E3,6.717E3,1.221E3],"tree_param":{"num_deleted":"0","num_feature":"30","num_nodes":"15","size_leaf_vector":"1"}},{"base_weights":[-8.64909E-5,-3.0452946E-2,3.230956E-2,-5.432656E-2,-1.8374167E-2,1.6843539E-2,6.650753E-2,-6.994015E-4,-4.1113037E-4,-2.6306955E-4,-4.46408E-5,5.2286614E-5,2.8805548E-4,5.866148E-4,1.0947553E-3],"categories":[],"categories_nodes":[],"categories_segments":[],"categories_sizes":[],"default_left":[0,0,0,0,0,0,0,0,0,0,0,0,0,0,0],"id":54,"left_children":[1,3,5,7,9,11,13,-1,-1,-1,-1,-1,-1,-1,-1],"loss_changes":[5.104695E1,7.7225475E0,1.3277611E1,1.8535061E0,1.9626036E0,2.4019365E0,2.6292534E0,0E0,0E0,0E0,0E0,0E0,0E0,0E0,0E0],"parents":[2147483647,0,0,1,1,2,2,3,3,4,4,5,5,6,6],"right_children":[2,4,6,8,10,12,14,-1,-1,-1,-1,-1,-1,-1,-1],"split_conditions":[3.6536175E-1,2.8113878E-1,4.6026093E-1,2.6334518E-1,3.5349935E-1,3.96204E-1,5.8956105E-1,-6.994015E-4,-4.1113037E-4,-2.6306955E-4,-4.46408E-5,5.2286614E-5,2.8805548E-4,5.866148E-4,1.0947553E-3],"split_indices":[29,29,29,2,8,8,29,0,0,0,0,0,0,0,0],"split_type":[0,0,0,0,0,0,0,0,0,0,0,0,0,0,0],"sum_hessian":[5.1888E4,2.6783E4,2.5105E4,8.997E3,1.7786E4,1.7288E4,7.817E3,4.122E3,4.875E3,1.1326E4,6.46E3,8.772E3,8.516E3,6.612E3,1.205E3],"tree_param":{"num_deleted":"0","num_feature":"30","num_nodes":"15","size_leaf_vector":"1"}},{"base_weights":[7.173866E-5,-2.6448308E-2,3.484312E-2,-5.1488243E-2,-1.4133618E-2,2.1365507E-2,6.844871E-2,-7.648402E-4,-4.4391825E-4,-2.6357427E-4,-5.829644E-5,9.930584E-5,3.267263E-4,5.863906E-4,9.834254E-4],"categories":[],"categories_nodes":[],"categories_segments":[],"categories_sizes":[],"default_left":[0,0,0,0,0,0,0,0,0,0,0,0,0,0,0],"id":55,"left_children":[1,3,5,7,9,11,13,-1,-1,-1,-1,-1,-1,-1,-1],"loss_changes":[4.774926E1,9.057629E0,1.0146278E1,1.7143574E0,1.9988079E0,2.0675073E0,1.8748322E0,0E0,0E0,0E0,0E0,0E0,0E0,0E0,0E0],"parents":[2147483647,0,0,1,1,2,2,3,3,4,4,5,5,6,6],"right_children":[2,4,6,8,10,12,14,-1,-1,-1,-1,-1,-1,-1,-1],"split_conditions":[3.7603796E-1,2.8588372E-1,4.7568202E-1,2.2419925E-1,3.274021E-1,4.0450764E-1,5.6465E-1,-7.648402E-4,-4.4391825E-4,-2.6357427E-4,-5.829644E-5,9.930584E-5,3.267263E-4,5.863906E-4,9.834254E-4],"split_indices":[26,26,26,26,20,5,17,0,0,0,0,0,0,0,0],"split_type":[0,0,0,0,0,0,0,0,0,0,0,0,0,0,0],"sum_hessian":[5.1779E4,2.9375E4,2.2404E4,9.683E3,1.9692E4,1.5992E4,6.412E3,2.139E3,7.544E3,7.965E3,1.1727E4,7.952E3,8.04E3,4.83E3,1.582E3],"tree_param":{"num_deleted":"0","num_feature":"30","num_nodes":"15","size_leaf_vector":"1"}},{"base_weights":[3.0756375E-4,-2.1803057E-2,4.350273E-2,-4.6380088E-2,-7.163618E-3,3.0931925E-2,7.8447774E-2,-6.7251344E-4,-3.6299514E-4,-1.8947209E-4,2.423654E-5,2.0979015E-4,4.3663022E-4,1.7786415E-3,7.488047E-4],"categories":[],"categories_nodes":[],"categories_segments":[],"categories_sizes":[],"default_left":[0,0,0,0,0,0,0,0,0,0,0,0,0,0,0],"id":56,"left_children":[1,3,5,7,9,11,13,-1,-1,-1,-1,-1,-1,-1,-1],"loss_changes":[4.948131E1,1.2329088E1,7.7031174E0,2.688921E0,2.4263563E0,1.633915E0,1.6322479E0,0E0,0E0,0E0,0E0,0E0,0E0,0E0,0E0],"parents":[2147483647,0,0,1,1,2,2,3,3,4,4,5,5,6,6],"right_children":[2,4,6,8,10,12,14,-1,-1,-1,-1,-1,-1,-1,-1],"split_conditions":[3.96204E-1,3.0249107E-1,4.9822056E-1,2.5029653E-1,3.4400946E-1,4.3534988E-1,4.545454E-2,-6.7251344E-4,-3.6299514E-4,-1.8947209E-4,2.423654E-5,2.0979015E-4,4.3663022E-4,1.7786415E-3,7.488047E-4],"split_indices":[29,26,29,29,29,26,28,0,0,0,0,0,0,0,0],"split_type":[0,0,0,0,0,0,0,0,0,0,0,0,0,0,0],"sum_hessian":[5.1807E4,3.4267E4,1.754E4,1.2791E4,2.1476E4,1.2901E4,4.639E3,4.164E3,8.627E3,9.634E3,1.1842E4,7.242E3,5.659E3,1.59E2,4.48E3],"tree_param":{"num_deleted":"0","num_feature":"30","num_nodes":"15","size_leaf_vector":"1"}},{"base_weights":[1.13200935E-4,-1.9286405E-2,4.8850827E-2,-4.010899E-2,-3.5706008E-4,3.842431E-2,8.915369E-2,-5.565453E-4,-2.697655E-4,-1.08418426E-4,9.386272E-5,3.0006527E-4,5.3676567E-4,1.9830773E-3,8.46267E-4],"categories":[],"categories_nodes":[],"categories_segments":[],"categories_sizes":[],"default_left":[0,0,0,0,0,0,0,0,0,0,0,0,0,0,0],"id":57,"left_children":[1,3,5,7,9,11,13,-1,-1,-1,-1,-1,-1,-1,-1],"loss_changes":[4.8597275E1,1.44912E1,6.1460533E0,3.572565E0,1.967538E0,1.4913101E0,1.4690952E0,0E0,0E0,0E0,0E0,0E0,0E0,0E0,0E0],"parents":[2147483647,0,0,1,1,2,2,3,3,4,4,5,5,6,6],"right_children":[2,4,6,8,10,12,14,-1,-1,-1,-1,-1,-1,-1,-1],"split_conditions":[4.116251E-1,3.2621586E-1,5.290628E-1,2.8706998E-1,3.6417556E-1,4.5907468E-1,4.545454E-2,-5.565453E-4,-2.697655E-4,-1.08418426E-4,9.386272E-5,3.0006527E-4,5.3676567E-4,1.9830773E-3,8.46267E-4],"split_indices":[29,29,29,2,2,2,25,0,0,0,0,0,0,0,0],"split_type":[0,0,0,0,0,0,0,0,0,0,0,0,0,0,0],"sum_hessian":[5.1397E4,3.6764E4,1.4633E4,1.7506E4,1.9258E4,1.1627E4,3.006E3,8.015E3,9.491E3,9.276E3,9.982E3,7.494E3,4.133E3,1.18E2,2.888E3],"tree_param":{"num_deleted":"0","num_feature":"30","num_nodes":"15","size_leaf_vector":"1"}},{"base_weights":[1.297545E-4,-2.3339793E-2,3.5635047E-2,-4.7500733E-2,-1.114321E-2,2.5395531E-2,7.0663E-2,-5.978021E-4,-3.746348E-4,-2.1945765E-4,-2.0523106E-5,1.4837724E-4,3.8193032E-4,6.063551E-4,9.396457E-4],"categories":[],"categories_nodes":[],"categories_segments":[],"categories_sizes":[],"default_left":[0,0,0,0,0,0,0,0,0,0,0,0,0,0,0],"id":58,"left_children":[1,3,5,7,9,11,13,-1,-1,-1,-1,-1,-1,-1,-1],"loss_changes":[4.3105423E1,9.176716E0,7.381771E0,1.2853775E0,2.032503E0,2.151928E0,1.0822086E0,0E0,0E0,0E0,0E0,0E0,0E0,0E0,0E0],"parents":[2147483647,0,0,1,1,2,2,3,3,4,4,5,5,6,6],"right_children":[2,4,6,8,10,12,14,-1,-1,-1,-1,-1,-1,-1,-1],"split_conditions":[3.8315535E-1,2.9062867E-1,4.994068E-1,2.5860023E-1,3.3451957E-1,4.2586E-1,5.7532614E-1,-5.978021E-4,-3.746348E-4,-2.1945765E-4,-2.0523106E-5,1.4837724E-4,3.8193032E-4,6.063551E-4,9.396457E-4],"split_indices":[17,14,17,17,17,14,14,0,0,0,0,0,0,0,0],"split_type":[0,0,0,0,0,0,0,0,0,0,0,0,0,0,0],"sum_hessian":[5.1727E4,3.1142E4,2.0585E4,1.0446E4,2.0696E4,1.593E4,4.655E3,4.696E3,5.75E3,9.457E3,1.1239E4,8.73E3,7.2E3,3.257E3,1.398E3],"tree_param":{"num_deleted":"0","num_feature":"30","num_nodes":"15","size_leaf_vector":"1"}},{"base_weights":[1.9945386E-4,-2.205736E-2,4.1547213E-2,-4.1581016E-2,-5.0686644E-3,2.8434975E-2,7.30408E-2,-5.65349E-4,-2.7581333E-4,-1.38742E-4,6.277853E-5,1.563589E-4,3.957901E-4,6.2648644E-4,1.0718977E-3],"categories":[],"categories_nodes":[],"categories_segments":[],"categories_sizes":[],"default_left":[0,0,0,0,0,0,0,0,0,0,0,0,0,0,0],"id":59,"left_children":[1,3,5,7,9,11,13,-1,-1,-1,-1,-1,-1,-1,-1],"loss_changes":[4.7646023E1,1.1163193E1,7.4793625E0,3.2768555E0,1.7983062E0,1.824089E0,1.883028E0,0E0,0E0,0E0,0E0,0E0,0E0,0E0,0E0],"parents":[2147483647,0,0,1,1,2,2,3,3,4,4,5,5,6,6],"right_children":[2,4,6,8,10,12,14,-1,-1,-1,-1,-1,-1,-1,-1],"split_conditions":[3.938315E-1,3.1672597E-1,4.8873067E-1,2.8706998E-1,3.66548E-1,4.1281134E-1,5.8956105E-1,-5.65349E-4,-2.7581333E-4,-1.38742E-4,6.277853E-5,1.563589E-4,3.957901E-4,6.2648644E-4,1.0718977E-3],"split_indices":[29,29,29,2,2,5,29,0,0,0,0,0,0,0,0],"split_type":[0,0,0,0,0,0,0,0,0,0,0,0,0,0,0],"sum_hessian":[5.1772E4,3.3656E4,1.8116E4,1.5659E4,1.7997E4,1.2792E4,5.324E3,7.57E3,8.089E3,1.0133E4,7.864E3,5.955E3,6.837E3,4.084E3,1.24E3],"tree_param":{"num_deleted":"0","num_feature":"30","num_nodes":"15","size_leaf_vector":"1"}},{"base_weights":[-1.4203347E-4,-2.1600205E-2,3.9534684E-2,-4.208369E-2,-5.469589E-3,2.5913116E-2,6.629826E-2,-6.0843996E-4,-3.2561514E-4,-1.426069E-4,4.922833E-5,1.717385E-4,3.6960244E-4,5.8102683E-4,1.0006177E-3],"categories":[],"categories_nodes":[],"categories_segments":[],"categories_sizes":[],"default_left":[0,0,0,0,0,0,0,0,0,0,0,0,0,0,0],"id":60,"left_children":[1,3,5,7,9,11,13,-1,-1,-1,-1,-1,-1,-1,-1],"loss_changes":[4.4311436E1,1.1160404E1,6.658102E0,2.6563435E0,1.7266073E0,1.1683168E0,1.6990051E0,0E0,0E0,0E0,0E0,0E0,0E0,0E0,0E0],"parents":[2147483647,0,0,1,1,2,2,3,3,4,4,5,5,6,6],"right_children":[2,4,6,8,10,12,14,-1,-1,-1,-1,-1,-1,-1,-1],"split_conditions":[3.938315E-1,3.1198096E-1,4.7686827E-1,2.5622773E-1,3.606168E-1,4.3534988E-1,5.8956105E-1,-6.0843996E-4,-3.2561514E-4,-1.426069E-4,4.922833E-5,1.717385E-4,3.6960244E-4,5.8102683E-4,1.0006177E-3],"split_indices":[23,23,20,20,14,23,23,0,0,0,0,0,0,0,0],"split_type":[0,0,0,0,0,0,0,0,0,0,0,0,0,0,0],"sum_hessian":[5.2044E4,3.3777E4,1.8267E4,1.488E4,1.8897E4,1.2107E4,6.16E3,5.008E3,9.872E3,1.0237E4,8.66E3,6.761E3,5.346E3,4.959E3,1.201E3],"tree_param":{"num_deleted":"0","num_feature":"30","num_nodes":"15","size_leaf_vector":"1"}},{"base_weights":[-1.0640517E-4,-3.0684652E-2,2.9007517E-2,-4.934638E-2,-1.8050501E-2,1.3453008E-2,5.7819996E-2,-7.447372E-4,-4.3162005E-4,-2.452728E-4,-5.9234542E-5,3.0854266E-5,2.430109E-4,5.0851307E-4,1.030587E-3],"categories":[],"categories_nodes":[],"categories_segments":[],"categories_sizes":[],"default_left":[0,0,0,0,0,0,0,0,0,0,0,0,0,0,0],"id":61,"left_children":[1,3,5,7,9,11,13,-1,-1,-1,-1,-1,-1,-1,-1],"loss_changes":[4.6161385E1,5.9618607E0,1.1903355E1,1.583231E0,1.1844583E0,1.9401174E0,2.9304104E0,0E0,0E0,0E0,0E0,0E0,0E0,0E0,0E0],"parents":[2147483647,0,0,1,1,2,2,3,3,4,4,5,5,6,6],"right_children":[2,4,6,8,10,12,14,-1,-1,-1,-1,-1,-1,-1,-1],"split_conditions":[3.5943055E-1,2.9062867E-1,4.4721228E-1,2.2419925E-1,3.5587186E-1,3.9145905E-1,5.8956105E-1,-7.447372E-4,-4.3162005E-4,-2.452728E-4,-5.9234542E-5,3.0854266E-5,2.430109E-4,5.0851307E-4,1.030587E-3],"split_indices":[29,26,29,29,8,14,29,0,0,0,0,0,0,0,0],"split_type":[0,0,0,0,0,0,0,0,0,0,0,0,0,0,0],"sum_hessian":[5.185E4,2.5289E4,2.6561E4,1.0208E4,1.5081E4,1.725E4,9.311E3,2.014E3,8.194E3,9.83E3,5.251E3,8.821E3,8.429E3,8.07E3,1.241E3],"tree_param":{"num_deleted":"0","num_feature":"30","num_nodes":"15","size_leaf_vector":"1"}},{"base_weights":[-1.5304961E-4,-2.0317081E-2,4.268959E-2,-4.2381905E-2,-4.621738E-3,3.2816872E-2,8.245233E-2,-5.887213E-4,-3.088606E-4,-1.3541307E-4,6.952587E-5,2.2950645E-4,4.374713E-4,7.11821E-4,1.0952752E-3],"categories":[],"categories_nodes":[],"categories_segments":[],"categories_sizes":[],"default_left":[0,0,0,0,0,0,0,0,0,0,0,0,0,0,0],"id":62,"left_children":[1,3,5,7,9,11,13,-1,-1,-1,-1,-1,-1,-1,-1],"loss_changes":[4.4698906E1,1.2184202E1,6.497799E0,2.770441E0,2.122667E0,1.4297152E0,9.970417E-1,0E0,0E0,0E0,0E0,0E0,0E0,0E0,0E0],"parents":[2147483647,0,0,1,1,2,2,3,3,4,4,5,5,6,6],"right_children":[2,4,6,8,10,12,14,-1,-1,-1,-1,-1,-1,-1,-1],"split_conditions":[4.0094894E-1,3.1079477E-1,5.2431786E-1,2.6809013E-1,3.6536175E-1,4.3653613E-1,5.8956105E-1,-5.887213E-4,-3.088606E-4,-1.3541307E-4,6.952587E-5,2.2950645E-4,4.374713E-4,7.11821E-4,1.0952752E-3],"split_indices":[29,29,29,20,17,20,23,0,0,0,0,0,0,0,0],"split_type":[0,0,0,0,0,0,0,0,0,0,0,0,0,0,0],"sum_hessian":[5.174E4,3.5182E4,1.6558E4,1.4623E4,2.0559E4,1.3266E4,3.292E3,6.005E3,8.618E3,1.1611E4,8.948E3,6.974E3,6.292E3,2.327E3,9.65E2],"tree_param":{"num_deleted":"0","num_feature":"30","num_nodes":"15","size_leaf_vector":"1"}},{"base_weights":[-6.490946E-5,-2.0147832E-2,4.2221293E-2,-4.5603864E-2,-7.3275864E-3,3.1276315E-2,7.608717E-2,-6.807152E-4,-3.7962987E-4,-1.7605691E-4,3.5326204E-5,2.12118E-4,4.1403383E-4,6.525222E-4,1.0149676E-3],"categories":[],"categories_nodes":[],"categories_segments":[],"categories_sizes":[],"default_left":[0,0,0,0,0,0,0,0,0,0,0,0,0,0,0],"id":63,"left_children":[1,3,5,7,9,11,13,-1,-1,-1,-1,-1,-1,-1,-1],"loss_changes":[4.3814358E1,1.1415482E1,6.1554127E0,2.0087318E0,2.596956E0,1.2789822E0,1.1103172E0,0E0,0E0,0E0,0E0,0E0,0E0,0E0,0E0],"parents":[2147483647,0,0,1,1,2,2,3,3,4,4,5,5,6,6],"right_children":[2,4,6,8,10,12,14,-1,-1,-1,-1,-1,-1,-1,-1],"split_conditions":[4.0094894E-1,2.9655987E-1,5.0889677E-1,2.3487543E-1,3.5587186E-1,4.2704624E-1,5.8956105E-1,-6.807152E-4,-3.7962987E-4,-1.7605691E-4,3.5326204E-5,2.12118E-4,4.1403383E-4,6.525222E-4,1.0149676E-3],"split_indices":[29,29,29,29,8,8,29,0,0,0,0,0,0,0,0],"split_type":[0,0,0,0,0,0,0,0,0,0,0,0,0,0,0],"sum_hessian":[5.1591E4,3.4979E4,1.6612E4,1.1715E4,2.3264E4,1.2556E4,4.056E3,2.971E3,8.744E3,1.1952E4,1.1312E4,6.299E3,6.257E3,2.846E3,1.21E3],"tree_param":{"num_deleted":"0","num_feature":"30","num_nodes":"15","size_leaf_vector":"1"}},{"base_weights":[-9.9982026E-5,-2.8091999E-2,3.0139351E-2,-4.9885496E-2,-1.6494894E-2,1.5417953E-2,5.930035E-2,-7.362475E-4,-4.3059108E-4,-2.6343667E-4,-6.935762E-5,7.7879915E-5,2.9171223E-4,4.790009E-4,8.640844E-4],"categories":[],"categories_nodes":[],"categories_segments":[],"categories_sizes":[],"default_left":[0,0,0,0,0,0,0,0,0,0,0,0,0,0,0],"id":64,"left_children":[1,3,5,7,9,11,13,-1,-1,-1,-1,-1,-1,-1,-1],"loss_changes":[4.38881E1,6.804243E0,1.0698727E1,1.5121899E0,1.6544285E0,1.7379475E0,2.5797367E0,0E0,0E0,0E0,0E0,0E0,0E0,0E0,0E0],"parents":[2147483647,0,0,1,1,2,2,3,3,4,4,5,5,6,6],"right_children":[2,4,6,8,10,12,14,-1,-1,-1,-1,-1,-1,-1,-1],"split_conditions":[3.6536175E-1,2.8351128E-1,4.5432973E-1,2.313167E-1,3.3451957E-1,4.139976E-1,5.4448396E-1,-7.362475E-4,-4.3059108E-4,-2.6343667E-4,-6.935762E-5,7.7879915E-5,2.9171223E-4,4.790009E-4,8.640844E-4],"split_indices":[29,29,29,5,5,29,29,0,0,0,0,0,0,0,0],"split_type":[0,0,0,0,0,0,0,0,0,0,0,0,0,0,0],"sum_hessian":[5.1847E4,2.6924E4,2.4923E4,9.35E3,1.7574E4,1.6563E4,8.36E3,2.086E3,7.264E3,8.655E3,8.919E3,1.0654E4,5.909E3,5.887E3,2.473E3],"tree_param":{"num_deleted":"0","num_feature":"30","num_nodes":"15","size_leaf_vector":"1"}},{"base_weights":[-6.715031E-5,-2.2314433E-2,3.4004632E-2,-4.2047743E-2,-8.866103E-3,2.205905E-2,6.218586E-2,-5.4058654E-4,-2.9143546E-4,-1.4788864E-4,4.779604E-5,9.461094E-5,3.046826E-4,5.4838316E-4,9.5230184E-4],"categories":[],"categories_nodes":[],"categories_segments":[],"categories_sizes":[],"default_left":[0,0,0,0,0,0,0,0,0,0,0,0,0,0,0],"id":65,"left_children":[1,3,5,7,9,11,13,-1,-1,-1,-1,-1,-1,-1,-1],"loss_changes":[3.9348778E1,8.33389E0,6.9017944E0,1.9711494E0,1.5096316E0,1.5255499E0,1.4767933E0,0E0,0E0,0E0,0E0,0E0,0E0,0E0,0E0],"parents":[2147483647,0,0,1,1,2,2,3,3,4,4,5,5,6,6],"right_children":[2,4,6,8,10,12,14,-1,-1,-1,-1,-1,-1,-1,-1],"split_conditions":[3.8315535E-1,3.0130488E-1,4.7686827E-1,2.8113878E-1,3.724792E-1,3.997627E-1,5.8956105E-1,-5.4058654E-4,-2.9143546E-4,-1.4788864E-4,4.779604E-5,9.461094E-5,3.046826E-4,5.4838316E-4,9.5230184E-4],"split_indices":[23,23,20,2,8,20,23,0,0,0,0,0,0,0,0],"split_type":[0,0,0,0,0,0,0,0,0,0,0,0,0,0,0],"sum_hessian":[5.1909E4,3.1404E4,2.0505E4,1.2727E4,1.8677E4,1.4402E4,6.103E3,6.59E3,6.137E3,1.3024E4,5.653E3,5.766E3,8.636E3,4.995E3,1.108E3],"tree_param":{"num_deleted":"0","num_feature":"30","num_nodes":"15","size_leaf_vector":"1"}},{"base_weights":[-2.8459672E-4,-2.5563065E-2,2.7483817E-2,-4.563039E-2,-1.3467754E-2,1.3732326E-2,5.2689098E-2,-6.233285E-4,-3.7456723E-4,-2.1590946E-4,-5.9220634E-5,5.423176E-5,2.5254744E-4,4.1236344E-4,7.214776E-4],"categories":[],"categories_nodes":[],"categories_segments":[],"categories_sizes":[],"default_left":[0,0,0,0,0,0,0,0,0,0,0,0,0,0,0],"id":66,"left_children":[1,3,5,7,9,11,13,-1,-1,-1,-1,-1,-1,-1,-1],"loss_changes":[3.633959E1,6.577112E0,8.55015E0,1.3889446E0,1.0363722E0,1.5281844E0,1.9376488E0,0E0,0E0,0E0,0E0,0E0,0E0,0E0,0E0],"parents":[2147483647,0,0,1,1,2,2,3,3,4,4,5,5,6,6],"right_children":[2,4,6,8,10,12,14,-1,-1,-1,-1,-1,-1,-1,-1],"split_conditions":[3.66548E-1,2.8944248E-1,4.5195723E-1,2.4436535E-1,3.3451957E-1,4.0688014E-1,5.112692E-1,-6.233285E-4,-3.7456723E-4,-2.1590946E-4,-5.9220634E-5,5.423176E-5,2.5254744E-4,4.1236344E-4,7.214776E-4],"split_indices":[17,14,17,8,11,8,2,0,0,0,0,0,0,0,0],"split_type":[0,0,0,0,0,0,0,0,0,0,0,0,0,0,0],"sum_hessian":[5.1768E4,2.7099E4,2.4669E4,1.019E4,1.6909E4,1.5962E4,8.707E3,3.346E3,6.844E3,8.142E3,8.767E3,9.275E3,6.687E3,5.483E3,3.224E3],"tree_param":{"num_deleted":"0","num_feature":"30","num_nodes":"15","size_leaf_vector":"1"}},{"base_weights":[7.5733486E-5,-2.055283E-2,3.839159E-2,-3.8921513E-2,-5.140979E-3,2.733172E-2,6.99573E-2,-5.3041684E-4,-2.6965365E-4,-1.5382122E-4,2.7426318E-5,1.6670873E-4,3.7612277E-4,5.915168E-4,9.568092E-4],"categories":[],"categories_nodes":[],"categories_segments":[],"categories_sizes":[],"default_left":[0,0,0,0,0,0,0,0,0,0,0,0,0,0,0],"id":67,"left_children":[1,3,5,7,9,11,13,-1,-1,-1,-1,-1,-1,-1,-1],"loss_changes":[4.1073193E1,9.562478E0,6.3470535E0,2.6002998E0,1.4831036E0,1.4755669E0,1.3057537E0,0E0,0E0,0E0,0E0,0E0,0E0,0E0,0E0],"parents":[2147483647,0,0,1,1,2,2,3,3,4,4,5,5,6,6],"right_children":[2,4,6,8,10,12,14,-1,-1,-1,-1,-1,-1,-1,-1],"split_conditions":[3.938315E-1,3.1435347E-1,4.9822056E-1,2.7520758E-1,3.4994066E-1,4.3060493E-1,5.6465E-1,-5.3041684E-4,-2.6965365E-4,-1.5382122E-4,2.7426318E-5,1.6670873E-4,3.7612277E-4,5.915168E-4,9.568092E-4],"split_indices":[29,29,29,23,20,29,17,0,0,0,0,0,0,0,0],"split_type":[0,0,0,0,0,0,0,0,0,0,0,0,0,0,0],"sum_hessian":[5.1963E4,3.3778E4,1.8185E4,1.541E4,1.8368E4,1.3468E4,4.717E3,7.064E3,8.346E3,7.989E3,1.0379E4,6.613E3,6.855E3,3.324E3,1.393E3],"tree_param":{"num_deleted":"0","num_feature":"30","num_nodes":"15","size_leaf_vector":"1"}},{"base_weights":[-1.7904885E-4,-1.8198196E-2,4.2760056E-2,-3.689517E-2,-7.567698E-4,3.3566162E-2,7.955774E-2,-5.1484874E-4,-2.3932154E-4,-7.287459E-5,1.0894816E-4,2.4433454E-4,4.5589174E-4,2.1090996E-3,7.622743E-4],"categories":[],"categories_nodes":[],"categories_segments":[],"categories_sizes":[],"default_left":[0,0,0,0,0,0,0,0,0,0,0,0,0,0,0],"id":68,"left_children":[1,3,5,7,9,11,13,-1,-1,-1,-1,-1,-1,-1,-1],"loss_changes":[4.002408E1,1.1882474E1,5.1704884E0,3.324747E0,1.4346586E0,1.342432E0,1.3207512E0,0E0,0E0,0E0,0E0,0E0,0E0,0E0,0E0],"parents":[2147483647,0,0,1,1,2,2,3,3,4,4,5,5,6,6],"right_children":[2,4,6,8,10,12,14,-1,-1,-1,-1,-1,-1,-1,-1],"split_conditions":[4.080664E-1,3.2621586E-1,5.290628E-1,2.8706998E-1,3.8078284E-1,4.5432973E-1,3.030303E-2,-5.1484874E-4,-2.3932154E-4,-7.287459E-5,1.0894816E-4,2.4433454E-4,4.5589174E-4,2.1090996E-3,7.622743E-4],"split_indices":[29,29,29,8,20,29,25,0,0,0,0,0,0,0,0],"split_type":[0,0,0,0,0,0,0,0,0,0,0,0,0,0,0],"sum_hessian":[5.1727E4,3.6437E4,1.529E4,1.7585E4,1.8852E4,1.2235E4,3.055E3,8.272E3,9.313E3,1.2081E4,6.771E3,6.955E3,5.28E3,7.4E1,2.981E3],"tree_param":{"num_deleted":"0","num_feature":"30","num_nodes":"15","size_leaf_vector":"1"}},{"base_weights":[-1.4104972E-4,-2.1570327E-2,3.5051245E-2,-3.925847E-2,-6.0802354E-3,2.080759E-2,5.9895538E-2,-6.569045E-4,-3.2875693E-4,-1.4697784E-4,1.2909375E-5,1.3026378E-4,3.263718E-4,5.2554003E-4,9.63569E-4],"categories":[],"categories_nodes":[],"categories_segments":[],"categories_sizes":[],"default_left":[0,0,0,0,0,0,0,0,0,0,0,0,0,0,0],"id":69,"left_children":[1,3,5,7,9,11,13,-1,-1,-1,-1,-1,-1,-1,-1],"loss_changes":[3.9095657E1,8.828022E0,6.9417515E0,2.535736E0,1.0912538E0,1.1476045E0,1.908598E0,0E0,0E0,0E0,0E0,0E0,0E0,0E0,0E0],"parents":[2147483647,0,0,1,1,2,2,3,3,4,4,5,5,6,6],"right_children":[2,4,6,8,10,12,14,-1,-1,-1,-1,-1,-1,-1,-1],"split_conditions":[3.8671404E-1,3.1435347E-1,4.6619213E-1,2.3487543E-1,3.511269E-1,4.2467374E-1,5.8956105E-1,-6.569045E-4,-3.2875693E-4,-1.4697784E-4,1.2909375E-5,1.3026378E-4,3.263718E-4,5.2554003E-4,9.63569E-4],"split_indices":[29,26,29,29,17,2,29,0,0,0,0,0,0,0,0],"split_type":[0,0,0,0,0,0,0,0,0,0,0,0,0,0,0],"sum_hessian":[5.1839E4,3.222E4,1.9619E4,1.5042E4,1.7178E4,1.2471E4,7.148E3,2.924E3,1.2118E4,7.919E3,9.259E3,7.524E3,4.947E3,5.952E3,1.196E3],"tree_param":{"num_deleted":"0","num_feature":"30","num_nodes":"15","size_leaf_vector":"1"}},{"base_weights":[1.7928932E-4,-2.0084955E-2,3.534143E-2,-4.3264877E-2,-8.306429E-3,2.4683503E-2,6.544616E-2,-5.386866E-4,-2.9951546E-4,-1.66468E-4,1.1294203E-5,1.4700992E-4,3.5245335E-4,5.6988955E-4,9.474606E-4],"categories":[],"categories_nodes":[],"categories_segments":[],"categories_sizes":[],"default_left":[0,0,0,0,0,0,0,0,0,0,0,0,0,0,0],"id":70,"left_children":[1,3,5,7,9,11,13,-1,-1,-1,-1,-1,-1,-1,-1],"loss_changes":[3.6826614E1,8.951595E0,6.061243E0,1.557909E0,1.7110813E0,1.4710188E0,1.21871E0,0E0,0E0,0E0,0E0,0E0,0E0,0E0,0E0],"parents":[2147483647,0,0,1,1,2,2,3,3,4,4,5,5,6,6],"right_children":[2,4,6,8,10,12,14,-1,-1,-1,-1,-1,-1,-1,-1],"split_conditions":[3.902728E-1,2.9300117E-1,4.9466187E-1,2.7876627E-1,3.5231316E-1,4.2230123E-1,5.9074724E-1,-5.386866E-4,-2.9951546E-4,-1.66468E-4,1.1294203E-5,1.4700992E-4,3.5245335E-4,5.6988955E-4,9.474606E-4],"split_indices":[20,20,20,5,5,8,17,0,0,0,0,0,0,0,0],"split_type":[0,0,0,0,0,0,0,0,0,0,0,0,0,0,0],"sum_hessian":[5.1682E4,3.2787E4,1.8895E4,1.1046E4,2.1741E4,1.3956E4,4.939E3,6.147E3,4.899E3,1.154E4,1.0201E4,7.176E3,6.78E3,3.835E3,1.104E3],"tree_param":{"num_deleted":"0","num_feature":"30","num_nodes":"15","size_leaf_vector":"1"}},{"base_weights":[-2.1775816E-4,-2.656195E-2,2.809001E-2,-4.722254E-2,-1.597147E-2,1.2885991E-2,5.3263806E-2,-6.755554E-4,-3.9501558E-4,-2.537848E-4,-6.645245E-5,5.4356275E-5,2.356839E-4,4.461709E-4,9.129162E-4],"categories":[],"categories_nodes":[],"categories_segments":[],"categories_sizes":[],"default_left":[0,0,0,0,0,0,0,0,0,0,0,0,0,0,0],"id":71,"left_children":[1,3,5,7,9,11,13,-1,-1,-1,-1,-1,-1,-1,-1],"loss_changes":[3.8523705E1,5.8538246E0,9.529995E0,1.4207668E0,1.551897E0,1.2355514E0,3.0789032E0,0E0,0E0,0E0,0E0,0E0,0E0,0E0,0E0],"parents":[2147483647,0,0,1,1,2,2,3,3,4,4,5,5,6,6],"right_children":[2,4,6,8,10,12,14,-1,-1,-1,-1,-1,-1,-1,-1],"split_conditions":[3.6536175E-1,2.8113878E-1,4.4483984E-1,2.3843415E-1,3.3451957E-1,4.0332144E-1,5.6346375E-1,-6.755554E-4,-3.9501558E-4,-2.537848E-4,-6.645245E-5,5.4356275E-5,2.356839E-4,4.461709E-4,9.129162E-4],"split_indices":[29,29,26,5,5,8,29,0,0,0,0,0,0,0,0],"split_type":[0,0,0,0,0,0,0,0,0,0,0,0,0,0,0],"sum_hessian":[5.1656E4,2.6756E4,2.49E4,9.066E3,1.769E4,1.5525E4,9.375E3,2.493E3,6.573E3,8.806E3,8.884E3,9.147E3,6.378E3,7.64E3,1.735E3],"tree_param":{"num_deleted":"0","num_feature":"30","num_nodes":"15","size_leaf_vector":"1"}},{"base_weights":[1.8610877E-4,-1.8513989E-2,3.950726E-2,-3.7560154E-2,-3.5735916E-3,2.8320806E-2,6.8033464E-2,-5.7457533E-4,-2.9604643E-4,-1.2517595E-4,4.6625224E-5,1.8258655E-4,3.8256822E-4,1.6505991E-3,6.471977E-4],"categories":[],"categories_nodes":[],"categories_segments":[],"categories_sizes":[],"default_left":[0,0,0,0,0,0,0,0,0,0,0,0,0,0,0],"id":72,"left_children":[1,3,5,7,9,11,13,-1,-1,-1,-1,-1,-1,-1,-1],"loss_changes":[3.817799E1,1.001258E1,5.338011E0,2.4467907E0,1.4527092E0,1.2012348E0,1.5046234E0,0E0,0E0,0E0,0E0,0E0,0E0,0E0,0E0],"parents":[2147483647,0,0,1,1,2,2,3,3,4,4,5,5,6,6],"right_children":[2,4,6,8,10,12,14,-1,-1,-1,-1,-1,-1,-1,-1],"split_conditions":[4.0094894E-1,3.1672597E-1,4.9822056E-1,2.5148278E-1,3.5349935E-1,4.3060493E-1,4.545454E-2,-5.7457533E-4,-2.9604643E-4,-1.2517595E-4,4.6625224E-5,1.8258655E-4,3.8256822E-4,1.6505991E-3,6.471977E-4],"split_indices":[29,26,29,29,29,26,28,0,0,0,0,0,0,0,0],"split_type":[0,0,0,0,0,0,0,0,0,0,0,0,0,0,0],"sum_hessian":[5.1919E4,3.5186E4,1.6733E4,1.5467E4,1.9719E4,1.2021E4,4.712E3,4.416E3,1.1051E4,9.453E3,1.0266E4,5.974E3,6.047E3,1.54E2,4.558E3],"tree_param":{"num_deleted":"0","num_feature":"30","num_nodes":"15","size_leaf_vector":"1"}},{"base_weights":[8.9451874E-5,-1.8355967E-2,3.700588E-2,-3.565463E-2,-2.0474028E-3,2.4530046E-2,6.1951123E-2,-5.7019613E-4,-2.9119148E-4,-1.1763117E-4,5.9590726E-5,1.7752194E-4,3.5695801E-4,1.5776522E-3,5.922352E-4],"categories":[],"categories_nodes":[],"categories_segments":[],"categories_sizes":[],"default_left":[0,0,0,0,0,0,0,0,0,0,0,0,0,0,0],"id":73,"left_children":[1,3,5,7,9,11,13,-1,-1,-1,-1,-1,-1,-1,-1],"loss_changes":[3.535094E1,9.766232E0,5.381529E0,2.3439903E0,1.3862634E0,8.721061E-1,1.4975567E0,0E0,0E0,0E0,0E0,0E0,0E0,0E0,0E0],"parents":[2147483647,0,0,1,1,2,2,3,3,4,4,5,5,6,6],"right_children":[2,4,6,8,10,12,14,-1,-1,-1,-1,-1,-1,-1,-1],"split_conditions":[3.9857644E-1,3.2265717E-1,4.8279947E-1,2.4436535E-1,3.5587186E-1,4.3890864E-1,4.545454E-2,-5.7019613E-4,-2.9119148E-4,-1.1763117E-4,5.9590726E-5,1.7752194E-4,3.5695801E-4,1.5776522E-3,5.922352E-4],"split_indices":[26,26,26,26,20,2,28,0,0,0,0,0,0,0,0],"split_type":[0,0,0,0,0,0,0,0,0,0,0,0,0,0,0],"sum_hessian":[5.1913E4,3.4617E4,1.7296E4,1.6798E4,1.7819E4,1.1531E4,5.765E3,3.933E3,1.2865E4,8.05E3,9.769E3,7.177E3,4.354E3,1.58E2,5.607E3],"tree_param":{"num_deleted":"0","num_feature":"30","num_nodes":"15","size_leaf_vector":"1"}},{"base_weights":[3.484592E-4,-2.4825722E-2,2.8248597E-2,-4.6099756E-2,-1.4419243E-2,1.4233573E-2,5.503432E-2,-7.2370394E-4,-4.032411E-4,-2.3363618E-4,-6.36082E-5,6.298633E-5,2.5475878E-4,4.623727E-4,8.559375E-4],"categories":[],"categories_nodes":[],"categories_segments":[],"categories_sizes":[],"default_left":[0,0,0,0,0,0,0,0,0,0,0,0,0,0,0],"id":74,"left_children":[1,3,5,7,9,11,13,-1,-1,-1,-1,-1,-1,-1,-1],"loss_changes":[3.6320602E1,6.01754E0,9.20709E0,1.3518791E0,1.3156993E0,1.4364293E0,2.2609577E0,0E0,0E0,0E0,0E0,0E0,0E0,0E0,0E0],"parents":[2147483647,0,0,1,1,2,2,3,3,4,4,5,5,6,6],"right_children":[2,4,6,8,10,12,14,-1,-1,-1,-1,-1,-1,-1,-1],"split_conditions":[3.66548E-1,2.8232497E-1,4.5432973E-1,2.1708183E-1,3.333333E-1,4.0688014E-1,5.6346375E-1,-7.2370394E-4,-4.032411E-4,-2.3363618E-4,-6.36082E-5,6.298633E-5,2.5475878E-4,4.623727E-4,8.559375E-4],"split_indices":[29,26,29,29,2,2,29,0,0,0,0,0,0,0,0],"split_type":[0,0,0,0,0,0,0,0,0,0,0,0,0,0,0],"sum_hessian":[5.171E4,2.7183E4,2.4527E4,8.928E3,1.8255E4,1.6103E4,8.424E3,1.607E3,7.321E3,8.651E3,9.604E3,9.441E3,6.662E3,6.543E3,1.881E3],"tree_param":{"num_deleted":"0","num_feature":"30","num_nodes":"15","size_leaf_vector":"1"}},{"base_weights":[-1.7501156E-4,-2.1327315E-2,3.0691253E-2,-3.9419957E-2,-8.85553E-3,1.8636711E-2,5.8444053E-2,-6.9506676E-4,-3.5332987E-4,-1.888658E-4,-2.0695745E-5,1.0598126E-4,3.1045466E-4,4.335424E-4,7.331331E-4],"categories":[],"categories_nodes":[],"categories_segments":[],"categories_sizes":[],"default_left":[0,0,0,0,0,0,0,0,0,0,0,0,0,0,0],"id":75,"left_children":[1,3,5,7,9,11,13,-1,-1,-1,-1,-1,-1,-1,-1],"loss_changes":[3.37774E1,6.9265785E0,7.0367813E0,1.5377846E0,1.2370018E0,1.4627867E0,1.4260845E0,0E0,0E0,0E0,0E0,0E0,0E0,0E0,0E0],"parents":[2147483647,0,0,1,1,2,2,3,3,4,4,5,5,6,6],"right_children":[2,4,6,8,10,12,14,-1,-1,-1,-1,-1,-1,-1,-1],"split_conditions":[3.8078284E-1,3.0130488E-1,4.7330958E-1,2.1589561E-1,3.3451957E-1,4.2467374E-1,5.1245546E-1,-6.9506676E-4,-3.5332987E-4,-1.888658E-4,-2.0695745E-5,1.0598126E-4,3.1045466E-4,4.335424E-4,7.331331E-4],"split_indices":[20,23,23,2,17,2,20,0,0,0,0,0,0,0,0],"split_type":[0,0,0,0,0,0,0,0,0,0,0,0,0,0,0],"sum_hessian":[5.1733E4,3.0697E4,2.1036E4,1.2525E4,1.8172E4,1.4667E4,6.369E3,1.496E3,1.1029E4,7.332E3,1.084E4,8.902E3,5.765E3,3.163E3,3.206E3],"tree_param":{"num_deleted":"0","num_feature":"30","num_nodes":"15","size_leaf_vector":"1"}},{"base_weights":[1.1427308E-5,-2.3215966E-2,2.7942108E-2,-4.848286E-2,-1.4623746E-2,1.3386017E-2,4.889338E-2,-6.796649E-4,-3.999566E-4,-2.5648915E-4,-7.383327E-5,6.341488E-5,2.3074914E-4,3.912123E-4,7.4740266E-4],"categories":[],"categories_nodes":[],"categories_segments":[],"categories_sizes":[],"default_left":[0,0,0,0,0,0,0,0,0,0,0,0,0,0,0],"id":76,"left_children":[1,3,5,7,9,11,13,-1,-1,-1,-1,-1,-1,-1,-1],"loss_changes":[3.3758713E1,6.1670647E0,7.2045345E0,1.1893711E0,1.6922998E0,9.514468E-1,2.4433098E0,0E0,0E0,0E0,0E0,0E0,0E0,0E0,0E0],"parents":[2147483647,0,0,1,1,2,2,3,3,4,4,5,5,6,6],"right_children":[2,4,6,8,10,12,14,-1,-1,-1,-1,-1,-1,-1,-1],"split_conditions":[3.7129295E-1,2.6927638E-1,4.4483984E-1,2.2419925E-1,3.1672597E-1,4.056939E-1,5.3973895E-1,-6.796649E-4,-3.999566E-4,-2.5648915E-4,-7.383327E-5,6.341488E-5,2.3074914E-4,3.912123E-4,7.4740266E-4],"split_indices":[26,26,26,26,11,2,26,0,0,0,0,0,0,0,0],"split_type":[0,0,0,0,0,0,0,0,0,0,0,0,0,0,0],"sum_hessian":[5.2034E4,2.8409E4,2.3625E4,7.208E3,2.1201E4,1.3941E4,9.684E3,2.185E3,5.023E3,8.403E3,1.2798E4,8.073E3,5.868E3,7.029E3,2.655E3],"tree_param":{"num_deleted":"0","num_feature":"30","num_nodes":"15","size_leaf_vector":"1"}},{"base_weights":[2.802685E-4,-2.4820851E-2,2.7116166E-2,-4.526797E-2,-1.4928639E-2,1.091193E-2,4.7405586E-2,-7.283951E-4,-4.015484E-4,-2.4418664E-4,-6.882676E-5,4.163263E-5,2.1502991E-4,3.6507007E-4,6.853359E-4],"categories":[],"categories_nodes":[],"categories_segments":[],"categories_sizes":[],"default_left":[0,0,0,0,0,0,0,0,0,0,0,0,0,0,0],"id":77,"left_children":[1,3,5,7,9,11,13,-1,-1,-1,-1,-1,-1,-1,-1],"loss_changes":[3.4767757E1,5.393589E0,8.200764E0,1.222868E0,1.3723378E0,9.912765E-1,2.5479164E0,0E0,0E0,0E0,0E0,0E0,0E0,0E0,0E0],"parents":[2147483647,0,0,1,1,2,2,3,3,4,4,5,5,6,6],"right_children":[2,4,6,8,10,12,14,-1,-1,-1,-1,-1,-1,-1,-1],"split_conditions":[3.6536175E-1,2.7995253E-1,4.3416363E-1,2.1589561E-1,3.274021E-1,4.0332144E-1,5.0296557E-1,-7.283951E-4,-4.015484E-4,-2.4418664E-4,-6.882676E-5,4.163263E-5,2.1502991E-4,3.6507007E-4,6.853359E-4],"split_indices":[29,29,29,8,14,2,14,0,0,0,0,0,0,0,0],"split_type":[0,0,0,0,0,0,0,0,0,0,0,0,0,0,0],"sum_hessian":[5.1612E4,2.6668E4,2.4944E4,8.694E3,1.7974E4,1.3869E4,1.1075E4,1.358E3,7.336E3,8.246E3,9.728E3,8.472E3,5.397E3,7.308E3,3.767E3],"tree_param":{"num_deleted":"0","num_feature":"30","num_nodes":"15","size_leaf_vector":"1"}},{"base_weights":[1.2591713E-4,-1.8379774E-2,3.2014083E-2,-3.9472055E-2,-7.924607E-3,2.1916075E-2,5.9833314E-2,-5.50724E-4,-3.154899E-4,-1.6968402E-4,8.5933925E-6,1.3224826E-4,3.339287E-4,5.4592884E-4,1.0111517E-3],"categories":[],"categories_nodes":[],"categories_segments":[],"categories_sizes":[],"default_left":[0,0,0,0,0,0,0,0,0,0,0,0,0,0,0],"id":78,"left_children":[1,3,5,7,9,11,13,-1,-1,-1,-1,-1,-1,-1,-1],"loss_changes":[3.0439182E1,7.197569E0,5.3198566E0,1.3352718E0,1.7337179E0,1.385952E0,1.0856724E0,0E0,0E0,0E0,0E0,0E0,0E0,0E0,0E0],"parents":[2147483647,0,0,1,1,2,2,3,3,4,4,5,5,6,6],"right_children":[2,4,6,8,10,12,14,-1,-1,-1,-1,-1,-1,-1,-1],"split_conditions":[3.902728E-1,2.9181492E-1,4.9228936E-1,2.5029653E-1,3.4756815E-1,4.2823243E-1,6.120996E-1,-5.50724E-4,-3.154899E-4,-1.6968402E-4,8.5933925E-6,1.3224826E-4,3.339287E-4,5.4592884E-4,1.0111517E-3],"split_indices":[20,20,20,5,5,5,17,0,0,0,0,0,0,0,0],"split_type":[0,0,0,0,0,0,0,0,0,0,0,0,0,0,0],"sum_hessian":[5.158E4,3.2639E4,1.8941E4,1.0816E4,2.1823E4,1.3898E4,5.043E3,3.641E3,7.175E3,1.0752E4,1.1071E4,7.91E3,5.988E3,4.477E3,5.66E2],"tree_param":{"num_deleted":"0","num_feature":"30","num_nodes":"15","size_leaf_vector":"1"}},{"base_weights":[-2.4789353E-4,-2.6407069E-2,2.4753552E-2,-4.5563273E-2,-1.6700933E-2,1.13511E-2,4.973943E-2,-5.7289837E-4,-3.3617608E-4,-2.2459966E-4,-4.0674797E-5,3.6341382E-5,2.1141948E-4,4.353991E-4,9.048555E-4],"categories":[],"categories_nodes":[],"categories_segments":[],"categories_sizes":[],"default_left":[0,0,0,0,0,0,0,0,0,0,0,0,0,0,0],"id":79,"left_children":[1,3,5,7,9,11,13,-1,-1,-1,-1,-1,-1,-1,-1],"loss_changes":[3.390098E1,4.7091007E0,8.874884E0,1.1912899E0,1.2232361E0,1.3034084E0,2.3334255E0,0E0,0E0,0E0,0E0,0E0,0E0,0E0,0E0],"parents":[2147483647,0,0,1,1,2,2,3,3,4,4,5,5,6,6],"right_children":[2,4,6,8,10,12,14,-1,-1,-1,-1,-1,-1,-1,-1],"split_conditions":[3.5943055E-1,2.7758008E-1,4.4721228E-1,2.6690388E-1,3.5824436E-1,3.9857644E-1,5.8956105E-1,-5.7289837E-4,-3.3617608E-4,-2.2459966E-4,-4.0674797E-5,3.6341382E-5,2.1141948E-4,4.353991E-4,9.048555E-4],"split_indices":[29,29,29,2,2,20,29,0,0,0,0,0,0,0,0],"split_type":[0,0,0,0,0,0,0,0,0,0,0,0,0,0,0],"sum_hessian":[5.1833E4,2.533E4,2.6503E4,8.517E3,1.6813E4,1.7251E4,9.252E3,4.296E3,4.221E3,1.1548E4,5.265E3,9.648E3,7.603E3,8.032E3,1.22E3],"tree_param":{"num_deleted":"0","num_feature":"30","num_nodes":"15","size_leaf_vector":"1"}},{"base_weights":[-4.4130432E-4,-2.3986366E-2,2.4802465E-2,-4.251348E-2,-1.4498117E-2,1.3204604E-2,5.1010214E-2,-6.7329954E-4,-3.7989675E-4,-2.1391429E-4,-4.923617E-5,4.8994752E-5,2.3165283E-4,3.7775337E-4,6.781916E-4],"categories":[],"categories_nodes":[],"categories_segments":[],"categories_sizes":[],"default_left":[0,0,0,0,0,0,0,0,0,0,0,0,0,0,0],"id":80,"left_children":[1,3,5,7,9,11,13,-1,-1,-1,-1,-1,-1,-1,-1],"loss_changes":[3.0762014E1,4.7068605E0,7.5911818E0,1.0155716E0,1.1688204E0,1.4323475E0,1.7019596E0,0E0,0E0,0E0,0E0,0E0,0E0,0E0,0E0],"parents":[2147483647,0,0,1,1,2,2,3,3,4,4,5,5,6,6],"right_children":[2,4,6,8,10,12,14,-1,-1,-1,-1,-1,-1,-1,-1],"split_conditions":[3.6536175E-1,2.8351128E-1,4.6263337E-1,2.1589561E-1,3.451957E-1,4.0332144E-1,5.1245546E-1,-6.7329954E-4,-3.7989675E-4,-2.1391429E-4,-4.923617E-5,4.8994752E-5,2.3165283E-4,3.7775337E-4,6.781916E-4],"split_indices":[23,20,23,2,11,2,20,0,0,0,0,0,0,0,0],"split_type":[0,0,0,0,0,0,0,0,0,0,0,0,0,0,0],"sum_hessian":[5.1754E4,2.6778E4,2.4976E4,9.068E3,1.771E4,1.7315E4,7.661E3,1.396E3,7.672E3,1.0296E4,7.414E3,9.443E3,7.872E3,4.288E3,3.373E3],"tree_param":{"num_deleted":"0","num_feature":"30","num_nodes":"15","size_leaf_vector":"1"}},{"base_weights":[-8.815725E-5,-2.5488352E-2,2.4020782E-2,-4.149528E-2,-1.4609371E-2,9.673523E-3,4.6084117E-2,-5.777562E-4,-3.2914814E-4,-2.1661608E-4,-6.901728E-5,3.474986E-5,1.9904062E-4,3.586899E-4,7.091117E-4],"categories":[],"categories_nodes":[],"categories_segments":[],"categories_sizes":[],"default_left":[0,0,0,0,0,0,0,0,0,0,0,0,0,0,0],"id":81,"left_children":[1,3,5,7,9,11,13,-1,-1,-1,-1,-1,-1,-1,-1],"loss_changes":[3.1673704E1,4.385433E0,8.399484E0,1.4217091E0,8.150296E-1,1.0196973E0,2.6492176E0,0E0,0E0,0E0,0E0,0E0,0E0,0E0,0E0],"parents":[2147483647,0,0,1,1,2,2,3,3,4,4,5,5,6,6],"right_children":[2,4,6,8,10,12,14,-1,-1,-1,-1,-1,-1,-1,-1],"split_conditions":[3.5943055E-1,2.9181492E-1,4.3772238E-1,2.5029653E-1,3.4045076E-1,4.0332144E-1,5.290628E-1,-5.777562E-4,-3.2914814E-4,-2.1661608E-4,-6.901728E-5,3.474986E-5,1.9904062E-4,3.586899E-4,7.091117E-4],"split_indices":[29,20,29,5,8,8,29,0,0,0,0,0,0,0,0],"split_type":[0,0,0,0,0,0,0,0,0,0,0,0,0,0,0],"sum_hessian":[5.1721E4,2.5186E4,2.6535E4,1.019E4,1.4996E4,1.608E4,1.0455E4,3.515E3,6.675E3,7.83E3,7.166E3,1.0014E4,6.066E3,7.409E3,3.046E3],"tree_param":{"num_deleted":"0","num_feature":"30","num_nodes":"15","size_leaf_vector":"1"}},{"base_weights":[-1.0956994E-4,-1.5544291E-2,3.8528346E-2,-3.1613324E-2,5.0217466E-4,3.0551981E-2,6.818072E-2,-4.9045094E-4,-2.3075861E-4,-4.077921E-5,1.2953319E-4,2.0039763E-4,3.8224595E-4,1.6816623E-3,6.390477E-4],"categories":[],"categories_nodes":[],"categories_segments":[],"categories_sizes":[],"default_left":[0,0,0,0,0,0,0,0,0,0,0,0,0,0,0],"id":82,"left_children":[1,3,5,7,9,11,13,-1,-1,-1,-1,-1,-1,-1,-1],"loss_changes":[3.0916779E1,9.551854E0,3.4979115E0,2.7534351E0,1.0571134E0,9.3992805E-1,1.3299961E0,0E0,0E0,0E0,0E0,0E0,0E0,